{"learner":{"attributes":{"scikit_learn":"{\"_estimator_type\": \"regressor\"}"},"feature_names":["Carrier","City","Weight","Year","Month","Day","DayOfWeek"],"feature_types":["c","c","float","c","c","c","c"],"gradient_booster":{"model":{"gbtree_model_param":{"num_parallel_tree":"1","num_trees":"100"},"iteration_indptr":[0,1,2,3,4,5,6,7,8,9,10,11,12,13,14,15,16,17,18,19,20,21,22,23,24,25,26,27,28,29,30,31,32,33,34,35,36,37,38,39,40,41,42,43,44,45,46,47,48,49,50,51,52,53,54,55,56,57,58,59,60,61,62,63,64,65,66,67,68,69,70,71,72,73,74,75,76,77,78,79,80,81,82,83,84,85,86,87,88,89,90,91,92,93,94,95,96,97,98,99,100],"tree_info":[0,0,0,0,0,0,0,0,0,0,0,0,0,0,0,0,0,0,0,0,0,0,0,0,0,0,0,0,0,0,0,0,0,0,0,0,0,0,0,0,0,0,0,0,0,0,0,0,0,0,0,0,0,0,0,0,0,0,0,0,0,0,0,0,0,0,0,0,0,0,0,0,0,0,0,0,0,0,0,0,0,0,0,0,0,0,0,0,0,0,0,0,0,0,0,0,0,0,0,0],"trees":[{"base_weights":[8.101633E-9,2.2831061E-1,-1.10204E0,3.734554E-1,-2.5504234E-1,-7.904049E-1,-1.5296386E0,7.960344E-1,2.3581977E-1,6.392297E-2,-7.846973E-1,-5.730542E-1,-9.960809E-1,-9.025989E-1,-1.7083677E0,1.0441167E0,-3.0760643E-1,5.667802E-1,7.342409E-2,1.1684786E0,-1.5470871E-1,-1.3534375E0,-6.2973917E-1,-3.9673635E-1,-8.302225E-1,-7.92368E-1,-1.185102E0,1.7928488E0,-1.3031548E0,-1.4232249E0,-1.7821612E0,1.3915392E0,7.477671E-1,5.34186E-1,-8.4709054E-1,9.4946593E-1,3.6548635E-1,1.2886707E0,4.031889E-2,3.9853892E0,3.4934044E-1,1.4557959E-1,-3.69529E-1,-8.8258475E-1,-1.7529246E0,4.8472735E-1,-7.0073926E-1,-2.1165437E-1,-6.732388E-1,-6.220439E-1,-9.724033E-1,-6.807979E-1,-1.072044E0,-8.659629E-1,-1.276204E0,6.627405E-1,-1.0210458E0,-1.2313724E0,-5.3625053E-1,-1.2757397E0,-1.5052959E0,-1.5888553E0,-5.372028E-1,5.08179E-1,2.5248724E-1,4.1624543E-1,1.6786243E-1,2.8584236E-1,5.742218E-2,2.4451368E-2,-4.8763105E-1,4.0405473E-1,2.372504E-1,2.0706737E-1,7.572424E-2,1.6155664E0,7.243352E-2,8.6175196E-2,-3.2839518E-2,2.730071E-1,1.8785446E0,2.4331045E-1,-1.9037178E-1,9.1291785E-2,-6.019327E-2,-1.2924015E-2,-1.857545E-1,2.3328747E-4,-3.080617E-1,-4.2402446E-1,-5.3661937E-1,4.225143E-1,-2.2895296E-1,-1.5541464E-1,-2.4995737E-1,-7.277428E-2,1.0792966E0,-1.2561153E-1,-2.9881734E-1,-1.4981784E-1,-2.4852827E-1,-2.6884666E-1,-4.1778603E-1,-1.00968175E-1,-2.3835328E-1,-2.847717E-1,-3.6707887E-1,8.585236E-2,-2.824742E-1,-3.30328E-1,-4.3206334E-1,-3.3898437E-1,5.7558175E-2,-3.1901622E-1,-4.0735677E-1,-2.4839085E-1,-4.0879607E-1,-4.3437365E-1,-4.7549173E-1,-2.3261599E-1,-5.371999E-1],"categories":[3,5,7,9,11,12,15,19,23,25,26,28,4,7,11,12,23,1,2,3,4,5,6,7,8,9,11,12,13,15,16,17,18,19,20,22,23,24,25,26,27,28,29,0,6,8,10,20,27,3,15,25,28,1,2,4,5,6,7,9,10,4,11,0,1,5,6,0,1,2,3,4,5,6,8,9,10,11,12,13,15,16,18,19,20,21,22,23,24,25,26,27,28,30,4,7,9,10,12,14,15,16,17,18,20,21,22,23,24,2,3,7,10,11,12,13,15,16,17,18,19,20,22,24,25,26,27,0,1,2,3,4,5,6,7,8,9,10,11,12,13,14,15,16,17,18,19,20,21,22,23,24,25,26,27,28,30,7,23,3,4,10,11,12,13,14,15,16,17,18,20,21,22,23,24,25,27,28,1,1,2,7,9,10,11,13,14,15,16,17,18,19,22,23,24,25,26,28,29,30,0,1,2,3,4,5,6,7,8,9,10,11,12,13,14,15,17,18,19,20,21,22,23,24,25,26,27,28,29,30,0,1,2,3,4,5,6,7,8,9,10,11,12,14,15,17,18,19,20,21,22,23,24,25,26,27,28,29,0,2,5,6,1,6,8,10,20,27,1,2,3,4,5,7,10,2,0,1,4,6,9,10,11,0,1,4,6,7,8,11,11,12,23,0,1,5,6,5,6,14,16,17,18,20,21,23,24,25,27,28,29,30,0,4,5,9,10,11,0,1,2,3,4,5,6,9,10,11,10,12,13,14,15,17,18,19,20,21,22,24,25,26,29,0,0,1,2,4,0,1,2,4,0,1,2,3,4,5,7,8,9,10,11,0,1,2,3,4,5,7,9,10,11,12,13,14,15,17,18,19,20,21,23,24,25,26,27,28,29,0,1,5,6,1,2,21,22,8,9,10,11,13,15,19,21,22,24,25,26,27,28,0,1,2,3,4,5,6,7,8,10,11,12,14,15,16,19,20,21,24,25,26,27,28,29,8,9,10,11,1,0,1,4,5,6,9,10,11,2,0,2,7,9,10,0,2,4,5,6,0,1,4,8,9,14,21,28,29,2,2,7,10,11,12,13,15,16,17,18,19,20,22,24,25,26,27,2,3,12,15,16,17,18,19,24,25,2,3,4,6,7,8,10,11,12,13,14,16,17,20,21,23,24,1,2,4,5,6,7,8,9,11,12,13,15,16,17,18,19,22,23,24,25,26,28,29,4,5,9,10,1,3],"categories_nodes":[0,1,2,3,4,5,6,7,8,9,11,12,13,14,15,16,17,18,19,20,21,22,23,24,25,26,27,28,29,30,31,32,33,34,35,36,37,38,40,41,42,43,44,45,46,48,49,50,51,52,53,54,57,59,60,61],"categories_segments":[0,12,13,17,43,49,53,61,63,67,94,109,127,157,159,178,179,200,230,258,262,263,268,275,276,283,290,292,293,297,312,318,328,343,344,348,352,363,389,393,397,411,435,439,440,448,449,454,459,468,469,486,496,513,536,540],"categories_sizes":[12,1,4,26,6,4,8,2,4,27,15,18,30,2,19,1,21,30,28,4,1,5,7,1,7,7,2,1,4,15,6,10,15,1,4,4,11,26,4,4,14,24,4,1,8,1,5,5,9,1,17,10,17,23,4,2],"default_left":[1,1,1,1,1,1,1,1,1,1,0,1,1,1,1,1,1,1,1,1,1,1,1,1,1,1,1,1,1,1,1,1,1,1,1,1,1,1,1,0,1,1,1,1,1,1,1,0,1,1,1,1,1,1,1,0,0,1,0,1,1,1,0,0,0,0,0,0,0,0,0,0,0,0,0,0,0,0,0,0,0,0,0,0,0,0,0,0,0,0,0,0,0,0,0,0,0,0,0,0,0,0,0,0,0,0,0,0,0,0,0,0,0,0,0,0,0,0,0,0,0],"id":0,"left_children":[1,3,5,7,9,11,13,15,17,19,21,23,25,27,29,31,33,35,37,39,41,43,45,47,49,51,53,55,57,59,61,63,65,67,69,71,73,75,77,79,81,83,85,87,89,91,93,95,97,99,101,103,105,107,109,-1,111,113,-1,115,117,119,-1,-1,-1,-1,-1,-1,-1,-1,-1,-1,-1,-1,-1,-1,-1,-1,-1,-1,-1,-1,-1,-1,-1,-1,-1,-1,-1,-1,-1,-1,-1,-1,-1,-1,-1,-1,-1,-1,-1,-1,-1,-1,-1,-1,-1,-1,-1,-1,-1,-1,-1,-1,-1,-1,-1,-1,-1,-1,-1],"loss_changes":[1.0365471E5,2.3942219E4,9.420039E3,1.526482E4,1.3314842E4,1.8277246E3,3.3385938E3,1.7654816E4,1.0640538E4,1.1879357E4,2.6098496E3,9.014136E2,8.081504E2,7.142243E3,4.8546094E2,5.419418E3,5.3751235E3,5.019615E3,5.343066E3,1.8753473E4,2.6490112E3,1.1913799E3,1.842581E3,6.0373E2,2.3879199E2,3.149248E2,3.157168E2,1.0049617E3,1.9799219E2,5.585254E1,2.746875E1,4.0284297E3,3.4205898E3,6.631935E2,5.2134614E3,1.4148828E3,1.5679419E3,1.5108124E4,4.7820044E3,1.2812842E4,2.8614888E3,9.4121765E2,1.9509744E3,3.7128638E2,3.9168945E1,1.6089948E3,5.29208E2,8.3378156E2,3.8832104E2,8.273999E1,1.526748E2,2.8290234E2,5.2494873E1,2.1136609E2,2.4181152E2,0E0,1.4878571E1,1.0517432E2,0E0,6.55376E1,1.1700684E1,1.2764673E2,0E0,0E0,0E0,0E0,0E0,0E0,0E0,0E0,0E0,0E0,0E0,0E0,0E0,0E0,0E0,0E0,0E0,0E0,0E0,0E0,0E0,0E0,0E0,0E0,0E0,0E0,0E0,0E0,0E0,0E0,0E0,0E0,0E0,0E0,0E0,0E0,0E0,0E0,0E0,0E0,0E0,0E0,0E0,0E0,0E0,0E0,0E0,0E0,0E0,0E0,0E0,0E0,0E0,0E0,0E0,0E0,0E0,0E0,0E0],"parents":[2147483647,0,0,1,1,2,2,3,3,4,4,5,5,6,6,7,7,8,8,9,9,10,10,11,11,12,12,13,13,14,14,15,15,16,16,17,17,18,18,19,19,20,20,21,21,22,22,23,23,24,24,25,25,26,26,27,27,28,28,29,29,30,30,31,31,32,32,33,33,34,34,35,35,36,36,37,37,38,38,39,39,40,40,41,41,42,42,43,43,44,44,45,45,46,46,47,47,48,48,49,49,50,50,51,51,52,52,53,53,54,54,56,56,57,57,59,59,60,60,61,61],"right_children":[2,4,6,8,10,12,14,16,18,20,22,24,26,28,30,32,34,36,38,40,42,44,46,48,50,52,54,56,58,60,62,64,66,68,70,72,74,76,78,80,82,84,86,88,90,92,94,96,98,100,102,104,106,108,110,-1,112,114,-1,116,118,120,-1,-1,-1,-1,-1,-1,-1,-1,-1,-1,-1,-1,-1,-1,-1,-1,-1,-1,-1,-1,-1,-1,-1,-1,-1,-1,-1,-1,-1,-1,-1,-1,-1,-1,-1,-1,-1,-1,-1,-1,-1,-1,-1,-1,-1,-1,-1,-1,-1,-1,-1,-1,-1,-1,-1,-1,-1,-1,-1],"split_conditions":[NaN,NaN,NaN,NaN,NaN,NaN,NaN,NaN,NaN,NaN,1.26E0,NaN,NaN,NaN,NaN,NaN,NaN,NaN,NaN,NaN,NaN,NaN,NaN,NaN,NaN,NaN,NaN,NaN,NaN,NaN,NaN,NaN,NaN,NaN,NaN,NaN,NaN,NaN,NaN,1E0,NaN,NaN,NaN,NaN,NaN,NaN,NaN,2.5E1,NaN,NaN,NaN,NaN,NaN,NaN,NaN,6.627405E-1,7.298E0,NaN,-5.3625053E-1,NaN,NaN,NaN,-5.372028E-1,5.08179E-1,2.5248724E-1,4.1624543E-1,1.6786243E-1,2.8584236E-1,5.742218E-2,2.4451368E-2,-4.8763105E-1,4.0405473E-1,2.372504E-1,2.0706737E-1,7.572424E-2,1.6155664E0,7.243352E-2,8.6175196E-2,-3.2839518E-2,2.730071E-1,1.8785446E0,2.4331045E-1,-1.9037178E-1,9.1291785E-2,-6.019327E-2,-1.2924015E-2,-1.857545E-1,2.3328747E-4,-3.080617E-1,-4.2402446E-1,-5.3661937E-1,4.225143E-1,-2.2895296E-1,-1.5541464E-1,-2.4995737E-1,-7.277428E-2,1.0792966E0,-1.2561153E-1,-2.9881734E-1,-1.4981784E-1,-2.4852827E-1,-2.6884666E-1,-4.1778603E-1,-1.00968175E-1,-2.3835328E-1,-2.847717E-1,-3.6707887E-1,8.585236E-2,-2.824742E-1,-3.30328E-1,-4.3206334E-1,-3.3898437E-1,5.7558175E-2,-3.1901622E-1,-4.0735677E-1,-2.4839085E-1,-4.0879607E-1,-4.3437365E-1,-4.7549173E-1,-2.3261599E-1,-5.371999E-1],"split_indices":[0,1,0,0,0,0,4,4,6,5,2,5,5,5,0,5,3,5,5,0,6,3,0,4,3,4,4,0,0,6,5,4,4,5,0,1,1,4,0,2,6,0,5,5,4,3,4,2,3,4,4,5,3,5,5,0,2,5,0,5,4,1,0,0,0,0,0,0,0,0,0,0,0,0,0,0,0,0,0,0,0,0,0,0,0,0,0,0,0,0,0,0,0,0,0,0,0,0,0,0,0,0,0,0,0,0,0,0,0,0,0,0,0,0,0,0,0,0,0,0,0],"split_type":[1,1,1,1,1,1,1,1,1,1,0,1,1,1,1,1,1,1,1,1,1,1,1,1,1,1,1,1,1,1,1,1,1,1,1,1,1,1,1,0,1,1,1,1,1,1,1,0,1,1,1,1,1,1,1,0,0,1,0,1,1,1,0,0,0,0,0,0,0,0,0,0,0,0,0,0,0,0,0,0,0,0,0,0,0,0,0,0,0,0,0,0,0,0,0,0,0,0,0,0,0,0,0,0,0,0,0,0,0,0,0,0,0,0,0,0,0,0,0,0,0],"sum_hessian":[4.11968E5,3.41268E5,7.07E4,2.62456E5,7.8812E4,4.0897E4,2.9803E4,6.448E4,1.97976E5,4.919E4,2.9622E4,1.9886E4,2.1011E4,6.612E3,2.3191E4,5.2646E4,1.1834E4,6.5166E4,1.3281E5,8.127E3,4.1063E4,6.341E3,2.3281E4,1.1799E4,8.087E3,1.0115E4,1.0896E4,8.55E2,5.757E3,4.772E3,1.8419E4,2.4233E4,2.8413E4,4.622E3,7.212E3,2.2461E4,4.2705E4,3.521E3,1.29289E5,1.83E3,6.297E3,1.7125E4,2.3938E4,2.912E3,3.429E3,1.394E3,2.1887E4,7.069E3,4.73E3,3.284E3,4.803E3,7.233E3,2.882E3,2.422E3,8.474E3,7.45E2,1.1E2,5.017E3,7.4E2,1.712E3,3.06E3,7.85E2,1.7634E4,1.5634E4,8.599E3,6.458E3,2.1955E4,2.08E3,2.542E3,3.289E3,3.923E3,6.406E3,1.6055E4,1.1028E4,3.1677E4,7.16E2,2.805E3,4.8814E4,8.0475E4,7.79E2,1.051E3,4.286E3,2.011E3,1.1742E4,5.383E3,1.0374E4,1.3564E4,4.09E2,2.503E3,3.31E2,3.098E3,8.01E2,5.93E2,9.201E3,1.2686E4,7.013E3,5.6E1,2.646E3,2.084E3,2.062E3,1.222E3,4.068E3,7.35E2,1.797E3,5.436E3,1.596E3,1.286E3,1.49E2,2.273E3,4.102E3,4.372E3,1.01E2,9E0,2.159E3,2.858E3,2.8E2,1.432E3,1.79E3,1.27E3,1.57E2,6.28E2],"tree_param":{"num_deleted":"0","num_feature":"7","num_nodes":"121","size_leaf_vector":"1"}},{"base_weights":[-4.2570664E-6,1.5983048E-1,-7.7151585E-1,3.4958553E-1,-7.353298E-2,-5.533434E-1,-1.0708731E0,6.15467E-1,1.7548306E-1,3.7368158E-1,-1.8454728E-1,-4.0116322E-1,-6.973494E-1,-5.874193E-1,-1.1857445E0,1.6353724E0,5.431158E-1,4.151735E-1,3.357192E-2,8.996745E-1,1.182148E-1,-6.4894264E-3,-3.7800017E-1,-2.816884E-1,-5.943235E-1,-4.9994344E-1,-7.9593223E-1,1.3005984E0,-9.078842E-1,-9.84355E-1,-1.2475839E0,2.0762599E0,5.549642E-1,7.7514005E-1,1.0470532E-1,5.765681E-1,9.89266E-2,5.676171E-1,-3.4935296E-2,1.2784399E0,2.9333553E-1,2.4150658E-1,-2.8391844E-1,4.6392998E-1,-1.8011758E-1,-2.1683618E-1,-5.7655764E-1,1.3699378E-1,-3.6883813E-1,-4.0559483E-1,-6.863907E-1,-1.3614197E-1,-5.774585E-1,-5.412183E-1,-8.46663E-1,4.641849E-1,-8.5437006E-1,-7.666529E-1,-1.0858481E0,-9.984616E-1,-1.2888828E-1,-1.1131781E0,-3.7605113E-1,7.6784E-1,3.327932E-1,3.214159E-1,3.1948548E-2,3.6678562E-1,1.5159872E-1,1.6739762E-1,-8.109179E-2,2.6914868E-1,6.775539E-2,1.18201055E-1,-6.178288E-2,2.7444237E-1,1.3429604E-1,4.2070627E-2,-6.1089605E-2,6.148996E-1,2.507819E-1,4.0972397E-1,7.210203E-2,2.506938E-1,4.816803E-2,-1.2141514E-2,-2.5330594E-1,8.2038754E-1,9.442561E-2,2.9408753E-2,-9.647761E-2,8.852849E-3,-1.1228768E-1,-1.9303708E-1,1.5494823E-1,1.1222694E-1,-1.4030746E-1,-1.13763094E-1,7.938206E-1,-8.2238294E-2,-1.818143E-1,-1.8747309E-1,-2.806229E-1,1.101717E-1,-1.6621576E-1,-1.01599246E-1,-1.9435579E-1,5.741835E-3,-1.8981275E-1,-2.1781963E-1,-2.948555E-1,-2.1064132E-1,-4.062704E-1,-1.2445583E-1,-2.4180557E-1,-2.9957333E-1,-3.755925E-1,-2.6481038E-1,-3.1873858E-1,2.1534385E-1,-2.3443548E-1,-1.6327289E-1,-3.7629616E-1],"categories":[3,5,7,9,11,12,15,19,23,25,26,28,0,4,7,11,12,23,1,2,3,4,5,6,7,9,11,12,13,15,16,17,18,19,20,23,24,25,26,27,28,29,0,1,2,5,6,3,15,25,28,1,2,4,5,6,7,9,10,11,0,1,2,3,4,5,6,7,8,9,11,12,13,14,15,16,17,18,19,20,21,22,23,24,25,26,27,28,29,0,5,10,11,12,14,15,18,19,20,21,22,23,24,25,26,27,28,29,30,0,1,3,4,5,6,7,8,9,10,11,12,15,17,18,19,20,21,22,23,25,26,27,28,29,1,2,4,5,9,10,11,4,7,10,12,14,15,16,17,18,20,21,22,23,24,1,2,3,4,7,10,11,12,13,14,15,16,17,18,19,20,21,22,24,25,26,27,0,1,2,3,4,5,6,7,8,9,10,11,12,13,14,15,16,17,18,19,20,21,22,23,24,25,26,27,28,30,7,23,10,11,12,15,16,19,20,21,22,23,24,25,28,29,1,0,1,4,0,1,2,5,6,4,5,9,10,11,12,15,16,17,18,19,21,23,24,25,28,30,7,10,13,14,15,17,22,24,25,28,1,2,3,4,5,7,8,9,10,11,12,15,17,18,19,20,21,22,23,24,25,26,27,28,29,0,6,16,20,0,1,2,5,6,0,1,2,4,5,7,9,10,15,25,28,0,1,4,5,6,7,8,11,11,12,2,3,6,7,10,11,21,23,24,25,27,28,5,6,14,16,17,18,20,21,23,24,25,27,28,29,30,0,3,4,5,6,7,9,10,11,0,1,2,3,4,5,6,7,8,9,10,13,14,15,17,18,20,21,22,23,24,25,26,27,28,29,30,0,1,2,4,5,6,10,11,1,4,5,7,9,10,11,0,1,2,3,4,5,8,9,10,2,16,27,1,2,3,4,5,6,7,8,9,11,13,15,16,17,18,21,23,24,25,27,28,30,2,5,7,9,11,0,1,2,3,4,8,9,10,11,0,1,2,3,4,5,6,7,9,10,1,3,5,7,8,9,10,11,0,1,4,5,11,0,1,2,3,4,5,6,7,8,9,10,11,12,13,14,15,17,18,19,20,21,22,23,24,25,26,27,28,30,0,1,3,4,5,6,7,9,10,11,12,13,14,15,18,19,20,21,22,24,25,27,28,5,6,7,8,9,10,11,13,14,15,16,17,18,19,21,22,23,24,25,26,28,29,0,0,1,2,5,8,19,26,29,4,7,10,15,16,0,6,28,29,0,1,4,5,6,7,9,10,11,1,2,4,7,10,11,12,13,15,16,17,18,19,22,24,25,26,27,2,3,11,12,13,14,15,16,17,18,19,25,0,0,1,3,5,6,23,0,4,5,6,7,9,11,12,13,14,15,16,17,18,19,20,21,22,23,24,25,3,4,8,9,11,12,13,14,16,17,22,23,27,30,1,3],"categories_nodes":[0,1,2,3,4,5,6,7,8,9,10,11,12,13,14,15,16,17,18,19,20,21,22,23,24,25,26,27,28,30,31,32,33,34,35,36,37,38,39,40,41,42,43,44,45,46,47,49,50,51,52,53,54,56,57,58,59,60,61],"categories_segments":[0,12,14,18,42,47,51,60,89,109,134,141,155,177,207,209,223,224,227,232,249,259,284,288,293,301,304,312,314,326,341,350,377,385,392,401,404,426,431,440,450,458,463,492,515,537,538,546,551,553,555,564,582,594,595,600,601,622,636],"categories_sizes":[12,2,4,24,5,4,9,29,20,25,7,14,22,30,2,14,1,3,5,17,10,25,4,5,8,3,8,2,12,15,9,27,8,7,9,3,22,5,9,10,8,5,29,23,22,1,8,5,2,2,9,18,12,1,5,1,21,14,2],"default_left":[1,1,1,1,1,1,1,1,1,1,1,1,1,1,1,1,1,1,1,1,1,1,1,1,1,1,1,1,1,0,1,1,1,1,1,1,1,1,1,1,1,1,1,1,1,1,1,1,0,1,1,1,1,1,1,0,1,1,1,1,1,1,0,0,0,0,0,0,0,0,0,0,0,0,0,0,0,0,0,0,0,0,0,0,0,0,0,0,0,0,0,0,0,0,0,0,0,0,0,0,0,0,0,0,0,0,0,0,0,0,0,0,0,0,0,0,0,0,0,0,0,0,0],"id":1,"left_children":[1,3,5,7,9,11,13,15,17,19,21,23,25,27,29,31,33,35,37,39,41,43,45,47,49,51,53,55,57,59,61,63,65,67,69,71,73,75,77,79,81,83,85,87,89,91,93,95,97,99,101,103,105,107,109,-1,111,113,115,117,119,121,-1,-1,-1,-1,-1,-1,-1,-1,-1,-1,-1,-1,-1,-1,-1,-1,-1,-1,-1,-1,-1,-1,-1,-1,-1,-1,-1,-1,-1,-1,-1,-1,-1,-1,-1,-1,-1,-1,-1,-1,-1,-1,-1,-1,-1,-1,-1,-1,-1,-1,-1,-1,-1,-1,-1,-1,-1,-1,-1,-1,-1],"loss_changes":[5.0801812E4,1.5112063E4,4.616996E3,8.71276E3,7.598525E3,8.9599414E2,1.6544688E3,5.4950176E3,3.8689255E3,4.0898262E3,4.2235015E3,4.5878027E2,4.085127E2,3.4644495E3,2.9867188E2,2.348625E3,7.074371E3,2.1589072E3,2.6139028E3,2.2847432E3,1.0158579E3,5.2150635E3,1.8804053E3,4.484522E2,1.3175977E2,1.9735046E2,1.8060254E2,4.4307935E2,1.2217334E2,6.819922E1,1.3261719E1,1.6338906E3,3.3130466E2,5.4901543E3,4.0917534E3,3.1487285E3,1.2859689E3,3.3791577E2,1.871269E3,2.088209E3,2.1717114E2,7.5402E2,6.559502E2,5.829831E3,1.8351888E3,1.2582754E3,1.9255488E3,3.038293E2,3.1909265E2,6.5558136E1,7.758716E1,2.5916672E2,9.678931E1,1.1946564E2,1.9116797E2,0E0,5.593361E0,3.7500732E1,3.0108887E1,4.0328125E1,5.1945858E1,6.2433777E1,0E0,0E0,0E0,0E0,0E0,0E0,0E0,0E0,0E0,0E0,0E0,0E0,0E0,0E0,0E0,0E0,0E0,0E0,0E0,0E0,0E0,0E0,0E0,0E0,0E0,0E0,0E0,0E0,0E0,0E0,0E0,0E0,0E0,0E0,0E0,0E0,0E0,0E0,0E0,0E0,0E0,0E0,0E0,0E0,0E0,0E0,0E0,0E0,0E0,0E0,0E0,0E0,0E0,0E0,0E0,0E0,0E0,0E0,0E0,0E0,0E0],"parents":[2147483647,0,0,1,1,2,2,3,3,4,4,5,5,6,6,7,7,8,8,9,9,10,10,11,11,12,12,13,13,14,14,15,15,16,16,17,17,18,18,19,19,20,20,21,21,22,22,23,23,24,24,25,25,26,26,27,27,28,28,29,29,30,30,31,31,32,32,33,33,34,34,35,35,36,36,37,37,38,38,39,39,40,40,41,41,42,42,43,43,44,44,45,45,46,46,47,47,48,48,49,49,50,50,51,51,52,52,53,53,54,54,56,56,57,57,58,58,59,59,60,60,61,61],"right_children":[2,4,6,8,10,12,14,16,18,20,22,24,26,28,30,32,34,36,38,40,42,44,46,48,50,52,54,56,58,60,62,64,66,68,70,72,74,76,78,80,82,84,86,88,90,92,94,96,98,100,102,104,106,108,110,-1,112,114,116,118,120,122,-1,-1,-1,-1,-1,-1,-1,-1,-1,-1,-1,-1,-1,-1,-1,-1,-1,-1,-1,-1,-1,-1,-1,-1,-1,-1,-1,-1,-1,-1,-1,-1,-1,-1,-1,-1,-1,-1,-1,-1,-1,-1,-1,-1,-1,-1,-1,-1,-1,-1,-1,-1,-1,-1,-1,-1,-1,-1,-1,-1,-1],"split_conditions":[NaN,NaN,NaN,NaN,NaN,NaN,NaN,NaN,NaN,NaN,NaN,NaN,NaN,NaN,NaN,NaN,NaN,NaN,NaN,NaN,NaN,NaN,NaN,NaN,NaN,NaN,NaN,NaN,NaN,1.9535E1,NaN,NaN,NaN,NaN,NaN,NaN,NaN,NaN,NaN,NaN,NaN,NaN,NaN,NaN,NaN,NaN,NaN,NaN,5E1,NaN,NaN,NaN,NaN,NaN,NaN,4.641849E-1,NaN,NaN,NaN,NaN,NaN,NaN,-3.7605113E-1,7.6784E-1,3.327932E-1,3.214159E-1,3.1948548E-2,3.6678562E-1,1.5159872E-1,1.6739762E-1,-8.109179E-2,2.6914868E-1,6.775539E-2,1.18201055E-1,-6.178288E-2,2.7444237E-1,1.3429604E-1,4.2070627E-2,-6.1089605E-2,6.148996E-1,2.507819E-1,4.0972397E-1,7.210203E-2,2.506938E-1,4.816803E-2,-1.2141514E-2,-2.5330594E-1,8.2038754E-1,9.442561E-2,2.9408753E-2,-9.647761E-2,8.852849E-3,-1.1228768E-1,-1.9303708E-1,1.5494823E-1,1.1222694E-1,-1.4030746E-1,-1.13763094E-1,7.938206E-1,-8.2238294E-2,-1.818143E-1,-1.8747309E-1,-2.806229E-1,1.101717E-1,-1.6621576E-1,-1.01599246E-1,-1.9435579E-1,5.741835E-3,-1.8981275E-1,-2.1781963E-1,-2.948555E-1,-2.1064132E-1,-4.062704E-1,-1.2445583E-1,-2.4180557E-1,-2.9957333E-1,-3.755925E-1,-2.6481038E-1,-3.1873858E-1,2.1534385E-1,-2.3443548E-1,-1.6327289E-1,-3.7629616E-1],"split_indices":[0,1,0,0,6,0,4,0,5,0,4,5,5,5,0,5,3,1,6,5,5,0,0,6,4,0,4,0,5,2,5,4,5,4,4,4,0,5,4,4,4,4,4,5,5,5,3,5,2,5,6,5,4,5,5,0,3,6,0,5,5,1,0,0,0,0,0,0,0,0,0,0,0,0,0,0,0,0,0,0,0,0,0,0,0,0,0,0,0,0,0,0,0,0,0,0,0,0,0,0,0,0,0,0,0,0,0,0,0,0,0,0,0,0,0,0,0,0,0,0,0,0,0],"split_type":[1,1,1,1,1,1,1,1,1,1,1,1,1,1,1,1,1,1,1,1,1,1,1,1,1,1,1,1,1,0,1,1,1,1,1,1,1,1,1,1,1,1,1,1,1,1,1,1,0,1,1,1,1,1,1,0,1,1,1,1,1,1,0,0,0,0,0,0,0,0,0,0,0,0,0,0,0,0,0,0,0,0,0,0,0,0,0,0,0,0,0,0,0,0,0,0,0,0,0,0,0,0,0,0,0,0,0,0,0,0,0,0,0,0,0,0,0,0,0,0,0,0,0],"sum_hessian":[4.11968E5,3.41268E5,7.07E4,1.8822E5,1.53048E5,4.0897E4,2.9803E4,7.4478E4,1.13742E5,3.0436E4,1.22612E5,1.9886E4,2.1011E4,5.723E3,2.408E4,4.932E3,6.9546E4,4.2298E4,7.1444E4,9.949E3,2.0487E4,6.3847E4,5.8765E4,1.2288E4,7.598E3,7E3,1.4011E4,8.3E2,4.893E3,5.661E3,1.8419E4,3.502E3,1.43E3,4.5477E4,2.4069E4,2.8005E4,1.4293E4,8.122E3,6.3322E4,6.123E3,3.826E3,1.568E4,4.807E3,1.7212E4,4.6635E4,3.2438E4,2.6327E4,2.117E3,1.0171E4,2.493E3,5.105E3,1.23E3,5.77E3,2.329E3,1.1682E4,7.45E2,8.5E1,2.731E3,2.162E3,5.569E3,9.2E1,7.85E2,1.7634E4,2.334E3,1.168E3,6.64E2,7.66E2,1.7105E4,2.8372E4,1.0897E4,1.3172E4,1.463E4,1.3375E4,7.263E3,7.03E3,2.084E3,6.038E3,3.1065E4,3.2257E4,2.231E3,3.892E3,1.79E2,3.647E3,1.879E3,1.3801E4,3.352E3,1.455E3,1.06E3,1.6152E4,1.5723E4,3.0912E4,1.2649E4,1.9789E4,2.4809E4,1.518E3,1.521E3,5.96E2,1.0137E4,3.4E1,1.507E3,9.86E2,4.097E3,1.008E3,5.58E2,6.72E2,1.315E3,4.455E3,3.27E2,2.002E3,6.199E3,5.483E3,6.7E1,1.8E1,2.76E2,2.455E3,1.422E3,7.4E2,1.988E3,3.581E3,4E1,5.2E1,1.57E2,6.28E2],"tree_param":{"num_deleted":"0","num_feature":"7","num_nodes":"123","size_leaf_vector":"1"}},{"base_weights":[-3.3555324E-7,1.1189578E-1,-5.401154E-1,3.2205525E-1,1.5750099E-3,-3.87368E-1,-7.497021E-1,4.1161942E-1,6.960277E-2,8.390585E-2,-2.9955998E-1,-2.393533E-1,-4.719297E-1,-4.6965688E-1,-8.4974605E-1,6.225323E-1,2.1700887E-1,6.390358E-1,-1.2148018E-1,2.118018E-1,-6.141846E-2,2.9029313E-2,-4.4343728E-1,-7.27894E-2,-3.6979967E-1,-3.1161627E-1,-5.564186E-1,8.5786957E-1,-6.3467455E-1,-7.266073E-1,-8.7335837E-1,9.5367163E-1,3.7671316E-1,5.214625E-1,9.994779E-2,1.4428722E0,3.6047965E-1,8.438975E-3,-4.436496E-1,4.2235512E-1,8.285489E-2,1.2861148E-1,-1.866502E-1,-5.669015E-2,1.3112375E0,-3.3543816E-1,-7.19912E-1,1.2525333E-1,-2.8113437E-1,-7.77613E-1,-2.945886E-1,-1.859886E-1,-5.6180567E-1,-5.043275E-1,-7.7061933E-1,3.2511604E-1,-5.188977E-1,-5.11529E-1,-7.077923E-1,-5.4705894E-1,-7.633706E-1,-7.7991116E-1,-2.6324216E-1,3.2569706E-1,5.2422363E-2,2.3513663E-1,7.541613E-2,3.0321315E-1,7.372582E-2,5.9827853E-2,-7.855417E-2,-1.1841418E-2,7.8863484E-1,5.0770396E-1,5.2661013E-2,2.1071409E-1,-4.996931E-3,-2.3844951E-1,-8.5682675E-2,3.437561E-1,1.04958646E-1,4.687885E-2,-4.746789E-2,5.4855876E0,3.5079904E-2,5.8282968E-2,-9.1546275E-2,3.1366877E-2,-1.4535123E-1,1.3305063E0,-2.4900552E-2,-8.089643E-2,-1.6045871E-1,5.5892587E-1,-2.2887501E-1,2.8332865E-2,7.477789E-1,-5.0628874E-2,-1.6403966E-1,-1.0269452E-1,-2.9519716E-1,3.9309445E-1,-1.2013097E-1,-1.9905007E-2,-1.0652034E-1,-1.0350947E-1,-1.9816916E-1,-1.3345912E-1,-2.1924041E-1,-1.77898E-1,-2.632986E-1,-1.6629428E-2,-1.90969E-1,-1.6549072E-1,-2.9728556E-2,-2.1841823E-1,-1.1716181E-1,1.7641034E-2,-2.2676268E-1,-1.7656611E-1,-2.3816456E-1,-1.1460104E-1,-2.635868E-1],"categories":[3,5,7,9,11,12,15,19,23,25,26,28,0,1,5,6,7,11,12,23,4,4,3,15,25,26,28,2,5,6,7,9,10,1,3,4,5,7,9,11,12,15,16,17,18,19,20,22,23,24,25,26,27,28,29,0,1,2,4,5,6,8,9,10,12,13,15,16,18,19,20,21,22,23,24,25,27,28,29,30,1,2,3,5,6,7,9,11,12,13,15,17,18,19,20,23,24,25,26,27,28,29,0,3,4,5,6,7,8,9,10,11,12,13,14,15,17,18,19,20,21,22,25,26,27,28,3,4,9,10,12,13,14,15,16,17,18,20,21,22,23,24,26,28,0,1,5,6,0,1,2,3,4,5,6,7,8,9,10,11,12,13,14,15,16,17,18,19,20,21,22,23,24,25,26,27,28,30,7,23,3,4,7,10,11,13,14,15,16,17,18,22,23,24,25,27,28,29,30,0,1,2,4,0,1,2,4,7,8,9,10,11,0,6,8,10,27,3,5,8,9,10,11,12,13,14,18,19,20,21,22,23,25,26,27,28,30,0,6,10,13,17,1,2,3,7,8,10,0,1,4,5,7,14,15,16,17,18,20,24,25,26,6,11,12,13,16,18,19,22,25,11,12,2,3,6,7,10,11,12,13,14,15,17,18,20,21,23,24,25,28,30,0,1,2,5,6,5,6,14,16,17,18,20,21,23,24,25,27,28,29,30,5,10,11,0,2,4,6,7,9,11,0,1,2,3,4,5,6,7,8,9,10,11,12,13,14,15,16,17,18,19,20,21,23,24,25,26,28,29,7,14,15,18,19,22,23,24,26,0,3,5,6,7,8,9,10,11,12,13,14,15,16,17,18,19,20,21,22,23,24,25,26,28,29,30,0,1,2,3,4,5,7,8,9,10,11,4,14,0,1,2,3,5,6,7,8,9,10,11,0,3,4,5,6,7,9,12,13,14,15,16,17,18,19,20,21,22,23,24,26,27,28,30,0,2,8,10,27,0,1,2,3,4,5,6,7,8,9,10,11,12,13,14,15,16,17,18,19,20,21,22,23,24,25,26,27,28,3,6,7,13,14,17,19,20,21,22,27,28,0,1,4,5,6,7,8,9,10,11,0,6,11,25,27,3,10,13,16,21,22,28,15,28,0,2,3,4,5,6,7,10,11,0,1,4,6,11,0,2,4,6,7,10,0,4,8,1,2,3,4,5,6,9,11,12,13,14,16,17,18,19,23,24,25,26,28,0,1,3,4,5,6,7,8,9,10,11,12,15,16,19,20,22,23,25,26,27,28,29,30,1,3],"categories_nodes":[0,1,2,3,4,5,6,7,8,9,10,11,12,13,14,15,16,17,18,19,22,23,25,26,27,28,29,30,31,32,33,34,37,39,40,41,42,43,44,45,46,48,49,51,52,53,54,56,59,60,61],"categories_segments":[0,12,16,20,21,22,27,33,55,80,102,126,144,148,178,180,199,203,212,217,237,242,248,262,271,273,292,297,312,315,322,350,359,386,397,399,410,434,439,468,480,490,495,502,504,513,518,524,527,547,571],"categories_sizes":[12,4,4,1,1,5,6,22,25,22,24,18,4,30,2,19,4,9,5,20,5,6,14,9,2,19,5,15,3,7,28,9,27,11,2,11,24,5,29,12,10,5,7,2,9,5,6,3,20,24,2],"default_left":[1,1,1,1,1,1,1,1,1,1,1,1,1,1,1,1,1,1,1,1,0,0,1,1,0,1,1,1,1,1,1,1,1,1,1,0,0,1,0,1,1,1,1,1,1,1,1,0,1,1,0,1,1,1,1,0,1,0,0,1,1,1,0,0,0,0,0,0,0,0,0,0,0,0,0,0,0,0,0,0,0,0,0,0,0,0,0,0,0,0,0,0,0,0,0,0,0,0,0,0,0,0,0,0,0,0,0,0,0,0,0,0,0,0,0,0,0,0,0,0,0,0,0],"id":2,"left_children":[1,3,5,7,9,11,13,15,17,19,21,23,25,27,29,31,33,35,37,39,41,43,45,47,49,51,53,55,57,59,61,63,65,67,69,71,73,75,77,79,81,83,85,87,89,91,93,95,97,99,101,103,105,107,109,-1,111,113,115,117,119,121,-1,-1,-1,-1,-1,-1,-1,-1,-1,-1,-1,-1,-1,-1,-1,-1,-1,-1,-1,-1,-1,-1,-1,-1,-1,-1,-1,-1,-1,-1,-1,-1,-1,-1,-1,-1,-1,-1,-1,-1,-1,-1,-1,-1,-1,-1,-1,-1,-1,-1,-1,-1,-1,-1,-1,-1,-1,-1,-1,-1,-1],"loss_changes":[2.489814E4,7.9123057E3,2.2631191E3,2.656207E3,5.5484575E3,5.1178174E2,8.3461523E2,3.5590752E3,3.347585E3,3.2664778E3,2.2716035E3,3.231068E2,3.5235498E2,1.7195503E3,6.3210938E1,3.386955E3,1.607333E3,1.7303318E3,9.64198E2,2.5379116E3,1.9578198E3,1.6083901E3,9.975581E2,2.695947E2,2.5557593E2,2.8230035E2,1.8977637E2,2.7046143E2,6.2486572E1,2.2942505E1,6.399414E0,1.8224824E3,1.2183481E3,1.6892546E3,1.1725239E3,3.49662E3,1.4140688E3,2.8590955E2,3.6719006E2,1.8617324E3,1.0260242E3,6.9274033E3,2.2385742E3,9.4629675E2,3.9941792E3,3.1512695E2,1.0440264E3,2.4410997E2,9.496001E1,1.1626996E2,1.1969597E3,1.210029E2,6.4060974E1,1.8433398E2,6.283264E1,0E0,6.6723976E0,4.3018982E1,2.7860596E1,7.6585495E1,1.5187622E1,3.0536896E1,0E0,0E0,0E0,0E0,0E0,0E0,0E0,0E0,0E0,0E0,0E0,0E0,0E0,0E0,0E0,0E0,0E0,0E0,0E0,0E0,0E0,0E0,0E0,0E0,0E0,0E0,0E0,0E0,0E0,0E0,0E0,0E0,0E0,0E0,0E0,0E0,0E0,0E0,0E0,0E0,0E0,0E0,0E0,0E0,0E0,0E0,0E0,0E0,0E0,0E0,0E0,0E0,0E0,0E0,0E0,0E0,0E0,0E0,0E0,0E0,0E0],"parents":[2147483647,0,0,1,1,2,2,3,3,4,4,5,5,6,6,7,7,8,8,9,9,10,10,11,11,12,12,13,13,14,14,15,15,16,16,17,17,18,18,19,19,20,20,21,21,22,22,23,23,24,24,25,25,26,26,27,27,28,28,29,29,30,30,31,31,32,32,33,33,34,34,35,35,36,36,37,37,38,38,39,39,40,40,41,41,42,42,43,43,44,44,45,45,46,46,47,47,48,48,49,49,50,50,51,51,52,52,53,53,54,54,56,56,57,57,58,58,59,59,60,60,61,61],"right_children":[2,4,6,8,10,12,14,16,18,20,22,24,26,28,30,32,34,36,38,40,42,44,46,48,50,52,54,56,58,60,62,64,66,68,70,72,74,76,78,80,82,84,86,88,90,92,94,96,98,100,102,104,106,108,110,-1,112,114,116,118,120,122,-1,-1,-1,-1,-1,-1,-1,-1,-1,-1,-1,-1,-1,-1,-1,-1,-1,-1,-1,-1,-1,-1,-1,-1,-1,-1,-1,-1,-1,-1,-1,-1,-1,-1,-1,-1,-1,-1,-1,-1,-1,-1,-1,-1,-1,-1,-1,-1,-1,-1,-1,-1,-1,-1,-1,-1,-1,-1,-1,-1,-1],"split_conditions":[NaN,NaN,NaN,NaN,NaN,NaN,NaN,NaN,NaN,NaN,NaN,NaN,NaN,NaN,NaN,NaN,NaN,NaN,NaN,NaN,1.5903E0,1.9535E1,NaN,NaN,4.3E-1,NaN,NaN,NaN,NaN,NaN,NaN,NaN,NaN,NaN,NaN,1.85E0,7.5E-1,NaN,1.43E0,NaN,NaN,NaN,NaN,NaN,NaN,NaN,NaN,2.5E1,NaN,NaN,6.3E-1,NaN,NaN,NaN,NaN,3.2511604E-1,NaN,8.2E0,1.5E1,NaN,NaN,NaN,-2.6324216E-1,3.2569706E-1,5.2422363E-2,2.3513663E-1,7.541613E-2,3.0321315E-1,7.372582E-2,5.9827853E-2,-7.855417E-2,-1.1841418E-2,7.8863484E-1,5.0770396E-1,5.2661013E-2,2.1071409E-1,-4.996931E-3,-2.3844951E-1,-8.5682675E-2,3.437561E-1,1.04958646E-1,4.687885E-2,-4.746789E-2,5.4855876E0,3.5079904E-2,5.8282968E-2,-9.1546275E-2,3.1366877E-2,-1.4535123E-1,1.3305063E0,-2.4900552E-2,-8.089643E-2,-1.6045871E-1,5.5892587E-1,-2.2887501E-1,2.8332865E-2,7.477789E-1,-5.0628874E-2,-1.6403966E-1,-1.0269452E-1,-2.9519716E-1,3.9309445E-1,-1.2013097E-1,-1.9905007E-2,-1.0652034E-1,-1.0350947E-1,-1.9816916E-1,-1.3345912E-1,-2.1924041E-1,-1.77898E-1,-2.632986E-1,-1.6629428E-2,-1.90969E-1,-1.6549072E-1,-2.9728556E-2,-2.1841823E-1,-1.1716181E-1,1.7641034E-2,-2.2676268E-1,-1.7656611E-1,-2.3816456E-1,-1.1460104E-1,-2.635868E-1],"split_indices":[0,6,0,1,1,0,4,0,5,0,5,5,6,5,0,5,1,4,0,5,2,2,0,4,2,5,5,0,5,6,5,4,4,0,5,2,2,5,2,4,0,4,5,0,5,5,4,2,5,5,2,0,4,4,4,0,4,2,2,5,5,1,0,0,0,0,0,0,0,0,0,0,0,0,0,0,0,0,0,0,0,0,0,0,0,0,0,0,0,0,0,0,0,0,0,0,0,0,0,0,0,0,0,0,0,0,0,0,0,0,0,0,0,0,0,0,0,0,0,0,0,0,0],"split_type":[1,1,1,1,1,1,1,1,1,1,1,1,1,1,1,1,1,1,1,1,0,0,1,1,0,1,1,1,1,1,1,1,1,1,1,0,0,1,0,1,1,1,1,1,1,1,1,0,1,1,0,1,1,1,1,0,1,0,0,1,1,1,0,0,0,0,0,0,0,0,0,0,0,0,0,0,0,0,0,0,0,0,0,0,0,0,0,0,0,0,0,0,0,0,0,0,0,0,0,0,0,0,0,0,0,0,0,0,0,0,0,0,0,0,0,0,0,0,0,0,0,0,0],"sum_hessian":[4.11968E5,3.41268E5,7.07E4,1.17476E5,2.23792E5,4.0897E4,2.9803E4,8.6712E4,3.0764E4,1.75744E5,4.8048E4,1.4871E4,2.6026E4,7.846E3,2.1957E4,4.1612E4,4.51E4,7.729E3,2.3035E4,9.3477E4,8.2267E4,1.4632E4,3.3416E4,6.532E3,8.339E3,8.984E3,1.7042E4,8.67E2,6.979E3,3.538E3,1.8419E4,1.7728E4,2.3884E4,1.2524E4,3.2576E4,1.988E3,5.741E3,1.6416E4,6.619E3,3.5503E4,5.7974E4,3.2679E4,4.9588E4,1.3716E4,9.16E2,2.4031E4,9.385E3,3.349E3,3.183E3,1.297E3,7.042E3,5.982E3,3.002E3,1.3711E4,3.331E3,7.45E2,1.22E2,2.603E3,4.376E3,6.04E2,2.934E3,7.85E2,1.7634E4,1.5159E4,2.569E3,5.621E3,1.8263E4,4.513E3,8.011E3,2.5551E4,7.025E3,8.84E2,1.104E3,6.99E2,5.042E3,5.72E2,1.5844E4,2.053E3,4.566E3,3.232E3,3.2271E4,4.4442E4,1.3532E4,2E1,3.2659E4,1.1766E4,3.7822E4,9.962E3,3.754E3,2.82E2,6.34E2,1.8072E4,5.959E3,1.53E2,9.232E3,3.307E3,4.2E1,2.238E3,9.45E2,4.18E2,8.79E2,4.35E2,6.607E3,3.504E3,2.478E3,9.41E2,2.061E3,1.0862E4,2.849E3,1.255E3,2.076E3,2.5E1,9.7E1,2.372E3,2.31E2,4.112E3,2.64E2,1.55E2,4.49E2,4.39E2,2.495E3,1.57E2,6.28E2],"tree_param":{"num_deleted":"0","num_feature":"7","num_nodes":"123","size_leaf_vector":"1"}},{"base_weights":[1.6814014E-5,7.835485E-2,-3.7811562E-1,1.845657E-1,-5.2264687E-2,-2.3442E-1,-4.8961833E-1,6.0481834E-1,1.3463967E-1,1.1158482E-1,-1.5563363E-1,-1.1253253E-1,-3.2714394E-1,-2.7660912E-1,-5.5065113E-1,1.1293967E0,3.1733415E-1,2.995922E-1,4.123672E-2,4.506854E-1,-8.866434E-3,-1.12629056E-1,-4.8300818E-1,1.7193466E-1,-1.6834532E-1,-1.2453946E-1,-4.0874597E-1,6.207725E-1,-3.712007E-1,-4.61273E-1,-6.113857E-1,1.4408534E0,3.9632612E-1,5.634643E-1,1.7181867E-1,8.262144E-1,1.9699502E-1,2.0702246E-1,-1.2163696E-1,3.548402E-1,2.1420653E0,1.3478081E-1,-1.9350268E-1,3.2881352E-1,-1.3683318E-1,-7.087952E-1,-2.8429171E-2,-6.9718426E-1,2.6836726E-1,-1.7367114E-1,1.8818425E0,-4.1050885E-2,-2.7684563E-1,-2.9513022E-1,-5.673987E-1,2.2771193E-1,-4.0663528E-1,-2.6861197E-1,-5.390033E-1,-3.2555053E-1,-5.430505E-1,-5.4641896E-1,-1.8427399E-1,6.0043967E-1,3.6799672E-1,1.6057155E-1,-3.6155604E-2,1.5656544E-1,6.84711E-1,9.162986E-2,4.0584207E-3,8.363688E-1,2.212966E-1,1.3927208E-1,2.3895256E-2,2.8864288E-1,3.2455325E-2,4.8151653E-2,-5.7290927E-2,2.9247764E-1,6.870807E-2,9.4681096E-1,4.763776E-1,1.3635166E-1,7.1007772E-3,1.7448075E-3,-9.596563E-2,2.530604E-1,-1.8031389E-1,-1.6389076E-2,-7.059554E-2,-3.0087E-1,-5.256015E-2,2.8227815E-1,-7.3652446E-2,6.1767243E-2,-3.0261192E-1,5.016972E-1,3.0562004E-2,-2.4824612E-2,-8.44983E-2,1.8533431E0,-3.260049E-1,1.4092475E-2,-6.9562875E-2,-3.3454586E-2,-1.2103019E-1,-5.8847904E-2,-1.3488086E-1,-1.2372286E-1,-2.0857115E-1,-1.8349674E-2,-1.6762657E-1,1.344918E-2,-1.136582E-1,-1.4150356E-1,-1.9298911E-1,-7.495216E-2,-1.4190644E-1,-1.4236459E-1,-2.3294573E-1,-8.043833E-2,-1.8463647E-1],"categories":[3,5,7,9,11,12,15,19,23,25,26,28,0,4,7,11,12,15,23,28,0,1,2,3,4,5,6,7,8,9,11,12,13,14,15,16,17,18,19,20,22,23,24,25,26,27,28,29,0,1,4,6,8,10,20,21,22,27,29,2,3,4,6,7,8,9,10,12,13,14,15,16,17,18,20,21,22,24,25,1,2,3,4,5,7,9,10,11,0,4,5,6,8,9,10,11,1,2,5,7,9,11,1,2,3,4,5,6,8,9,10,11,12,13,15,18,19,21,22,23,24,25,26,27,28,30,10,11,0,1,2,5,6,2,0,1,2,3,4,5,6,7,8,9,10,11,12,13,14,15,16,17,18,19,20,21,22,23,24,25,26,27,28,30,7,23,0,12,16,17,18,19,20,21,22,23,24,25,27,29,30,0,2,3,4,5,7,8,9,12,14,15,16,19,21,22,23,24,26,28,29,1,2,3,4,5,7,8,9,10,11,12,13,14,15,16,17,18,19,20,21,22,23,24,25,26,27,28,29,9,10,12,13,14,15,16,17,18,19,20,21,22,23,24,25,26,27,28,0,5,6,1,2,3,4,5,6,7,8,9,10,11,12,13,14,15,16,17,18,19,20,21,22,23,24,25,26,27,28,29,0,4,9,10,12,13,16,18,0,1,2,4,6,8,11,12,1,7,10,11,12,14,20,21,23,25,26,27,28,0,1,4,5,6,11,12,13,15,16,17,18,19,20,21,22,23,24,25,26,27,5,6,14,16,17,18,20,21,23,24,25,27,28,29,30,1,1,2,3,4,5,6,7,8,9,10,11,13,14,15,18,20,21,22,25,26,28,0,5,6,0,1,2,4,5,6,7,8,9,10,11,1,3,4,5,7,8,9,10,11,13,14,15,17,18,19,20,22,23,24,25,30,0,1,2,3,4,5,6,7,8,9,10,11,12,13,15,16,17,18,19,20,21,22,23,24,25,26,28,29,0,1,2,5,6,0,1,2,3,4,5,6,7,8,9,10,11,12,13,14,15,17,18,19,20,21,22,23,24,25,26,27,28,29,0,1,2,3,4,0,1,2,3,4,5,6,7,8,9,10,11,12,13,15,17,18,19,20,21,22,23,24,25,26,27,28,29,13,16,17,18,1,0,7,10,13,14,15,19,20,21,22,25,27,28,0,1,2,3,4,5,6,7,8,9,10,11,12,13,15,16,17,18,19,20,21,24,25,26,30,5,9,19,25,0,1,2,3,4,6,7,8,9,10,11,12,13,14,15,16,17,18,19,20,21,22,23,24,25,26,27,28,29,0,1,2,3,4,5,6,7,8,9,10,11,12,13,14,15,16,17,18,19,20,21,22,23,24,25,28,29,30,2,3,9,10,1,2,7,8,10,11,7,15,17,18,22,24,25,2,3,4,6,7,8,9,20,11,12,15,23,28,1,28,1,3],"categories_nodes":[0,1,2,3,4,5,6,7,8,9,10,11,12,13,14,15,16,17,18,20,21,22,25,26,27,28,29,30,31,32,34,35,36,37,38,39,40,41,42,43,44,46,47,48,50,51,52,53,54,57,58,59,60,61],"categories_segments":[0,12,14,20,48,59,79,88,96,102,126,128,133,134,164,166,181,201,229,248,251,280,281,288,294,296,309,330,345,346,367,370,381,402,430,435,464,469,497,501,502,515,540,544,573,602,606,612,619,627,630,632,633,634],"categories_sizes":[12,2,6,28,11,20,9,8,6,24,2,5,1,30,2,15,20,28,19,3,29,1,7,6,2,13,21,15,1,21,3,11,21,28,5,29,5,28,4,1,13,25,4,29,29,4,6,7,8,3,2,1,1,2],"default_left":[1,1,1,1,1,1,1,1,1,1,1,1,1,1,1,1,1,1,1,0,1,1,1,0,0,1,1,1,1,1,1,1,1,0,1,1,1,1,1,1,1,1,1,1,1,0,1,1,1,0,1,1,1,1,1,0,0,1,1,1,1,1,0,0,0,0,0,0,0,0,0,0,0,0,0,0,0,0,0,0,0,0,0,0,0,0,0,0,0,0,0,0,0,0,0,0,0,0,0,0,0,0,0,0,0,0,0,0,0,0,0,0,0,0,0,0,0,0,0,0,0,0,0],"id":3,"left_children":[1,3,5,7,9,11,13,15,17,19,21,23,25,27,29,31,33,35,37,39,41,43,45,47,49,51,53,55,57,59,61,63,65,67,69,71,73,75,77,79,81,83,85,87,89,91,93,95,97,99,101,103,105,107,109,-1,111,113,115,117,119,121,-1,-1,-1,-1,-1,-1,-1,-1,-1,-1,-1,-1,-1,-1,-1,-1,-1,-1,-1,-1,-1,-1,-1,-1,-1,-1,-1,-1,-1,-1,-1,-1,-1,-1,-1,-1,-1,-1,-1,-1,-1,-1,-1,-1,-1,-1,-1,-1,-1,-1,-1,-1,-1,-1,-1,-1,-1,-1,-1,-1,-1],"loss_changes":[1.2203438E4,4.7345063E3,1.1326885E3,3.9490864E3,2.5922004E3,3.4911243E2,5.173867E2,3.01369E3,2.5920085E3,2.4182378E3,1.3211519E3,2.1196976E2,2.900194E2,7.529884E2,1.6768164E2,1.614791E3,4.6235608E2,3.2860474E3,2.9004592E3,2.5148733E3,1.1587406E3,8.863434E2,1.118324E3,1.837341E2,1.2218225E2,6.4063675E1,2.252771E2,1.204888E2,1.3796838E2,1.388164E2,3.0878906E0,5.93751E2,1.5162613E2,3.4165613E2,1.7164821E2,1.720772E3,1.5963582E3,3.972847E3,1.0599634E3,1.1455822E3,4.624746E2,8.729122E2,4.8156763E2,2.0643096E3,6.3663086E2,1.1422952E3,7.61345E2,6.1818474E1,4.6078516E2,1.0927847E2,3.7654132E2,5.4703728E1,3.7292145E1,1.113631E2,1.03100464E2,0E0,5.2736588E0,1.7214355E2,2.1063171E1,5.2480286E1,1.2456714E2,1.4935699E1,0E0,0E0,0E0,0E0,0E0,0E0,0E0,0E0,0E0,0E0,0E0,0E0,0E0,0E0,0E0,0E0,0E0,0E0,0E0,0E0,0E0,0E0,0E0,0E0,0E0,0E0,0E0,0E0,0E0,0E0,0E0,0E0,0E0,0E0,0E0,0E0,0E0,0E0,0E0,0E0,0E0,0E0,0E0,0E0,0E0,0E0,0E0,0E0,0E0,0E0,0E0,0E0,0E0,0E0,0E0,0E0,0E0,0E0,0E0,0E0,0E0],"parents":[2147483647,0,0,1,1,2,2,3,3,4,4,5,5,6,6,7,7,8,8,9,9,10,10,11,11,12,12,13,13,14,14,15,15,16,16,17,17,18,18,19,19,20,20,21,21,22,22,23,23,24,24,25,25,26,26,27,27,28,28,29,29,30,30,31,31,32,32,33,33,34,34,35,35,36,36,37,37,38,38,39,39,40,40,41,41,42,42,43,43,44,44,45,45,46,46,47,47,48,48,49,49,50,50,51,51,52,52,53,53,54,54,56,56,57,57,58,58,59,59,60,60,61,61],"right_children":[2,4,6,8,10,12,14,16,18,20,22,24,26,28,30,32,34,36,38,40,42,44,46,48,50,52,54,56,58,60,62,64,66,68,70,72,74,76,78,80,82,84,86,88,90,92,94,96,98,100,102,104,106,108,110,-1,112,114,116,118,120,122,-1,-1,-1,-1,-1,-1,-1,-1,-1,-1,-1,-1,-1,-1,-1,-1,-1,-1,-1,-1,-1,-1,-1,-1,-1,-1,-1,-1,-1,-1,-1,-1,-1,-1,-1,-1,-1,-1,-1,-1,-1,-1,-1,-1,-1,-1,-1,-1,-1,-1,-1,-1,-1,-1,-1,-1,-1,-1,-1,-1,-1],"split_conditions":[NaN,NaN,NaN,NaN,NaN,NaN,NaN,NaN,NaN,NaN,NaN,NaN,NaN,NaN,NaN,NaN,NaN,NaN,NaN,1.9535E1,NaN,NaN,NaN,1.042E0,5E1,NaN,NaN,NaN,NaN,NaN,NaN,NaN,NaN,1.209E1,NaN,NaN,NaN,NaN,NaN,NaN,NaN,NaN,NaN,NaN,NaN,2.392E0,NaN,NaN,NaN,2.99E0,NaN,NaN,NaN,NaN,NaN,2.2771193E-1,1.042E0,NaN,NaN,NaN,NaN,NaN,-1.8427399E-1,6.0043967E-1,3.6799672E-1,1.6057155E-1,-3.6155604E-2,1.5656544E-1,6.84711E-1,9.162986E-2,4.0584207E-3,8.363688E-1,2.212966E-1,1.3927208E-1,2.3895256E-2,2.8864288E-1,3.2455325E-2,4.8151653E-2,-5.7290927E-2,2.9247764E-1,6.870807E-2,9.4681096E-1,4.763776E-1,1.3635166E-1,7.1007772E-3,1.7448075E-3,-9.596563E-2,2.530604E-1,-1.8031389E-1,-1.6389076E-2,-7.059554E-2,-3.0087E-1,-5.256015E-2,2.8227815E-1,-7.3652446E-2,6.1767243E-2,-3.0261192E-1,5.016972E-1,3.0562004E-2,-2.4824612E-2,-8.44983E-2,1.8533431E0,-3.260049E-1,1.4092475E-2,-6.9562875E-2,-3.3454586E-2,-1.2103019E-1,-5.8847904E-2,-1.3488086E-1,-1.2372286E-1,-2.0857115E-1,-1.8349674E-2,-1.6762657E-1,1.344918E-2,-1.136582E-1,-1.4150356E-1,-1.9298911E-1,-7.495216E-2,-1.4190644E-1,-1.4236459E-1,-2.3294573E-1,-8.043833E-2,-1.8463647E-1],"split_indices":[0,1,0,0,0,5,4,4,4,5,4,6,3,5,0,5,5,0,5,2,6,0,3,2,2,5,4,0,5,5,5,3,5,2,6,4,5,0,6,0,6,0,0,3,5,2,5,0,0,2,5,4,4,5,5,0,2,0,0,3,0,1,0,0,0,0,0,0,0,0,0,0,0,0,0,0,0,0,0,0,0,0,0,0,0,0,0,0,0,0,0,0,0,0,0,0,0,0,0,0,0,0,0,0,0,0,0,0,0,0,0,0,0,0,0,0,0,0,0,0,0,0,0],"split_type":[1,1,1,1,1,1,1,1,1,1,1,1,1,1,1,1,1,1,1,0,1,1,1,0,0,1,1,1,1,1,1,1,1,0,1,1,1,1,1,1,1,1,1,1,1,0,1,1,1,0,1,1,1,1,1,0,0,1,1,1,1,1,0,0,0,0,0,0,0,0,0,0,0,0,0,0,0,0,0,0,0,0,0,0,0,0,0,0,0,0,0,0,0,0,0,0,0,0,0,0,0,0,0,0,0,0,0,0,0,0,0,0,0,0,0,0,0,0,0,0,0,0,0],"sum_hessian":[4.11968E5,3.41268E5,7.07E4,1.8822E5,1.53048E5,3.0892E4,3.9808E4,1.9985E4,1.68235E5,5.9204E4,9.3844E4,1.3348E4,1.7544E4,8.867E3,3.0941E4,7.074E3,1.2911E4,6.0821E4,1.07414E5,1.5517E4,4.3687E4,8.2949E4,1.0895E4,2.189E3,1.1159E4,5.038E3,1.2506E4,8.45E2,8.022E3,1.2522E4,1.8419E4,4.964E3,2.11E3,4.796E3,8.115E3,9.916E3,5.0905E4,5.3231E4,5.4183E4,1.4686E4,8.31E2,2.4571E4,1.9116E4,4.311E3,7.8638E4,7.279E3,3.616E3,2.18E2,1.971E3,1.1131E4,2.8E1,3.255E3,1.783E3,7.289E3,5.217E3,7.45E2,1E2,4.98E3,3.042E3,4.71E3,7.812E3,7.85E2,1.7634E4,1.37E3,3.594E3,1.663E3,4.47E2,4.684E3,1.12E2,4.4E3,3.715E3,4.27E2,9.489E3,1.5531E4,3.5374E4,6.16E3,4.7071E4,1.0688E4,4.3495E4,2.476E3,1.221E4,2.92E2,5.39E2,6.336E3,1.8235E4,7.418E3,1.1698E4,2.775E3,1.536E3,4.2863E4,3.5775E4,4.692E3,2.587E3,6.61E2,2.955E3,5.6E1,1.62E2,2.08E2,1.763E3,6.044E3,5.087E3,1.1E1,1.7E1,2.228E3,1.027E3,7.74E2,1.009E3,4.444E3,2.845E3,2.36E3,2.857E3,3.1E1,6.9E1,1.296E3,3.684E3,1.852E3,1.19E3,3.114E3,1.596E3,6.042E3,1.77E3,1.57E2,6.28E2],"tree_param":{"num_deleted":"0","num_feature":"7","num_nodes":"123","size_leaf_vector":"1"}},{"base_weights":[2.336598E-5,5.2616313E-2,-2.7730688E-1,2.4883097E-1,9.518337E-3,-1.8889602E-1,-3.555798E-1,4.6370077E-1,1.5219872E-1,6.0813535E-2,-1.6678184E-1,-9.314885E-2,-2.6394215E-1,-2.3344286E-1,-3.9772958E-1,1.5631704E0,3.7876603E-1,2.2166912E-1,-2.8317412E-2,3.726014E-3,2.155548E-1,-5.875133E-2,-2.7711383E-1,1.5327317E-2,-2.8343165E-1,1.5235726E-2,-3.1091613E-1,4.2112413E-1,-3.02904E-1,-4.2360306E-1,-2.788726E-1,3.7305422E0,1.1313407E0,4.3765727E-1,-1.9747135E-1,3.1374207E-1,9.040043E-2,-8.7654226E-2,6.852418E-1,1.2333994E-1,-1.2969987E-1,1.6514018E0,1.7351459E-1,2.5404787E-1,-1.6928181E-1,-1.7272696E-1,-4.534448E-1,-3.2463035E-1,9.49207E-2,-4.1469686E-2,-4.7585616E-1,1.3720231E-1,-2.814698E-1,-2.6734465E-1,-4.5362988E-1,1.5948994E-1,-3.1215754E-1,-2.0464471E-1,-3.3565578E-1,-3.2840973E-1,-4.3172643E-1,-9.628058E-2,-3.915564E-1,1.7639196E0,1.843616E-1,3.271291E-1,4.9555264E0,5.5309795E-2,1.8609665E-1,9.920216E-3,-8.993523E-2,1.6926865E-1,6.4047776E-2,2.792911E-1,2.2445913E-2,-2.980206E-4,-2.0456447E-1,4.4305617E-1,9.184553E-2,1.09551705E-1,8.233644E-4,-2.3501892E-2,-2.7996027E-1,1.0366857E0,1.3480048E-1,1.763646E-1,1.881101E-2,1.5874498E-1,-3.9933678E-2,-3.606112E-2,-1.454704E-1,-3.319543E-2,-9.294604E-2,-7.756038E-2,-1.5214506E-1,2.6603347E-1,-1.5248531E-1,3.533252E-1,1.2188049E-2,2.2113394E-2,-6.364889E-2,-1.7741434E-2,-1.813754E-1,2.177193E-1,3.124926E-3,-4.6724316E-2,-2.44808E-1,-6.7750946E-2,-1.4215426E-1,-1.1631691E-1,-1.7745838E-1,-4.4461533E-2,-1.6976896E-1,-2.7828833E-2,-1.5213896E-1,-9.26593E-2,-1.2877683E-1,8.116708E-2,-1.0913084E-1,-1.2853774E-1,-1.7045318E-1,-3.8039155E-2,2.4675383E-1,-7.288035E-2,-1.3450424E-1],"categories":[3,5,7,9,11,12,15,23,25,26,28,0,1,2,5,6,7,11,12,15,23,0,1,5,8,9,10,11,12,14,15,16,17,18,19,21,22,23,24,25,28,29,30,4,0,1,3,4,5,6,7,10,2,5,7,9,10,11,0,1,2,3,4,5,6,7,8,9,10,11,12,13,15,16,17,18,19,20,21,22,23,24,25,26,27,28,29,0,1,3,5,7,9,11,12,15,17,19,20,22,23,24,25,26,28,29,0,4,5,7,8,9,10,11,12,13,14,15,18,19,21,22,25,26,27,28,0,2,3,5,8,9,10,17,18,20,21,22,1,4,6,7,8,9,10,11,12,13,14,15,16,17,18,19,20,21,22,23,24,25,26,27,28,29,0,1,2,3,4,5,6,7,8,9,10,11,12,13,14,15,16,17,18,19,20,21,22,23,24,25,26,27,28,30,0,0,1,2,3,4,5,6,8,9,10,11,27,1,3,5,9,10,0,0,6,8,13,16,18,20,29,0,1,2,3,4,5,6,7,8,9,10,11,12,13,14,15,17,18,19,20,21,22,23,24,25,26,27,28,29,30,0,2,6,8,10,14,19,20,22,24,27,0,1,6,10,13,17,3,5,25,1,4,5,6,7,13,16,17,18,19,24,25,11,12,1,2,3,4,7,8,9,10,11,12,13,14,15,16,17,20,21,23,24,25,27,28,30,5,9,10,11,0,1,4,6,9,10,11,12,14,15,16,17,19,21,22,24,26,27,29,0,2,4,1,2,4,0,1,2,3,4,6,7,8,11,12,13,15,16,17,18,19,20,21,23,24,25,26,27,28,29,30,0,1,2,3,4,5,6,7,8,9,10,11,12,13,14,15,16,17,18,19,20,21,22,24,25,26,27,28,30,0,2,3,4,5,6,7,8,9,11,12,13,14,15,16,17,18,19,20,21,23,24,25,26,27,28,29,30,2,3,5,6,9,11,12,13,14,16,17,18,19,20,21,22,23,24,25,26,27,28,29,10,11,0,1,2,3,4,5,7,8,9,10,11,1,2,3,4,5,7,8,9,10,11,12,13,15,16,17,18,19,20,21,22,23,24,25,26,27,28,29,0,2,10,11,0,1,2,7,10,11,6,7,9,11,0,1,2,3,4,5,6,7,8,9,10,11,13,14,16,17,18,20,21,22,23,26,27,28,29,0,5,1,2,3,4,6,26,4,6,10,3,26,0,3,0,6,11,13,21,23,25,28,0,1,4,5,6,7,8,9,11,12,13,14,15,16,17,18,19,20,22,23,24,25,26,27,28,29,30,0,2,3,4,8,10,12,19,7,9],"categories_nodes":[0,1,2,3,4,5,6,7,8,9,10,11,12,13,14,15,16,17,18,19,20,21,22,24,25,26,27,28,29,30,31,34,35,36,37,38,39,40,41,42,44,45,46,47,49,51,52,53,54,56,57,58,59,60,62],"categories_segments":[0,11,16,21,43,44,52,58,87,106,107,126,138,164,194,195,206,207,212,213,221,251,262,268,271,275,283,285,308,312,331,334,337,363,392,393,420,443,445,456,483,487,493,497,522,524,529,530,533,535,537,539,545,572,580],"categories_sizes":[11,5,5,22,1,8,6,29,19,1,19,12,26,30,1,11,1,5,1,8,30,11,6,3,4,8,2,23,4,19,3,3,26,29,1,27,23,2,11,27,4,6,4,25,2,5,1,3,2,2,2,6,27,8,2],"default_left":[1,1,1,1,1,1,1,1,1,1,1,1,1,1,1,1,1,1,1,1,1,1,1,0,1,1,1,1,1,1,1,1,0,0,1,1,1,1,1,1,1,1,1,0,1,1,1,1,0,1,0,1,1,1,1,0,1,1,1,1,1,0,1,0,0,0,0,0,0,0,0,0,0,0,0,0,0,0,0,0,0,0,0,0,0,0,0,0,0,0,0,0,0,0,0,0,0,0,0,0,0,0,0,0,0,0,0,0,0,0,0,0,0,0,0,0,0,0,0,0,0,0,0,0,0],"id":4,"left_children":[1,3,5,7,9,11,13,15,17,19,21,23,25,27,29,31,33,35,37,39,41,43,45,47,49,51,53,55,57,59,61,63,65,67,69,71,73,75,77,79,81,83,85,87,89,91,93,95,97,99,101,103,105,107,109,-1,111,113,115,117,119,121,123,-1,-1,-1,-1,-1,-1,-1,-1,-1,-1,-1,-1,-1,-1,-1,-1,-1,-1,-1,-1,-1,-1,-1,-1,-1,-1,-1,-1,-1,-1,-1,-1,-1,-1,-1,-1,-1,-1,-1,-1,-1,-1,-1,-1,-1,-1,-1,-1,-1,-1,-1,-1,-1,-1,-1,-1,-1,-1,-1,-1,-1,-1],"loss_changes":[6.008836E3,2.928451E3,4.5439453E2,1.2948362E3,2.567725E3,2.2158191E2,1.7922363E2,1.805999E3,5.395E2,1.9429219E3,7.627306E2,2.797538E2,2.267345E2,4.065569E2,7.9512695E1,1.2939219E3,6.095652E2,3.7543237E2,5.06281E2,2.5642278E3,3.5776875E3,1.1179884E3,5.826572E2,2.3362584E2,2.2909915E2,9.018332E1,9.1902466E1,6.969333E1,2.594049E1,1.6300293E1,9.526648E1,1.5366697E3,7.109414E2,7.538135E2,3.930594E1,4.5835925E2,1.6767273E2,5.684662E2,2.7503256E2,2.4707622E3,3.134232E3,3.6550269E3,2.6442515E3,8.9932214E2,3.700443E2,1.6921521E2,1.2309497E2,3.64873E2,4.1125418E2,4.289546E1,1.4700098E2,1.3176628E2,4.8664173E1,9.709448E1,3.1216675E1,0E0,4.617058E0,6.841659E1,1.5064087E1,3.5594925E1,8.489502E0,4.970431E1,2.4064362E1,0E0,0E0,0E0,0E0,0E0,0E0,0E0,0E0,0E0,0E0,0E0,0E0,0E0,0E0,0E0,0E0,0E0,0E0,0E0,0E0,0E0,0E0,0E0,0E0,0E0,0E0,0E0,0E0,0E0,0E0,0E0,0E0,0E0,0E0,0E0,0E0,0E0,0E0,0E0,0E0,0E0,0E0,0E0,0E0,0E0,0E0,0E0,0E0,0E0,0E0,0E0,0E0,0E0,0E0,0E0,0E0,0E0,0E0,0E0,0E0,0E0,0E0],"parents":[2147483647,0,0,1,1,2,2,3,3,4,4,5,5,6,6,7,7,8,8,9,9,10,10,11,11,12,12,13,13,14,14,15,15,16,16,17,17,18,18,19,19,20,20,21,21,22,22,23,23,24,24,25,25,26,26,27,27,28,28,29,29,30,30,31,31,32,32,33,33,34,34,35,35,36,36,37,37,38,38,39,39,40,40,41,41,42,42,43,43,44,44,45,45,46,46,47,47,48,48,49,49,50,50,51,51,52,52,53,53,54,54,56,56,57,57,58,58,59,59,60,60,61,61,62,62],"right_children":[2,4,6,8,10,12,14,16,18,20,22,24,26,28,30,32,34,36,38,40,42,44,46,48,50,52,54,56,58,60,62,64,66,68,70,72,74,76,78,80,82,84,86,88,90,92,94,96,98,100,102,104,106,108,110,-1,112,114,116,118,120,122,124,-1,-1,-1,-1,-1,-1,-1,-1,-1,-1,-1,-1,-1,-1,-1,-1,-1,-1,-1,-1,-1,-1,-1,-1,-1,-1,-1,-1,-1,-1,-1,-1,-1,-1,-1,-1,-1,-1,-1,-1,-1,-1,-1,-1,-1,-1,-1,-1,-1,-1,-1,-1,-1,-1,-1,-1,-1,-1,-1,-1,-1,-1],"split_conditions":[NaN,NaN,NaN,NaN,NaN,NaN,NaN,NaN,NaN,NaN,NaN,NaN,NaN,NaN,NaN,NaN,NaN,NaN,NaN,NaN,NaN,NaN,NaN,4.3E-1,NaN,NaN,NaN,NaN,NaN,NaN,NaN,NaN,1.6E1,1.85E0,NaN,NaN,NaN,NaN,NaN,NaN,NaN,NaN,NaN,1.5903E0,NaN,NaN,NaN,NaN,6.3E-1,NaN,5.7E-1,NaN,NaN,NaN,NaN,1.5948994E-1,NaN,NaN,NaN,NaN,NaN,1.002E1,NaN,1.7639196E0,1.843616E-1,3.271291E-1,4.9555264E0,5.5309795E-2,1.8609665E-1,9.920216E-3,-8.993523E-2,1.6926865E-1,6.4047776E-2,2.792911E-1,2.2445913E-2,-2.980206E-4,-2.0456447E-1,4.4305617E-1,9.184553E-2,1.09551705E-1,8.233644E-4,-2.3501892E-2,-2.7996027E-1,1.0366857E0,1.3480048E-1,1.763646E-1,1.881101E-2,1.5874498E-1,-3.9933678E-2,-3.606112E-2,-1.454704E-1,-3.319543E-2,-9.294604E-2,-7.756038E-2,-1.5214506E-1,2.6603347E-1,-1.5248531E-1,3.533252E-1,1.2188049E-2,2.2113394E-2,-6.364889E-2,-1.7741434E-2,-1.813754E-1,2.177193E-1,3.124926E-3,-4.6724316E-2,-2.44808E-1,-6.7750946E-2,-1.4215426E-1,-1.1631691E-1,-1.7745838E-1,-4.4461533E-2,-1.6976896E-1,-2.7828833E-2,-1.5213896E-1,-9.26593E-2,-1.2877683E-1,8.116708E-2,-1.0913084E-1,-1.2853774E-1,-1.7045318E-1,-3.8039155E-2,2.4675383E-1,-7.288035E-2,-1.3450424E-1],"split_indices":[0,6,0,5,1,4,4,0,0,3,5,5,5,5,3,4,0,4,3,0,5,0,0,2,0,4,5,0,5,4,5,1,2,2,1,5,5,0,5,5,4,4,0,2,4,4,4,5,2,6,2,6,0,4,0,0,6,6,5,5,5,2,4,0,0,0,0,0,0,0,0,0,0,0,0,0,0,0,0,0,0,0,0,0,0,0,0,0,0,0,0,0,0,0,0,0,0,0,0,0,0,0,0,0,0,0,0,0,0,0,0,0,0,0,0,0,0,0,0,0,0,0,0,0,0],"split_type":[1,1,1,1,1,1,1,1,1,1,1,1,1,1,1,1,1,1,1,1,1,1,1,0,1,1,1,1,1,1,1,1,0,0,1,1,1,1,1,1,1,1,1,0,1,1,1,1,0,1,0,1,1,1,1,0,1,1,1,1,1,0,1,0,0,0,0,0,0,0,0,0,0,0,0,0,0,0,0,0,0,0,0,0,0,0,0,0,0,0,0,0,0,0,0,0,0,0,0,0,0,0,0,0,0,0,0,0,0,0,0,0,0,0,0,0,0,0,0,0,0,0,0,0,0],"sum_hessian":[4.11968E5,3.46297E5,6.5671E4,6.2364E4,2.83933E5,3.084E4,3.4831E4,1.9345E4,4.3019E4,2.19941E5,6.3992E4,1.3552E4,1.7288E4,8.938E3,2.5893E4,1.386E3,1.7959E4,3.1064E4,1.1955E4,1.60668E5,5.9273E4,3.2334E4,3.1658E4,8.632E3,4.92E3,2.49E3,1.4798E4,8.57E2,8.081E3,2.1262E4,4.631E3,2.29E2,1.157E3,1.6294E4,1.665E3,1.8257E4,1.2807E4,1.1038E4,9.17E2,8.4719E4,7.5949E4,1.685E3,5.7588E4,8.442E3,2.3892E4,1.9887E4,1.1771E4,1.637E3,6.995E3,2.18E3,2.74E3,1.765E3,7.25E2,1.1339E4,3.459E3,7.45E2,1.12E2,2.022E3,6.059E3,1.675E3,1.9587E4,1.768E3,2.863E3,1.35E2,9.4E1,1.155E3,2E0,6.828E3,9.466E3,5.12E2,1.153E3,5.217E3,1.304E4,2.32E2,1.2575E4,9.634E3,1.404E3,2.96E2,6.21E2,2.8189E4,5.653E4,7.1387E4,4.562E3,6.73E2,1.012E3,1.215E4,4.5438E4,4.935E3,3.507E3,2.0678E4,3.214E3,1.369E4,6.197E3,2.544E3,9.227E3,2.15E2,1.422E3,3.33E2,6.662E3,1.302E3,8.78E2,6.47E2,2.093E3,3.12E2,1.453E3,5.88E2,1.37E2,9.443E3,1.896E3,2.343E3,1.116E3,6.9E1,4.3E1,1.477E3,5.45E2,4.714E3,1.345E3,9.3E1,1.582E3,1.9133E4,4.54E2,1.712E3,5.6E1,7.93E2,2.07E3],"tree_param":{"num_deleted":"0","num_feature":"7","num_nodes":"125","size_leaf_vector":"1"}},{"base_weights":[3.552722E-5,7.1757086E-2,-1.02516E-1,2.1003282E-1,2.341753E-2,5.1666137E-2,-1.7522942E-1,4.7111657E-1,9.5822185E-2,2.4298927E-1,-2.780629E-2,6.0550386E-1,-5.0811633E-2,-1.6608906E-1,-1.194314E0,1.4591546E0,3.1688455E-1,5.4171836E-1,3.9542448E-2,5.1504755E-1,5.176601E-2,8.9421816E-2,-1.0442047E-1,2.0649626E0,-4.476711E-2,1.4157012E-1,-2.9622975E-1,1.5560692E-2,-2.0558134E-1,-7.352258E-1,-6.206E-1,2.2306867E0,6.8947774E-1,6.7953795E-1,6.472017E-2,1.2940145E0,2.1729447E-1,1.0220616E-1,-1.2205149E-1,1.5476639E0,3.9365292E-1,-9.1196574E-2,2.4026729E-1,2.8350276E-1,-5.4452386E-2,-1.511874E-2,-2.9191962E-1,2.1310823E0,-1.420827E-1,4.923839E-1,-2.2060928E-1,1.1301561E-1,4.3305583E0,-3.858549E-1,-9.42432E-2,4.199307E-1,-4.728008E-2,-1.8167947E-1,-4.2231038E-1,1.19756974E-1,-1.682175E0,1.4122372E0,4.3722558E-1,4.3088475E-1,-8.3613925E-4,3.1501883E-1,9.122469E-2,1.0739557E-1,-3.6216754E-2,6.270439E-1,1.6571659E-1,1.413669E-1,1.0365204E-2,1.04998775E-1,1.5075147E-2,4.637376E-3,-1.11093804E-1,8.25363E-1,2.4495557E-1,1.5105921E-1,-3.1585947E-2,2.0935321E-2,-1.4331786E-1,3.173721E-1,3.3905216E-2,1.5822393E-1,3.7896216E-2,-2.3060221E-2,3.718633E-1,1.4932906E-2,-6.9730245E-2,-2.2798127E-3,-1.02393046E-1,6.4150774E-1,-4.5626204E-2,2.757157E-1,-1.919812E-1,1.6355476E-1,-1.8121067E-1,-3.1933002E-2,-1.6294932E-1,1.4451309E-1,-3.259801E-3,2.9138508E0,7.5163305E-2,-5.6188803E-2,-2.1449585E-1,3.7317984E-2,-8.99315E-2,3.1522256E-1,6.381419E-2,1.777051E-2,-5.303633E-2,-3.423368E-2,-8.241357E-2,-3.3711202E-2,-1.8139848E-1,-3.0397433E-1,-5.640627E-1],"categories":[3,5,7,9,11,12,15,17,18,19,20,23,25,26,27,28,29,1,2,4,5,6,7,9,10,11,1,3,4,5,7,8,9,11,12,13,14,15,16,17,18,19,20,21,22,23,24,25,26,27,28,29,3,4,5,7,8,9,10,11,12,13,14,15,17,18,19,20,21,22,23,24,25,26,27,28,29,30,0,1,3,4,17,0,1,3,4,0,1,2,3,4,5,6,7,8,9,10,11,13,14,15,16,17,18,19,20,22,23,24,25,26,28,30,0,2,3,5,7,8,9,10,11,12,13,15,17,18,19,20,21,22,23,24,25,26,27,28,29,0,1,2,4,6,13,14,22,1,2,3,4,5,6,8,9,10,11,12,13,14,15,16,17,18,19,20,21,22,23,24,25,26,27,28,29,30,0,1,3,4,6,11,12,18,19,21,22,23,24,25,26,27,28,0,1,2,4,5,6,0,1,3,4,5,6,7,8,9,10,11,12,13,14,15,16,17,18,19,20,21,22,23,24,25,26,27,28,29,0,1,3,4,5,6,7,8,9,10,16,18,23,24,25,27,28,29,0,1,2,3,4,5,6,7,9,10,11,12,15,16,17,18,19,20,21,22,23,24,25,26,27,28,29,6,14,15,16,17,18,22,25,0,1,2,3,4,5,7,8,9,10,11,0,2,4,7,9,13,15,19,20,21,22,23,24,18,0,1,2,3,4,5,6,7,10,11,12,13,14,15,16,18,19,20,21,22,23,24,25,26,27,28,29,30,0,1,2,4,6,7,8,9,12,13,14,15,16,17,18,19,20,21,22,23,24,25,26,27,28,29,2,15,16,0,1,2,4,5,7,12,14,15,16,17,18,20,21,22,23,24,25,26,27,28,29,30,0,1,3,5,7,8,9,10,11,12,13,14,16,17,21,23,25,29,30,1,2,3,4,5,6,7,8,9,11,12,13,14,15,16,17,18,19,20,21,22,23,24,25,26,27,28,29,2,10,0,1,2,3,4,5,6,7,8,9,10,11,12,13,14,15,16,17,18,19,20,22,23,24,25,26,27,28,30,0,1,4,5,6,0,1,2,4,1,4,14,21,0,1,2,3,4,5,6,7,8,9,10,11,12,13,14,15,17,18,19,20,21,22,23,24,25,26,27,28,29,30,16,1,1,2,3,4,5,6,7,8,9,10,11,12,13,14,15,16,17,18,19,20,21,22,23,24,25,26,27,28,29,0,1,2,3,4,5,6,7,8,9,11,12,13,14,15,16,17,18,19,20,22,23,24,25,26,27,28,29,1,0,1,2,5,6,9,1,2,7,18,1,4,5,6,10,11,12,13,21,22,24,27,28,30,0,1,2,3,4,5,6,7,8,9,10,11,12,13,14,15,16,17,19,20,21,22,23,24,25,26,28,29,0,1,2,3,4,5,6,7,8,9,10,11,12,13,14,15,16,18,19,20,21,22,23,24,25,26,27,28,29,20,29,1,2,4,7,12,15,19,23,25,27,29,3,6,7,9,12,14,16,17,18,20,21,22,23,24,25,26,30,0,2,3,4,6,7,9,10,11,12,13,16,17,19,21,22,24,30,16],"categories_nodes":[0,1,3,4,5,6,7,8,9,10,11,12,13,15,16,17,18,19,21,22,23,24,27,28,29,31,32,33,34,35,36,37,38,39,40,41,42,43,45,46,47,48,49,50,51,52,53,55,56,57,58,60],"categories_segments":[0,17,26,52,78,82,83,87,114,139,147,176,193,199,228,246,273,281,292,295,305,306,334,360,361,363,386,405,433,435,464,469,473,477,507,508,509,538,566,567,572,573,576,577,591,619,648,650,653,661,678,696],"categories_sizes":[17,9,26,26,4,1,4,27,25,8,29,17,6,29,18,27,8,11,3,10,1,28,26,1,2,23,19,28,2,29,5,4,4,30,1,1,29,28,1,5,1,3,1,14,28,29,2,3,8,17,18,1],"default_left":[1,1,0,1,1,1,1,1,1,1,1,1,1,1,0,1,1,1,1,1,0,1,1,1,1,0,0,1,1,1,0,1,1,1,1,1,1,1,1,1,1,1,1,1,0,1,1,1,1,1,1,1,1,1,0,1,1,1,1,0,1,0,0,0,0,0,0,0,0,0,0,0,0,0,0,0,0,0,0,0,0,0,0,0,0,0,0,0,0,0,0,0,0,0,0,0,0,0,0,0,0,0,0,0,0,0,0,0,0,0,0,0,0,0,0,0,0,0,0],"id":5,"left_children":[1,3,5,7,9,11,13,15,17,19,21,23,25,27,29,31,33,35,37,39,41,43,45,47,49,51,53,55,57,59,-1,61,63,65,67,69,71,73,75,77,79,81,83,85,87,89,91,93,95,97,99,101,103,105,107,109,111,113,115,-1,117,-1,-1,-1,-1,-1,-1,-1,-1,-1,-1,-1,-1,-1,-1,-1,-1,-1,-1,-1,-1,-1,-1,-1,-1,-1,-1,-1,-1,-1,-1,-1,-1,-1,-1,-1,-1,-1,-1,-1,-1,-1,-1,-1,-1,-1,-1,-1,-1,-1,-1,-1,-1,-1,-1,-1,-1,-1,-1],"loss_changes":[3.0301035E3,1.620409E3,1.9007964E3,1.8724402E3,2.0203599E3,3.083871E3,1.0729675E3,2.9116548E3,1.0963003E3,1.7676929E3,1.3081588E3,8.051779E3,2.1648972E3,8.191609E2,4.0951758E2,1.530544E3,1.5116873E3,1.1946504E3,3.928232E2,1.7574819E3,5.3778186E2,1.6075004E3,1.4748909E3,3.8190723E2,5.545525E2,3.0740828E3,3.647223E2,5.1822485E2,4.8580762E2,7.236311E2,0E0,2.4599263E3,6.684678E2,9.428845E2,5.303946E2,8.6973267E2,1.5877771E2,3.5985162E2,3.7006433E2,1.2957053E3,6.8812854E2,7.0621265E2,8.953921E2,9.3952893E2,9.5902826E2,8.414917E2,3.9906323E2,4.250879E1,4.126654E1,8.415323E1,1.6281827E2,1.1661206E3,3.8185664E3,9.119175E2,2.7837097E2,3.5832666E2,2.4349759E2,5.3101074E2,5.264524E2,0E0,4.6711426E1,0E0,0E0,0E0,0E0,0E0,0E0,0E0,0E0,0E0,0E0,0E0,0E0,0E0,0E0,0E0,0E0,0E0,0E0,0E0,0E0,0E0,0E0,0E0,0E0,0E0,0E0,0E0,0E0,0E0,0E0,0E0,0E0,0E0,0E0,0E0,0E0,0E0,0E0,0E0,0E0,0E0,0E0,0E0,0E0,0E0,0E0,0E0,0E0,0E0,0E0,0E0,0E0,0E0,0E0,0E0,0E0,0E0,0E0],"parents":[2147483647,0,0,1,1,2,2,3,3,4,4,5,5,6,6,7,7,8,8,9,9,10,10,11,11,12,12,13,13,14,14,15,15,16,16,17,17,18,18,19,19,20,20,21,21,22,22,23,23,24,24,25,25,26,26,27,27,28,28,29,29,31,31,32,32,33,33,34,34,35,35,36,36,37,37,38,38,39,39,40,40,41,41,42,42,43,43,44,44,45,45,46,46,47,47,48,48,49,49,50,50,51,51,52,52,53,53,54,54,55,55,56,56,57,57,58,58,60,60],"right_children":[2,4,6,8,10,12,14,16,18,20,22,24,26,28,30,32,34,36,38,40,42,44,46,48,50,52,54,56,58,60,-1,62,64,66,68,70,72,74,76,78,80,82,84,86,88,90,92,94,96,98,100,102,104,106,108,110,112,114,116,-1,118,-1,-1,-1,-1,-1,-1,-1,-1,-1,-1,-1,-1,-1,-1,-1,-1,-1,-1,-1,-1,-1,-1,-1,-1,-1,-1,-1,-1,-1,-1,-1,-1,-1,-1,-1,-1,-1,-1,-1,-1,-1,-1,-1,-1,-1,-1,-1,-1,-1,-1,-1,-1,-1,-1,-1,-1,-1,-1],"split_conditions":[NaN,NaN,1.32E0,NaN,NaN,NaN,NaN,NaN,NaN,NaN,NaN,NaN,NaN,NaN,1.43E0,NaN,NaN,NaN,NaN,NaN,2.29E0,NaN,NaN,NaN,NaN,1.26E0,9.7E-1,NaN,NaN,NaN,-6.206E-1,NaN,NaN,NaN,NaN,NaN,NaN,NaN,NaN,NaN,NaN,NaN,NaN,NaN,2E1,NaN,NaN,NaN,NaN,NaN,NaN,NaN,NaN,NaN,1.042E0,NaN,NaN,NaN,NaN,1.19756974E-1,NaN,1.4122372E0,4.3722558E-1,4.3088475E-1,-8.3613925E-4,3.1501883E-1,9.122469E-2,1.0739557E-1,-3.6216754E-2,6.270439E-1,1.6571659E-1,1.413669E-1,1.0365204E-2,1.04998775E-1,1.5075147E-2,4.637376E-3,-1.11093804E-1,8.25363E-1,2.4495557E-1,1.5105921E-1,-3.1585947E-2,2.0935321E-2,-1.4331786E-1,3.173721E-1,3.3905216E-2,1.5822393E-1,3.7896216E-2,-2.3060221E-2,3.718633E-1,1.4932906E-2,-6.9730245E-2,-2.2798127E-3,-1.02393046E-1,6.4150774E-1,-4.5626204E-2,2.757157E-1,-1.919812E-1,1.6355476E-1,-1.8121067E-1,-3.1933002E-2,-1.6294932E-1,1.4451309E-1,-3.259801E-3,2.9138508E0,7.5163305E-2,-5.6188803E-2,-2.1449585E-1,3.7317984E-2,-8.99315E-2,3.1522256E-1,6.381419E-2,1.777051E-2,-5.303633E-2,-3.423368E-2,-8.241357E-2,-3.3711202E-2,-1.8139848E-1,-3.0397433E-1,-5.640627E-1],"split_indices":[0,4,2,0,5,1,0,1,5,0,0,5,5,6,2,0,5,0,5,4,2,1,5,0,5,2,2,5,1,5,0,5,5,0,0,5,6,1,0,5,5,3,0,0,2,3,6,4,4,0,5,0,0,0,2,1,0,5,5,0,5,0,0,0,0,0,0,0,0,0,0,0,0,0,0,0,0,0,0,0,0,0,0,0,0,0,0,0,0,0,0,0,0,0,0,0,0,0,0,0,0,0,0,0,0,0,0,0,0,0,0,0,0,0,0,0,0,0,0],"split_type":[1,1,0,1,1,1,1,1,1,1,1,1,1,1,0,1,1,1,1,1,0,1,1,1,1,0,0,1,1,1,0,1,1,1,1,1,1,1,1,1,1,1,1,1,0,1,1,1,1,1,1,1,1,1,0,1,1,1,1,0,1,0,0,0,0,0,0,0,0,0,0,0,0,0,0,0,0,0,0,0,0,0,0,0,0,0,0,0,0,0,0,0,0,0,0,0,0,0,0,0,0,0,0,0,0,0,0,0,0,0,0,0,0,0,0,0,0,0,0],"sum_hessian":[4.11968E5,2.42424E5,1.69544E5,6.2795E4,1.79629E5,5.4334E4,1.1521E5,1.9109E4,4.3686E4,3.3978E4,1.45651E5,8.483E3,4.5851E4,1.14187E5,1.023E3,2.579E3,1.653E4,4.895E3,3.8791E4,1.4024E4,1.9954E4,5.7567E4,8.8084E4,2.614E3,5.869E3,2.5703E4,2.0148E4,2.0392E4,9.3795E4,6.72E2,3.51E2,1.287E3,1.292E3,6.779E3,9.751E3,1.474E3,3.421E3,2.7952E4,1.0839E4,1.474E3,1.255E4,1.1348E4,8.606E3,2.4507E4,3.306E4,5.9667E4,2.8417E4,2.538E3,7.6E1,1.447E3,4.422E3,2.553E4,1.73E2,1.3955E4,6.193E3,2.742E3,1.765E4,8.448E4,9.315E3,3.06E2,3.66E2,3.05E2,9.82E2,6.21E2,6.71E2,3.411E3,3.368E3,3.777E3,5.974E3,7.1E2,7.64E2,1.431E3,1.99E3,4.844E3,2.3108E4,6.976E3,3.863E3,5.56E2,9.18E2,1.0285E4,2.265E3,8.012E3,3.336E3,1.158E3,7.448E3,9.603E3,1.4904E4,3.2498E4,5.62E2,4.5947E4,1.372E4,4.206E3,2.4211E4,2.53E3,8E0,2.4E1,5.2E1,1.381E3,6.6E1,3.267E3,1.155E3,6.42E3,1.911E4,7.4E1,9.9E1,8.705E3,5.25E3,3.001E3,3.192E3,6.77E2,2.065E3,9.685E3,7.965E3,4.8939E4,3.5541E4,3.451E3,5.864E3,8.5E1,2.81E2],"tree_param":{"num_deleted":"0","num_feature":"7","num_nodes":"119","size_leaf_vector":"1"}},{"base_weights":[4.2926484E-5,2.456381E-2,-1.7383103E-1,1.1164085E-1,-1.8166421E-2,-6.417042E-2,-2.0233475E-1,2.4247947E-1,-4.3915506E-2,4.1954648E-2,-1.1353141E-1,2.0499709E-1,-1.7614561E-1,-1.1543676E-1,-2.278577E-1,1.1210334E0,2.1537152E-1,1.1847162E-2,-3.3810812E-1,9.335443E-2,-8.5109554E-2,-2.3824994E-1,-5.443631E-2,3.155238E-1,-4.701492E-2,-6.6946946E-2,-2.6699317E-1,-7.2034895E-2,-2.54624E-1,-2.0651153E-1,-2.6564777E-1,3.1604874E0,8.09035E-1,3.8564554E-1,7.6097324E-2,1.3096347E-1,-9.098163E-2,-5.6187846E-2,-4.203984E-1,2.293193E-1,3.7188124E-2,1.0599221E-1,-1.3506427E-1,-8.621073E-2,-5.4538524E-1,3.5038176E-1,-9.3504734E-2,4.063751E-1,9.227014E-2,-1.4387871E-1,4.7361845E-1,2.6312548E-1,-1.5370496E-1,-1.9794776E-1,-4.74617E-1,-3.339876E-2,-1.8689317E-1,-1.3009555E-2,-3.095476E-1,-1.4330333E-1,-2.3986527E-1,-2.4280213E-1,-4.499465E-1,7.8225684E-1,1.7085998E0,6.7009044E-1,1.0655059E-1,1.6978696E-1,8.3682775E-2,3.19213E-3,1.0708926E-1,2.810668E-1,2.0086966E-2,6.0172558E-2,-1.0245289E-1,3.076774E-1,-4.3204203E-2,4.653359E-2,-1.3430852E-1,2.118599E-1,4.7742847E-2,1.8313123E-2,-1.175796E-1,7.071681E-2,-6.0326006E-2,-1.8596843E-2,-6.48042E-2,1.15329124E-1,-5.3468235E-2,-1.2893808E-1,-2.911018E-1,1.1133634E0,8.9353E-2,2.7263564E-1,-3.033552E-2,2.4612652E-1,1.0562841E-1,8.050426E-2,-1.02476545E-1,1.0490565E-1,-6.010832E-2,1.885965E0,2.8964106E-2,1.6472071E-1,3.94418E-2,-3.1361602E-2,-9.0006664E-2,-1.2249075E-2,-7.991954E-2,-1.7427391E-1,-7.370882E-2,-1.1464905E-2,2.8008822E-1,3.1624082E-2,-7.330615E-2,-1.07837215E-1,6.72717E-2,-7.258522E-2,-1.22465E-1,3.0769045E-2,-5.226266E-2,-6.3404754E-2,-8.535586E-2,3.203088E-2,-7.476013E-2,-7.93479E-2,-2.0860003E-1],"categories":[7,11,12,15,23,25,26,28,0,1,4,0,1,4,5,6,7,9,10,11,1,3,4,5,7,8,9,10,11,12,13,14,15,17,18,19,20,23,24,25,26,28,29,0,2,3,5,9,17,20,22,27,0,1,4,5,6,7,8,9,10,11,12,15,16,17,18,19,20,21,24,28,30,1,4,11,13,14,15,16,17,18,19,20,21,22,23,24,25,26,27,28,29,30,0,1,2,4,5,6,7,8,9,10,11,7,9,10,18,20,22,23,26,10,13,15,18,19,20,21,22,23,24,25,11,12,15,12,15,23,26,4,10,11,13,15,16,19,21,22,23,26,27,0,1,2,3,4,5,6,7,8,9,10,11,13,15,19,21,22,23,24,26,27,28,29,30,4,11,12,13,16,17,18,19,20,21,23,24,25,27,28,29,30,0,1,2,3,5,9,10,0,1,2,5,6,0,2,3,4,0,1,2,4,5,6,7,9,11,1,2,3,5,9,17,20,22,27,0,1,2,3,4,5,6,7,9,10,11,1,4,5,7,8,9,10,11,12,16,17,18,19,20,24,0,1,5,8,11,15,0,1,11,23,25,26,7,15,23,28,1,2,3,4,5,6,7,8,9,10,11,12,13,14,15,16,17,18,19,20,22,23,24,25,26,27,28,29,0,1,2,3,4,5,7,8,9,10,11,12,13,14,15,17,18,19,20,21,22,23,24,25,26,28,29,0,0,1,2,3,4,5,6,7,8,9,10,11,12,13,15,16,17,18,19,20,21,22,23,24,25,26,27,28,29,0,1,2,3,4,5,6,7,8,9,10,11,12,13,14,15,16,17,18,19,20,21,22,23,24,25,27,28,29,30,0,1,2,3,4,5,6,7,8,9,11,12,13,14,15,16,17,18,19,20,21,22,23,24,25,26,27,28,29,4,10,1,13,19,21,1,5,6,1,2,3,4,5,8,9,10,11,12,13,14,15,16,18,19,20,21,22,23,25,26,27,28,29,7,8,9,10,0,1,3,4,5,6,7,8,9,10,11,0,1,2,3,4,5,6,7,8,9,10,11,12,14,15,16,17,18,19,20,21,22,23,24,26,28,29,30,26,2,3,13,14,23,25,26,27,29,0,1,2,3,4,5,6,7,8,9,10,11,12,13,14,15,16,17,18,19,20,21,22,23,24,25,27,28,29,30,9,10,11,18,24,12,23,1,0,1,5,6,7,11,26,0,1,4,5,6,7,10,11,1,17,28,29,21,22,23,26,27],"categories_nodes":[0,1,2,3,4,5,6,7,8,9,11,12,13,14,15,16,17,18,19,20,21,22,23,25,26,27,28,29,30,32,33,34,35,37,39,40,41,42,43,44,45,47,48,49,50,52,53,54,56,58,59,60,62],"categories_segments":[0,8,11,20,43,52,73,94,105,113,124,127,131,134,143,167,184,191,196,200,209,210,218,229,244,250,252,256,259,260,288,315,316,345,375,404,406,410,413,438,442,453,481,482,491,521,526,528,529,534,536,544,548],"categories_sizes":[8,3,9,23,9,21,21,11,8,11,3,4,3,9,24,17,7,5,4,9,1,8,11,15,6,2,4,3,1,28,27,1,29,30,29,2,4,3,25,4,11,28,1,9,30,5,2,1,5,2,8,4,5],"default_left":[1,1,1,1,1,1,1,1,1,1,0,1,1,1,1,1,1,1,1,1,1,1,1,1,0,1,1,1,1,1,1,0,1,1,1,1,0,1,0,1,1,1,1,1,1,1,0,1,1,1,1,0,1,1,1,0,1,0,1,1,1,0,1,0,0,0,0,0,0,0,0,0,0,0,0,0,0,0,0,0,0,0,0,0,0,0,0,0,0,0,0,0,0,0,0,0,0,0,0,0,0,0,0,0,0,0,0,0,0,0,0,0,0,0,0,0,0,0,0,0,0,0,0,0,0,0,0],"id":6,"left_children":[1,3,5,7,9,11,13,15,17,19,21,23,25,27,29,31,33,35,37,39,41,43,45,47,49,51,53,55,57,59,61,63,65,67,69,71,73,75,77,79,81,83,85,87,89,91,93,95,97,99,101,103,105,107,109,111,113,115,117,119,121,123,125,-1,-1,-1,-1,-1,-1,-1,-1,-1,-1,-1,-1,-1,-1,-1,-1,-1,-1,-1,-1,-1,-1,-1,-1,-1,-1,-1,-1,-1,-1,-1,-1,-1,-1,-1,-1,-1,-1,-1,-1,-1,-1,-1,-1,-1,-1,-1,-1,-1,-1,-1,-1,-1,-1,-1,-1,-1,-1,-1,-1,-1,-1,-1,-1],"loss_changes":[1.7564518E3,1.3434122E3,1.5914331E2,2.418979E3,1.388651E3,3.1668784E2,8.960535E1,1.5371875E3,8.9076074E2,9.702052E2,6.902186E2,8.6000305E1,7.3591736E1,5.54198E1,2.514331E1,1.2267871E3,1.4850847E3,5.5912317E2,2.0069678E2,8.0769635E2,4.0845862E2,1.4058943E3,1.00501935E3,4.3489594E1,4.75737E1,9.657384E1,5.796469E1,3.1044205E1,2.8938568E1,4.2058533E1,4.7350647E1,3.4397925E2,1.0835178E3,5.419404E2,6.333297E2,1.0909049E3,1.7895524E3,1.8598433E2,1.0527612E2,1.0346162E3,7.662477E2,3.5328644E2,2.006305E2,8.7226855E2,4.8927148E2,9.864658E2,4.423292E2,3.398497E1,4.7607914E1,2.2232803E1,3.2379282E2,2.635479E1,1.9176281E1,3.269448E1,2.4434006E1,2.4433477E1,2.9603756E1,3.336927E1,1.1753342E1,5.2440918E1,1.65802E1,2.2462585E1,5.633687E1,0E0,0E0,0E0,0E0,0E0,0E0,0E0,0E0,0E0,0E0,0E0,0E0,0E0,0E0,0E0,0E0,0E0,0E0,0E0,0E0,0E0,0E0,0E0,0E0,0E0,0E0,0E0,0E0,0E0,0E0,0E0,0E0,0E0,0E0,0E0,0E0,0E0,0E0,0E0,0E0,0E0,0E0,0E0,0E0,0E0,0E0,0E0,0E0,0E0,0E0,0E0,0E0,0E0,0E0,0E0,0E0,0E0,0E0,0E0,0E0,0E0,0E0,0E0,0E0],"parents":[2147483647,0,0,1,1,2,2,3,3,4,4,5,5,6,6,7,7,8,8,9,9,10,10,11,11,12,12,13,13,14,14,15,15,16,16,17,17,18,18,19,19,20,20,21,21,22,22,23,23,24,24,25,25,26,26,27,27,28,28,29,29,30,30,31,31,32,32,33,33,34,34,35,35,36,36,37,37,38,38,39,39,40,40,41,41,42,42,43,43,44,44,45,45,46,46,47,47,48,48,49,49,50,50,51,51,52,52,53,53,54,54,55,55,56,56,57,57,58,58,59,59,60,60,61,61,62,62],"right_children":[2,4,6,8,10,12,14,16,18,20,22,24,26,28,30,32,34,36,38,40,42,44,46,48,50,52,54,56,58,60,62,64,66,68,70,72,74,76,78,80,82,84,86,88,90,92,94,96,98,100,102,104,106,108,110,112,114,116,118,120,122,124,126,-1,-1,-1,-1,-1,-1,-1,-1,-1,-1,-1,-1,-1,-1,-1,-1,-1,-1,-1,-1,-1,-1,-1,-1,-1,-1,-1,-1,-1,-1,-1,-1,-1,-1,-1,-1,-1,-1,-1,-1,-1,-1,-1,-1,-1,-1,-1,-1,-1,-1,-1,-1,-1,-1,-1,-1,-1,-1,-1,-1,-1,-1,-1,-1],"split_conditions":[NaN,NaN,NaN,NaN,NaN,NaN,NaN,NaN,NaN,NaN,1.26E0,NaN,NaN,NaN,NaN,NaN,NaN,NaN,NaN,NaN,NaN,NaN,NaN,NaN,6.2E0,NaN,NaN,NaN,NaN,NaN,NaN,4.784E0,NaN,NaN,NaN,NaN,1.5903E0,NaN,3.27E-1,NaN,NaN,NaN,NaN,NaN,NaN,NaN,1.32E0,NaN,NaN,NaN,NaN,4E0,NaN,NaN,NaN,5E1,NaN,1.43E0,NaN,NaN,NaN,3.27E-1,NaN,7.8225684E-1,1.7085998E0,6.7009044E-1,1.0655059E-1,1.6978696E-1,8.3682775E-2,3.19213E-3,1.0708926E-1,2.810668E-1,2.0086966E-2,6.0172558E-2,-1.0245289E-1,3.076774E-1,-4.3204203E-2,4.653359E-2,-1.3430852E-1,2.118599E-1,4.7742847E-2,1.8313123E-2,-1.175796E-1,7.071681E-2,-6.0326006E-2,-1.8596843E-2,-6.48042E-2,1.15329124E-1,-5.3468235E-2,-1.2893808E-1,-2.911018E-1,1.1133634E0,8.9353E-2,2.7263564E-1,-3.033552E-2,2.4612652E-1,1.0562841E-1,8.050426E-2,-1.02476545E-1,1.0490565E-1,-6.010832E-2,1.885965E0,2.8964106E-2,1.6472071E-1,3.94418E-2,-3.1361602E-2,-9.0006664E-2,-1.2249075E-2,-7.991954E-2,-1.7427391E-1,-7.370882E-2,-1.1464905E-2,2.8008822E-1,3.1624082E-2,-7.330615E-2,-1.07837215E-1,6.72717E-2,-7.258522E-2,-1.22465E-1,3.0769045E-2,-5.226266E-2,-6.3404754E-2,-8.535586E-2,3.203088E-2,-7.476013E-2,-7.93479E-2,-2.0860003E-1],"split_indices":[0,1,4,0,0,5,5,4,5,5,2,0,0,4,5,5,5,4,6,1,4,3,0,4,2,5,5,6,0,0,0,2,0,0,3,0,2,5,2,0,4,0,6,5,4,4,2,5,0,5,5,2,5,0,3,2,4,2,0,4,5,2,5,0,0,0,0,0,0,0,0,0,0,0,0,0,0,0,0,0,0,0,0,0,0,0,0,0,0,0,0,0,0,0,0,0,0,0,0,0,0,0,0,0,0,0,0,0,0,0,0,0,0,0,0,0,0,0,0,0,0,0,0,0,0,0,0],"split_type":[1,1,1,1,1,1,1,1,1,1,0,1,1,1,1,1,1,1,1,1,1,1,1,1,0,1,1,1,1,1,1,0,1,1,1,1,0,1,0,1,1,1,1,1,1,1,0,1,1,1,1,0,1,1,1,0,1,0,1,1,1,0,1,0,0,0,0,0,0,0,0,0,0,0,0,0,0,0,0,0,0,0,0,0,0,0,0,0,0,0,0,0,0,0,0,0,0,0,0,0,0,0,0,0,0,0,0,0,0,0,0,0,0,0,0,0,0,0,0,0,0,0,0,0,0,0,0],"sum_hessian":[4.11968E5,3.61051E5,5.0917E4,1.18851E5,2.422E5,1.0505E4,4.0412E4,6.4554E4,5.4297E4,1.4855E5,9.365E4,3.086E3,7.419E3,9.176E3,3.1236E4,1.931E3,6.2623E4,4.5646E4,8.651E3,1.05766E5,4.2784E4,3.0107E4,6.3543E4,2.145E3,9.41E2,3.37E3,4.049E3,6.996E3,2.18E3,1.9965E4,1.1271E4,2.55E2,1.676E3,2.8175E4,3.4448E4,2.1148E4,2.4498E4,1.955E3,6.696E3,3.0918E4,7.4848E4,8.866E3,3.3918E4,2.0139E4,9.968E3,5.592E3,5.7951E4,1.524E3,6.21E2,7.94E2,1.47E2,7.01E2,2.669E3,3.04E3,1.009E3,5.236E3,1.76E3,4.04E2,1.776E3,6.898E3,1.3067E4,1.003E4,1.241E3,2.11E2,4.4E1,4.04E2,1.272E3,1.0473E4,1.7702E4,2.7938E4,6.51E3,1.555E3,1.9593E4,1.1322E4,1.3176E4,1.46E2,1.809E3,3.03E2,6.393E3,3.965E3,2.6953E4,7.0907E4,3.941E3,6.233E3,2.633E3,1.7827E4,1.6091E4,3.293E3,1.6846E4,7.838E3,2.13E3,8.5E1,5.507E3,4.36E2,5.7515E4,1.75E2,1.349E3,4.42E2,1.79E2,8.1E1,7.13E2,8E0,1.39E2,2.2E2,4.81E2,1.999E3,6.7E2,9.23E2,2.117E3,6.88E2,3.21E2,5.211E3,2.5E1,2.89E2,1.471E3,1.64E2,2.4E2,1.056E3,7.2E2,7.7E2,6.128E3,7.978E3,5.089E3,1.8E2,9.85E3,7.08E2,5.33E2],"tree_param":{"num_deleted":"0","num_feature":"7","num_nodes":"127","size_leaf_vector":"1"}},{"base_weights":[4.645802E-5,4.5864526E-2,-5.7271063E-2,1.2965529E-1,-1.1562787E-2,6.502259E-2,-8.381273E-2,2.658656E-1,2.1889415E-2,2.7928174E-2,-1.0963775E-1,5.888127E-1,-2.7794478E-2,-4.785152E-2,-1.7917022E-1,3.4783244E-1,7.374834E-2,1.793155E-1,-3.6603887E-2,2.0471562E-1,-6.3002007E-3,9.776911E-2,-1.3849643E-1,1.7083225E0,9.817909E-2,4.7530252E-2,-1.8553537E-1,3.0174017E-2,-9.725815E-2,-1.5930381E-1,-4.134862E-1,6.8809104E-1,2.5149593E-1,2.931508E-1,-3.0555007E-1,4.1018203E-1,1.1179383E-2,3.444836E-2,-1.6187114E-1,6.8548834E-1,-7.634976E-2,-6.9622375E-2,2.0311809E-1,2.9572052E-1,-2.6787583E-2,-1.17031716E-1,-3.8075295E-1,4.4628253E0,1.2899172E0,-3.7690233E-2,2.1732771E0,4.510273E-1,-2.1927333E-2,3.9761275E-1,-2.510948E-1,4.392636E-1,-1.7366244E-2,6.2146837E-1,-1.0770398E-1,-1.3615641E-1,-2.82864E-1,-1.3402774E-2,-6.077957E-1,5.4144055E-1,1.7111464E-1,9.123283E-2,-1.0334294E-1,1.7130014E-1,1.7146874E-2,-1.7315993E-1,5.164264E-2,1.9456278E-1,-2.816757E-2,8.3058685E-2,-6.318131E-2,5.3647302E-2,-8.572362E-3,-2.065363E-2,-1.4369749E-1,3.8750184E-1,-2.8607454E-2,9.178723E-2,-9.117038E-2,-1.0171605E-1,-7.537708E-3,4.1008916E-1,5.2485615E-2,1.7752795E-1,3.2628722E-2,7.214724E-2,-3.507805E-2,-1.846395E-2,-5.6941316E-2,-3.8239002E-2,-1.8461606E-1,1.657971E0,9.8583263E-1,5.311922E-1,7.076455E-3,6.663687E-2,-1.3854016E-1,7.756868E-1,2.611975E-1,3.2111916E-1,4.7538742E-2,-1.1199171E-2,5.0626636E-1,6.7862475E-1,7.380771E-2,-5.5710953E-2,-1.8858121E-1,2.7315098E-1,-6.544158E-3,-8.786239E-3,2.2756825E-1,1.8190829E0,2.7446203E-2,-1.3671933E-2,-7.268829E-2,-1.1711396E-2,-4.5779485E-2,-5.75543E-2,-1.20695084E-1,6.7840464E-2,-1.1378492E-1,-1.24220215E-1,-2.0473267E-1],"categories":[0,5,6,0,10,12,13,14,15,16,17,18,20,21,22,23,24,25,28,29,30,1,2,3,4,5,6,7,8,9,10,11,12,13,14,15,18,19,20,21,22,23,25,26,27,28,30,2,3,4,7,9,11,12,13,15,17,18,20,22,23,24,25,26,27,28,1,5,7,9,10,11,12,15,18,23,26,28,29,0,1,2,3,5,6,7,8,9,11,12,14,15,16,17,18,19,20,21,22,24,25,26,27,28,29,4,5,7,11,12,13,15,17,19,23,26,27,28,1,0,1,4,0,1,3,4,0,4,5,6,7,8,9,10,11,1,2,4,5,7,8,9,10,11,16,17,0,6,7,9,10,11,2,1,2,3,4,6,7,8,9,10,11,12,13,15,16,17,18,19,20,21,22,23,24,25,26,27,28,29,7,9,10,11,0,1,2,5,6,8,9,10,11,2,11,12,15,23,25,27,0,1,2,3,4,5,6,7,8,9,10,11,12,15,17,18,19,20,21,22,23,24,25,26,27,28,29,30,1,10,0,1,2,3,4,5,6,7,8,9,10,11,12,13,14,15,16,18,19,20,21,22,23,24,25,26,27,28,29,30,1,0,2,3,4,5,6,7,8,9,10,11,12,13,15,16,17,19,20,21,22,23,24,25,26,27,28,29,0,1,2,3,4,5,7,9,10,11,12,13,14,15,16,17,18,19,20,21,22,23,24,25,26,27,28,29,1,3,4,5,7,8,9,10,11,12,13,14,15,16,17,18,19,20,21,22,23,24,25,26,27,28,29,9,11,15,30,1,2,3,4,5,6,7,9,10,11,13,18,23,25,26,27,0,1,2,3,4,5,6,8,9,10,11,10,19,1,2,3,4,5,7,8,9,11,12,13,14,15,16,17,18,19,20,21,22,23,24,25,26,27,28,29,0,1,2,3,4,5,6,7,8,9,10,11,12,13,14,15,16,17,19,20,21,22,23,24,25,26,28,29,4,5,6,7,8,26,27,0,1,2,3,6,8,9,10,11,12,13,14,15,16,17,18,20,21,22,23,24,25,26,28,29,30,1,0,1,3,4,5,6,7,8,9,10,11,12,13,14,15,16,17,18,19,21,22,23,24,25,26,27,28,29,4,6,8,20,27,0,1,2,3,4,5,6,7,8,9,10,11,12,13,14,15,16,17,18,19,20,22,23,24,25,26,27,28,29,30,0,1,2,3,4,5,6,7,8,9,11,12,13,14,15,16,17,18,19,20,21,22,23,24,25,27,28,29,1,2,4,0,15,17,21,22,23,24,25,28,0,10,14,16,17,20,21,25,29,30,0,1,2,3,5,6,7,8,9,10,11,12,13,14,15,16,17,18,19,20,21,22,23,24,25,26,27,28,29,0,1,2,3,4,5,6,7,8,9,10,11,12,13,14,15,17,18,19,20,21,22,23,24,25,26,27,28,30,7,9,0,1,2,5,6,7,8,10,11,0,1,2,3,4,5,7,8,9,10,11,14,18,0,1,2,3,4,7,10,11,12,14,16,17,18,20,21,23,24,28,29,30,0,1,2,3,4,5,7,8,9,10,11,12,13,15,16,17,18,19,20,21,22,23,24,25,26,27,28,29,30,6,7,8,10,12,18,19,21,22,23,0,1,4,4,13,17,7,9,1,2,4,5,7,9,10,11,13,18,25,26],"categories_nodes":[0,1,2,3,4,5,6,7,8,9,10,11,12,13,14,15,16,17,18,20,21,22,23,24,25,26,27,29,30,31,32,33,35,36,37,38,39,40,42,43,44,45,46,47,48,49,51,53,54,55,57,58,59,60,61,62],"categories_segments":[0,3,21,47,66,79,105,118,119,122,126,135,144,146,152,153,180,184,193,200,201,228,230,260,261,288,316,343,347,363,374,376,403,431,438,464,465,493,498,528,556,559,568,578,607,636,638,647,658,660,680,709,719,722,725,727],"categories_sizes":[3,18,26,19,13,26,13,1,3,4,9,9,2,6,1,27,4,9,7,1,27,2,30,1,27,28,27,4,16,11,2,27,28,7,26,1,28,5,30,28,3,9,10,29,29,2,9,11,2,20,29,10,3,3,2,12],"default_left":[1,1,1,1,1,1,1,1,1,1,1,1,1,1,1,1,1,1,1,0,1,1,1,1,1,1,1,1,0,1,1,1,1,1,0,1,1,1,1,1,1,0,1,1,1,1,1,1,1,1,0,1,0,1,1,1,0,1,1,1,1,1,1,0,0,0,0,0,0,0,0,0,0,0,0,0,0,0,0,0,0,0,0,0,0,0,0,0,0,0,0,0,0,0,0,0,0,0,0,0,0,0,0,0,0,0,0,0,0,0,0,0,0,0,0,0,0,0,0,0,0,0,0,0,0,0,0],"id":7,"left_children":[1,3,5,7,9,11,13,15,17,19,21,23,25,27,29,31,33,35,37,39,41,43,45,47,49,51,53,55,57,59,61,63,65,67,69,71,73,75,77,79,81,83,85,87,89,91,93,95,97,99,101,103,105,107,109,111,113,115,117,119,121,123,125,-1,-1,-1,-1,-1,-1,-1,-1,-1,-1,-1,-1,-1,-1,-1,-1,-1,-1,-1,-1,-1,-1,-1,-1,-1,-1,-1,-1,-1,-1,-1,-1,-1,-1,-1,-1,-1,-1,-1,-1,-1,-1,-1,-1,-1,-1,-1,-1,-1,-1,-1,-1,-1,-1,-1,-1,-1,-1,-1,-1,-1,-1,-1,-1],"loss_changes":[1.0819065E3,1.1016907E3,5.9405963E2,1.366666E3,5.261525E2,1.5867668E3,5.1567334E2,6.475796E2,4.786669E2,5.860609E2,2.3343555E2,2.6983918E3,3.2944333E2,4.2097046E2,1.9163232E2,9.4472437E2,1.02368335E3,5.4661646E2,3.373352E2,2.1229219E3,1.0760238E3,1.17469925E2,1.7797632E2,1.7195332E3,9.634783E2,5.259445E2,3.4268646E2,8.234261E2,5.020539E2,1.085423E2,2.5015918E2,8.3497217E2,7.045846E2,5.1096222E2,5.850797E2,7.130389E2,4.8023117E2,2.2005516E2,4.046234E2,2.743584E3,8.6264404E2,7.4694104E2,6.173209E2,1.0177403E2,7.049802E1,1.2697739E2,1.6549442E2,2.284292E2,7.9194727E2,3.5359024E2,1.1054584E2,4.9923364E2,4.2165747E2,2.5550578E2,1.9875317E2,9.5778125E2,3.5089304E2,2.762539E3,5.51109E2,5.105359E1,6.5036224E1,9.23729E1,3.1040283E1,0E0,0E0,0E0,0E0,0E0,0E0,0E0,0E0,0E0,0E0,0E0,0E0,0E0,0E0,0E0,0E0,0E0,0E0,0E0,0E0,0E0,0E0,0E0,0E0,0E0,0E0,0E0,0E0,0E0,0E0,0E0,0E0,0E0,0E0,0E0,0E0,0E0,0E0,0E0,0E0,0E0,0E0,0E0,0E0,0E0,0E0,0E0,0E0,0E0,0E0,0E0,0E0,0E0,0E0,0E0,0E0,0E0,0E0,0E0,0E0,0E0,0E0,0E0,0E0],"parents":[2147483647,0,0,1,1,2,2,3,3,4,4,5,5,6,6,7,7,8,8,9,9,10,10,11,11,12,12,13,13,14,14,15,15,16,16,17,17,18,18,19,19,20,20,21,21,22,22,23,23,24,24,25,25,26,26,27,27,28,28,29,29,30,30,31,31,32,32,33,33,34,34,35,35,36,36,37,37,38,38,39,39,40,40,41,41,42,42,43,43,44,44,45,45,46,46,47,47,48,48,49,49,50,50,51,51,52,52,53,53,54,54,55,55,56,56,57,57,58,58,59,59,60,60,61,61,62,62],"right_children":[2,4,6,8,10,12,14,16,18,20,22,24,26,28,30,32,34,36,38,40,42,44,46,48,50,52,54,56,58,60,62,64,66,68,70,72,74,76,78,80,82,84,86,88,90,92,94,96,98,100,102,104,106,108,110,112,114,116,118,120,122,124,126,-1,-1,-1,-1,-1,-1,-1,-1,-1,-1,-1,-1,-1,-1,-1,-1,-1,-1,-1,-1,-1,-1,-1,-1,-1,-1,-1,-1,-1,-1,-1,-1,-1,-1,-1,-1,-1,-1,-1,-1,-1,-1,-1,-1,-1,-1,-1,-1,-1,-1,-1,-1,-1,-1,-1,-1,-1,-1,-1,-1,-1,-1,-1,-1],"split_conditions":[NaN,NaN,NaN,NaN,NaN,NaN,NaN,NaN,NaN,NaN,NaN,NaN,NaN,NaN,NaN,NaN,NaN,NaN,NaN,1.32E0,NaN,NaN,NaN,NaN,NaN,NaN,NaN,NaN,1.95E-1,NaN,NaN,NaN,NaN,NaN,2.29E0,NaN,NaN,NaN,NaN,NaN,NaN,9.15E-1,NaN,NaN,NaN,NaN,NaN,NaN,NaN,NaN,2.92E0,NaN,2.5E1,NaN,NaN,NaN,1.209E1,NaN,NaN,NaN,NaN,NaN,NaN,5.4144055E-1,1.7111464E-1,9.123283E-2,-1.0334294E-1,1.7130014E-1,1.7146874E-2,-1.7315993E-1,5.164264E-2,1.9456278E-1,-2.816757E-2,8.3058685E-2,-6.318131E-2,5.3647302E-2,-8.572362E-3,-2.065363E-2,-1.4369749E-1,3.8750184E-1,-2.8607454E-2,9.178723E-2,-9.117038E-2,-1.0171605E-1,-7.537708E-3,4.1008916E-1,5.2485615E-2,1.7752795E-1,3.2628722E-2,7.214724E-2,-3.507805E-2,-1.846395E-2,-5.6941316E-2,-3.8239002E-2,-1.8461606E-1,1.657971E0,9.8583263E-1,5.311922E-1,7.076455E-3,6.663687E-2,-1.3854016E-1,7.756868E-1,2.611975E-1,3.2111916E-1,4.7538742E-2,-1.1199171E-2,5.0626636E-1,6.7862475E-1,7.380771E-2,-5.5710953E-2,-1.8858121E-1,2.7315098E-1,-6.544158E-3,-8.786239E-3,2.2756825E-1,1.8190829E0,2.7446203E-2,-1.3671933E-2,-7.268829E-2,-1.1711396E-2,-4.5779485E-2,-5.75543E-2,-1.20695084E-1,6.7840464E-2,-1.1378492E-1,-1.24220215E-1,-2.0473267E-1],"split_indices":[6,5,5,0,0,0,0,3,1,1,4,4,5,4,1,0,4,4,0,2,3,5,0,5,3,0,0,0,2,5,5,4,0,0,2,0,5,5,1,0,0,2,5,0,1,5,5,0,5,4,2,4,2,4,0,5,2,5,5,1,0,4,5,0,0,0,0,0,0,0,0,0,0,0,0,0,0,0,0,0,0,0,0,0,0,0,0,0,0,0,0,0,0,0,0,0,0,0,0,0,0,0,0,0,0,0,0,0,0,0,0,0,0,0,0,0,0,0,0,0,0,0,0,0,0,0,0],"split_type":[1,1,1,1,1,1,1,1,1,1,1,1,1,1,1,1,1,1,1,0,1,1,1,1,1,1,1,1,0,1,1,1,1,1,0,1,1,1,1,1,1,0,1,1,1,1,1,1,1,1,0,1,0,1,1,1,0,1,1,1,1,1,1,0,0,0,0,0,0,0,0,0,0,0,0,0,0,0,0,0,0,0,0,0,0,0,0,0,0,0,0,0,0,0,0,0,0,0,0,0,0,0,0,0,0,0,0,0,0,0,0,0,0,0,0,0,0,0,0,0,0,0,0,0,0,0,0],"sum_hessian":[4.11968E5,2.28951E5,1.83017E5,9.3104E4,1.35847E5,3.2637E4,1.5038E5,4.1124E4,5.198E4,9.685E4,3.8997E4,4.912E3,2.7725E4,1.092E5,4.118E4,2.8825E4,1.2299E4,1.4081E4,3.7899E4,1.5709E4,8.1141E4,4.763E3,3.4234E4,1.496E3,3.416E3,1.8765E4,8.96E3,4.2338E4,6.6862E4,3.7963E4,3.217E3,6.359E3,2.2466E4,7.792E3,4.507E3,5.933E3,8.148E3,2.4183E4,1.3716E4,5.795E3,9.914E3,6.2303E4,1.8838E4,1.839E3,2.924E3,3.1449E4,2.785E3,1.96E2,1.3E3,3.207E3,2.09E2,2.755E3,1.601E4,9.05E2,8.055E3,4.407E3,3.7931E4,9.57E2,6.5905E4,3.1975E4,5.988E3,1.052E3,2.165E3,6.05E2,5.754E3,2.0644E4,1.822E3,3.578E3,4.214E3,2.873E3,1.634E3,4.028E3,1.905E3,3.707E3,4.441E3,7.348E3,1.6835E4,1.0606E4,3.11E3,3.262E3,2.533E3,3.699E3,6.215E3,8.83E3,5.3473E4,4.44E2,1.8394E4,7.11E2,1.128E3,7.37E2,2.187E3,1.7845E4,1.3604E4,1.34E3,1.445E3,1.01E2,9.5E1,9.42E2,3.58E2,1.989E3,1.218E3,1.58E2,5.1E1,8.83E2,1.872E3,1.5868E4,1.42E2,6.7E1,8.38E2,6.867E3,1.188E3,2.179E3,2.228E3,3.7358E4,5.73E2,8.4E1,8.73E2,4.5091E4,2.0814E4,4.63E3,2.7345E4,3.4E3,2.588E3,6.36E2,4.16E2,6.04E2,1.561E3],"tree_param":{"num_deleted":"0","num_feature":"7","num_nodes":"127","size_leaf_vector":"1"}},{"base_weights":[5.3505177E-5,5.5864047E-2,-2.752648E-2,1.0059375E-1,-2.5348816E-2,8.602385E-3,-7.274361E-2,1.9901712E-1,2.7566966E-2,5.2057385E-2,-1.256078E-1,7.604194E-2,-3.462895E-2,-2.3463605E-2,-1.4379577E-1,4.4987727E-2,3.1133083E-1,1.8093628E-1,-3.432865E-2,2.5995648E-1,1.0931202E-2,-9.276432E-2,-3.641792E-1,2.8211147E-1,-6.706999E-3,3.572694E-2,-1.7013977E-1,1.2153877E-1,-7.631667E-2,-4.376959E-2,-1.757871E-1,3.4450972E-1,-1.3950795E-1,9.3850845E-1,2.3934199E-1,2.7503318E-1,-1.687127E-1,3.0585114E-2,-1.1838273E-1,1.5817311E-1,9.562336E-1,2.3259391E-1,-2.4431229E-2,8.015591E-3,-1.7089848E-1,-1.6141813E-1,-6.52941E-1,4.7122017E-1,6.815732E-2,4.2554848E-2,-2.1013018E-1,1.8517949E-1,-5.3205673E-2,-6.643427E-2,-2.6420003E-1,3.1755102E0,1.0372225E-1,8.664824E-3,-1.0532594E-1,4.9613425E-1,-9.991365E-2,-1.0877085E-1,-2.5396717E-1,1.3227889E-1,-7.04579E-2,-6.970439E-2,3.9222836E-2,9.969867E-1,1.4038935E-1,1.1072259E-1,1.7868154E-2,1.7158821E-1,6.0033713E-2,1.8338244E-2,-1.1021622E-1,9.772037E-2,-2.002495E-3,-2.0236317E-2,-9.131211E-2,9.95656E-2,-7.9352416E-2,1.2817302E0,2.5793326E-1,2.989354E-1,4.0747356E-3,2.5934905E-3,-1.2485635E-1,7.2493315E-2,-3.8313173E-2,-3.5384562E-2,-1.3189436E-1,2.718477E-1,-7.346951E-2,-7.481174E-2,-3.001063E-1,1.7750934E-1,-1.8014453E-2,1.2462104E-2,1.2976533E0,6.923594E-2,-1.7455971E-3,-4.0685716E-3,-1.2702854E-1,3.8549867E-2,2.6421407E-1,3.064499E-2,-4.402735E-2,5.1486123E-2,-3.2256182E-2,-6.007517E-2,-1.0310381E-1,3.8736465E0,2.7554968E-1,6.1039127E-2,-4.5905735E-2,8.829953E-2,-2.414457E-2,-5.2257065E-2,-1.6706608E-2,7.187068E-1,-1.939024E-2,-2.4425298E-2,-1.748387E-1,-7.694097E-3,-4.3763056E-2,-6.5824814E-2,-1.2190849E-1],"categories":[0,1,4,5,6,0,9,10,14,16,17,18,21,22,24,25,0,2,3,7,11,12,13,15,17,18,19,23,25,26,27,28,29,3,4,7,8,9,10,11,12,13,15,17,18,20,21,23,24,25,26,27,28,1,4,5,7,8,11,14,15,16,22,25,28,29,0,1,2,4,5,9,10,4,6,9,11,12,16,18,19,21,23,26,28,30,0,2,4,0,1,3,5,7,9,10,11,1,2,3,4,1,2,3,5,6,7,8,11,12,13,15,18,20,21,22,23,24,25,26,29,30,3,4,6,8,9,10,14,16,17,18,19,20,21,22,23,24,27,0,1,4,1,5,6,7,9,10,11,0,1,4,5,7,9,10,11,14,15,16,17,18,21,22,24,25,27,28,29,30,0,1,3,4,5,8,9,10,11,12,13,14,15,16,17,18,19,20,21,22,23,24,25,26,27,28,29,30,0,4,7,9,10,11,14,16,17,18,19,20,21,22,23,24,25,26,1,2,3,8,12,13,19,23,28,9,14,17,18,22,24,8,14,0,1,2,3,5,7,8,9,11,12,13,14,15,17,18,19,20,21,23,24,25,26,27,28,29,1,4,10,0,3,4,1,4,5,6,8,14,0,1,2,3,5,6,7,8,9,10,11,0,2,3,7,11,12,15,17,23,26,27,28,29,1,2,3,4,5,6,7,8,9,10,11,12,13,14,15,16,17,18,19,20,21,22,23,24,25,26,27,28,29,0,2,13,15,19,29,0,2,11,0,1,4,0,2,3,4,5,6,7,8,9,10,11,12,13,14,16,17,18,19,20,21,22,23,24,25,26,27,29,30,4,18,27,0,1,2,3,4,5,6,7,8,9,10,11,12,14,15,16,17,19,20,21,22,23,24,25,26,27,28,29,2,6,1,3,4,5,7,8,11,12,13,14,15,16,17,18,19,20,22,23,24,25,26,27,28,29,1,2,3,4,0,1,2,3,4,5,6,7,8,9,10,11,12,13,14,15,16,18,19,20,22,23,24,25,26,27,28,29,0,17,1,2,4,1,4,14,0,1,2,3,4,5,6,7,8,9,10,11,12,13,14,15,16,17,19,20,21,22,23,26,27,28,29,30,2,0,1,2,3,4,5,6,7,8,11,12,13,15,18,20,21,22,23,24,25,26,27,29,30,0,1,2,4,2,5,6,11,13,20,23,25,26,1,2,4,10,0,1,2,4,6,8,9,16,17,19,22,24,7,18,0,1,2,3,4,5,6,7,9,11,12,13,15,16,18,19,21,22,23,24,25,26,27,28,30,0,1,2,3,4,5,6,7,8,9,10,11,12,13,14,15,16,17,18,20,21,22,23,24,25,27,28,29,30,26,1],"categories_nodes":[0,1,2,3,4,5,6,8,9,10,11,12,13,14,15,16,17,18,21,22,23,24,25,26,27,28,29,30,31,32,34,35,36,37,38,39,40,41,42,43,44,45,46,47,49,50,52,53,54,56,57,59,60,62],"categories_segments":[0,5,16,33,53,66,73,86,89,97,101,122,139,142,149,170,198,216,225,231,233,258,261,264,270,281,294,323,329,332,333,335,363,366,394,396,420,424,452,454,457,460,488,489,513,517,526,530,534,542,544,569,598,599],"categories_sizes":[5,11,17,20,13,7,13,3,8,4,21,17,3,7,21,28,18,9,6,2,25,3,3,6,11,13,29,6,3,1,2,28,3,28,2,24,4,28,2,3,3,28,1,24,4,9,4,4,8,2,25,29,1,1],"default_left":[1,1,1,1,1,1,1,0,1,1,1,1,1,1,1,1,1,1,1,0,0,1,1,1,1,1,1,1,1,1,1,1,1,0,1,1,1,1,1,1,1,1,1,1,1,1,1,1,0,1,1,0,1,1,1,0,1,1,0,1,1,0,1,0,0,0,0,0,0,0,0,0,0,0,0,0,0,0,0,0,0,0,0,0,0,0,0,0,0,0,0,0,0,0,0,0,0,0,0,0,0,0,0,0,0,0,0,0,0,0,0,0,0,0,0,0,0,0,0,0,0,0,0,0,0,0,0],"id":8,"left_children":[1,3,5,7,9,11,13,15,17,19,21,23,25,27,29,31,33,35,37,39,41,43,45,47,49,51,53,55,57,59,61,63,65,67,69,71,73,75,77,79,81,83,85,87,89,91,93,95,97,99,101,103,105,107,109,111,113,115,117,119,121,123,125,-1,-1,-1,-1,-1,-1,-1,-1,-1,-1,-1,-1,-1,-1,-1,-1,-1,-1,-1,-1,-1,-1,-1,-1,-1,-1,-1,-1,-1,-1,-1,-1,-1,-1,-1,-1,-1,-1,-1,-1,-1,-1,-1,-1,-1,-1,-1,-1,-1,-1,-1,-1,-1,-1,-1,-1,-1,-1,-1,-1,-1,-1,-1,-1],"loss_changes":[6.3412646E2,4.9495535E2,4.504256E2,6.3149915E2,3.7556076E2,4.468383E2,4.2877374E2,6.473893E2,4.7881793E2,2.3349171E2,1.6517023E2,1.02089014E3,8.90423E2,5.541648E2,1.6047083E2,8.721695E2,9.769072E2,4.772079E2,1.9608548E2,3.194699E2,1.7872423E2,1.4594466E2,1.4925476E2,6.939883E2,4.2807608E2,8.171133E2,3.1132874E2,1.0506765E3,1.3064197E2,3.684664E2,1.9905139E2,3.3617377E2,2.4508517E2,2.498582E3,4.528064E2,2.5411346E2,1.4048315E2,2.2300536E2,1.483143E2,2.8908807E2,1.8025067E2,5.2478625E2,2.5480612E2,2.5671954E2,1.4851212E2,1.339043E2,1.4724625E2,5.8280945E2,9.11916E2,3.1313687E2,3.491679E2,9.0404926E2,5.601933E2,1.4851042E2,8.499963E1,2.4494202E3,4.9182828E2,3.4348727E2,1.3503436E2,1.2198208E3,9.828708E1,6.3106064E1,9.225012E1,0E0,0E0,0E0,0E0,0E0,0E0,0E0,0E0,0E0,0E0,0E0,0E0,0E0,0E0,0E0,0E0,0E0,0E0,0E0,0E0,0E0,0E0,0E0,0E0,0E0,0E0,0E0,0E0,0E0,0E0,0E0,0E0,0E0,0E0,0E0,0E0,0E0,0E0,0E0,0E0,0E0,0E0,0E0,0E0,0E0,0E0,0E0,0E0,0E0,0E0,0E0,0E0,0E0,0E0,0E0,0E0,0E0,0E0,0E0,0E0,0E0,0E0,0E0,0E0],"parents":[2147483647,0,0,1,1,2,2,3,3,4,4,5,5,6,6,7,7,8,8,9,9,10,10,11,11,12,12,13,13,14,14,15,15,16,16,17,17,18,18,19,19,20,20,21,21,22,22,23,23,24,24,25,25,26,26,27,27,28,28,29,29,30,30,31,31,32,32,33,33,34,34,35,35,36,36,37,37,38,38,39,39,40,40,41,41,42,42,43,43,44,44,45,45,46,46,47,47,48,48,49,49,50,50,51,51,52,52,53,53,54,54,55,55,56,56,57,57,58,58,59,59,60,60,61,61,62,62],"right_children":[2,4,6,8,10,12,14,16,18,20,22,24,26,28,30,32,34,36,38,40,42,44,46,48,50,52,54,56,58,60,62,64,66,68,70,72,74,76,78,80,82,84,86,88,90,92,94,96,98,100,102,104,106,108,110,112,114,116,118,120,122,124,126,-1,-1,-1,-1,-1,-1,-1,-1,-1,-1,-1,-1,-1,-1,-1,-1,-1,-1,-1,-1,-1,-1,-1,-1,-1,-1,-1,-1,-1,-1,-1,-1,-1,-1,-1,-1,-1,-1,-1,-1,-1,-1,-1,-1,-1,-1,-1,-1,-1,-1,-1,-1,-1,-1,-1,-1,-1,-1,-1,-1,-1,-1,-1,-1],"split_conditions":[NaN,NaN,NaN,NaN,NaN,NaN,NaN,1.73E0,NaN,NaN,NaN,NaN,NaN,NaN,NaN,NaN,NaN,NaN,NaN,1.9535E1,8E-1,NaN,NaN,NaN,NaN,NaN,NaN,NaN,NaN,NaN,NaN,NaN,NaN,1.97E0,NaN,NaN,NaN,NaN,NaN,NaN,NaN,NaN,NaN,NaN,NaN,NaN,NaN,NaN,1.7053E1,NaN,NaN,6.4E0,NaN,NaN,NaN,1.26E0,NaN,NaN,1.85E0,NaN,NaN,1.32E0,NaN,1.3227889E-1,-7.04579E-2,-6.970439E-2,3.9222836E-2,9.969867E-1,1.4038935E-1,1.1072259E-1,1.7868154E-2,1.7158821E-1,6.0033713E-2,1.8338244E-2,-1.1021622E-1,9.772037E-2,-2.002495E-3,-2.0236317E-2,-9.131211E-2,9.95656E-2,-7.9352416E-2,1.2817302E0,2.5793326E-1,2.989354E-1,4.0747356E-3,2.5934905E-3,-1.2485635E-1,7.2493315E-2,-3.8313173E-2,-3.5384562E-2,-1.3189436E-1,2.718477E-1,-7.346951E-2,-7.481174E-2,-3.001063E-1,1.7750934E-1,-1.8014453E-2,1.2462104E-2,1.2976533E0,6.923594E-2,-1.7455971E-3,-4.0685716E-3,-1.2702854E-1,3.8549867E-2,2.6421407E-1,3.064499E-2,-4.402735E-2,5.1486123E-2,-3.2256182E-2,-6.007517E-2,-1.0310381E-1,3.8736465E0,2.7554968E-1,6.1039127E-2,-4.5905735E-2,8.829953E-2,-2.414457E-2,-5.2257065E-2,-1.6706608E-2,7.187068E-1,-1.939024E-2,-2.4425298E-2,-1.748387E-1,-7.694097E-3,-4.3763056E-2,-6.5824814E-2,-1.2190849E-1],"split_indices":[6,5,0,0,0,4,5,2,1,4,4,5,5,1,4,5,5,5,5,2,2,5,0,0,0,1,0,4,0,0,0,4,3,2,1,5,0,0,4,0,1,0,0,1,0,5,6,5,2,1,5,2,4,1,5,2,0,5,2,5,5,2,1,0,0,0,0,0,0,0,0,0,0,0,0,0,0,0,0,0,0,0,0,0,0,0,0,0,0,0,0,0,0,0,0,0,0,0,0,0,0,0,0,0,0,0,0,0,0,0,0,0,0,0,0,0,0,0,0,0,0,0,0,0,0,0,0],"split_type":[1,1,1,1,1,1,1,0,1,1,1,1,1,1,1,1,1,1,1,0,0,1,1,1,1,1,1,1,1,1,1,1,1,0,1,1,1,1,1,1,1,1,1,1,1,1,1,1,0,1,1,0,1,1,1,0,1,1,0,1,1,0,1,0,0,0,0,0,0,0,0,0,0,0,0,0,0,0,0,0,0,0,0,0,0,0,0,0,0,0,0,0,0,0,0,0,0,0,0,0,0,0,0,0,0,0,0,0,0,0,0,0,0,0,0,0,0,0,0,0,0,0,0,0,0,0,0],"sum_hessian":[4.11968E5,1.36251E5,2.75717E5,8.786E4,4.8391E4,1.53261E5,1.22456E5,3.7422E4,5.0438E4,2.7308E4,2.1083E4,5.9868E4,9.3393E4,7.2307E4,5.0149E4,1.5781E4,2.1641E4,1.4502E4,3.5936E4,4.509E3,2.2799E4,1.8533E4,2.55E3,1.7152E4,4.2716E4,6.1476E4,3.1917E4,1.9315E4,5.2992E4,1.2153E4,3.7996E4,6.015E3,9.766E3,2.227E3,1.9414E4,1.1427E4,3.075E3,2.0277E4,1.5659E4,3.935E3,5.74E2,3.136E3,1.9663E4,8.094E3,1.0439E4,1.499E3,1.051E3,9.104E3,8.048E3,3.4389E4,8.327E3,2.2934E4,3.8542E4,1.5181E4,1.6736E4,1.11E2,1.9204E4,1.3486E4,3.9506E4,1.144E3,1.1009E4,2.046E4,1.7536E4,5.157E3,8.58E2,7.269E3,2.497E3,3.66E2,1.861E3,1.1276E4,8.138E3,2.301E3,9.126E3,1.426E3,1.649E3,2.272E3,1.8005E4,1.2294E4,3.365E3,2.789E3,1.146E3,1.5E1,5.59E2,6.98E2,2.438E3,1.8133E4,1.53E3,2.974E3,5.12E3,8.722E3,1.717E3,1.08E2,1.391E3,4.87E2,5.64E2,7.421E3,1.683E3,7.999E3,4.9E1,7.03E3,2.7359E4,4.334E3,3.993E3,2.1207E4,1.727E3,1.4486E4,2.4056E4,2.234E3,1.2947E4,9.276E3,7.46E3,2E1,9.1E1,1.3831E4,5.373E3,3.207E3,1.0279E4,1.6547E4,2.2959E4,2.6E2,8.84E2,1.0604E4,4.05E2,6.315E3,1.4145E4,1.4297E4,3.239E3],"tree_param":{"num_deleted":"0","num_feature":"7","num_nodes":"127","size_leaf_vector":"1"}},{"base_weights":[5.8868038E-5,6.582523E-2,-1.330862E-2,1.7776951E-1,1.0368849E-2,1.3007311E-2,-5.2685045E-2,7.544831E-1,1.2522092E-1,5.7319034E-2,-1.4013487E-1,1.4484407E-1,-1.6598494E-3,-1.9095296E-2,-1.3037239E-1,1.7658119E0,4.4831786E-1,3.0222884E-1,4.4691015E-2,2.547217E-1,1.793535E-2,-9.363461E-2,-2.9397663E-1,3.4918451E0,1.0144011E-1,-6.4284705E-2,4.117754E-2,5.5941015E-2,-5.4458905E-2,-7.277917E-2,-2.0066717E-1,2.2972548E0,5.716993E-1,6.2535894E-1,-3.396011E-1,6.2154317E-1,1.6307448E-1,1.1285612E-1,-1.3102143E-1,1.0807273E0,1.7350343E-1,1.7239985E-1,-2.1781292E-2,2.7467027E-2,-1.7566507E-1,3.990184E-3,-3.5848388E-1,6.676174E-1,1.3245656E1,6.318532E-2,7.672661E-1,-2.0558674E-2,-4.1848272E-1,2.2397633E-1,-3.944855E-3,3.611014E-1,-1.1413146E-2,2.455429E-1,-8.298825E-2,2.550033E-1,-1.154003E-1,-1.8171504E-1,-8.002121E-1,9.885101E-1,3.7751272E-1,3.236335E-1,-1.6429436E-1,3.863012E-1,9.9418074E-2,-6.634919E-2,-5.2340263E-1,2.7322525E-1,6.629935E-2,1.4985836E-1,1.7297516E-2,-1.5690848E-2,5.8427535E-2,4.0297117E-2,-5.5503324E-2,5.424518E-1,2.7919436E-2,1.3313006E-1,1.8604238E-2,-3.237883E-2,8.533195E-2,1.6268574E-3,-7.3462345E-2,8.404075E-2,-3.3320677E-2,-1.1628624E-1,-2.380125E-2,3.4305032E-2,-1.7677495E-1,-7.876501E-2,-1.7371987E-1,7.5287515E-1,2.188919E-2,5.439355E0,3.2697253E-2,1.0283997E-1,-1.0920582E-2,3.6821628E0,1.5318468E-1,1.2093099E-2,-6.590932E-2,-4.9593296E-2,-2.0408957E-1,1.9537874E-1,5.075738E-2,3.740498E-2,-2.4958309E-2,3.4781125E-1,6.400256E-2,1.0474069E-1,-2.0585097E-2,3.080701E-1,-5.0086033E-2,-1.0366837E-2,-5.268771E-2,3.9829043E-1,-4.5013882E-2,-2.3251709E-2,-1.28947E-1,-2.3837779E-2,-7.797581E-2,-1.1777568E-1,-4.0346688E-1],"categories":[0,1,2,4,5,6,0,1,7,8,9,11,12,15,16,17,18,19,20,21,22,23,25,26,27,28,29,2,3,4,7,11,12,13,15,17,18,23,24,25,26,27,28,0,1,3,4,5,6,7,8,9,10,11,12,13,15,16,17,18,19,20,21,22,23,24,25,27,28,29,30,2,8,11,14,17,21,22,25,26,28,2,3,5,9,11,13,14,18,19,25,27,1,2,3,4,5,6,10,11,1,3,4,0,1,2,4,8,14,26,0,1,2,3,4,5,6,7,8,10,11,12,13,14,15,16,17,18,19,20,21,22,23,24,25,26,27,28,29,30,2,7,11,12,15,17,18,23,24,25,26,28,3,4,13,27,0,1,2,3,4,5,6,7,8,9,11,12,13,15,16,17,18,19,20,21,22,23,24,25,26,27,28,29,1,3,5,10,0,3,4,6,7,9,10,1,4,5,8,12,15,16,17,25,27,29,0,1,2,4,5,7,8,9,10,11,13,14,15,16,17,18,20,21,22,23,24,25,26,27,28,29,30,1,2,7,8,9,10,11,0,1,7,16,18,21,23,27,0,8,12,15,19,21,22,26,1,2,3,4,5,6,7,9,11,12,13,14,15,16,17,18,19,20,21,22,23,24,25,26,27,28,29,0,1,2,4,0,1,3,4,0,1,3,4,0,2,4,7,9,0,2,4,3,0,1,2,3,4,5,8,10,11,12,14,15,16,17,18,19,21,22,23,24,25,26,0,1,2,3,5,8,9,10,12,13,14,15,16,17,18,19,20,21,22,23,24,25,26,27,28,29,2,6,10,14,0,1,2,3,4,5,6,7,9,10,11,12,13,14,15,17,18,19,20,22,23,24,25,26,27,28,29,0,1,3,5,7,15,19,0,3,0,2,6,9,0,1,2,3,4,5,6,7,8,9,10,11,12,13,14,15,17,18,19,20,21,22,23,24,25,26,27,28,29,0,1,2,3,4,5,6,7,8,9,10,11,12,13,14,15,17,18,19,20,21,22,23,24,25,26,27,28,29,2,3,4,5,7,8,9,10,11,12,13,14,15,16,17,18,20,23,24,25,26,27,28,29,0,1,2,3,4,6,7,8,9,10,11,12,13,14,15,16,17,18,19,20,21,22,23,24,25,26,27,28,29,1,4,7,8,12,13,16,18,21,23,30,8,16,20,0,1,2,3,4,5,6,7,8,9,10,11,12,13,14,15,16,18,19,20,22,23,24,25,28,29,0,6,8,9,11,14,15,17,18,19,20,21,22,24,26,27,29,0,2,3,4,5,6,1,2,3,4,5,7,8,9,10,11,0,1,2,3,5,6,7,10,11,1,3,0,1,2,3,4,5,6,7,10,11,3,2,3,9,13,14,25,9],"categories_nodes":[0,1,2,3,4,6,7,8,9,10,11,13,14,15,16,17,18,19,20,21,22,26,27,28,29,31,32,33,34,35,36,38,40,42,45,46,47,48,49,50,51,52,53,54,55,56,57,58,59,60,61,62],"categories_segments":[0,6,27,43,71,81,92,100,103,107,110,140,152,156,184,188,195,206,233,240,248,256,283,287,291,295,298,300,303,304,326,352,356,383,390,392,396,425,454,478,507,518,521,547,564,570,580,589,591,601,602,608],"categories_sizes":[6,21,16,28,10,11,8,3,4,3,30,12,4,28,4,7,11,27,7,8,8,27,4,4,4,3,2,3,1,22,26,4,27,7,2,4,29,29,24,29,11,3,26,17,6,10,9,2,10,1,6,1],"default_left":[1,1,1,1,1,0,1,1,1,1,1,1,0,1,1,1,1,1,1,1,1,1,1,0,0,0,1,1,1,1,0,1,1,1,1,1,1,0,1,0,1,0,1,0,0,1,1,1,1,1,1,1,1,1,1,1,1,1,1,1,1,1,1,0,0,0,0,0,0,0,0,0,0,0,0,0,0,0,0,0,0,0,0,0,0,0,0,0,0,0,0,0,0,0,0,0,0,0,0,0,0,0,0,0,0,0,0,0,0,0,0,0,0,0,0,0,0,0,0,0,0,0,0,0,0,0,0],"id":9,"left_children":[1,3,5,7,9,11,13,15,17,19,21,23,25,27,29,31,33,35,37,39,41,43,45,47,49,51,53,55,57,59,61,63,65,67,69,71,73,75,77,79,81,83,85,87,89,91,93,95,97,99,101,103,105,107,109,111,113,115,117,119,121,123,125,-1,-1,-1,-1,-1,-1,-1,-1,-1,-1,-1,-1,-1,-1,-1,-1,-1,-1,-1,-1,-1,-1,-1,-1,-1,-1,-1,-1,-1,-1,-1,-1,-1,-1,-1,-1,-1,-1,-1,-1,-1,-1,-1,-1,-1,-1,-1,-1,-1,-1,-1,-1,-1,-1,-1,-1,-1,-1,-1,-1,-1,-1,-1,-1],"loss_changes":[3.6217563E2,4.3202072E2,3.5478317E2,6.985682E2,3.288538E2,3.968379E2,3.579032E2,5.952532E2,3.0118262E2,2.7577826E2,7.913512E1,2.9844277E3,4.95441E2,2.540942E2,1.6759747E2,2.8235413E2,2.0652408E2,2.9347406E2,1.7397536E2,3.956243E2,1.8143466E2,8.443407E1,4.936104E1,7.236013E3,5.166059E2,1.1617994E3,9.0456104E2,6.3045154E2,5.570562E2,3.1796918E2,2.1169989E2,3.1615405E2,7.948682E1,2.3476685E2,4.487847E1,2.3205939E2,1.6322858E2,1.4156924E2,5.8187973E1,3.7918402E2,1.6186893E2,1.9001813E2,1.4278203E2,1.2019886E2,1.0342308E2,3.0052603E1,4.451947E1,2.2435983E2,3.7846172E3,5.341832E2,3.2481335E3,8.0939075E2,5.462694E2,5.0812048E2,8.9660876E2,6.53914E2,5.182832E2,1.821851E3,2.6664322E2,1.1380732E3,2.3993356E2,1.4451428E2,1.2624826E2,0E0,0E0,0E0,0E0,0E0,0E0,0E0,0E0,0E0,0E0,0E0,0E0,0E0,0E0,0E0,0E0,0E0,0E0,0E0,0E0,0E0,0E0,0E0,0E0,0E0,0E0,0E0,0E0,0E0,0E0,0E0,0E0,0E0,0E0,0E0,0E0,0E0,0E0,0E0,0E0,0E0,0E0,0E0,0E0,0E0,0E0,0E0,0E0,0E0,0E0,0E0,0E0,0E0,0E0,0E0,0E0,0E0,0E0,0E0,0E0,0E0,0E0,0E0,0E0],"parents":[2147483647,0,0,1,1,2,2,3,3,4,4,5,5,6,6,7,7,8,8,9,9,10,10,11,11,12,12,13,13,14,14,15,15,16,16,17,17,18,18,19,19,20,20,21,21,22,22,23,23,24,24,25,25,26,26,27,27,28,28,29,29,30,30,31,31,32,32,33,33,34,34,35,35,36,36,37,37,38,38,39,39,40,40,41,41,42,42,43,43,44,44,45,45,46,46,47,47,48,48,49,49,50,50,51,51,52,52,53,53,54,54,55,55,56,56,57,57,58,58,59,59,60,60,61,61,62,62],"right_children":[2,4,6,8,10,12,14,16,18,20,22,24,26,28,30,32,34,36,38,40,42,44,46,48,50,52,54,56,58,60,62,64,66,68,70,72,74,76,78,80,82,84,86,88,90,92,94,96,98,100,102,104,106,108,110,112,114,116,118,120,122,124,126,-1,-1,-1,-1,-1,-1,-1,-1,-1,-1,-1,-1,-1,-1,-1,-1,-1,-1,-1,-1,-1,-1,-1,-1,-1,-1,-1,-1,-1,-1,-1,-1,-1,-1,-1,-1,-1,-1,-1,-1,-1,-1,-1,-1,-1,-1,-1,-1,-1,-1,-1,-1,-1,-1,-1,-1,-1,-1,-1,-1,-1,-1,-1,-1],"split_conditions":[NaN,NaN,NaN,NaN,NaN,6.3E-1,NaN,NaN,NaN,NaN,NaN,NaN,2.392E0,NaN,NaN,NaN,NaN,NaN,NaN,NaN,NaN,NaN,NaN,5.7E-1,6E-1,2.2E0,NaN,NaN,NaN,NaN,2.035E1,NaN,NaN,NaN,NaN,NaN,NaN,1.85E0,NaN,3.472E0,NaN,1.218E0,NaN,1.922E0,1.218E0,NaN,NaN,NaN,NaN,NaN,NaN,NaN,NaN,NaN,NaN,NaN,NaN,NaN,NaN,NaN,NaN,NaN,NaN,9.885101E-1,3.7751272E-1,3.236335E-1,-1.6429436E-1,3.863012E-1,9.9418074E-2,-6.634919E-2,-5.2340263E-1,2.7322525E-1,6.629935E-2,1.4985836E-1,1.7297516E-2,-1.5690848E-2,5.8427535E-2,4.0297117E-2,-5.5503324E-2,5.424518E-1,2.7919436E-2,1.3313006E-1,1.8604238E-2,-3.237883E-2,8.533195E-2,1.6268574E-3,-7.3462345E-2,8.404075E-2,-3.3320677E-2,-1.1628624E-1,-2.380125E-2,3.4305032E-2,-1.7677495E-1,-7.876501E-2,-1.7371987E-1,7.5287515E-1,2.188919E-2,5.439355E0,3.2697253E-2,1.0283997E-1,-1.0920582E-2,3.6821628E0,1.5318468E-1,1.2093099E-2,-6.590932E-2,-4.9593296E-2,-2.0408957E-1,1.9537874E-1,5.075738E-2,3.740498E-2,-2.4958309E-2,3.4781125E-1,6.400256E-2,1.0474069E-1,-2.0585097E-2,3.080701E-1,-5.0086033E-2,-1.0366837E-2,-5.268771E-2,3.9829043E-1,-4.5013882E-2,-2.3251709E-2,-1.28947E-1,-2.3837779E-2,-7.797581E-2,-1.1777568E-1,-4.0346688E-1],"split_indices":[6,0,0,5,5,2,5,4,1,1,5,5,2,0,0,0,4,4,5,5,4,0,0,2,2,2,0,1,1,1,2,1,4,1,4,5,5,2,0,2,0,2,5,2,2,1,4,0,0,0,0,5,0,5,5,6,4,4,1,4,1,5,4,0,0,0,0,0,0,0,0,0,0,0,0,0,0,0,0,0,0,0,0,0,0,0,0,0,0,0,0,0,0,0,0,0,0,0,0,0,0,0,0,0,0,0,0,0,0,0,0,0,0,0,0,0,0,0,0,0,0,0,0,0,0,0,0],"split_type":[1,1,1,1,1,0,1,1,1,1,1,1,0,1,1,1,1,1,1,1,1,1,1,0,0,0,1,1,1,1,0,1,1,1,1,1,1,0,1,0,1,0,1,0,0,1,1,1,1,1,1,1,1,1,1,1,1,1,1,1,1,1,1,0,0,0,0,0,0,0,0,0,0,0,0,0,0,0,0,0,0,0,0,0,0,0,0,0,0,0,0,0,0,0,0,0,0,0,0,0,0,0,0,0,0,0,0,0,0,0,0,0,0,0,0,0,0,0,0,0,0,0,0,0,0,0,0],"sum_hessian":[4.11968E5,6.959E4,3.42378E5,2.3053E4,4.6537E4,2.05224E5,1.37154E5,1.924E3,2.1129E4,3.5472E4,1.1065E4,2.0545E4,1.84679E5,9.5754E4,4.14E4,4.46E2,1.478E3,6.606E3,1.4523E4,5.899E3,2.9573E4,8.498E3,2.567E3,2.62E2,2.0283E4,7.5014E4,1.09665E5,3.0672E4,6.5082E4,2.2757E4,1.8643E4,3.08E2,1.38E2,1.207E3,2.71E2,2.004E3,4.602E3,1.0464E4,4.059E3,5.27E2,5.372E3,6.048E3,2.3525E4,3.432E3,5.066E3,4.57E2,2.11E3,2.04E2,5.8E1,1.9182E4,1.101E3,6.6772E4,8.242E3,2.171E4,8.7955E4,5.545E3,2.5127E4,5.651E3,5.9431E4,2.618E3,2.0139E4,1.8073E4,5.7E2,1.56E2,1.52E2,9.5E1,4.3E1,3.7E2,8.37E2,2.51E2,2E1,1.163E3,8.41E2,1.097E3,3.505E3,3.469E3,6.995E3,6.86E2,3.373E3,3.03E2,2.24E2,1.568E3,3.804E3,1.727E3,4.321E3,2.0969E4,2.556E3,1.215E3,2.217E3,1.582E3,3.484E3,3.86E2,7.1E1,1.472E3,6.38E2,4.9E1,1.55E2,4.2E1,1.6E1,5.037E3,1.4145E4,2.3E1,1.078E3,5.1141E4,1.5631E4,4.191E3,4.051E3,2.466E3,1.9244E4,3.3531E4,5.4424E4,8.65E2,4.68E3,3.44E3,2.1687E4,1.952E3,3.699E3,3.9028E4,2.0403E4,7.17E2,1.901E3,1.7974E4,2.165E3,7.833E3,1.024E4,3.27E2,2.43E2],"tree_param":{"num_deleted":"0","num_feature":"7","num_nodes":"127","size_leaf_vector":"1"}},{"base_weights":[7.170663E-5,2.237708E-2,-2.7831888E-2,9.311616E-2,1.6978233E-3,8.62722E-3,-6.696249E-2,1.711138E-1,-4.862452E-2,2.6351642E-2,-6.0960118E-2,1.1428166E-1,-4.6569314E-2,1.7144587E-2,-1.1216501E-1,2.813984E-1,5.3745713E-2,6.2105667E-2,-1.2724657E-1,1.6117E-1,3.982434E-3,-2.1189753E-2,-1.4238197E-1,2.799847E-1,3.658658E-2,3.5297614E-2,-9.640015E-2,1.1559077E-1,-5.8770254E-2,-7.928224E-2,-2.0020396E-1,5.9126174E-1,1.6444305E-1,2.4792875E-1,-3.4775008E-2,-3.369602E-3,3.6470222E-1,-3.1721894E-2,-3.6076838E-1,2.970502E-1,3.192431E-2,1.2531376E-1,-2.0287614E-2,-1.9089076E-1,7.7248015E-3,-7.6179914E-2,-2.3249415E-1,5.5570585E-1,1.024291E-1,1.3801432E-1,-1.5505981E-1,1.8407719E-1,-3.885775E-2,-2.27874E-2,-1.6823712E-1,1.3733244E0,8.871796E-2,-2.1978463E-3,-2.3315272E-1,5.2464396E-2,-1.0527311E-1,-7.112698E-2,-3.507063E-1,2.9889327E-1,8.865987E-2,1.6425677E-1,3.3129405E-2,4.03555E-2,1.6500399E-1,-1.8236166E-2,2.546549E-1,1.4092621E-1,-2.1976909E-2,1.8079078E-1,3.734179E-2,-3.448866E-3,-1.285818E-1,-2.1026373E-2,-1.7556532E-1,2.2783902E-1,6.306548E-2,7.71181E-2,-2.6513092E-2,1.7103665E-1,1.5329884E-2,-8.092439E-2,-1.4287335E-3,-3.5695247E-2,-1.7011055E-1,1.6762324E-2,-2.67544E-2,-1.3118771E-2,-7.0271745E-2,-4.6045825E-2,-1.1367029E-1,6.8367696E-1,1.18431665E-1,1.2370749E-1,2.9358757E-3,6.6590525E-2,-8.176191E-3,1.7168527E-2,-8.4502496E-2,1.13226764E-1,-1.3045944E-2,8.260884E-2,-2.3293208E-2,2.194127E0,-7.98826E-3,-5.5381145E-2,9.169587E-2,-1.4862232E-1,1.0737246E0,2.524675E-1,1.570845E-2,2.5353896E-2,-2.9428702E-2,2.6910222E-1,-7.566341E-2,1.0536131E-1,-3.2169037E-2,-2.2508131E-2,-4.9420085E-2,8.7831646E-2,-4.8174385E-2,-4.5243688E-2,-1.4389823E-1],"categories":[0,5,6,0,4,5,6,9,10,11,12,13,14,16,17,18,19,20,21,22,23,24,25,28,29,30,0,2,5,7,8,9,11,12,15,16,17,19,25,27,28,2,3,4,5,7,11,12,13,15,17,18,20,22,23,28,1,7,10,11,12,23,24,25,26,27,28,29,2,3,5,6,7,9,11,12,14,15,18,19,20,21,22,23,24,25,26,27,1,4,7,8,9,10,11,13,14,16,17,18,19,21,23,25,27,28,29,30,0,1,2,4,6,8,10,11,1,2,3,6,7,9,0,1,2,4,5,6,7,9,10,11,5,6,10,11,12,17,18,19,20,21,25,0,1,2,4,5,8,9,0,2,3,6,7,9,10,1,4,1,2,0,2,3,4,5,6,8,9,10,11,12,13,14,15,16,17,18,19,20,21,22,23,24,25,28,29,30,0,2,4,2,4,13,22,1,3,4,5,7,8,10,11,12,13,15,16,17,19,20,21,22,23,24,25,26,27,28,29,1,10,27,29,0,1,2,3,5,6,7,8,9,10,11,12,13,15,16,17,18,19,20,21,22,23,24,25,26,27,28,4,21,22,29,0,2,4,1,4,6,10,13,14,5,16,17,27,1,4,7,8,9,10,13,16,17,19,25,27,28,29,30,0,16,27,0,1,2,4,5,6,8,9,10,11,2,3,4,5,6,7,8,9,10,11,12,13,15,16,17,18,20,21,22,23,24,26,27,28,29,0,2,3,4,1,2,4,26,1,2,0,1,3,4,0,1,2,3,4,5,6,7,8,9,12,13,14,15,16,17,18,19,20,22,23,24,25,26,27,30,0,1,2,3,5,6,7,8,10,11,12,13,14,15,16,18,19,20,21,22,24,25,26,27,28,29,30,4,13,14,29,30,0,4,5,6,9,10,1,2,3,4,6,7,10,11,1,2,3,0,1,2,3,5,6,7,8,9,10,11,12,13,14,15,16,17,18,19,20,21,22,23,24,25,26,27,28,30,0,1,2,3,4,5,6,7,8,9,11,12,13,14,15,16,18,19,20,21,22,23,24,25,26,27,29,30,2,3,4,5,6,7,9,10,11,12,13,14,15,16,18,19,20,21,22,23,24,25,26,27,28,30,1,4,16,17,28,29,0,1,2,3,5,6,7,8,9,11,12,13,14,15,16,17,19,20,21,23,24,25,26,27,28,0,1,2,3,4,5,7,8,9,10,11,12,13,15,16,17,18,19,20,21,22,23,24,25,26,27,28,29,0,1,3,5,6,7,8,9,10,11,0,1,4,7,9,10,2,3,6,12,15,20,22,24,26,0,2,5,7,9,11,12,15,19,25,28,1,6,7,10,11,0,2,3,4,6,7,9,1,10,11,13,14,16,17,18,21,23,30],"categories_nodes":[0,1,2,3,4,5,6,7,8,9,10,11,12,13,14,15,16,17,18,19,22,23,24,25,26,28,29,30,31,32,35,36,37,38,39,40,41,43,44,45,46,47,48,49,50,51,52,56,57,58,59,60,61,62],"categories_segments":[0,3,26,41,56,68,88,108,116,122,132,143,150,157,159,161,188,191,192,195,219,223,250,254,257,263,267,282,285,295,320,324,327,328,330,334,360,387,392,398,406,409,438,466,492,498,523,551,561,567,576,587,592,599],"categories_sizes":[3,23,15,15,12,20,20,8,6,10,11,7,7,2,2,27,3,1,3,24,4,27,4,3,6,4,15,3,10,25,4,3,1,2,4,26,27,5,6,8,3,29,28,26,6,25,28,10,6,9,11,5,7,11],"default_left":[1,1,1,1,1,1,1,1,1,1,1,1,1,1,1,1,1,1,1,1,0,0,1,1,1,1,1,0,1,1,1,1,1,0,0,1,1,1,1,1,1,1,0,1,1,1,1,1,1,1,1,1,1,0,0,0,1,1,1,1,1,1,1,0,0,0,0,0,0,0,0,0,0,0,0,0,0,0,0,0,0,0,0,0,0,0,0,0,0,0,0,0,0,0,0,0,0,0,0,0,0,0,0,0,0,0,0,0,0,0,0,0,0,0,0,0,0,0,0,0,0,0,0,0,0,0,0],"id":10,"left_children":[1,3,5,7,9,11,13,15,17,19,21,23,25,27,29,31,33,35,37,39,41,43,45,47,49,51,53,55,57,59,61,63,65,67,69,71,73,75,77,79,81,83,85,87,89,91,93,95,97,99,101,103,105,107,109,111,113,115,117,119,121,123,125,-1,-1,-1,-1,-1,-1,-1,-1,-1,-1,-1,-1,-1,-1,-1,-1,-1,-1,-1,-1,-1,-1,-1,-1,-1,-1,-1,-1,-1,-1,-1,-1,-1,-1,-1,-1,-1,-1,-1,-1,-1,-1,-1,-1,-1,-1,-1,-1,-1,-1,-1,-1,-1,-1,-1,-1,-1,-1,-1,-1,-1,-1,-1,-1],"loss_changes":[2.564102E2,3.3491803E2,2.6110626E2,5.725696E2,2.7367548E2,5.525295E2,3.3561047E2,4.324015E2,1.6005594E2,3.834226E2,1.6198676E2,4.1855942E2,2.5388277E2,2.3063234E2,1.6620435E2,6.240674E2,2.782162E2,1.5125056E2,2.3981216E2,3.1773846E2,3.211151E2,1.6492001E2,9.791376E1,5.0800665E2,4.302873E2,2.5980762E2,2.045723E2,4.5399936E2,1.7189136E2,1.4315463E2,3.0327917E2,5.649696E2,2.586776E2,1.7355328E2,2.5559918E2,2.075839E2,7.7546524E1,6.1251003E1,2.0358246E2,3.5398315E2,2.5120113E2,6.0001324E2,3.5193433E2,1.322748E2,1.3400294E2,4.8536972E1,8.035785E1,1.1264207E3,1.8128809E2,2.0084595E2,2.0593546E2,3.4465567E2,1.9155927E2,5.385299E2,1.519112E2,1.1600466E3,3.6004373E2,1.0941374E2,9.215608E1,3.2869208E2,6.2783813E1,2.7368195E2,1.8573004E2,0E0,0E0,0E0,0E0,0E0,0E0,0E0,0E0,0E0,0E0,0E0,0E0,0E0,0E0,0E0,0E0,0E0,0E0,0E0,0E0,0E0,0E0,0E0,0E0,0E0,0E0,0E0,0E0,0E0,0E0,0E0,0E0,0E0,0E0,0E0,0E0,0E0,0E0,0E0,0E0,0E0,0E0,0E0,0E0,0E0,0E0,0E0,0E0,0E0,0E0,0E0,0E0,0E0,0E0,0E0,0E0,0E0,0E0,0E0,0E0,0E0,0E0,0E0,0E0],"parents":[2147483647,0,0,1,1,2,2,3,3,4,4,5,5,6,6,7,7,8,8,9,9,10,10,11,11,12,12,13,13,14,14,15,15,16,16,17,17,18,18,19,19,20,20,21,21,22,22,23,23,24,24,25,25,26,26,27,27,28,28,29,29,30,30,31,31,32,32,33,33,34,34,35,35,36,36,37,37,38,38,39,39,40,40,41,41,42,42,43,43,44,44,45,45,46,46,47,47,48,48,49,49,50,50,51,51,52,52,53,53,54,54,55,55,56,56,57,57,58,58,59,59,60,60,61,61,62,62],"right_children":[2,4,6,8,10,12,14,16,18,20,22,24,26,28,30,32,34,36,38,40,42,44,46,48,50,52,54,56,58,60,62,64,66,68,70,72,74,76,78,80,82,84,86,88,90,92,94,96,98,100,102,104,106,108,110,112,114,116,118,120,122,124,126,-1,-1,-1,-1,-1,-1,-1,-1,-1,-1,-1,-1,-1,-1,-1,-1,-1,-1,-1,-1,-1,-1,-1,-1,-1,-1,-1,-1,-1,-1,-1,-1,-1,-1,-1,-1,-1,-1,-1,-1,-1,-1,-1,-1,-1,-1,-1,-1,-1,-1,-1,-1,-1,-1,-1,-1,-1,-1,-1,-1,-1,-1,-1,-1],"split_conditions":[NaN,NaN,NaN,NaN,NaN,NaN,NaN,NaN,NaN,NaN,NaN,NaN,NaN,NaN,NaN,NaN,NaN,NaN,NaN,NaN,8E-1,4.1E-1,NaN,NaN,NaN,NaN,NaN,1.95E-1,NaN,NaN,NaN,NaN,NaN,4.5E0,1.7053E1,NaN,NaN,NaN,NaN,NaN,NaN,NaN,8.27E-1,NaN,NaN,NaN,NaN,NaN,NaN,NaN,NaN,NaN,NaN,1.45E-1,1.209E1,1.45E-1,NaN,NaN,NaN,NaN,NaN,NaN,NaN,2.9889327E-1,8.865987E-2,1.6425677E-1,3.3129405E-2,4.03555E-2,1.6500399E-1,-1.8236166E-2,2.546549E-1,1.4092621E-1,-2.1976909E-2,1.8079078E-1,3.734179E-2,-3.448866E-3,-1.285818E-1,-2.1026373E-2,-1.7556532E-1,2.2783902E-1,6.306548E-2,7.71181E-2,-2.6513092E-2,1.7103665E-1,1.5329884E-2,-8.092439E-2,-1.4287335E-3,-3.5695247E-2,-1.7011055E-1,1.6762324E-2,-2.67544E-2,-1.3118771E-2,-7.0271745E-2,-4.6045825E-2,-1.1367029E-1,6.8367696E-1,1.18431665E-1,1.2370749E-1,2.9358757E-3,6.6590525E-2,-8.176191E-3,1.7168527E-2,-8.4502496E-2,1.13226764E-1,-1.3045944E-2,8.260884E-2,-2.3293208E-2,2.194127E0,-7.98826E-3,-5.5381145E-2,9.169587E-2,-1.4862232E-1,1.0737246E0,2.524675E-1,1.570845E-2,2.5353896E-2,-2.9428702E-2,2.6910222E-1,-7.566341E-2,1.0536131E-1,-3.2169037E-2,-2.2508131E-2,-4.9420085E-2,8.7831646E-2,-4.8174385E-2,-4.5243688E-2,-1.4389823E-1],"split_indices":[6,5,0,0,0,5,5,4,4,4,5,4,4,1,1,5,1,3,0,0,2,2,0,0,0,1,0,2,0,5,0,4,0,2,2,1,1,5,6,1,5,5,2,5,4,4,1,5,5,5,5,0,0,2,2,2,4,4,5,0,4,4,5,0,0,0,0,0,0,0,0,0,0,0,0,0,0,0,0,0,0,0,0,0,0,0,0,0,0,0,0,0,0,0,0,0,0,0,0,0,0,0,0,0,0,0,0,0,0,0,0,0,0,0,0,0,0,0,0,0,0,0,0,0,0,0,0],"split_type":[1,1,1,1,1,1,1,1,1,1,1,1,1,1,1,1,1,1,1,1,0,0,1,1,1,1,1,0,1,1,1,1,1,0,0,1,1,1,1,1,1,1,0,1,1,1,1,1,1,1,1,1,1,0,0,0,1,1,1,1,1,1,1,0,0,0,0,0,0,0,0,0,0,0,0,0,0,0,0,0,0,0,0,0,0,0,0,0,0,0,0,0,0,0,0,0,0,0,0,0,0,0,0,0,0,0,0,0,0,0,0,0,0,0,0,0,0,0,0,0,0,0,0,0,0,0,0],"sum_hessian":[4.11968E5,2.28951E5,1.83017E5,5.1789E4,1.77162E5,9.4743E4,8.8274E4,3.3406E4,1.8383E4,1.27138E5,5.0024E4,3.2511E4,6.2232E4,3.0858E4,5.7416E4,1.7222E4,1.6184E4,7.633E3,1.075E4,1.8092E4,1.09046E5,3.3609E4,1.6415E4,1.0377E4,2.2134E4,2.3547E4,3.8685E4,1.3435E4,1.7423E4,4.1804E4,1.5612E4,4.718E3,1.2504E4,5.067E3,1.1117E4,6.276E3,1.357E3,7.63E3,3.12E3,8.819E3,9.273E3,1.8176E4,9.087E4,4.892E3,2.8717E4,9.464E3,6.951E3,4.064E3,6.313E3,1.4474E4,7.66E3,7.832E3,1.5715E4,1.9107E4,1.9578E4,2.8E2,1.3155E4,1.3156E4,4.267E3,6.888E3,3.4916E4,8.405E3,7.207E3,1.99E3,2.728E3,1.544E3,1.096E4,3.685E3,1.382E3,1.08E4,3.17E2,8.07E2,5.469E3,6.81E2,6.76E2,7.261E3,3.69E2,1.36E3,1.76E3,1.393E3,7.426E3,3.229E3,6.044E3,2.598E3,1.5578E4,5.323E3,8.5547E4,4.108E3,7.84E2,1.9185E4,9.532E3,7.853E3,1.611E3,4.516E3,2.435E3,3.46E2,3.718E3,1.452E3,4.861E3,9.598E3,4.876E3,2.862E3,4.798E3,4.234E3,3.598E3,1.726E3,1.3989E4,9E0,1.9098E4,1.8925E4,6.53E2,1.52E2,1.28E2,6.05E2,1.255E4,6.909E3,6.247E3,7E1,4.197E3,2.399E3,4.489E3,2.3145E4,1.1771E4,1.658E3,6.747E3,2.827E3,4.38E3],"tree_param":{"num_deleted":"0","num_feature":"7",