{"learner":{"attributes":{"scikit_learn":"{\"_estimator_type\": \"regressor\"}"},"feature_names":["Carrier","City","Weight","Year","Month","Day","DayOfWeek"],"feature_types":["c","c","float","c","c","c","c"],"gradient_booster":{"model":{"gbtree_model_param":{"num_parallel_tree":"1","num_trees":"100"},"iteration_indptr":[0,1,2,3,4,5,6,7,8,9,10,11,12,13,14,15,16,17,18,19,20,21,22,23,24,25,26,27,28,29,30,31,32,33,34,35,36,37,38,39,40,41,42,43,44,45,46,47,48,49,50,51,52,53,54,55,56,57,58,59,60,61,62,63,64,65,66,67,68,69,70,71,72,73,74,75,76,77,78,79,80,81,82,83,84,85,86,87,88,89,90,91,92,93,94,95,96,97,98,99,100],"tree_info":[0,0,0,0,0,0,0,0,0,0,0,0,0,0,0,0,0,0,0,0,0,0,0,0,0,0,0,0,0,0,0,0,0,0,0,0,0,0,0,0,0,0,0,0,0,0,0,0,0,0,0,0,0,0,0,0,0,0,0,0,0,0,0,0,0,0,0,0,0,0,0,0,0,0,0,0,0,0,0,0,0,0,0,0,0,0,0,0,0,0,0,0,0,0,0,0,0,0,0,0],"trees":[{"base_weights":[-9.765691E-9,2.1686655E-1,-1.1380565E0,3.764131E-1,-2.7401054E-1,-8.6382E-1,-1.5879732E0,8.587185E-1,2.3092021E-1,5.0934713E-2,-7.4360937E-1,-6.000941E-1,-1.0137643E0,-1.2940116E0,-1.7769979E0,1.2117981E0,2.863958E-1,5.682065E-1,6.550045E-2,8.8313633E-1,-1.7817372E-1,-6.5657324E-1,-1.6346568E0,-6.134267E-1,2.523598E0,-8.1938636E-1,-1.3649001E0,-1.0056322E0,-1.3481238E0,-1.6266079E0,-1.7877485E0,1.5788695E0,8.5884994E-1,6.3675493E-1,-2.154088E-1,9.3031347E-1,3.7573314E-1,2.6288658E-1,-1.1737142E-1,5.538504E0,5.8678246E-1,1.3083947E-1,-4.0275133E-1,5.7698607E-2,-7.062331E-1,-1.774779E0,-2.1711337E-4,-5.1974815E-1,-9.0067816E-1,6.711192E0,-8.269793E-1,6.98423E-1,-9.748331E-1,-1.1323103E0,-5.364447E-1,-3.1113625E-1,-1.1162243E0,-1.0902567E0,-1.4097686E0,-2.345346E-1,-1.7418568E0,-1.3462067E0,-5.3693604E-1,5.896724E-1,3.346772E-1,3.109357E-1,1.13014035E-1,2.4514468E-1,-1.1846886E-3,4.3438974E-1,-1.3488184E-1,4.0004689E-1,2.302513E-1,2.105057E-1,7.871317E-2,4.816206E-1,6.278696E-2,5.7080794E-2,-6.309646E-2,2.1453695E0,1.3828521E0,7.0403606E-1,1.02980435E-1,9.469219E-2,-7.6314256E-2,-1.5182927E-2,-1.8364108E-1,3.1687522E-1,-1.1263842E-1,-1.4858685E-1,-2.4227403E-1,-5.356122E-1,3.141835E-1,4.572252E-1,-1.2621363E-1,-8.72298E-2,-1.9415674E-1,-2.2541441E-1,-3.1633067E-1,2.1558213E0,-1.3302912E-1,1.3138197E-1,-2.9261047E-1,6.6133726E-1,-2.3412962E-1,-2.4257833E-1,-4.051219E-1,-1.8746632E-1,-3.6306748E-1,-6.3959666E-2,-4.779837E-1,-2.749102E-1,-3.7985685E-1,-2.6471755E-1,-4.042201E-1,-4.276976E-1,-2.0249996E-1,-5.2775675E-1,-3.8812438E-1,-2.3220727E-1,-4.7050548E-1],"categories":[3,7,9,11,12,15,19,23,25,26,28,4,7,11,12,1,2,3,4,5,6,7,8,9,11,12,13,15,16,17,18,19,20,22,23,24,25,26,27,28,29,0,5,6,8,10,20,27,3,15,23,25,28,2,0,4,5,10,11,0,1,5,6,1,3,4,5,6,8,9,10,11,12,13,15,16,18,19,20,21,22,23,24,25,26,27,28,30,0,11,0,4,6,0,1,2,5,6,16,17,18,20,21,23,24,25,27,28,29,30,3,4,5,10,11,12,13,14,15,16,18,21,22,23,24,25,27,28,1,1,2,7,9,10,11,13,14,15,16,17,18,19,22,23,24,25,26,28,29,30,0,1,2,3,5,7,9,10,11,12,13,14,15,17,18,19,20,21,23,24,25,26,27,28,29,0,1,2,3,4,5,6,7,8,9,10,11,12,14,15,16,17,18,19,20,21,22,23,24,25,26,27,28,29,0,2,5,6,0,1,2,3,4,5,6,7,8,9,10,12,13,14,15,16,17,18,19,20,21,22,24,25,26,27,28,29,4,7,11,14,15,16,20,21,24,0,1,2,3,4,5,6,7,8,9,10,11,12,13,14,15,16,18,19,20,21,22,23,24,28,29,30,0,1,2,3,4,5,6,7,8,9,10,11,12,13,14,15,16,17,18,19,20,21,22,23,24,25,26,27,28,30,23,0,2,3,5,6,7,8,9,11,12,14,15,16,17,19,20,21,23,24,25,26,27,28,29,1,2,3,4,5,6,7,8,9,10,11,1,3,4,7,0,5,6,0,4,0,1,2,3,4,5,6,7,8,9,10,11,0,1,2,4,0,1,2,4,0,1,2,3,4,5,6,7,8,9,10,11,12,13,14,15,17,18,19,20,21,22,23,24,25,26,27,28,29,30,0,1,3,0,0,1,2,3,4,6,7,8,9,10,11,1,2,21,22,8,9,10,11,13,15,16,19,21,22,24,25,26,27,28,30,0,1,2,5,1,4,5,6,7,9,10,0,0,1,2,3,4,5,7,9,10,11,20,21,26,1,2,3,4,5,6,7,10,0,1,2,4,5,7,10,2,4,5,6,7,8,9,11,12,20,21,24,3,15,25,28,2,7,11,15,16,17,18,19,24,25,26,27,0,1,4,5,6,7,8,11,5,10,2,4,6,7,8,9,10,11,2,3,4,10,11,14,15,17,21,22,24,25,28,16,17,20,21,23,24,25,27,28],"categories_nodes":[0,1,2,3,4,5,6,7,8,9,10,12,13,14,15,16,17,18,19,20,21,23,24,25,26,27,28,29,30,31,32,33,34,35,36,37,38,39,40,41,42,43,44,45,46,47,48,49,50,51,52,53,55,56,57,61],"categories_segments":[0,11,12,15,41,48,53,54,59,63,88,90,93,98,110,128,129,150,175,204,208,236,245,272,302,303,327,338,341,342,345,347,348,359,363,367,397,400,401,412,416,432,436,443,444,457,465,472,473,484,488,500,508,510,518,531],"categories_sizes":[11,1,3,26,7,5,1,5,4,25,2,3,5,12,18,1,21,25,29,4,28,9,27,30,1,24,11,3,1,3,2,1,11,4,4,30,3,1,11,4,16,4,7,1,13,8,7,1,11,4,12,8,2,8,13,9],"default_left":[1,1,1,1,1,1,1,1,1,1,1,0,1,1,1,1,1,1,1,1,1,1,0,1,1,1,1,1,1,1,1,1,1,1,1,1,1,1,1,1,1,1,1,1,1,1,1,1,1,1,1,1,1,1,0,1,1,1,0,0,0,1,0,0,0,0,0,0,0,0,0,0,0,0,0,0,0,0,0,0,0,0,0,0,0,0,0,0,0,0,0,0,0,0,0,0,0,0,0,0,0,0,0,0,0,0,0,0,0,0,0,0,0,0,0,0,0,0,0,0,0],"id":0,"left_children":[1,3,5,7,9,11,13,15,17,19,21,23,25,27,29,31,33,35,37,39,41,43,45,47,49,51,53,55,57,59,61,63,65,67,69,71,73,75,77,79,81,83,85,87,89,91,93,95,97,99,101,103,105,107,-1,109,111,113,115,-1,117,119,-1,-1,-1,-1,-1,-1,-1,-1,-1,-1,-1,-1,-1,-1,-1,-1,-1,-1,-1,-1,-1,-1,-1,-1,-1,-1,-1,-1,-1,-1,-1,-1,-1,-1,-1,-1,-1,-1,-1,-1,-1,-1,-1,-1,-1,-1,-1,-1,-1,-1,-1,-1,-1,-1,-1,-1,-1,-1,-1],"loss_changes":[6.0881953E4,1.6227227E4,4.8701836E3,1.0972738E4,7.755624E3,9.6953125E2,8.2846875E2,7.322668E3,6.702697E3,5.7277163E3,1.6109512E3,3.7199756E2,1.066291E3,9.001074E1,1.1798828E1,2.9022773E3,2.4312632E3,2.7547998E3,2.9095427E3,8.94369E3,1.6347788E3,6.717822E2,4.2345947E2,2.3789453E2,5.387226E2,2.3763462E3,5.464033E2,7.100525E1,7.678418E1,5.881006E1,5.2226562E0,1.9657949E3,9.7817285E2,9.411636E2,2.2156768E3,8.995039E2,9.5357104E2,2.788906E3,1.1964938E3,5.483447E2,2.6127139E3,7.0592084E2,1.0058396E3,5.3327704E2,3.781494E2,5.278955E1,9.486246E1,1.9480383E2,4.9181763E1,6.094525E1,4.556552E0,2.086386E3,5.691865E2,1.4149316E2,0E0,1.5858804E1,2.2846924E1,4.985681E1,4.542383E1,0E0,1.9414062E0,4.251671E0,0E0,0E0,0E0,0E0,0E0,0E0,0E0,0E0,0E0,0E0,0E0,0E0,0E0,0E0,0E0,0E0,0E0,0E0,0E0,0E0,0E0,0E0,0E0,0E0,0E0,0E0,0E0,0E0,0E0,0E0,0E0,0E0,0E0,0E0,0E0,0E0,0E0,0E0,0E0,0E0,0E0,0E0,0E0,0E0,0E0,0E0,0E0,0E0,0E0,0E0,0E0,0E0,0E0,0E0,0E0,0E0,0E0,0E0,0E0],"parents":[2147483647,0,0,1,1,2,2,3,3,4,4,5,5,6,6,7,7,8,8,9,9,10,10,11,11,12,12,13,13,14,14,15,15,16,16,17,17,18,18,19,19,20,20,21,21,22,22,23,23,24,24,25,25,26,26,27,27,28,28,29,29,30,30,31,31,32,32,33,33,34,34,35,35,36,36,37,37,38,38,39,39,40,40,41,41,42,42,43,43,44,44,45,45,46,46,47,47,48,48,49,49,50,50,51,51,52,52,53,53,55,55,56,56,57,57,58,58,60,60,61,61],"right_children":[2,4,6,8,10,12,14,16,18,20,22,24,26,28,30,32,34,36,38,40,42,44,46,48,50,52,54,56,58,60,62,64,66,68,70,72,74,76,78,80,82,84,86,88,90,92,94,96,98,100,102,104,106,108,-1,110,112,114,116,-1,118,120,-1,-1,-1,-1,-1,-1,-1,-1,-1,-1,-1,-1,-1,-1,-1,-1,-1,-1,-1,-1,-1,-1,-1,-1,-1,-1,-1,-1,-1,-1,-1,-1,-1,-1,-1,-1,-1,-1,-1,-1,-1,-1,-1,-1,-1,-1,-1,-1,-1,-1,-1,-1,-1,-1,-1,-1,-1,-1,-1],"split_conditions":[NaN,NaN,NaN,NaN,NaN,NaN,NaN,NaN,NaN,NaN,NaN,3.57E1,NaN,NaN,NaN,NaN,NaN,NaN,NaN,NaN,NaN,NaN,4.5E0,NaN,NaN,NaN,NaN,NaN,NaN,NaN,NaN,NaN,NaN,NaN,NaN,NaN,NaN,NaN,NaN,NaN,NaN,NaN,NaN,NaN,NaN,NaN,NaN,NaN,NaN,NaN,NaN,NaN,NaN,NaN,-5.364447E-1,NaN,NaN,NaN,1.774E1,-2.345346E-1,8.36E0,NaN,-5.3693604E-1,5.896724E-1,3.346772E-1,3.109357E-1,1.13014035E-1,2.4514468E-1,-1.1846886E-3,4.3438974E-1,-1.3488184E-1,4.0004689E-1,2.302513E-1,2.105057E-1,7.871317E-2,4.816206E-1,6.278696E-2,5.7080794E-2,-6.309646E-2,2.1453695E0,1.3828521E0,7.0403606E-1,1.02980435E-1,9.469219E-2,-7.6314256E-2,-1.5182927E-2,-1.8364108E-1,3.1687522E-1,-1.1263842E-1,-1.4858685E-1,-2.4227403E-1,-5.356122E-1,3.141835E-1,4.572252E-1,-1.2621363E-1,-8.72298E-2,-1.9415674E-1,-2.2541441E-1,-3.1633067E-1,2.1558213E0,-1.3302912E-1,1.3138197E-1,-2.9261047E-1,6.6133726E-1,-2.3412962E-1,-2.4257833E-1,-4.051219E-1,-1.8746632E-1,-3.6306748E-1,-6.3959666E-2,-4.779837E-1,-2.749102E-1,-3.7985685E-1,-2.6471755E-1,-4.042201E-1,-4.276976E-1,-2.0249996E-1,-5.2775675E-1,-3.8812438E-1,-2.3220727E-1,-4.7050548E-1],"split_indices":[0,1,0,0,0,0,3,4,6,5,4,2,6,6,5,5,3,5,0,0,6,5,2,5,5,5,0,5,4,1,0,6,1,1,4,1,1,5,1,3,4,0,5,6,4,3,5,4,4,6,5,0,5,4,0,4,4,5,2,0,2,5,0,0,0,0,0,0,0,0,0,0,0,0,0,0,0,0,0,0,0,0,0,0,0,0,0,0,0,0,0,0,0,0,0,0,0,0,0,0,0,0,0,0,0,0,0,0,0,0,0,0,0,0,0,0,0,0,0,0,0],"split_type":[1,1,1,1,1,1,1,1,1,1,1,0,1,1,1,1,1,1,1,1,1,1,0,1,1,1,1,1,1,1,1,1,1,1,1,1,1,1,1,1,1,1,1,1,1,1,1,1,1,1,1,1,1,1,0,1,1,1,0,0,0,1,0,0,0,0,0,0,0,0,0,0,0,0,0,0,0,0,0,0,0,0,0,0,0,0,0,0,0,0,0,0,0,0,0,0,0,0,0,0,0,0,0,0,0,0,0,0,0,0,0,0,0,0,0,0,0,0,0,0,0],"sum_hessian":[2.46677E5,2.07195E5,3.9482E4,1.56371E5,5.0824E4,2.4532E4,1.495E4,3.6238E4,1.20133E5,3.0039E4,2.0785E4,8.894E3,1.5638E4,5.854E3,9.096E3,2.2411E4,1.3827E4,3.953E4,8.0603E4,6.484E3,2.3555E4,1.8937E4,1.848E3,8.857E3,3.7E1,1.0068E4,5.57E3,9.28E2,4.926E3,6.17E2,8.479E3,1.0984E4,1.1427E4,8.142E3,5.685E3,1.3718E4,2.5812E4,3.8763E4,4.184E4,3.87E2,6.097E3,9.914E3,1.3641E4,1.231E3,1.7706E4,1.702E3,1.46E2,6.681E3,2.176E3,1.6E1,2.1E1,9.35E2,9.133E3,3.597E3,1.973E3,1.28E2,8E2,9.54E2,3.972E3,7.5E1,5.42E2,4.2E1,8.437E3,5.985E3,4.999E3,8.35E3,3.077E3,6.353E3,1.789E3,7.01E2,4.984E3,3.944E3,9.774E3,6.659E3,1.9153E4,1.487E3,3.7276E4,9.708E3,3.2132E4,1.39E2,2.48E2,7.4E2,5.357E3,6.7E3,3.214E3,5.087E3,8.554E3,3.72E2,8.59E2,5.748E3,1.1958E4,1.696E3,6E0,3.1E1,1.15E2,2.39E3,4.291E3,1.107E3,1.069E3,1.5E1,1E0,2E0,1.9E1,4.63E2,4.72E2,6.333E3,2.8E3,4.8E2,3.117E3,1.2E2,8E0,3.46E2,4.54E2,5.3E2,4.24E2,3.887E3,8.5E1,5.19E2,2.3E1,1.3E1,2.9E1],"tree_param":{"num_deleted":"0","num_feature":"7","num_nodes":"121","size_leaf_vector":"1"}},{"base_weights":[9.223009E-6,1.5184245E-1,-7.967701E-1,3.310504E-1,-6.821305E-2,-6.0468495E-1,-1.1119081E0,9.372631E-1,2.586843E-1,2.1423039E-1,-2.4786682E-1,-4.1994905E-1,-7.097185E-1,-8.7830174E-1,-1.2348231E0,1.5839518E0,5.876251E-1,5.151349E-1,1.2832248E-1,7.4560916E-1,2.1379678E-2,-6.182271E-2,-4.1673863E-1,-2.7553356E-1,-5.9693E-1,-5.735923E-1,-9.556251E-1,-6.669846E-1,-9.1682565E-1,-8.56614E-1,-1.2413349E0,2.10626E0,7.7733105E-1,7.4237937E-1,3.5992712E-1,7.531816E-1,2.5937882E-1,3.8952282E-1,-2.1602977E-2,6.066924E-1,3.8594515E0,2.0869984E-1,-2.2128913E-1,1.04147315E-1,-2.7733308E-1,-2.81115E-1,-7.277709E-1,-2.995549E-1,1.1395214E0,-3.704215E-1,-1.0289059E0,3.0284986E-1,-7.2166824E-1,-7.9277015E-1,-3.7559283E-1,-4.0062848E-1,-8.4408975E-1,-8.207821E-1,-9.8815453E-1,-2.6333386E-1,-9.482723E-1,-1.14281E0,-1.2494111E0,6.0317427E-1,1.4056287E0,3.523818E-1,9.0373784E-2,5.5953985E-1,2.0888464E-1,2.4793427E-1,8.356041E-2,2.964118E-1,1.4492339E-1,1.2956333E-1,1.2551295E-2,5.671582E-1,1.0062453E-1,4.172729E-2,-1.00143574E-1,3.2893074E-1,1.12910114E-1,1.5124508E0,9.416781E-1,1.9522016E-1,1.7363658E-2,6.166551E-1,-8.0555625E-2,1.3528275E-1,8.371158E-3,-6.6796383E-3,-1.485105E-1,-2.031928E-2,-1.4944921E-1,-1.8319912E-1,-3.2641712E-1,-3.6348645E-2,-1.4181536E-1,1.2389262E0,-9.676389E-2,-2.940368E-2,-1.5511009E-1,-1.62387E-1,-3.6103478E-1,4.6336374E-1,-8.3299056E-2,-2.0421752E-1,-4.3940935E-1,-1.7295301E-1,-2.754841E-1,-3.356064E-3,-1.551774E-1,-1.9596238E-1,-2.9796147E-1,-2.5386935E-1,-3.7675753E-2,-2.757684E-1,-3.1378257E-1,-5.498438E-2,-1.07123815E-1,-1.9016577E-1,-3.3016536E-1,-1.6510001E-1,-3.626112E-1,-3.7547305E-1,-3.363083E-1],"categories":[3,7,9,11,12,15,19,23,25,26,28,0,4,7,11,12,0,1,2,3,4,5,6,7,8,9,11,12,13,14,15,16,17,18,19,20,22,23,24,25,26,27,28,29,0,1,4,5,6,8,10,20,21,22,27,29,3,15,23,25,28,9,10,0,4,5,6,8,9,10,11,0,1,5,6,1,2,3,4,5,6,8,9,10,11,12,13,15,18,19,21,22,23,24,25,26,27,28,30,4,2,0,4,6,0,1,2,5,6,1,4,5,6,7,8,9,10,11,12,16,17,18,19,20,21,22,23,24,25,27,28,29,30,0,3,11,12,16,17,18,19,20,21,22,23,24,25,27,28,29,30,2,3,4,5,8,9,14,19,21,22,23,26,28,7,9,10,11,14,15,16,17,18,21,22,23,24,25,29,30,1,2,5,7,9,11,0,5,6,0,3,10,13,14,18,19,20,21,22,23,25,28,0,1,4,6,7,10,11,0,1,2,4,5,6,0,1,2,3,4,5,6,7,8,9,10,11,12,13,14,15,16,17,18,19,20,21,22,23,24,25,26,27,28,23,0,6,7,8,9,11,12,14,15,17,19,20,21,23,24,25,26,27,28,29,2,3,4,5,6,8,11,12,13,15,17,20,21,22,23,24,28,29,30,11,1,4,5,6,7,16,17,18,19,20,21,23,24,25,27,28,29,30,1,2,4,5,6,7,8,9,10,12,13,14,15,17,18,20,21,22,23,25,26,27,29,0,1,2,3,4,5,6,7,8,9,11,12,13,14,15,16,17,18,19,20,21,22,23,24,25,26,27,28,29,0,1,3,4,5,6,1,3,4,5,7,9,10,11,12,13,15,17,18,19,20,21,22,23,24,25,26,27,28,0,1,2,4,5,6,0,1,2,3,4,5,6,7,8,9,10,11,12,13,14,15,17,18,19,20,21,22,23,24,25,26,27,28,29,30,9,10,12,15,16,17,18,19,20,21,22,23,24,26,28,0,1,2,3,4,5,6,7,8,9,10,11,12,13,14,15,17,18,19,20,21,22,23,25,26,27,28,29,0,1,2,3,4,0,1,2,3,4,5,6,7,8,9,10,11,12,13,15,17,18,19,20,21,22,23,24,25,26,27,28,29,0,1,2,5,6,20,21,27,29,6,8,10,27,0,11,4,9,10,11,12,13,14,15,16,18,21,22,23,24,25,26,28,29,0,1,2,3,4,5,6,7,8,9,10,11,12,13,14,15,16,17,18,19,20,21,22,23,24,28,29,30,0,1,5,6,0,1,2,3,4,5,6,7,8,9,10,11,12,13,14,15,16,17,19,20,23,24,25,26,27,29,0,1,2,3,4,5,6,7,8,9,10,11,12,13,14,15,16,17,18,19,20,21,22,24,25,26,27,28,29,23,0,2,3,4,6,7,8,10,11,12,13,14,15,16,17,18,19,21,22,25,28,29,0,1,2,5,11,12,1,2,3,5,6,7,11,0,0,1,3,6,1,3,4,0],"categories_nodes":[0,1,2,3,4,5,6,7,8,9,10,11,12,13,14,15,16,17,18,20,21,22,24,25,26,27,28,29,30,32,33,34,35,36,37,38,39,40,41,43,44,45,46,47,48,49,50,51,52,53,55,56,58,59,60,61,62],"categories_segments":[0,11,13,16,44,56,61,63,71,75,99,100,101,104,109,133,151,164,180,186,189,202,209,215,244,245,265,284,285,303,326,355,361,384,390,420,435,463,468,496,501,505,509,511,529,557,561,587,616,617,639,644,645,652,653,657,660],"categories_sizes":[11,2,3,28,12,5,2,8,4,24,1,1,3,5,24,18,13,16,6,3,13,7,6,29,1,20,19,1,18,23,29,6,23,6,30,15,28,5,28,5,4,4,2,18,28,4,26,29,1,22,5,1,7,1,4,3,1],"default_left":[1,1,1,1,1,1,1,1,1,1,1,1,1,1,1,1,1,1,1,0,1,1,1,0,1,1,1,1,1,1,1,0,1,1,1,1,1,1,1,1,1,1,0,1,1,1,1,1,1,1,1,1,1,1,0,1,1,0,1,1,1,1,1,0,0,0,0,0,0,0,0,0,0,0,0,0,0,0,0,0,0,0,0,0,0,0,0,0,0,0,0,0,0,0,0,0,0,0,0,0,0,0,0,0,0,0,0,0,0,0,0,0,0,0,0,0,0,0,0,0,0,0,0,0,0],"id":1,"left_children":[1,3,5,7,9,11,13,15,17,19,21,23,25,27,29,31,33,35,37,39,41,43,45,47,49,51,53,55,57,59,61,63,65,67,69,71,73,75,77,79,81,83,85,87,89,91,93,95,97,99,101,103,105,107,-1,109,111,113,115,117,119,121,123,-1,-1,-1,-1,-1,-1,-1,-1,-1,-1,-1,-1,-1,-1,-1,-1,-1,-1,-1,-1,-1,-1,-1,-1,-1,-1,-1,-1,-1,-1,-1,-1,-1,-1,-1,-1,-1,-1,-1,-1,-1,-1,-1,-1,-1,-1,-1,-1,-1,-1,-1,-1,-1,-1,-1,-1,-1,-1,-1,-1,-1,-1],"loss_changes":[2.9842625E4,8.1709404E3,2.3893672E3,5.009494E3,4.7190615E3,4.7572754E2,4.282129E2,2.7525996E3,3.410601E3,3.7052368E3,1.785877E3,2.2718091E2,5.229575E2,4.1378418E1,2.3057617E1,1.7985977E3,2.7831836E2,2.093046E3,2.648791E3,4.1623926E3,1.206014E3,9.6748895E2,1.2567319E3,1.6689996E2,3.9061243E2,1.3069731E3,2.6787646E2,3.735309E1,2.9058105E1,8.940353E0,6.2314453E0,6.304629E2,3.1758496E2,2.422644E2,1.21315765E2,1.129127E3,6.220065E2,2.0026392E3,2.1560554E3,1.0393809E3,3.3422266E2,9.981825E2,1.2434147E3,4.0403027E2,6.534507E2,9.6104504E2,3.8104785E2,1.4880652E2,3.598296E2,1.0470798E2,1.1628992E2,1.0499443E3,2.610581E2,9.7130615E1,0E0,1.457415E1,1.2985199E1,3.2871826E1,8.984131E0,1.1466384E-1,6.292038E0,2.8263916E1,1.0683594E0,0E0,0E0,0E0,0E0,0E0,0E0,0E0,0E0,0E0,0E0,0E0,0E0,0E0,0E0,0E0,0E0,0E0,0E0,0E0,0E0,0E0,0E0,0E0,0E0,0E0,0E0,0E0,0E0,0E0,0E0,0E0,0E0,0E0,0E0,0E0,0E0,0E0,0E0,0E0,0E0,0E0,0E0,0E0,0E0,0E0,0E0,0E0,0E0,0E0,0E0,0E0,0E0,0E0,0E0,0E0,0E0,0E0,0E0,0E0,0E0,0E0,0E0],"parents":[2147483647,0,0,1,1,2,2,3,3,4,4,5,5,6,6,7,7,8,8,9,9,10,10,11,11,12,12,13,13,14,14,15,15,16,16,17,17,18,18,19,19,20,20,21,21,22,22,23,23,24,24,25,25,26,26,27,27,28,28,29,29,30,30,31,31,32,32,33,33,34,34,35,35,36,36,37,37,38,38,39,39,40,40,41,41,42,42,43,43,44,44,45,45,46,46,47,47,48,48,49,49,50,50,51,51,52,52,53,53,55,55,56,56,57,57,58,58,59,59,60,60,61,61,62,62],"right_children":[2,4,6,8,10,12,14,16,18,20,22,24,26,28,30,32,34,36,38,40,42,44,46,48,50,52,54,56,58,60,62,64,66,68,70,72,74,76,78,80,82,84,86,88,90,92,94,96,98,100,102,104,106,108,-1,110,112,114,116,118,120,122,124,-1,-1,-1,-1,-1,-1,-1,-1,-1,-1,-1,-1,-1,-1,-1,-1,-1,-1,-1,-1,-1,-1,-1,-1,-1,-1,-1,-1,-1,-1,-1,-1,-1,-1,-1,-1,-1,-1,-1,-1,-1,-1,-1,-1,-1,-1,-1,-1,-1,-1,-1,-1,-1,-1,-1,-1,-1,-1,-1,-1,-1,-1],"split_conditions":[NaN,NaN,NaN,NaN,NaN,NaN,NaN,NaN,NaN,NaN,NaN,NaN,NaN,NaN,NaN,NaN,NaN,NaN,NaN,2E1,NaN,NaN,NaN,2E1,NaN,NaN,NaN,NaN,NaN,NaN,NaN,9.5E0,NaN,NaN,NaN,NaN,NaN,NaN,NaN,NaN,NaN,NaN,2.45E-1,NaN,NaN,NaN,NaN,NaN,NaN,NaN,NaN,NaN,NaN,NaN,-3.7559283E-1,NaN,NaN,2.2E1,NaN,NaN,NaN,NaN,NaN,6.0317427E-1,1.4056287E0,3.523818E-1,9.0373784E-2,5.5953985E-1,2.0888464E-1,2.4793427E-1,8.356041E-2,2.964118E-1,1.4492339E-1,1.2956333E-1,1.2551295E-2,5.671582E-1,1.0062453E-1,4.172729E-2,-1.00143574E-1,3.2893074E-1,1.12910114E-1,1.5124508E0,9.416781E-1,1.9522016E-1,1.7363658E-2,6.166551E-1,-8.0555625E-2,1.3528275E-1,8.371158E-3,-6.6796383E-3,-1.485105E-1,-2.031928E-2,-1.4944921E-1,-1.8319912E-1,-3.2641712E-1,-3.6348645E-2,-1.4181536E-1,1.2389262E0,-9.676389E-2,-2.940368E-2,-1.5511009E-1,-1.62387E-1,-3.6103478E-1,4.6336374E-1,-8.3299056E-2,-2.0421752E-1,-4.3940935E-1,-1.7295301E-1,-2.754841E-1,-3.356064E-3,-1.551774E-1,-1.9596238E-1,-2.9796147E-1,-2.5386935E-1,-3.7675753E-2,-2.757684E-1,-3.1378257E-1,-5.498438E-2,-1.07123815E-1,-1.9016577E-1,-3.3016536E-1,-1.6510001E-1,-3.626112E-1,-3.7547305E-1,-3.363083E-1],"split_indices":[0,1,0,0,0,0,4,4,6,5,1,3,6,6,5,5,5,5,4,2,6,5,4,2,4,5,0,5,5,0,5,2,5,0,6,0,6,5,5,0,6,0,2,6,0,0,4,5,5,6,5,0,0,5,0,4,0,2,4,5,6,1,3,0,0,0,0,0,0,0,0,0,0,0,0,0,0,0,0,0,0,0,0,0,0,0,0,0,0,0,0,0,0,0,0,0,0,0,0,0,0,0,0,0,0,0,0,0,0,0,0,0,0,0,0,0,0,0,0,0,0,0,0,0,0],"split_type":[1,1,1,1,1,1,1,1,1,1,1,1,1,1,1,1,1,1,1,0,1,1,1,0,1,1,1,1,1,1,1,0,1,1,1,1,1,1,1,1,1,1,0,1,1,1,1,1,1,1,1,1,1,1,0,1,1,0,1,1,1,1,1,0,0,0,0,0,0,0,0,0,0,0,0,0,0,0,0,0,0,0,0,0,0,0,0,0,0,0,0,0,0,0,0,0,0,0,0,0,0,0,0,0,0,0,0,0,0,0,0,0,0,0,0,0,0,0,0,0,0,0,0,0,0],"sum_hessian":[2.46677E5,2.07195E5,3.9482E4,1.14196E5,9.2999E4,2.4532E4,1.495E4,1.2177E4,1.02019E5,3.6156E4,5.6843E4,8.894E3,1.5638E4,5.157E3,9.793E3,4.272E3,7.905E3,3.4381E4,6.7638E4,9.627E3,2.6529E4,2.7047E4,2.9796E4,4.899E3,3.995E3,1.0068E4,5.57E3,7.98E2,4.359E3,1.68E2,9.625E3,2.592E3,1.68E3,4.705E3,3.2E3,1.7806E4,1.6575E4,2.4665E4,4.2973E4,9.217E3,4.1E2,1.4972E4,1.1557E4,1.528E4,1.1767E4,2.075E4,9.046E3,4.818E3,8.1E1,2.622E3,1.373E3,1.455E3,8.613E3,3.597E3,1.973E3,3.2E2,4.78E2,1.863E3,2.496E3,2.3E1,1.45E2,7.4E2,8.885E3,2.501E3,9.1E1,9.15E2,7.65E2,1.84E2,4.521E3,4.74E2,2.726E3,9.523E3,8.283E3,9.244E3,7.331E3,8.57E2,2.3808E4,2.8371E4,1.4602E4,2.947E3,6.27E3,1.53E2,2.57E2,3.808E3,1.1164E4,2.34E2,1.1323E4,2.753E3,1.2527E4,5.419E3,6.348E3,1.0464E4,1.0286E4,6.829E3,2.217E3,2.374E3,2.444E3,2.6E1,5.5E1,9.18E2,1.704E3,3.63E2,1.01E3,4.63E2,9.92E2,8.165E3,4.48E2,1.323E3,2.274E3,7.4E1,2.46E2,2.12E2,2.66E2,1.797E3,6.6E1,1.146E3,1.35E3,1.4E1,9E0,4.9E1,9.6E1,7.5E1,6.65E2,8.729E3,1.56E2],"tree_param":{"num_deleted":"0","num_feature":"7","num_nodes":"125","size_leaf_vector":"1"}},{"base_weights":[2.0292244E-5,1.01756774E-1,-5.844957E-1,1.8917419E-1,-1.526207E-1,-4.9117094E-1,-8.74371E-1,3.5959694E-1,5.3373512E-2,2.857546E-1,-2.8527188E-1,-3.7575942E-1,-5.89497E-1,-8.163444E-1,-2.6324573E-1,5.4282194E-1,2.1123366E-1,3.9045104E-1,-2.403482E-2,7.6796436E-1,1.8004892E-2,3.954249E-5,-3.85816E-1,-5.1692775E-3,-4.404934E-1,-3.0823988E-1,-6.705366E-1,-1.1622172E-1,-2.6916516E-1,4.1461962E-1,9.840281E-1,7.5912356E-1,1.425763E-1,1.9149352E0,2.5689867E-1,4.0035418E-1,-9.8782234E-2,-4.56791E-2,1.2910162E0,-1.8093562E-1,2.2180653E-1,1.0558616E0,-4.639185E-2,-2.8945598E-1,-6.7316E-1,3.4180507E-1,-3.791502E-1,-3.4498328E-1,-6.1214006E-1,8.81452E-1,-5.494909E-1,-5.3136986E-1,-7.4590725E-1,1.9941257E-1,6.009171E-2,5.660432E-1,2.221677E-1,5.748701E-1,1.60267E-1,7.529101E-2,-5.487438E-2,1.439347E0,1.6855153E-1,1.5036507E-1,-4.9572997E-4,1.7984949E-1,8.3573714E-2,-4.5082537E-3,-6.74858E-2,9.992683E-2,-1.3429426E-1,2.1426485E0,2.7499273E-1,5.7024565E-2,-1.0537768E-1,3.7535188E-1,2.9762177E-2,1.369599E-1,-6.681313E-2,-6.509718E-2,-1.3709925E-1,-2.4410683E-1,-1.05699696E-1,1.5465559E-1,-2.9602896E-3,-7.57551E-2,-2.1628802E-1,-7.075972E-2,-1.6383052E-1,-1.4887583E-1,-3.0861524E-1,3.2465422E-1,-1.483048E-2,-7.8538135E-2,-2.411557E-1,-1.20145135E-1,-1.9275823E-1,-1.9377157E-1,-2.6482478E-1],"categories":[3,7,9,11,12,15,23,25,26,28,4,7,1,2,3,4,5,6,7,9,11,12,13,15,17,18,19,20,23,24,25,26,27,28,29,0,1,2,5,6,11,12,15,23,28,16,17,18,20,21,23,24,25,27,28,29,30,0,1,2,4,5,6,10,11,0,2,3,4,5,9,10,11,12,13,14,15,17,18,19,20,21,22,23,24,25,26,27,28,29,30,0,1,5,8,9,10,12,13,15,16,17,18,19,21,22,23,24,25,28,29,0,3,4,5,6,7,8,9,10,11,12,13,14,15,18,19,20,21,22,24,25,26,27,28,0,1,2,5,6,0,1,2,3,4,5,6,7,9,10,11,1,3,2,0,1,2,3,4,5,6,7,8,9,11,12,13,14,15,16,17,18,19,20,21,22,23,24,25,26,27,28,29,0,1,2,3,4,5,7,8,9,10,11,0,1,2,5,6,0,1,2,3,4,5,6,7,8,9,10,11,12,14,15,16,17,18,19,20,21,22,23,24,25,26,27,28,29,0,6,10,13,17,1,2,3,4,5,6,7,8,10,12,15,16,17,18,19,20,21,24,25,26,2,3,6,7,9,11,13,15,16,17,24,25,0,1,3,4,5,6,7,8,9,10,11,12,13,14,15,16,17,18,19,20,21,22,23,24,25,26,27,28,30,4,5,11,12,13,14,15,16,17,18,19,20,21,22,23,25,26,27,29,30,0,1,4,7,8,10,11,12,13,14,16,18,20,22,23,30,0,1,2,3,4,5,6,8,9,10,11,3,4,5,6,7,8,10,11,12,13,14,15,16,17,18,19,20,21,22,23,24,25,27,28,29,30,13,14,16,17,18,19,20,21,23,25,0,1,2,3,4,5,6,7,8,9,10,11,12,13,14,15,17,18,19,20,21,22,23,24,25,26,27,28,29,30,1,2,3,6,7,8,9,11,15,16,17,18,21,23,24,25,26,28,30,5,9,14,18,19,20,21,22,23,24,25,27,28,30,0,5,8,10,16,0,1,2,3,4,5,6,7,8,9,10,11,12,13,14,15,17,18,19,20,21,22,23,24,25,26,27,28,29,0,1,5,6,19,21,22,27,0,1,2,3,4,6,7,8,9,10,11,12,14,15,17,19,20,21,24,26,27,28,29,30,7,9,10,14,18,21,22,25,27,0,2,3,4,5,6,10,11,4,10,16,17,19,24,26,0,1,3,4,5,6,10,3,0,1,2,3,4,5,6,7,8,9,10,11,12,13,14,15,16,17,18,19,20,21,22,24,25,26,27,28,29,0,1,7,10,11,12,16,17,18,19,20,21,23,24,26,27,28,11,12,23,23,28],"categories_nodes":[0,1,2,3,4,5,6,7,8,9,10,11,12,13,15,16,17,18,21,22,23,24,25,26,29,30,31,32,33,35,36,37,38,39,40,43,45,46,47,48,49,50,51,52],"categories_segments":[0,10,11,12,35,40,45,57,65,91,111,135,140,151,153,154,183,194,199,228,233,253,265,294,314,330,341,367,377,407,426,440,445,474,482,506,515,523,530,537,538,567,584,587],"categories_sizes":[10,1,1,23,5,5,12,8,26,20,24,5,11,2,1,29,11,5,29,5,20,12,29,20,16,11,26,10,30,19,14,5,29,8,24,9,8,7,7,1,29,17,3,2],"default_left":[1,1,1,1,1,1,1,1,1,1,1,1,1,1,0,1,1,1,1,0,0,1,1,1,1,1,1,0,0,1,1,1,1,1,0,1,1,1,1,1,1,0,0,1,0,1,1,1,1,1,1,1,1,0,0,0,0,0,0,0,0,0,0,0,0,0,0,0,0,0,0,0,0,0,0,0,0,0,0,0,0,0,0,0,0,0,0,0,0,0,0,0,0,0,0,0,0,0,0],"id":2,"left_children":[1,3,5,7,9,11,13,15,17,19,21,23,25,27,-1,29,31,33,35,37,39,41,43,45,47,49,51,-1,-1,53,55,57,59,61,63,65,67,69,71,73,75,-1,77,79,81,83,85,87,89,91,93,95,97,-1,-1,-1,-1,-1,-1,-1,-1,-1,-1,-1,-1,-1,-1,-1,-1,-1,-1,-1,-1,-1,-1,-1,-1,-1,-1,-1,-1,-1,-1,-1,-1,-1,-1,-1,-1,-1,-1,-1,-1,-1,-1,-1,-1,-1,-1],"loss_changes":[1.4669163E4,4.6722275E3,9.888828E2,3.618981E3,3.125E3,3.1373096E2,8.925781E-1,1.8849766E3,2.270771E3,1.6118145E3,1.183457E3,3.0538757E2,3.4025195E2,1.5887085E1,0E0,1.7545928E3,1.4413627E3,3.3085942E3,2.2451626E3,1.8968589E3,3.255306E2,1.7570405E3,8.444419E2,2.4589842E2,1.7745044E2,9.5997363E2,1.2122461E2,0E0,0E0,1.2885122E3,1.5339023E3,1.1093962E3,1.2015106E3,5.103487E3,9.4405774E2,2.568673E2,6.3590906E2,2.6583054E2,5.9363213E3,2.5681964E2,5.0038336E2,0E0,9.411208E2,2.7727332E2,3.4507007E2,6.0056847E1,3.9293396E1,1.5272192E2,1.8646252E2,1.05440094E2,2.032273E2,5.905896E1,1.0232324E2,0E0,0E0,0E0,0E0,0E0,0E0,0E0,0E0,0E0,0E0,0E0,0E0,0E0,0E0,0E0,0E0,0E0,0E0,0E0,0E0,0E0,0E0,0E0,0E0,0E0,0E0,0E0,0E0,0E0,0E0,0E0,0E0,0E0,0E0,0E0,0E0,0E0,0E0,0E0,0E0,0E0,0E0,0E0,0E0,0E0,0E0],"parents":[2147483647,0,0,1,1,2,2,3,3,4,4,5,5,6,6,7,7,8,8,9,9,10,10,11,11,12,12,13,13,15,15,16,16,17,17,18,18,19,19,20,20,21,21,22,22,23,23,24,24,25,25,26,26,29,29,30,30,31,31,32,32,33,33,34,34,35,35,36,36,37,37,38,38,39,39,40,40,42,42,43,43,44,44,45,45,46,46,47,47,48,48,49,49,50,50,51,51,52,52],"right_children":[2,4,6,8,10,12,14,16,18,20,22,24,26,28,-1,30,32,34,36,38,40,42,44,46,48,50,52,-1,-1,54,56,58,60,62,64,66,68,70,72,74,76,-1,78,80,82,84,86,88,90,92,94,96,98,-1,-1,-1,-1,-1,-1,-1,-1,-1,-1,-1,-1,-1,-1,-1,-1,-1,-1,-1,-1,-1,-1,-1,-1,-1,-1,-1,-1,-1,-1,-1,-1,-1,-1,-1,-1,-1,-1,-1,-1,-1,-1,-1,-1,-1,-1],"split_conditions":[NaN,NaN,NaN,NaN,NaN,NaN,NaN,NaN,NaN,NaN,NaN,NaN,NaN,NaN,-2.6324573E-1,NaN,NaN,NaN,NaN,1.45E0,1.774E1,NaN,NaN,NaN,NaN,NaN,NaN,-1.1622172E-1,-2.6916516E-1,NaN,NaN,NaN,NaN,NaN,1.055E0,NaN,NaN,NaN,NaN,NaN,NaN,1.0558616E0,7.15E-1,NaN,4.756E0,NaN,NaN,NaN,NaN,NaN,NaN,NaN,NaN,1.9941257E-1,6.009171E-2,5.660432E-1,2.221677E-1,5.748701E-1,1.60267E-1,7.529101E-2,-5.487438E-2,1.439347E0,1.6855153E-1,1.5036507E-1,-4.9572997E-4,1.7984949E-1,8.3573714E-2,-4.5082537E-3,-6.74858E-2,9.992683E-2,-1.3429426E-1,2.1426485E0,2.7499273E-1,5.7024565E-2,-1.0537768E-1,3.7535188E-1,2.9762177E-2,1.369599E-1,-6.681313E-2,-6.509718E-2,-1.3709925E-1,-2.4410683E-1,-1.05699696E-1,1.5465559E-1,-2.9602896E-3,-7.57551E-2,-2.1628802E-1,-7.075972E-2,-1.6383052E-1,-1.4887583E-1,-3.0861524E-1,3.2465422E-1,-1.483048E-2,-7.8538135E-2,-2.411557E-1,-1.20145135E-1,-1.9275823E-1,-1.9377157E-1,-2.6482478E-1],"split_indices":[0,1,0,0,6,0,5,4,5,5,5,6,4,1,0,3,0,4,6,2,2,0,0,5,5,5,5,0,0,5,4,5,5,5,2,5,5,0,0,0,5,0,2,5,2,4,5,4,0,0,5,0,0,0,0,0,0,0,0,0,0,0,0,0,0,0,0,0,0,0,0,0,0,0,0,0,0,0,0,0,0,0,0,0,0,0,0,0,0,0,0,0,0,0,0,0,0,0,0],"split_type":[1,1,1,1,1,1,1,1,1,1,1,1,1,1,0,1,1,1,1,0,0,1,1,1,1,1,1,0,0,1,1,1,1,1,0,1,1,1,1,1,1,0,0,1,0,1,1,1,1,1,1,1,1,0,0,0,0,0,0,0,0,0,0,0,0,0,0,0,0,0,0,0,0,0,0,0,0,0,0,0,0,0,0,0,0,0,0,0,0,0,0,0,0,0,0,0,0,0,0],"sum_hessian":[2.46677E5,2.10108E5,3.6569E4,1.56371E5,5.3737E4,2.7665E4,8.904E3,6.9345E4,8.7026E4,1.2483E4,4.1254E4,1.2729E4,1.4936E4,4.67E2,8.437E3,3.1026E4,3.8319E4,1.6252E4,7.0774E4,4.456E3,8.027E3,1.075E4,3.0504E4,1.893E3,1.0836E4,3.342E3,1.1594E4,7.5E1,3.92E2,2.4042E4,6.984E3,4.266E3,3.4053E4,1.308E3,1.4944E4,1.0598E4,6.0176E4,1.744E3,2.712E3,4.062E3,3.965E3,1.39E2,1.0611E4,2.2845E4,7.659E3,9.82E2,9.11E2,6.964E3,3.872E3,5.63E2,2.779E3,4.076E3,7.518E3,1.1094E4,1.2948E4,1.482E3,5.502E3,6.93E2,3.573E3,2.5546E4,8.507E3,4.17E2,8.91E2,7.683E3,7.261E3,4.02E3,6.578E3,3.6168E4,2.4008E4,8.98E2,8.46E2,1.62E2,2.55E3,1.278E3,2.784E3,4.21E2,3.544E3,2.754E3,7.857E3,1.5949E4,6.896E3,5.325E3,2.334E3,6.57E2,3.25E2,6.66E2,2.45E2,4.516E3,2.448E3,3.031E3,8.41E2,4.63E2,1E2,1.305E3,1.474E3,1.874E3,2.202E3,4.347E3,3.171E3],"tree_param":{"num_deleted":"0","num_feature":"7","num_nodes":"99","size_leaf_vector":"1"}},{"base_weights":[3.368548E-5,7.841088E-2,-3.7747234E-1,2.3385593E-1,-3.2364859E-3,-2.7030888E-1,-5.251187E-1,4.1441402E-1,1.509283E-1,1.0011208E-1,-1.3735764E-1,-2.0315897E-1,-4.5091766E-1,-3.2169923E-1,-6.0120183E-1,9.879613E-1,2.7785945E-1,3.354717E-1,5.5964503E-2,2.8504854E-1,2.3041035E-3,7.219065E-2,-2.0360938E-1,4.115264E-2,-2.507695E-1,-3.668424E-1,-6.627569E-1,6.110797E-1,-4.3633553E-1,-3.5577807E-1,-6.0650617E-1,4.1512224E-1,1.4357002E0,5.240797E-1,1.55324E-1,5.2638084E-1,7.064839E-2,2.018293E-1,-6.4944565E-2,3.5710487E-1,-2.5062415E-1,1.6526946E-1,-1.23925306E-1,8.175281E-1,-2.97024E-2,-1.16796084E-1,-3.4936774E-1,6.297138E-1,-9.248257E-2,-7.798676E-2,-3.1396446E-1,-3.754932E-1,1.6073599E0,-5.9103185E-1,-1.1513681E0,2.2746783E-1,-3.872828E-1,-3.957791E-1,-7.8564847E-1,-1.5010218E-1,-4.6932757E-1,-5.4585767E-1,-6.1314833E-1,2.6834944E-1,-1.9101825E-2,1.3944718E0,3.4918085E-1,2.3859857E-1,7.315164E-2,8.822317E-2,-2.490209E-2,5.425834E-1,1.4395097E-1,2.251759E-1,-1.0663964E-2,1.14625774E-1,-4.657081E-3,1.0954998E-2,-5.7943467E-2,2.0070685E-1,7.152183E-2,8.490707E-2,-2.1935354E-1,1.4637554E-1,-3.1602044E-2,4.0761366E-2,-8.7238684E-2,6.684515E-1,9.5959075E-2,4.786167E-2,-5.0042436E-2,-1.3142889E-3,-6.812777E-2,-1.4166132E-1,-7.8970864E-2,2.522684E-1,-5.8985186E-1,3.5023335E-2,-1.20659724E-1,1.14354275E-1,-4.6581265E-2,-1.0909497E-1,-2.9135013E-2,-9.6965484E-2,-1.6559543E-1,1.0228987E0,-2.1484166E-1,-1.504498E-1,-2.4976447E-1,-3.1706527E-1,-3.9849192E-1,-3.9793603E-2,-2.5776038E-1,-9.702114E-2,-1.451083E-1,-2.5865138E-1,-2.0995888E-1,1.7305796E-1,-9.501424E-2,-1.5202984E-1,1.3450987E-2,7.3914086E-3,-1.7441534E-1,-1.8363747E-1,-2.4891664E-1],"categories":[3,5,7,9,11,12,15,19,23,25,26,28,0,1,5,6,7,11,12,23,4,6,9,10,11,12,13,15,16,17,18,19,20,21,22,23,24,25,28,29,0,4,10,15,16,17,18,20,21,22,24,25,2,5,6,7,9,10,0,2,3,4,5,7,8,9,10,11,12,15,17,18,19,20,21,22,23,24,25,26,27,28,29,0,1,4,1,2,3,4,5,6,7,9,11,12,13,14,15,16,17,18,19,20,23,24,25,26,27,28,29,0,1,3,5,7,8,9,10,11,12,13,14,15,18,19,20,21,22,24,25,26,27,28,0,1,2,5,6,5,28,0,1,2,3,4,5,6,7,8,9,10,11,12,13,14,15,16,17,18,19,20,21,22,23,24,25,26,27,28,30,0,1,3,4,5,6,7,8,9,11,12,14,15,16,17,18,19,20,21,22,23,24,25,27,28,29,30,1,2,5,6,8,9,10,11,1,3,4,5,6,7,9,10,11,12,13,14,15,17,18,19,20,23,24,25,26,28,29,0,1,2,3,5,7,9,11,12,15,16,18,19,20,22,23,24,25,26,27,28,29,11,0,1,2,3,4,5,6,7,8,9,10,11,12,14,15,17,18,19,20,21,22,23,24,25,26,27,28,29,0,4,10,13,17,20,29,0,1,2,4,6,7,8,9,10,11,12,13,14,15,16,17,18,19,20,21,22,23,24,25,26,27,28,29,0,1,2,4,5,6,7,8,10,21,22,24,11,12,23,2,6,9,10,7,12,23,1,2,3,4,5,10,11,0,1,1,3,4,5,6,7,9,11,12,13,14,15,16,17,18,19,20,22,23,25,26,27,28,29,0,1,2,4,5,6,7,8,9,10,11,0,2,3,4,5,7,9,10,11,4,2,4,1,2,3,4,5,6,7,8,9,11,12,13,14,15,16,17,18,19,20,21,22,23,24,25,26,27,28,29,0,1,4,5,6,8,9,10,11,12,13,14,18,19,20,21,22,23,25,26,27,28,29,0,5,7,11,12,14,15,16,17,18,20,21,22,23,26,27,28,30,0,1,2,3,4,5,6,7,8,9,10,11,12,13,14,15,18,19,20,21,22,23,24,25,26,27,28,30,0,1,2,4,6,8,21,27,29,4,0,1,2,4,7,8,12,14,19,23,26,0,2,4,5,6,7,8,9,10,11,12,13,14,15,16,17,18,19,20,21,22,23,24,25,26,27,28,29,1,5,0,1,2,3,4,5,6,7,8,9,10,11,12,13,14,15,16,18,19,20,21,22,23,24,26,27,28,29,30,8,5,6,8,10,11,12,13,14,15,17,20,21,22,23,24,1,2,5,6,6,7,9,10,3,11,19],"categories_nodes":[0,1,2,3,4,5,6,7,8,9,10,11,12,13,14,16,17,18,19,21,22,23,24,26,27,28,29,30,31,33,34,35,36,37,38,39,40,41,42,43,44,45,48,49,50,51,52,56,57,59,61,62],"categories_segments":[0,12,16,20,40,42,52,58,83,86,111,134,139,141,171,198,206,229,251,252,280,287,315,324,327,329,330,334,337,344,346,370,381,390,391,393,421,422,444,462,490,499,500,511,539,540,541,570,571,586,590,594],"categories_sizes":[12,4,4,20,2,10,6,25,3,25,23,5,2,30,27,8,23,22,1,28,7,28,9,3,2,1,4,3,7,2,24,11,9,1,2,28,1,22,18,28,9,1,11,28,1,1,29,1,15,4,4,3],"default_left":[1,1,1,1,1,1,1,1,1,1,1,1,1,1,1,0,1,1,1,1,0,1,1,1,1,0,1,1,1,1,1,1,0,1,1,1,1,1,1,1,1,1,1,1,1,1,0,0,1,1,1,1,1,0,0,0,1,1,0,1,0,1,1,0,0,0,0,0,0,0,0,0,0,0,0,0,0,0,0,0,0,0,0,0,0,0,0,0,0,0,0,0,0,0,0,0,0,0,0,0,0,0,0,0,0,0,0,0,0,0,0,0,0,0,0,0,0,0,0,0,0,0,0,0,0],"id":3,"left_children":[1,3,5,7,9,11,13,15,17,19,21,23,25,27,29,31,33,35,37,39,41,43,45,47,49,51,53,55,57,59,61,63,65,67,69,71,73,75,77,79,81,83,85,87,89,91,93,95,97,99,101,103,105,107,109,-1,111,113,115,117,119,121,123,-1,-1,-1,-1,-1,-1,-1,-1,-1,-1,-1,-1,-1,-1,-1,-1,-1,-1,-1,-1,-1,-1,-1,-1,-1,-1,-1,-1,-1,-1,-1,-1,-1,-1,-1,-1,-1,-1,-1,-1,-1,-1,-1,-1,-1,-1,-1,-1,-1,-1,-1,-1,-1,-1,-1,-1,-1,-1,-1,-1,-1,-1],"loss_changes":[7.2987046E3,2.5925173E3,6.7088135E2,1.0532158E3,1.8563928E3,2.9796277E2,2.7583545E2,1.7336633E3,8.447886E2,1.3682136E3,8.0919556E2,2.0841724E2,1.1837451E2,5.196272E2,1.6680176E1,1.091249E3,5.394614E2,8.279884E2,5.613613E2,1.01006055E3,1.01779236E3,1.0634021E3,5.6033105E2,2.2995947E2,1.6370593E2,8.206781E1,6.559088E1,7.844736E1,6.0975037E1,6.39872E0,4.782715E0,4.290349E2,2.0803125E3,4.5148718E2,3.949366E2,5.671111E2,4.9550403E2,5.652064E2,2.263872E2,8.5376855E2,7.959611E2,1.8856394E3,1.2087456E3,1.1815011E3,3.1965616E2,3.4414545E2,1.747649E2,2.982304E2,1.5446786E2,1.4260793E2,1.18254395E2,4.3645508E1,9.038237E1,3.528296E1,2.6251526E0,0E0,8.17763E0,2.451886E1,2.3440552E0,1.2294753E1,3.4491463E0,2.561264E1,2.027832E0,0E0,0E0,0E0,0E0,0E0,0E0,0E0,0E0,0E0,0E0,0E0,0E0,0E0,0E0,0E0,0E0,0E0,0E0,0E0,0E0,0E0,0E0,0E0,0E0,0E0,0E0,0E0,0E0,0E0,0E0,0E0,0E0,0E0,0E0,0E0,0E0,0E0,0E0,0E0,0E0,0E0,0E0,0E0,0E0,0E0,0E0,0E0,0E0,0E0,0E0,0E0,0E0,0E0,0E0,0E0,0E0,0E0,0E0,0E0,0E0,0E0,0E0],"parents":[2147483647,0,0,1,1,2,2,3,3,4,4,5,5,6,6,7,7,8,8,9,9,10,10,11,11,12,12,13,13,14,14,15,15,16,16,17,17,18,18,19,19,20,20,21,21,22,22,23,23,24,24,25,25,26,26,27,27,28,28,29,29,30,30,31,31,32,32,33,33,34,34,35,35,36,36,37,37,38,38,39,39,40,40,41,41,42,42,43,43,44,44,45,45,46,46,47,47,48,48,49,49,50,50,51,51,52,52,53,53,54,54,56,56,57,57,58,58,59,59,60,60,61,61,62,62],"right_children":[2,4,6,8,10,12,14,16,18,20,22,24,26,28,30,32,34,36,38,40,42,44,46,48,50,52,54,56,58,60,62,64,66,68,70,72,74,76,78,80,82,84,86,88,90,92,94,96,98,100,102,104,106,108,110,-1,112,114,116,118,120,122,124,-1,-1,-1,-1,-1,-1,-1,-1,-1,-1,-1,-1,-1,-1,-1,-1,-1,-1,-1,-1,-1,-1,-1,-1,-1,-1,-1,-1,-1,-1,-1,-1,-1,-1,-1,-1,-1,-1,-1,-1,-1,-1,-1,-1,-1,-1,-1,-1,-1,-1,-1,-1,-1,-1,-1,-1,-1,-1,-1,-1,-1,-1],"split_conditions":[NaN,NaN,NaN,NaN,NaN,NaN,NaN,NaN,NaN,NaN,NaN,NaN,NaN,NaN,NaN,1.94E0,NaN,NaN,NaN,NaN,1.6E0,NaN,NaN,NaN,NaN,3.57E1,NaN,NaN,NaN,NaN,NaN,NaN,2E0,NaN,NaN,NaN,NaN,NaN,NaN,NaN,NaN,NaN,NaN,NaN,NaN,NaN,2.2E0,8.36E0,NaN,NaN,NaN,NaN,NaN,4.771E0,4.756E0,2.2746783E-1,NaN,NaN,2.95E-1,NaN,6.4E0,NaN,NaN,2.6834944E-1,-1.9101825E-2,1.3944718E0,3.4918085E-1,2.3859857E-1,7.315164E-2,8.822317E-2,-2.490209E-2,5.425834E-1,1.4395097E-1,2.251759E-1,-1.0663964E-2,1.14625774E-1,-4.657081E-3,1.0954998E-2,-5.7943467E-2,2.0070685E-1,7.152183E-2,8.490707E-2,-2.1935354E-1,1.4637554E-1,-3.1602044E-2,4.0761366E-2,-8.7238684E-2,6.684515E-1,9.5959075E-2,4.786167E-2,-5.0042436E-2,-1.3142889E-3,-6.812777E-2,-1.4166132E-1,-7.8970864E-2,2.522684E-1,-5.8985186E-1,3.5023335E-2,-1.20659724E-1,1.14354275E-1,-4.6581265E-2,-1.0909497E-1,-2.9135013E-2,-9.6965484E-2,-1.6559543E-1,1.0228987E0,-2.1484166E-1,-1.504498E-1,-2.4976447E-1,-3.1706527E-1,-3.9849192E-1,-3.9793603E-2,-2.5776038E-1,-9.702114E-2,-1.451083E-1,-2.5865138E-1,-2.0995888E-1,1.7305796E-1,-9.501424E-2,-1.5202984E-1,1.3450987E-2,7.3914086E-3,-1.7441534E-1,-1.8363747E-1,-2.4891664E-1],"split_indices":[0,6,0,5,1,5,4,0,1,0,5,6,0,5,5,2,4,0,0,4,2,0,0,0,4,2,5,0,0,4,0,4,2,1,0,4,4,1,6,0,0,5,5,5,0,1,2,2,5,5,3,6,5,2,2,0,4,5,2,6,2,4,5,0,0,0,0,0,0,0,0,0,0,0,0,0,0,0,0,0,0,0,0,0,0,0,0,0,0,0,0,0,0,0,0,0,0,0,0,0,0,0,0,0,0,0,0,0,0,0,0,0,0,0,0,0,0,0,0,0,0,0,0,0,0],"split_type":[1,1,1,1,1,1,1,1,1,1,1,1,1,1,1,0,1,1,1,1,0,1,1,1,1,0,1,1,1,1,1,1,0,1,1,1,1,1,1,1,1,1,1,1,1,1,0,0,1,1,1,1,1,0,0,0,1,1,0,1,0,1,1,0,0,0,0,0,0,0,0,0,0,0,0,0,0,0,0,0,0,0,0,0,0,0,0,0,0,0,0,0,0,0,0,0,0,0,0,0,0,0,0,0,0,0,0,0,0,0,0,0,0,0,0,0,0,0,0,0,0,0,0,0,0],"sum_hessian":[2.46677E5,2.04268E5,4.2409E4,7.0343E4,1.33925E5,2.4575E4,1.7834E4,2.2138E4,4.8205E4,7.564E4,5.8285E4,1.7916E4,6.659E3,4.856E3,1.2978E4,4.256E3,1.7882E4,1.6377E4,3.1828E4,2.6165E4,4.9475E4,1.4001E4,4.4284E4,2.922E3,1.4994E4,4.769E3,1.89E3,5.31E2,4.325E3,2.76E2,1.2702E4,1.868E3,2.388E3,5.941E3,1.1941E4,9.516E3,6.861E3,1.4425E4,1.7403E4,2.3063E4,3.102E3,2.1595E4,2.788E4,1.683E3,1.2318E4,2.7755E4,1.6529E4,5.4E2,2.382E3,4.016E3,1.0978E4,4.749E3,2E1,1.65E3,2.4E2,4.63E2,6.8E1,3.877E3,4.48E2,9.9E1,1.77E2,1.262E3,1.144E4,9.33E2,9.35E2,1.85E2,2.203E3,3.018E3,2.923E3,7.547E3,4.394E3,3.32E2,9.184E3,9.26E2,5.935E3,7.885E3,6.54E3,9.715E3,7.688E3,6.356E3,1.6707E4,1.47E3,1.632E3,9.85E3,1.1745E4,1.0904E4,1.6976E4,4.38E2,1.245E3,5.175E3,7.143E3,1.3746E4,1.4009E4,6.811E3,9.718E3,5E2,4E1,1.422E3,9.6E2,5.78E2,3.438E3,8.931E3,2.047E3,3.666E3,1.083E3,1.1E1,9E0,1.206E3,4.44E2,1.61E2,7.9E1,4.5E1,2.3E1,2.129E3,1.748E3,2.32E2,2.16E2,1.8E1,8.1E1,1.65E2,1.2E1,7.4E1,1.188E3,1.139E4,5E1],"tree_param":{"num_deleted":"0","num_feature":"7","num_nodes":"125","size_leaf_vector":"1"}},{"base_weights":[2.9684961E-5,6.756848E-2,-2.231281E-1,2.7662763E-1,1.8006664E-2,4.6407786E-1,-2.6060176E-1,4.7494227E-1,2.0880923E-3,1.5232195E-1,-4.946488E-2,5.896923E-1,-2.3895508E-1,-2.1722057E-1,-4.144354E-1,6.415958E-1,1.02444574E-1,3.3055708E-1,-2.1368554E-1,5.730629E-1,9.699855E-2,-1.3703123E-1,1.523167E-1,-9.802346E-2,-2.8078598E-1,-4.509467E-1,1.0412433E-2,1.0362892E0,4.899836E-1,-1.0696942E-1,7.138668E-1,7.9123765E-1,-8.743488E-2,-7.3118046E-2,-4.374861E-1,1.2729329E0,1.19442716E-1,3.6807665E-1,2.3502357E-2,-9.541391E-2,-6.6772825E-1,6.589621E-1,5.643683E-2,-4.998278E-1,-5.7067152E-2,-2.1331698E-1,-3.4664822E-1,-6.4996725E-1,-4.0259528E-1,6.979321E-1,-6.0823834E-1,3.8363078E-1,9.855646E-2,2.5090492E-1,8.108845E-2,-2.874326E-1,2.3989776E-2,3.6641666E-1,9.7966515E-2,5.7196265E-1,1.372346E-1,5.896274E-2,-9.47975E-2,2.0184031E-1,-5.2220836E-2,-1.4631738E-1,5.774643E-1,6.697706E-1,2.953005E-1,1.13007836E-1,-4.2351596E-2,2.965763E-1,5.950982E-2,4.2287115E-2,-4.5831632E-2,3.1828832E-2,-4.4955183E-2,-3.0148047E-1,-6.353437E-2,2.7168888E-1,6.521679E-2,7.1702145E-2,-6.343972E-2,2.3913436E-1,-1.9966559E-1,9.671929E-2,-3.3848297E-2,-7.896575E-3,-8.5087754E-2,-9.058454E-2,-1.3019466E-1,-1.2733433E-1,-2.3349413E-1,3.310287E-2,-1.3887504E-1,2.9878914E-1,-1.2693357E-1,-1.458472E-1,-2.0095263E-1],"categories":[3,5,7,9,11,12,15,19,20,23,25,26,28,0,1,2,4,0,1,3,4,1,2,3,4,5,7,9,10,11,12,13,14,15,17,18,19,20,23,24,25,26,28,29,0,1,3,4,5,6,7,8,9,11,12,15,16,17,18,19,20,22,23,25,26,27,28,29,0,3,2,5,9,11,3,5,7,8,9,10,11,17,18,19,20,21,22,23,24,25,26,27,28,29,0,1,3,4,0,3,7,11,12,15,23,25,26,28,0,1,2,3,4,5,10,11,12,13,14,16,17,18,19,20,22,23,24,25,26,27,28,29,30,0,0,1,2,3,5,8,9,11,0,1,2,3,4,9,10,11,0,1,4,5,6,7,10,11,0,1,2,5,6,10,11,1,2,3,4,5,7,8,9,10,11,12,13,14,15,16,17,18,19,20,21,22,23,24,25,26,27,28,29,0,1,4,5,6,9,10,11,0,6,1,2,3,4,5,7,8,9,10,11,12,13,14,15,16,17,18,19,20,21,23,24,25,26,27,28,29,4,8,9,10,12,14,15,16,17,18,19,20,21,22,23,24,26,29,1,2,3,4,6,1,4,5,6,2,4,18,29,0,1,2,4,5,6,7,9,12,13,14,15,16,17,18,20,21,23,24,25,26,27,28,29,1,2,4,5,7,10,11,12,14,15,16,19,21,26,27,0,1,4,5,7,8,10,11,12,13,15,16,17,18,19,21,22,23,24,25,27,28,29,30,4,6,9,10,11,0,1,2,4,5,6,8,9,10,11,12,13,14,15,17,18,20,23,30,3,5,7,8,10,13,14,15,18,22,23,25,26,30,0,3,5,7,8,10,11,13,14,16,18,19,20,21,22,23,26,27,28,29,0,2,3,4,5,6,7,8,9,10,12,13,14,15,16,17,18,19,20,21,22,23,24,26,27,30,0,1,2,3,7,8,9,10,11,12,13,15,16,17,18,19,20,21,22,24,25,26,27,28,7,23,20,7,3],"categories_nodes":[0,1,2,3,4,6,7,8,9,10,13,15,16,17,18,19,20,21,22,24,27,28,30,31,32,33,35,36,37,38,39,41,42,43,44,45,46,47,49,50],"categories_segments":[0,13,17,21,44,68,70,74,94,98,99,108,133,134,142,150,158,163,165,193,201,203,230,248,253,257,261,285,300,324,329,335,348,362,382,408,432,434,435,436],"categories_sizes":[13,4,4,23,24,2,4,20,4,1,9,25,1,8,8,8,5,2,28,8,2,27,18,5,4,4,24,15,24,5,6,13,14,20,26,24,2,1,1,1],"default_left":[1,1,1,1,1,0,1,1,1,1,1,0,0,1,0,1,1,1,1,1,1,1,1,0,1,0,0,1,1,0,1,1,1,1,0,1,1,1,1,1,0,1,1,1,1,1,1,1,0,1,1,0,0,0,0,0,0,0,0,0,0,0,0,0,0,0,0,0,0,0,0,0,0,0,0,0,0,0,0,0,0,0,0,0,0,0,0,0,0,0,0,0,0,0,0,0,0,0,0],"id":4,"left_children":[1,3,5,7,9,11,13,15,17,19,21,-1,-1,23,25,27,29,31,33,35,37,39,41,43,45,47,49,51,53,55,57,59,61,63,65,67,69,71,73,75,77,79,81,83,85,87,89,91,93,95,97,-1,-1,-1,-1,-1,-1,-1,-1,-1,-1,-1,-1,-1,-1,-1,-1,-1,-1,-1,-1,-1,-1,-1,-1,-1,-1,-1,-1,-1,-1,-1,-1,-1,-1,-1,-1,-1,-1,-1,-1,-1,-1,-1,-1,-1,-1,-1,-1],"loss_changes":[3.7178984E3,1.962093E3,1.4760264E3,1.9758157E3,1.3872708E3,5.61201E3,3.6260718E2,1.307919E3,1.0788582E3,1.1913683E3,1.8004142E3,0E0,0E0,3.211991E2,1.8543213E2,8.705879E2,8.3413135E2,1.1621735E3,2.8898267E2,1.88819E3,9.012776E2,1.5693367E3,1.4979348E3,2.4265431E2,1.2279321E2,1.0566748E2,4.0321637E2,6.927505E2,8.0019336E2,7.722278E2,3.2629926E2,1.067933E3,2.0548627E2,4.2511923E2,4.215467E2,6.4558594E2,2.4207892E2,1.01591394E3,7.3688617E2,7.228208E2,7.9420483E2,5.3428174E2,1.268363E3,2.9370145E2,2.8323038E2,1.7959924E2,5.4483154E1,6.1900635E1,2.741593E2,1.504353E2,3.4271545E0,0E0,0E0,0E0,0E0,0E0,0E0,0E0,0E0,0E0,0E0,0E0,0E0,0E0,0E0,0E0,0E0,0E0,0E0,0E0,0E0,0E0,0E0,0E0,0E0,0E0,0E0,0E0,0E0,0E0,0E0,0E0,0E0,0E0,0E0,0E0,0E0,0E0,0E0,0E0,0E0,0E0,0E0,0E0,0E0,0E0,0E0,0E0,0E0],"parents":[2147483647,0,0,1,1,2,2,3,3,4,4,5,5,6,6,7,7,8,8,9,9,10,10,13,13,14,14,15,15,16,16,17,17,18,18,19,19,20,20,21,21,22,22,23,23,24,24,25,25,26,26,27,27,28,28,29,29,30,30,31,31,32,32,33,33,34,34,35,35,36,36,37,37,38,38,39,39,40,40,41,41,42,42,43,43,44,44,45,45,46,46,47,47,48,48,49,49,50,50],"right_children":[2,4,6,8,10,12,14,16,18,20,22,-1,-1,24,26,28,30,32,34,36,38,40,42,44,46,48,50,52,54,56,58,60,62,64,66,68,70,72,74,76,78,80,82,84,86,88,90,92,94,96,98,-1,-1,-1,-1,-1,-1,-1,-1,-1,-1,-1,-1,-1,-1,-1,-1,-1,-1,-1,-1,-1,-1,-1,-1,-1,-1,-1,-1,-1,-1,-1,-1,-1,-1,-1,-1,-1,-1,-1,-1,-1,-1,-1,-1,-1,-1,-1,-1],"split_conditions":[NaN,NaN,NaN,NaN,NaN,1.32E0,NaN,NaN,NaN,NaN,NaN,5.896923E-1,-2.3895508E-1,NaN,1.0351E1,NaN,NaN,NaN,NaN,NaN,NaN,NaN,NaN,4.16E-1,NaN,9E-1,1.774E1,NaN,NaN,1.26E0,NaN,NaN,NaN,NaN,1.2586E1,NaN,NaN,NaN,NaN,NaN,2.392E0,NaN,NaN,NaN,NaN,NaN,NaN,NaN,1.042E0,NaN,NaN,3.8363078E-1,9.855646E-2,2.5090492E-1,8.108845E-2,-2.874326E-1,2.3989776E-2,3.6641666E-1,9.7966515E-2,5.7196265E-1,1.372346E-1,5.896274E-2,-9.47975E-2,2.0184031E-1,-5.2220836E-2,-1.4631738E-1,5.774643E-1,6.697706E-1,2.953005E-1,1.13007836E-1,-4.2351596E-2,2.965763E-1,5.950982E-2,4.2287115E-2,-4.5831632E-2,3.1828832E-2,-4.4955183E-2,-3.0148047E-1,-6.353437E-2,2.7168888E-1,6.521679E-2,7.1702145E-2,-6.343972E-2,2.3913436E-1,-1.9966559E-1,9.671929E-2,-3.3848297E-2,-7.896575E-3,-8.5087754E-2,-9.058454E-2,-1.3019466E-1,-1.2733433E-1,-2.3349413E-1,3.310287E-2,-1.3887504E-1,2.9878914E-1,-1.2693357E-1,-1.458472E-1,-2.0095263E-1],"split_indices":[0,1,1,0,0,2,1,4,5,1,3,0,0,0,2,5,3,4,4,4,6,4,0,2,4,2,2,6,0,2,5,6,6,0,2,5,5,5,4,6,2,5,5,5,5,5,0,0,2,0,1,0,0,0,0,0,0,0,0,0,0,0,0,0,0,0,0,0,0,0,0,0,0,0,0,0,0,0,0,0,0,0,0,0,0,0,0,0,0,0,0,0,0,0,0,0,0,0,0],"split_type":[1,1,1,1,1,0,1,1,1,1,1,0,0,1,0,1,1,1,1,1,1,1,1,0,1,0,0,1,1,0,1,1,1,1,0,1,1,1,1,1,0,1,1,1,1,1,1,1,0,1,1,0,0,0,0,0,0,0,0,0,0,0,0,0,0,0,0,0,0,0,0,0,0,0,0,0,0,0,0,0,0,0,0,0,0,0,0,0,0,0,0,0,0,0,0,0,0,0,0],"sum_hessian":[2.46677E5,1.89366E5,5.7311E4,3.6289E4,1.53077E5,2.963E3,5.4348E4,2.1069E4,1.522E4,5.1184E4,1.01893E5,1.352E3,1.611E3,4.2395E4,1.1953E4,1.4556E4,6.513E3,6.034E3,9.186E3,5.947E3,4.5237E4,7.1057E4,3.0836E4,1.4746E4,2.7649E4,1.1007E4,9.46E2,4.038E3,1.0518E4,4.852E3,1.661E3,2.87E3,3.164E3,5.643E3,3.543E3,2.338E3,3.609E3,9.648E3,3.5589E4,6.5891E4,5.166E3,4.906E3,2.593E4,1.363E3,1.3383E4,1.366E4,1.3989E4,2.149E3,8.858E3,4.48E2,4.98E2,3.007E3,1.031E3,4.081E3,6.437E3,8.73E2,3.979E3,7.18E2,9.43E2,6.6E2,2.21E3,1.411E3,1.753E3,6.72E2,4.971E3,3.47E3,7.3E1,5.39E2,1.799E3,1.816E3,1.793E3,2.071E3,7.577E3,2.1358E4,1.4231E4,1.4014E4,5.1877E4,2.969E3,2.197E3,3.147E3,1.759E3,1.5421E4,1.0509E4,1.54E2,1.209E3,1.714E3,1.1669E4,3.733E3,9.927E3,9.256E3,4.733E3,7.81E2,1.368E3,9.32E2,7.926E3,3.54E2,9.4E1,1.7E2,3.28E2],"tree_param":{"num_deleted":"0","num_feature":"7","num_nodes":"99","size_leaf_vector":"1"}},{"base_weights":[3.3422704E-5,4.5833364E-2,-1.619056E-1,1.9370185E-1,1.1435793E-2,3.2497284E-1,-1.8996647E-1,2.4592419E-1,-3.6767063E-1,1.0733049E-1,-5.053039E-2,4.1291532E-1,-1.6731301E-1,-2.3065919E-1,-8.8557504E-2,3.3793005E-1,4.1104644E-3,-1.8007411E-1,-6.0047E-1,3.744837E-1,4.4666757E-3,2.5211665E-1,-8.596514E-2,-1.2619786E-1,-2.7669597E-1,7.3960537E-1,-1.5447865E-1,5.9863937E-1,2.0552765E-1,4.2162627E-1,-1.4696862E-1,1.1914334E-1,-2.7408722E-1,-3.9557874E-1,-7.312271E-1,1.1084772E0,2.7286276E-1,1.4439808E-1,-7.3338814E-2,1.0149933E0,4.548213E-2,2.4768898E-2,-1.557788E-1,-7.902754E-2,-2.7734298E-1,-3.77314E-1,-2.3716861E-1,7.0660776E-1,-9.084944E-2,7.56479E-1,-1.6650955E-1,3.636308E-1,1.1424471E-1,1.9705373E-1,2.8472988E-2,1.9759022E0,1.0178662E-1,7.2352245E-2,-1.0907674E-1,8.439958E-2,-7.716169E-2,-3.5560198E-2,-1.5402064E-1,-7.8266345E-2,-2.08214E-1,-1.9793032E-1,-3.6283624E-1,6.0784274E-1,1.4703672E-1,2.0545244E-1,5.1675893E-2,1.8979381E-1,2.221108E-2,1.1770416E-3,-6.57518E-2,3.7022042E-1,-4.621106E-2,6.303166E-2,-3.2401204E-2,4.4487175E-2,-4.9048495E-2,-1.7351551E-2,-8.2445286E-2,1.259162E-4,-5.0312523E-2,-1.0598916E-2,-1.129983E-1,-7.394161E-2,-1.9221196E-1,-6.5701026E-3,-9.103738E-2,5.7204115E-1,-1.2858704E-2,-3.1941667E-2,-9.0884015E-2],"categories":[3,7,9,11,12,15,19,20,23,25,26,28,0,1,2,4,0,1,3,4,2,1,2,4,7,9,10,11,1,2,3,4,5,10,12,13,14,16,17,18,19,24,27,29,30,1,3,4,5,7,8,9,10,11,12,15,16,17,18,19,20,21,22,23,24,25,26,27,28,29,3,4,5,6,7,8,9,10,11,12,13,14,15,16,17,18,19,20,21,22,23,24,25,26,27,28,29,30,7,11,12,15,20,23,28,0,3,4,1,2,3,4,5,6,7,8,9,10,11,12,13,15,16,17,18,19,20,21,23,24,25,26,28,29,0,3,4,5,7,9,11,12,13,14,16,17,18,19,20,21,23,24,25,26,27,28,30,1,6,7,8,9,11,15,21,23,28,0,2,3,0,1,3,4,1,3,4,6,9,10,11,12,13,14,15,18,19,20,21,24,25,26,28,30,0,2,3,4,5,7,8,9,10,11,12,13,15,16,17,18,19,20,21,22,23,24,25,26,27,28,29,0,1,2,4,6,13,14,18,22,29,0,2,4,10,11,7,0,1,2,3,4,5,6,7,8,9,10,0,1,2,3,4,5,6,8,9,10,11,0,1,2,3,4,5,8,9,10,11,12,15,17,18,19,20,22,23,24,25,26,27,28,29,30,0,1,2,3,5,6,7,8,9,10,11,0,8,14,18,6,7,4,5,6,3,4,5,10,12,13,14,2,4,5,30,0,1,2,4,5,7,11,12,13,14,15,16,17,18,21,23,24,27,28,29,30,1,2,3,4,5,7,8,9,10,11,12,13,14,15,16,17,18,19,20,21,22,23,24,25,26,27,28,29,0,1,2,3,5,6,7,8,9,10,11,12,13,14,15,17,18,19,20,21,22,23,24,25,26,27,28,29,1,4,16,27,1,2,4,10,11,0,1,3,5,6,7,8,9,11,12,13,14,15,17,18,19,20,21,22,23,24,25,26,28,29,3,4,10,13,14,15,18,19,20,21,22,23,24,6,7,12,13,14,15,16,17,19,20,21,22,24,26,28,2,11,13,14,15,16,17,19,22,24,25,26,28,29,1,3,4,5,6,7,8,9,11,12,13,15,16,18,19,20,22,23,24,25,26,29,30,20,23,0,2,3,4,5,6,7,8,9,10,11,12,13,14,15,16,17,18,19,20,21,23,24,28,29,30,3,4,6,7,10,11,12,14,16,18,20,23,24,25],"categories_nodes":[0,1,2,3,4,7,8,9,10,13,14,15,16,17,18,19,20,21,22,23,25,26,27,28,29,30,31,32,33,34,35,36,37,38,39,40,41,42,43,44,45,49,50],"categories_segments":[0,12,16,20,21,28,29,45,70,98,105,108,134,157,167,170,174,194,221,231,236,237,248,259,284,295,299,301,304,311,315,336,364,392,396,401,426,439,454,468,491,493,519],"categories_sizes":[12,4,4,1,7,1,16,25,28,7,3,26,23,10,3,4,20,27,10,5,1,11,11,25,11,4,2,3,7,4,21,28,28,4,5,25,13,15,14,23,2,26,14],"default_left":[1,1,1,1,1,0,0,1,1,1,1,0,0,1,1,1,1,1,1,1,1,1,1,1,0,1,1,1,1,1,1,1,1,1,1,1,1,1,1,1,1,1,1,1,1,1,0,0,0,1,1,0,0,0,0,0,0,0,0,0,0,0,0,0,0,0,0,0,0,0,0,0,0,0,0,0,0,0,0,0,0,0,0,0,0,0,0,0,0,0,0,0,0,0,0],"id":5,"left_children":[1,3,5,7,9,11,13,15,17,19,21,-1,-1,23,25,27,29,31,33,35,37,39,41,43,45,47,49,51,53,55,57,59,61,63,65,67,69,71,73,75,77,79,81,83,85,87,89,-1,-1,91,93,-1,-1,-1,-1,-1,-1,-1,-1,-1,-1,-1,-1,-1,-1,-1,-1,-1,-1,-1,-1,-1,-1,-1,-1,-1,-1,-1,-1,-1,-1,-1,-1,-1,-1,-1,-1,-1,-1,-1,-1,-1,-1,-1,-1],"loss_changes":[1.8295684E3,9.780661E2,7.4308215E2,1.0639745E3,9.2702277E2,2.7515461E3,2.1217786E2,7.3868616E2,1.3479578E2,1.6828428E3,1.01633484E3,0E0,0E0,1.764386E2,8.0411194E2,8.3008203E2,5.7735095E2,4.8191837E1,3.6628662E1,1.2695027E3,4.8139838E2,1.5657588E3,6.558496E2,8.002168E1,1.0120886E2,1.8298861E3,1.4963733E2,1.0819158E3,7.963216E2,1.2322183E3,5.6518713E2,2.509856E1,4.8444878E1,2.1487228E1,2.790802E1,1.1736133E3,6.197532E2,5.427414E2,3.2017688E2,5.4236426E2,1.9753802E2,7.6289374E2,6.066095E2,6.0295036E1,6.416356E1,2.4735382E2,2.6097717E2,0E0,0E0,1.637531E2,1.10263916E2,0E0,0E0,0E0,0E0,0E0,0E0,0E0,0E0,0E0,0E0,0E0,0E0,0E0,0E0,0E0,0E0,0E0,0E0,0E0,0E0,0E0,0E0,0E0,0E0,0E0,0E0,0E0,0E0,0E0,0E0,0E0,0E0,0E0,0E0,0E0,0E0,0E0,0E0,0E0,0E0,0E0,0E0,0E0,0E0],"parents":[2147483647,0,0,1,1,2,2,3,3,4,4,5,5,6,6,7,7,8,8,9,9,10,10,13,13,14,14,15,15,16,16,17,17,18,18,19,19,20,20,21,21,22,22,23,23,24,24,25,25,26,26,27,27,28,28,29,29,30,30,31,31,32,32,33,33,34,34,35,35,36,36,37,37,38,38,39,39,40,40,41,41,42,42,43,43,44,44,45,45,46,46,49,49,50,50],"right_children":[2,4,6,8,10,12,14,16,18,20,22,-1,-1,24,26,28,30,32,34,36,38,40,42,44,46,48,50,52,54,56,58,60,62,64,66,68,70,72,74,76,78,80,82,84,86,88,90,-1,-1,92,94,-1,-1,-1,-1,-1,-1,-1,-1,-1,-1,-1,-1,-1,-1,-1,-1,-1,-1,-1,-1,-1,-1,-1,-1,-1,-1,-1,-1,-1,-1,-1,-1,-1,-1,-1,-1,-1,-1,-1,-1,-1,-1,-1,-1],"split_conditions":[NaN,NaN,NaN,NaN,NaN,1.32E0,4.771E0,NaN,NaN,NaN,NaN,4.1291532E-1,-1.6731301E-1,NaN,NaN,NaN,NaN,NaN,NaN,NaN,NaN,NaN,NaN,NaN,9E-1,NaN,NaN,NaN,NaN,NaN,NaN,NaN,NaN,NaN,NaN,NaN,NaN,NaN,NaN,NaN,NaN,NaN,NaN,NaN,NaN,NaN,1.6E0,7.0660776E-1,-9.084944E-2,NaN,NaN,3.636308E-1,1.1424471E-1,1.9705373E-1,2.8472988E-2,1.9759022E0,1.0178662E-1,7.2352245E-2,-1.0907674E-1,8.439958E-2,-7.716169E-2,-3.5560198E-2,-1.5402064E-1,-7.8266345E-2,-2.08214E-1,-1.9793032E-1,-3.6283624E-1,6.0784274E-1,1.4703672E-1,2.0545244E-1,5.1675893E-2,1.8979381E-1,2.221108E-2,1.1770416E-3,-6.57518E-2,3.7022042E-1,-4.621106E-2,6.303166E-2,-3.2401204E-2,4.4487175E-2,-4.9048495E-2,-1.7351551E-2,-8.2445286E-2,1.259162E-4,-5.0312523E-2,-1.0598916E-2,-1.129983E-1,-7.394161E-2,-1.9221196E-1,-6.5701026E-3,-9.103738E-2,5.7204115E-1,-1.2858704E-2,-3.1941667E-2,-9.0884015E-2],"split_indices":[0,1,1,0,4,2,2,3,5,0,5,0,0,0,1,0,5,5,6,1,5,0,0,4,2,0,4,4,5,4,0,4,6,5,5,5,0,0,0,4,0,5,5,5,5,0,2,0,0,5,5,0,0,0,0,0,0,0,0,0,0,0,0,0,0,0,0,0,0,0,0,0,0,0,0,0,0,0,0,0,0,0,0,0,0,0,0,0,0,0,0,0,0,0,0],"split_type":[1,1,1,1,1,0,0,1,1,1,1,0,0,1,1,1,1,1,1,1,1,1,1,1,0,1,1,1,1,1,1,1,1,1,1,1,1,1,1,1,1,1,1,1,1,1,0,0,0,1,1,0,0,0,0,0,0,0,0,0,0,0,0,0,0,0,0,0,0,0,0,0,0,0,0,0,0,0,0,0,0,0,0,0,0,0,0,0,0,0,0,0,0,0,0],"sum_hessian":[2.46677E5,1.92293E5,5.4384E4,3.6289E4,1.56004E5,2.963E3,5.1421E4,3.3201E4,3.088E3,6.1237E4,9.4767E4,1.352E3,1.611E3,3.6695E4,1.4726E4,2.405E4,9.151E3,1.711E3,1.377E3,1.7023E4,4.4214E4,9.932E3,8.4835E4,1.1226E4,2.5469E4,1.085E3,1.3641E4,8.099E3,1.5951E4,2.431E3,6.72E3,4.09E2,1.302E3,5.38E2,8.39E2,2.069E3,1.4954E4,1.5799E4,2.8415E4,2.116E3,7.816E3,3.2804E4,5.2031E4,8.557E3,2.669E3,7.181E3,1.8288E4,4.25E2,6.6E2,1.77E2,1.3464E4,2.121E3,5.978E3,3.139E3,1.2812E4,3.1E1,2.4E3,2.407E3,4.313E3,2.86E2,1.23E2,7.9E2,5.12E2,3.72E2,1.66E2,7.32E2,1.07E2,8.32E2,1.237E3,2.934E3,1.202E4,1.989E3,1.381E4,1.8575E4,9.84E3,1.782E3,3.34E2,3.771E3,4.045E3,1.9808E4,1.2996E4,2.8546E4,2.3485E4,4.514E3,4.043E3,7.77E2,1.892E3,4.799E3,2.382E3,4.306E3,1.3982E4,7.2E1,1.05E2,9.351E3,4.113E3],"tree_param":{"num_deleted":"0","num_feature":"7","num_nodes":"95","size_leaf_vector":"1"}},{"base_weights":[3.9148366E-5,3.4840845E-2,-1.07547E-1,1.6322324E-1,4.1823625E-3,2.2756386E-1,-1.2487088E-1,5.331169E-1,1.21470965E-1,5.31235E-2,-7.935179E-2,2.891323E-1,-1.17150255E-1,-8.8835254E-2,-1.9495864E-1,1.6669149E0,2.0589438E-1,3.6141235E-1,7.817654E-2,-4.1129594E-3,1.818165E-1,1.2207181E-4,-2.668319E-1,4.5720614E-2,-1.3325396E-1,-1.5926777E-1,-3.749818E-1,3.0448275E0,1.0599306E0,8.626078E-1,3.2828853E-2,4.674744E0,3.437907E-1,1.2642889E-1,-9.9323235E-2,7.876794E-2,-2.2408007E-1,1.1333649E0,1.5259574E-1,2.3069896E-1,-8.1592575E-2,4.0019402E-1,-3.192445E-1,1.5392901E-1,-9.3058944E-2,-1.8297946E-1,-1.8838132E-2,-7.103875E-2,-1.9187722E-1,-3.0482024E-1,-5.4872876E-1,1.7987971E0,5.7089293E-1,3.7356305E-1,-5.2373145E-2,4.2285645E-1,1.8800965E-1,3.8046844E-2,-1.0178057E-1,2.0189466E0,-3.0969685E-2,1.4737302E-1,-7.2897854E-3,6.273801E-2,-8.5086245E-3,-1.2935295E-2,-1.7889033E-1,7.1185045E-2,-2.443647E-2,5.0617255E-2,-1.22314416E-1,9.2253625E-1,1.589193E-2,1.1281254E-1,4.8594736E-3,1.4038117E-1,1.6372196E-3,1.0603429E-2,-4.8023146E-2,8.638145E-1,2.1696899E-3,-5.050563E-2,-1.3317344E-1,2.0300595E-1,2.4315769E-2,1.0670128E-2,-7.0079505E-2,-4.461708E-2,-7.4117474E-2,3.1438056E-1,-3.0822689E-2,3.7967272E-2,-4.5484338E-2,-4.2511594E-2,-7.081336E-2,1.7147668E-2,-1.1158149E-1,-1.1945212E-1,-2.5087035E-1],"categories":[1,3,5,7,9,11,12,15,19,20,23,25,26,28,0,1,2,5,6,0,1,3,4,0,1,2,3,4,5,6,7,8,9,10,11,12,15,16,17,18,19,20,21,22,23,24,25,26,27,28,29,2,4,7,10,12,14,15,16,17,18,19,20,21,22,23,24,25,0,1,3,4,5,8,9,10,11,12,13,15,16,17,18,19,20,21,22,23,24,25,27,28,29,30,1,6,7,8,9,10,11,0,4,8,10,13,18,29,3,7,9,11,12,15,20,23,26,1,5,28,0,2,4,0,1,2,3,4,5,6,7,10,0,1,2,3,4,5,6,7,8,9,10,11,12,13,14,15,16,17,18,19,20,21,22,23,24,25,26,28,29,30,2,5,12,14,19,21,22,23,24,25,26,28,30,0,2,6,8,13,16,0,1,2,3,4,5,6,7,8,9,10,11,12,13,14,15,17,18,19,20,21,22,23,24,25,26,27,28,29,30,4,5,6,7,9,11,12,13,14,15,16,17,18,20,21,22,24,25,26,27,29,30,0,1,2,3,4,5,6,7,8,9,10,11,12,13,14,15,18,19,20,21,22,23,24,25,26,27,28,30,0,1,2,4,6,7,10,11,0,1,2,4,7,9,10,0,1,2,3,4,5,6,8,9,10,11,2,3,7,10,11,0,1,2,3,5,6,7,8,9,10,11,12,13,14,15,16,17,18,19,21,22,23,24,25,26,27,29,30,5,8,9,16,17,20,27,21,1,4,6,8,11,14,15,17,18,21,23,25,27,28,29,1,3,5,7,9,10,11,12,13,14,15,16,17,19,20,22,23,25,26,27,28,29,0,3,6,9,12,14,16,17,18,19,20,21,22,23,24,25,26,27,28,4,5,6,7,9,10,11,0,1,2,3,4,5,7,8,9,10,11,1,2,3,4,5,7,9,10,11,12,13,15,16,17,18,19,20,21,22,23,24,25,26,27,28,29,0,1,3,4,0,1,2,6,7,9,10,11,0,1,2,3,4,5,7,8,9,10,11,4,10,13,18,0,1,2,4,5,6,0,1,4,6,9,11,13,26,27,0,2,3,4,11,12,15,23,25,26,12,14,15,16,17,18,19,24,25,7,10,12,14,15,16,18,19,20,21,22,23,24,14,17,19,20,22],"categories_nodes":[0,1,2,3,4,6,7,8,9,10,13,14,15,16,17,18,19,20,21,22,23,25,27,28,29,30,31,32,33,34,35,36,37,38,39,40,41,42,43,44,46,47,48,49,50],"categories_segments":[0,14,19,23,51,53,68,94,101,102,108,117,120,123,132,162,175,181,211,233,261,269,276,287,292,320,327,328,343,365,366,384,391,402,428,432,440,451,455,461,470,474,480,489,502],"categories_sizes":[14,5,4,28,2,15,26,7,1,6,9,3,3,9,30,13,6,30,22,28,8,7,11,5,28,7,1,15,22,1,18,7,11,26,4,8,11,4,6,9,4,6,9,13,5],"default_left":[1,1,1,1,1,0,1,1,1,1,1,0,0,1,1,1,1,1,1,1,1,1,1,1,0,1,0,1,1,1,1,1,1,1,1,1,1,1,1,1,1,1,1,1,1,0,1,1,1,1,1,0,0,0,0,0,0,0,0,0,0,0,0,0,0,0,0,0,0,0,0,0,0,0,0,0,0,0,0,0,0,0,0,0,0,0,0,0,0,0,0,0,0,0,0,0,0,0,0],"id":6,"left_children":[1,3,5,7,9,11,13,15,17,19,21,-1,-1,23,25,27,29,31,33,35,37,39,41,43,45,47,49,51,53,55,57,59,61,63,65,67,69,71,73,75,77,79,81,83,85,87,89,91,93,95,97,-1,-1,-1,-1,-1,-1,-1,-1,-1,-1,-1,-1,-1,-1,-1,-1,-1,-1,-1,-1,-1,-1,-1,-1,-1,-1,-1,-1,-1,-1,-1,-1,-1,-1,-1,-1,-1,-1,-1,-1,-1,-1,-1,-1,-1,-1,-1,-1],"loss_changes":[9.236107E2,7.3362024E2,3.5004895E2,5.548346E2,6.151151E2,1.3490724E3,1.4477606E2,1.3515962E3,3.3537305E2,6.9883624E2,8.2820374E2,0E0,0E0,2.2631155E2,1.2501288E2,6.792517E2,3.2150012E2,3.7349255E2,2.3428497E2,1.1972339E3,8.118992E2,7.355536E2,5.78655E2,1.4114516E2,1.6195627E2,4.673059E1,3.9085724E1,8.2766724E2,1.301355E2,7.523953E1,7.838683E1,1.9707697E2,2.6683197E2,2.7531436E2,1.6329816E2,1.2114441E3,1.2964332E3,1.8249728E3,8.636344E2,5.458453E2,2.645459E2,1.1748953E3,2.88547E2,2.0113385E2,7.444951E1,4.352008E1,7.721031E2,6.985072E1,2.625232E1,5.580333E1,3.9706055E1,0E0,0E0,0E0,0E0,0E0,0E0,0E0,0E0,0E0,0E0,0E0,0E0,0E0,0E0,0E0,0E0,0E0,0E0,0E0,0E0,0E0,0E0,0E0,0E0,0E0,0E0,0E0,0E0,0E0,0E0,0E0,0E0,0E0,0E0,0E0,0E0,0E0,0E0,0E0,0E0,0E0,0E0,0E0,0E0,0E0,0E0,0E0,0E0],"parents":[2147483647,0,0,1,1,2,2,3,3,4,4,5,5,6,6,7,7,8,8,9,9,10,10,13,13,14,14,15,15,16,16,17,17,18,18,19,19,20,20,21,21,22,22,23,23,24,24,25,25,26,26,27,27,28,28,29,29,30,30,31,31,32,32,33,33,34,34,35,35,36,36,37,37,38,38,39,39,40,40,41,41,42,42,43,43,44,44,45,45,46,46,47,47,48,48,49,49,50,50],"right_children":[2,4,6,8,10,12,14,16,18,20,22,-1,-1,24,26,28,30,32,34,36,38,40,42,44,46,48,50,52,54,56,58,60,62,64,66,68,70,72,74,76,78,80,82,84,86,88,90,92,94,96,98,-1,-1,-1,-1,-1,-1,-1,-1,-1,-1,-1,-1,-1,-1,-1,-1,-1,-1,-1,-1,-1,-1,-1,-1,-1,-1,-1,-1,-1,-1,-1,-1,-1,-1,-1,-1,-1,-1,-1,-1,-1,-1,-1,-1,-1,-1,-1,-1],"split_conditions":[NaN,NaN,NaN,NaN,NaN,1.32E0,NaN,NaN,NaN,NaN,NaN,2.891323E-1,-1.17150255E-1,NaN,NaN,NaN,NaN,NaN,NaN,NaN,NaN,NaN,NaN,NaN,4.771E0,NaN,4.771E0,NaN,NaN,NaN,NaN,NaN,NaN,NaN,NaN,NaN,NaN,NaN,NaN,NaN,NaN,NaN,NaN,NaN,NaN,2.7E0,NaN,NaN,NaN,NaN,NaN,1.7987971E0,5.7089293E-1,3.7356305E-1,-5.2373145E-2,4.2285645E-1,1.8800965E-1,3.8046844E-2,-1.0178057E-1,2.0189466E0,-3.0969685E-2,1.4737302E-1,-7.2897854E-3,6.273801E-2,-8.5086245E-3,-1.2935295E-2,-1.7889033E-1,7.1185045E-2,-2.443647E-2,5.0617255E-2,-1.22314416E-1,9.2253625E-1,1.589193E-2,1.1281254E-1,4.8594736E-3,1.4038117E-1,1.6372196E-3,1.0603429E-2,-4.8023146E-2,8.638145E-1,2.1696899E-3,-5.050563E-2,-1.3317344E-1,2.0300595E-1,2.4315769E-2,1.0670128E-2,-7.0079505E-2,-4.461708E-2,-7.4117474E-2,3.1438056E-1,-3.0822689E-2,3.7967272E-2,-4.5484338E-2,-4.2511594E-2,-7.081336E-2,1.7147668E-2,-1.1158149E-1,-1.1945212E-1,-2.5087035E-1],"split_indices":[0,6,1,0,1,2,5,5,4,3,0,0,0,0,0,1,4,5,5,0,5,5,5,4,2,4,2,4,4,5,5,0,5,0,0,5,4,4,0,1,4,4,0,6,5,2,1,0,5,5,5,0,0,0,0,0,0,0,0,0,0,0,0,0,0,0,0,0,0,0,0,0,0,0,0,0,0,0,0,0,0,0,0,0,0,0,0,0,0,0,0,0,0,0,0,0,0,0,0],"split_type":[1,1,1,1,1,0,1,1,1,1,1,0,0,1,1,1,1,1,1,1,1,1,1,1,0,1,0,1,1,1,1,1,1,1,1,1,1,1,1,1,1,1,1,1,1,0,1,1,1,1,1,0,0,0,0,0,0,0,0,0,0,0,0,0,0,0,0,0,0,0,0,0,0,0,0,0,0,0,0,0,0,0,0,0,0,0,0,0,0,0,0,0,0,0,0,0,0,0,0],"sum_hessian":[2.46677E5,1.86386E5,6.0291E4,3.5929E4,1.50457E5,2.963E3,5.7328E4,3.643E3,3.2286E4,9.4873E4,5.5584E4,1.352E3,1.611E3,3.7863E4,1.9465E4,8.15E2,2.828E3,4.934E3,2.7352E4,6.5668E4,2.9205E4,3.9037E4,1.6547E4,9.397E3,2.8466E4,1.6246E4,3.219E3,2.48E2,5.67E2,5.89E2,2.239E3,1.9E1,4.915E3,2.1506E4,5.846E3,4.7697E4,1.7971E4,8.69E2,2.8336E4,1.0214E4,2.8823E4,1.205E3,1.5342E4,5.28E3,4.117E3,1.9842E4,8.624E3,4.385E3,1.1861E4,2.295E3,9.24E2,6.8E1,1.8E2,4.93E2,7.4E1,1.76E2,4.13E2,1.788E3,4.51E2,1.3E1,6E0,3.509E3,1.406E3,1.4017E4,7.489E3,5.253E3,5.93E2,2.3976E4,2.3721E4,5.725E3,1.2246E4,3.1E2,5.59E2,1.074E4,1.7596E4,4.974E3,5.24E3,1.1576E4,1.7247E4,1.64E2,1.041E3,6.942E3,8.4E3,6.45E2,4.635E3,2.15E3,1.967E3,1.2932E4,6.91E3,6.28E2,7.996E3,1.27E3,3.115E3,5.555E3,6.306E3,3.59E2,1.936E3,6.08E2,3.16E2],"tree_param":{"num_deleted":"0","num_feature":"7","num_nodes":"99","size_leaf_vector":"1"}},{"base_weights":[5.5651795E-5,5.5601563E-2,-4.774042E-2,2.2534037E-1,1.6130446E-2,1.5831733E-2,-8.4395185E-2,9.1006947E-1,1.616332E-1,1.11621864E-1,-7.852119E-2,1.293291E-1,-7.732167E-2,-1.1405178E-1,1.1181113E-1,1.386676E0,4.5372628E-2,3.9981923E-1,7.0586614E-2,2.1260804E-1,1.3133349E-3,1.328771E-2,-1.5402022E-1,3.6415818E0,1.2110982E-1,1.14845216E-1,-1.6288951E-1,3.9314117E-2,-1.4662477E-1,1.5779866E0,5.9555084E-2,3.341091E0,1.1747319E0,-5.7495004E-1,5.1382774E-1,5.0843287E-1,1.8225197E-1,4.3254495E-1,2.5732357E-2,3.5395E-1,5.8359224E-2,9.9945255E-2,-2.2716953E-1,9.23564E-2,-1.8057455E-1,4.4877168E-2,-1.9901426E-1,4.541262E0,-2.8377816E-1,4.5064875E-1,7.178811E-2,9.489551E-1,3.4616288E-2,-1.0504914E-1,-3.1280303E-1,4.2659178E-1,-2.9745638E-2,-3.1064242E-1,-1.1559082E-1,2.2500207E0,-2.2712341E-1,4.5006344E-1,-3.0697402E-2,2.6565309E0,8.538211E-1,3.9388987E-1,-9.668949E-2,-2.921268E-2,-5.139153E-1,2.8122854E-1,-5.3666282E-2,5.2266747E-1,1.2477917E-1,2.0194878E-1,-2.4531255E-4,4.165815E-1,-2.1715581E-2,1.6308034E-2,-1.0858611E-1,6.876368E-2,1.9532825E-1,6.0360093E-2,-4.6565413E-2,1.6407353E-1,4.2374814E-3,-2.367572E-1,3.356659E-2,1.021209E-1,5.4996014E-3,-1.6475538E-2,-8.941564E-2,-1.1631765E-2,1.7440508E-1,2.3964585E-3,-7.0119604E-2,2.3508935E-1,-1.6252872E-1,2.630981E-1,4.0846713E-2,1.6461782E-2,3.796872E-1,7.111908E-1,4.7841083E-2,6.0129613E-2,-1.9260602E-2,8.0329814E-4,-5.621427E-2,-4.8760343E-2,-1.408777E-1,4.0491745E-1,8.518099E-2,1.8092765E-2,-4.053645E-2,-1.3464451E-2,-1.4584088E-1,-1.4593238E-2,-5.8647715E-2,8.024213E-1,8.049353E-2,4.715231E-2,-1.4092961E-1,3.3761722E-1,9.698938E-2,4.9124975E-2,-6.0672604E-2],"categories":[1,3,4,5,7,8,9,11,12,15,18,19,20,23,24,25,26,27,28,29,0,1,2,4,5,6,7,9,10,11,1,2,3,4,5,6,7,8,9,10,11,12,13,14,15,16,17,18,19,20,21,22,23,24,25,26,27,28,29,7,8,10,11,12,13,15,16,18,19,20,21,22,23,24,27,0,2,3,4,5,6,7,9,10,11,12,13,14,15,16,17,21,22,23,24,26,28,29,0,1,2,3,4,6,7,8,9,10,11,14,16,18,23,25,29,30,0,1,2,3,4,5,9,14,16,18,19,20,21,23,24,25,26,27,28,30,0,1,2,3,4,5,7,8,9,11,12,15,18,19,20,21,22,23,24,25,26,27,28,29,0,2,6,9,10,11,0,1,2,3,5,6,7,8,9,10,11,1,2,3,5,7,9,10,11,13,15,18,19,20,22,23,25,26,27,28,29,30,0,1,2,4,5,6,0,1,2,3,4,5,6,7,8,9,10,11,12,13,14,15,18,19,20,22,23,24,25,26,27,28,29,30,0,1,2,4,5,6,7,8,9,10,11,0,1,3,4,5,7,8,9,11,12,15,16,17,18,19,20,21,22,23,24,25,26,27,28,29,0,1,3,4,3,4,5,8,9,10,11,1,13,15,19,21,22,0,1,2,5,6,0,1,2,3,4,5,6,7,8,9,10,11,12,13,14,15,16,17,19,20,21,22,23,24,25,26,27,28,29,0,1,3,4,5,6,8,9,10,11,12,13,14,16,17,18,19,21,22,23,24,25,26,27,28,29,30,0,1,2,3,4,5,7,8,9,10,11,0,2,0,1,2,4,5,6,7,8,9,12,13,14,15,16,17,18,19,20,21,22,23,24,25,26,29,0,1,2,3,5,6,7,9,10,11,12,13,14,15,16,17,18,19,20,21,22,23,24,25,26,27,28,29,0,2,3,4,0,1,2,3,4,6,7,8,9,10,11,12,13,14,15,16,18,20,21,22,23,24,25,26,27,28,29,30,1,2,10,16,23,29,0,2,3,4,5,7,12,13,14,15,17,19,20,21,22,24,26,27,28,29,30,0,1,3,4,0,4,5,6,21,22,9,16,4,1,2,3,4,5,6,7,8,9,10,11,12,13,14,15,16,17,18,19,20,21,22,23,24,25,26,27,28,29,0,1,2,3,4,5,7,8,9,11,12,13,14,15,16,17,18,19,20,22,23,24,25,26,27,28,29,1,4,25,2,3,4,5,6,0,1,2,3,4,5,6,7,8,9,10,11,12,13,14,15,18,19,20,21,22,23,24,25,26,27,28,29,30,1,2,3,5,6,7,9,10,11,13,14,15,16,17,18,19,20,21,22,23,24,25,26,27,28,29,30,3,4,5,6,7,8,1,2,3,5,7,13,15,22,23,26,27,30,0,1,2,3,4,6,7,9,10,11,12,13,14,15,16,17,18,20,21,22,23,24,25,26,27,28,29,7,8,12,19,23,25,26,27,29,8,18,20,27,3,4,6,7,9,10,14,15,16,17,18,20,21,22,23,24,25,30,0,1,2,3,4,5,7,9,10,11,1,2,3,6,0,1,2,3,4,5,6,7,8,9,11,0,1,4,7,9,10,11,13,14,15,18,20,22,23,25,26,30],"categories_nodes":[0,1,3,4,5,6,7,8,9,10,11,12,13,14,15,17,18,19,20,21,22,23,24,25,26,27,29,30,31,32,33,34,35,36,37,38,40,41,43,44,48,49,51,52,53,54,55,56,57,58,59,60,61,62],"categories_segments":[0,20,30,59,75,98,99,116,136,160,166,177,198,204,232,243,268,272,279,280,285,290,319,346,357,359,384,412,416,444,445,450,471,475,479,481,483,484,513,540,542,543,548,577,604,610,622,649,658,662,680,690,694,705],"categories_sizes":[20,10,29,16,23,1,17,20,24,6,11,21,6,28,11,25,4,7,1,5,5,29,27,11,2,25,28,4,28,1,5,21,4,4,2,2,1,29,27,2,1,5,29,27,6,12,27,9,4,18,10,4,11,17],"default_left":[1,1,0,1,1,1,1,1,1,1,1,1,1,1,1,1,0,1,1,1,1,1,1,1,1,1,1,1,0,1,1,1,1,1,1,1,1,1,1,0,1,1,0,1,1,0,0,0,1,1,0,1,1,1,1,1,1,1,1,1,1,1,1,0,0,0,0,0,0,0,0,0,0,0,0,0,0,0,0,0,0,0,0,0,0,0,0,0,0,0,0,0,0,0,0,0,0,0,0,0,0,0,0,0,0,0,0,0,0,0,0,0,0,0,0,0,0,0,0,0,0,0,0,0,0],"id":7,"left_children":[1,3,5,7,9,11,13,15,17,19,21,23,25,27,29,31,33,35,37,39,41,43,45,47,49,51,53,55,57,59,61,63,65,67,69,71,73,75,77,79,81,83,85,87,89,91,93,-1,95,97,99,101,103,105,107,109,111,113,115,117,119,121,123,-1,-1,-1,-1,-1,-1,-1,-1,-1,-1,-1,-1,-1,-1,-1,-1,-1,-1,-1,-1,-1,-1,-1,-1,-1,-1,-1,-1,-1,-1,-1,-1,-1,-1,-1,-1,-1,-1,-1,-1,-1,-1,-1,-1,-1,-1,-1,-1,-1,-1,-1,-1,-1,-1,-1,-1,-1,-1,-1,-1,-1,-1],"loss_changes":[6.5490216E2,7.643743E2,3.089633E2,9.388198E2,8.3665906E2,5.1268915E2,4.8936902E2,7.549413E2,4.270564E2,5.13303E2,3.2223285E2,6.3058844E2,4.3795328E2,3.6496832E2,8.459825E2,4.8527686E2,1.897623E2,1.286004E2,2.3132669E2,5.244442E2,4.9634903E2,3.215919E2,2.2830292E2,2.3057102E3,3.5443854E2,5.491105E2,1.5975732E2,3.4232578E2,3.0668945E2,4.614875E2,3.758596E2,2.8869592E2,2.2122937E2,1.5256453E2,1.0932539E2,4.1379047E2,1.6311615E2,7.584908E2,1.4073857E2,4.6512878E2,3.5099072E2,5.901041E2,1.265583E3,2.7361685E2,8.97057E1,2.1125305E2,1.4951318E2,0E0,1.116416E1,3.8054083E2,3.830372E2,8.077468E2,1.22692055E2,1.1795381E2,1.2078903E2,2.5469968E2,1.0309375E2,4.4711017E2,2.7104755E2,2.3242358E2,9.771499E0,1.7102383E2,2.8899948E2,0E0,0E0,0E0,0E0,0E0,0E0,0E0,0E0,0E0,0E0,0E0,0E0,0E0,0E0,0E0,0E0,0E0,0E0,0E0,0E0,0E0,0E0,0E0,0E0,0E0,0E0,0E0,0E0,0E0,0E0,0E0,0E0,0E0,0E0,0E0,0E0,0E0,0E0,0E0,0E0,0E0,0E0,0E0,0E0,0E0,0E0,0E0,0E0,0E0,0E0,0E0,0E0,0E0,0E0,0E0,0E0,0E0,0E0,0E0,0E0,0E0,0E0],"parents":[2147483647,0,0,1,1,2,2,3,3,4,4,5,5,6,6,7,7,8,8,9,9,10,10,11,11,12,12,13,13,14,14,15,15,16,16,17,17,18,18,19,19,20,20,21,21,22,22,23,23,24,24,25,25,26,26,27,27,28,28,29,29,30,30,31,31,32,32,33,33,34,34,35,35,36,36,37,37,38,38,39,39,40,40,41,41,42,42,43,43,44,44,45,45,46,46,48,48,49,49,50,50,51,51,52,52,53,53,54,54,55,55,56,56,57,57,58,58,59,59,60,60,61,61,62,62],"right_children":[2,4,6,8,10,12,14,16,18,20,22,24,26,28,30,32,34,36,38,40,42,44,46,48,50,52,54,56,58,60,62,64,66,68,70,72,74,76,78,80,82,84,86,88,90,92,94,-1,96,98,100,102,104,106,108,110,112,114,116,118,120,122,124,-1,-1,-1,-1,-1,-1,-1,-1,-1,-1,-1,-1,-1,-1,-1,-1,-1,-1,-1,-1,-1,-1,-1,-1,-1,-1,-1,-1,-1,-1,-1,-1,-1,-1,-1,-1,-1,-1,-1,-1,-1,-1,-1,-1,-1,-1,-1,-1,-1,-1,-1,-1,-1,-1,-1,-1,-1,-1,-1,-1,-1,-1],"split_conditions":[NaN,NaN,1.6E0,NaN,NaN,NaN,NaN,NaN,NaN,NaN,NaN,NaN,NaN,NaN,NaN,NaN,2.166E0,NaN,NaN,NaN,NaN,NaN,NaN,NaN,NaN,NaN,NaN,NaN,2.392E0,NaN,NaN,NaN,NaN,NaN,NaN,NaN,NaN,NaN,NaN,4.5E0,NaN,NaN,1.26E0,NaN,NaN,1.5391E1,8.2E-1,4.541262E0,NaN,NaN,1.525E0,NaN,NaN,NaN,NaN,NaN,NaN,NaN,NaN,NaN,NaN,NaN,NaN,2.6565309E0,8.538211E-1,3.9388987E-1,-9.668949E-2,-2.921268E-2,-5.139153E-1,2.8122854E-1,-5.3666282E-2,5.2266747E-1,1.2477917E-1,2.0194878E-1,-2.4531255E-4,4.165815E-1,-2.1715581E-2,1.6308034E-2,-1.0858611E-1,6.876368E-2,1.9532825E-1,6.0360093E-2,-4.6565413E-2,1.6407353E-1,4.2374814E-3,-2.367572E-1,3.356659E-2,1.021209E-1,5.4996014E-3,-1.6475538E-2,-8.941564E-2,-1.1631765E-2,1.7440508E-1,2.3964585E-3,-7.0119604E-2,2.3508935E-1,-1.6252872E-1,2.630981E-1,4.0846713E-2,1.6461782E-2,3.796872E-1,7.111908E-1,4.7841083E-2,6.0129613E-2,-1.9260602E-2,8.0329814E-4,-5.621427E-2,-4.8760343E-2,-1.408777E-1,4.0491745E-1,8.518099E-2,1.8092765E-2,-4.053645E-2,-1.3464451E-2,-1.4584088E-1,-1.4593238E-2,-5.8647715E-2,8.024213E-1,8.049353E-2,4.715231E-2,-1.4092961E-1,3.3761722E-1,9.698938E-2,4.9124975E-2,-6.0672604E-2],"split_indices":[0,4,2,0,5,0,3,5,5,0,4,4,5,6,5,4,2,0,1,4,3,5,6,0,5,4,1,5,2,0,1,5,3,5,5,1,6,0,5,2,1,0,2,0,1,2,2,0,0,6,2,5,5,4,5,0,0,0,5,4,6,4,5,0,0,0,0,0,0,0,0,0,0,0,0,0,0,0,0,0,0,0,0,0,0,0,0,0,0,0,0,0,0,0,0,0,0,0,0,0,0,0,0,0,0,0,0,0,0,0,0,0,0,0,0,0,0,0,0,0,0,0,0,0,0],"split_type":[1,1,0,1,1,1,1,1,1,1,1,1,1,1,1,1,0,1,1,1,1,1,1,1,1,1,1,1,0,1,1,1,1,1,1,1,1,1,1,0,1,1,0,1,1,0,0,0,1,1,0,1,1,1,1,1,1,1,1,1,1,1,1,0,0,0,0,0,0,0,0,0,0,0,0,0,0,0,0,0,0,0,0,0,0,0,0,0,0,0,0,0,0,0,0,0,0,0,0,0,0,0,0,0,0,0,0,0,0,0,0,0,0,0,0,0,0,0,0,0,0,0,0,0,0],"sum_hessian":[2.46677E5,1.14089E5,1.32588E5,2.1524E4,9.2565E4,4.849E4,8.4098E4,1.831E3,1.9693E4,4.6078E4,4.6487E4,2.1858E4,2.6632E4,7.3056E4,1.1042E4,1.18E3,6.51E2,5.445E3,1.4248E4,2.4055E4,2.2023E4,2.0978E4,2.5509E4,5E1,2.1808E4,8.205E3,1.8427E4,1.2798E4,6.0258E4,3.79E2,1.0663E4,1.14E2,1.066E3,2.8E2,3.71E2,3.631E3,1.814E3,1.57E3,1.2678E4,1.2552E4,1.1503E4,1.5383E4,6.64E3,1.4901E4,6.077E3,4.706E3,2.0803E4,1.2E1,3.8E1,2.838E3,1.897E4,7.19E2,7.486E3,1.3298E4,5.129E3,1.936E3,1.0862E4,9.586E3,5.0672E4,2.76E2,1.03E2,2.001E3,8.662E3,8E0,1.06E2,9.76E2,9E1,1.98E2,8.2E1,2.3E2,1.41E2,2.52E2,3.379E3,4.92E2,1.322E3,5.42E2,1.028E3,1.1807E4,8.71E2,8.842E3,3.71E3,6.893E3,4.61E3,2.477E3,1.2906E4,2.498E3,4.142E3,3.424E3,1.1477E4,2.937E3,3.14E3,4.072E3,6.34E2,2.988E3,1.7815E4,7E0,3.1E1,1.204E3,1.634E3,1.8706E4,2.64E2,2.56E2,4.63E2,2.795E3,4.691E3,5.761E3,7.537E3,2.62E3,2.509E3,2.58E2,1.678E3,5.857E3,5.005E3,3.813E3,5.773E3,2.7572E4,2.31E4,2.27E2,4.9E1,4E1,6.3E1,3.15E2,1.686E3,4.06E3,4.602E3],"tree_param":{"num_deleted":"0","num_feature":"7","num_nodes":"125","size_leaf_vector":"1"}},{"base_weights":[8.881149E-5,4.699254E-2,-3.3146575E-2,1.3676882E-1,-8.489197E-3,3.561782E-3,-7.9119846E-2,5.608229E-1,1.0179428E-1,1.4035924E-1,-4.3930523E-2,1.07100874E-1,-3.7084848E-2,1.06917815E-2,-1.3328697E-1,1.1571397E0,2.0209011E-1,1.7698774E-1,-3.689388E-2,4.682799E-1,-6.706228E-3,7.856863E-2,-9.266277E-2,3.1498167E-1,-4.577199E-3,-8.624723E-3,-1.2393682E-1,3.2554215E-1,-4.386953E-2,-9.823161E-2,-2.2991957E-1,9.715791E-1,6.552258E0,4.228429E-1,-5.5114526E-1,4.2880937E-1,1.2579885E-1,9.44261E-2,-1.7273332E-1,2.7366207E0,3.582689E-1,1.6713648E-1,-1.5404075E-1,4.6037713E-1,2.5284082E-2,-1.8333085E-2,-1.4826423E-1,6.4552736E-1,1.155453E-1,1.2044531E-1,-1.286517E-1,6.7817513E-3,-2.1952789E-1,-7.62384E-2,-2.921394E-1,9.401372E-1,1.1398568E-1,-5.9772935E-3,-2.4264362E-1,7.650298E-2,-1.4625145E-1,-7.494666E-2,-4.554962E-1,6.000527E-1,1.771924E-1,1.2344813E1,3.3351514E-1,6.8316007E-1,1.1290439E-1,-1.0126833E-1,-3.5069877E-1,1.671614E-1,2.4932243E-2,7.654018E-2,1.7565044E-2,1.0796016E-1,3.4349451E-3,-1.1909562E-2,-1.9634609E-1,-3.404768E-1,2.8225708E0,-6.045762E-2,3.1286836E-1,1.5091765E-1,-1.6760573E-2,-4.524064E-3,-1.1187147E-1,2.796403E-1,1.582992E-3,7.328689E-2,-1.7857492E-2,1.7756347E-2,-4.9128488E-2,-2.9101575E-2,-8.093708E-2,3.854958E-1,1.449509E-1,9.088302E-2,-1.8791897E-2,8.4439114E-2,-4.0395698E-3,-1.6275046E-2,-1.0085554E-1,6.1892726E-2,-6.601091E-3,3.4007136E-2,-1.15707085E-1,-1.1135517E-2,-8.488507E-2,-8.988943E-3,-1.18368156E-1,1.8668765E0,2.315808E-1,9.217583E-2,-8.339207E-2,1.6587612E-1,-8.520054E-3,-5.1258128E-2,-1.70887E-1,6.895847E-2,-4.3483738E-2,-2.7906343E-2,-5.9297934E-2,2.2618885E-1,-3.0408904E-2,-7.232867E-2,-2.2916119E-1],"categories":[0,1,2,3,4,5,7,8,9,11,12,15,18,19,20,23,25,26,27,28,0,2,4,0,4,5,6,0,1,2,3,4,5,6,7,8,9,11,12,13,14,15,16,17,18,19,20,21,22,23,24,25,26,27,28,29,0,1,2,3,4,5,6,7,8,9,10,11,12,13,15,17,18,19,20,21,22,23,24,25,26,27,28,29,0,2,4,5,6,9,12,13,14,16,17,18,19,20,23,24,25,26,29,30,1,3,4,5,6,7,9,10,11,13,14,17,18,19,21,22,23,25,27,28,30,2,3,5,9,10,11,12,14,15,16,18,19,20,21,22,23,24,25,27,28,29,30,1,15,16,17,18,19,20,21,22,24,27,2,3,4,5,8,9,10,11,12,13,14,17,18,19,20,21,22,23,24,26,0,2,3,5,6,7,8,9,10,11,12,13,15,19,20,21,22,24,25,26,27,28,30,0,1,4,14,16,17,18,23,24,25,26,0,1,3,5,7,8,9,10,11,1,10,15,20,21,22,23,25,28,29,0,1,2,3,4,5,7,9,10,14,16,29,0,1,2,3,4,5,6,10,11,1,2,4,5,7,8,9,10,11,1,2,6,7,9,10,1,2,3,4,5,6,7,8,9,10,11,12,13,14,15,16,17,18,19,20,21,22,23,24,25,26,28,29,0,2,9,11,12,15,23,27,28,2,5,11,1,4,15,18,19,28,0,1,2,3,5,6,7,8,9,10,11,12,13,14,15,16,17,19,20,21,22,23,24,25,26,27,28,29,5,7,1,3,4,5,7,8,11,12,15,18,19,23,25,26,27,28,5,7,9,10,11,0,2,3,4,5,6,7,9,10,11,0,1,2,3,4,5,6,7,8,9,10,11,12,13,14,15,16,17,18,19,20,21,22,23,24,25,27,28,29,30,0,1,2,3,4,5,6,7,9,10,11,10,20,21,0,1,2,3,4,5,7,8,9,10,11,12,13,15,16,17,18,19,20,21,23,24,25,26,27,28,0,1,2,3,4,5,6,7,8,9,10,11,12,13,14,15,16,17,18,19,20,23,24,25,26,27,28,29,0,2,5,7,8,9,11,0,1,2,3,4,6,11,0,1,2,4,5,6,7,8,11,12,13,15,16,17,18,21,22,23,24,25,27,28,29,30,2,3,8,10,13,14,17,18,19,20,0,1,2,3,4,5,7,8,9,11,12,14,15,16,17,18,19,20,21,22,23,24,25,26,27,28,29,0,2,3,8,9,19,25,26,28,10,17,22,0,2,4,5,6,8,9,11,12,13,14,15,16,17,18,19,20,21,22,23,24,25,26,27,28,29,30,0,2,3,4,5,6,7,8,9,12,13,14,15,16,17,18,19,20,22,23,24,25,26,27,29,30,0,1,2,4,7,10,1,1,3,4,6,7,8,9,10,11,12,13,14,15,16,17,18,19,20,21,22,23,24,25,26,27,28,29,0,5,6,12,13,19,20,0,4,6,11,0,3,7,8,9,1,2,3,4,5,6,7,8,9,10,11,12,13,14,16,17,18,19,20,21,22,23,24,25,26,27,28,29,30,2,9,11,12,15,25,26,27,0,1,2,3,4,5,6,7,8,9,10,11,12,13,14,15,16,17,18,19,20,21,22,24,25,26,27,29,0,8,26,28,0,2,4,8,11,12,13,14,15,16,17,18,20,21,23,24,26,28,29,30,3,6,7,9,10,11,19,23,25,27,30,0,1,2,3,4,5,6,7,8,9,11,12,13,14,15,16,17,18,19,20,21,22,23,24,25,26,27,28,29,30,0,1,2,3],"categories_nodes":[0,1,2,3,4,5,6,7,8,9,10,11,12,13,14,16,17,18,20,21,22,23,24,25,26,27,28,29,30,31,32,33,34,35,36,37,38,41,42,43,45,46,47,48,49,50,51,52,53,54,55,56,57,58,59,60,61,62],"categories_segments":[0,20,23,27,56,84,104,125,147,158,178,201,204,212,221,222,231,240,243,252,261,267,295,304,307,313,341,343,359,364,374,404,415,418,444,472,479,486,510,520,547,556,559,586,612,618,619,646,653,657,662,691,699,727,731,751,762,792],"categories_sizes":[20,3,4,29,28,20,21,22,11,20,23,3,8,9,1,9,9,3,9,9,6,28,9,3,6,28,2,16,5,10,30,11,3,26,28,7,7,24,10,27,9,3,27,26,6,1,27,7,4,5,29,8,28,4,20,11,30,4],"default_left":[1,1,1,1,1,1,1,1,1,1,1,1,1,1,1,0,1,1,1,0,1,1,1,1,1,1,1,1,1,1,1,1,1,1,1,1,1,1,1,0,0,1,1,1,0,1,1,1,1,1,1,1,1,1,1,1,1,1,1,1,1,1,1,0,0,0,0,0,0,0,0,0,0,0,0,0,0,0,0,0,0,0,0,0,0,0,0,0,0,0,0,0,0,0,0,0,0,0,0,0,0,0,0,0,0,0,0,0,0,0,0,0,0,0,0,0,0,0,0,0,0,0,0,0,0,0,0],"id":8,"left_children":[1,3,5,7,9,11,13,15,17,19,21,23,25,27,29,31,33,35,37,39,41,43,45,47,49,51,53,55,57,59,61,63,65,67,69,71,73,75,77,79,81,83,85,87,89,91,93,95,97,99,101,103,105,107,109,111,113,115,117,119,121,123,125,-1,-1,-1,-1,-1,-1,-1,-1,-1,-1,-1,-1,-1,-1,-1,-1,-1,-1,-1,-1,-1,-1,-1,-1,-1,-1,-1,-1,-1,-1,-1,-1,-1,-1,-1,-1,-1,-1,-1,-1,-1,-1,-1,-1,-1,-1,-1,-1,-1,-1,-1,-1,-1,-1,-1,-1,-1,-1,-1,-1,-1,-1,-1,-1],"loss_changes":[3.8453894E2,5.0956665E2,2.4364969E2,5.794679E2,3.3356354E2,3.3785513E2,3.1183258E2,6.366011E2,3.764629E2,5.864289E2,3.0487775E2,5.253966E2,1.424943E2,4.1429456E2,1.3542279E2,1.1128876E3,3.0951163E2,3.016861E2,2.2642172E2,9.3854706E2,2.1507277E2,2.956956E2,1.5099469E2,5.213092E2,2.2840022E2,1.4108823E2,1.1412895E2,4.6302957E2,1.548187E2,2.4621198E2,3.7202667E2,4.2278015E2,6.9186543E3,1.2321094E2,5.5293808E1,1.7545795E2,1.6919717E2,1.4214726E2,3.9983142E2,4.5052266E3,1.3768424E3,2.8859055E2,1.3822363E2,3.821556E2,2.3694003E2,1.7628607E2,1.3017245E2,3.083506E2,1.6477274E2,1.5813998E2,1.14089294E2,2.3241985E2,1.6354887E2,8.963721E1,8.438519E1,8.05573E2,2.0090613E2,2.1638237E2,7.714787E1,2.1487105E2,6.2967163E1,1.38245E2,2.863612E2,0E0,0E0,0E0,0E0,0E0,0E0,0E0,0E0,0E0,0E0,0E0,0E0,0E0,0E0,0E0,0E0,0E0,0E0,0E0,0E0,0E0,0E0,0E0,0E0,0E0,0E0,0E0,0E0,0E0,0E0,0E0,0E0,0E0,0E0,0E0,0E0,0E0,0E0,0E0,0E0,0E0,0E0,0E0,0E0,0E0,0E0,0E0,0E0,0E0,0E0,0E0,0E0,0E0,0E0,0E0,0E0,0E0,0E0,0E0,0E0,0E0,0E0,0E0,0E0],"parents":[2147483647,0,0,1,1,2,2,3,3,4,4,5,5,6,6,7,7,8,8,9,9,10,10,11,11,12,12,13,13,14,14,15,15,16,16,17,17,18,18,19,19,20,20,21,21,22,22,23,23,24,24,25,25,26,26,27,27,28,28,29,29,30,30,31,31,32,32,33,33,34,34,35,35,36,36,37,37,38,38,39,39,40,40,41,41,42,42,43,43,44,44,45,45,46,46,47,47,48,48,49,49,50,50,51,51,52,52,53,53,54,54,55,55,56,56,57,57,58,58,59,59,60,60,61,61,62,62],"right_children":[2,4,6,8,10,12,14,16,18,20,22,24,26,28,30,32,34,36,38,40,42,44,46,48,50,52,54,56,58,60,62,64,66,68,70,72,74,76,78,80,82,84,86,88,90,92,94,96,98,100,102,104,106,108,110,112,114,116,118,120,122,124,126,-1,-1,-1,-1,-1,-1,-1,-1,-1,-1,-1,-1,-1,-1,-1,-1,-1,-1,-1,-1,-1,-1,-1,-1,-1,-1,-1,-1,-1,-1,-1,-1,-1,-1,-1,-1,-1,-1,-1,-1,-1,-1,-1,-1,-1,-1,-1,-1,-1,-1,-1,-1,-1,-1,-1,-1,-1,-1,-1,-1,-1,-1,-1,-1],"split_conditions":[NaN,NaN,NaN,NaN,NaN,NaN,NaN,NaN,NaN,NaN,NaN,NaN,NaN,NaN,NaN,1.0351E1,NaN,NaN,NaN,3.54E-1,NaN,NaN,NaN,NaN,NaN,NaN,NaN,NaN,NaN,NaN,NaN,NaN,NaN,NaN,NaN,NaN,NaN,NaN,NaN,1.91E-1,1.881E0,NaN,NaN,NaN,1.32E0,NaN,NaN,NaN,NaN,NaN,NaN,NaN,NaN,NaN,NaN,NaN,NaN,NaN,NaN,NaN,NaN,NaN,NaN,6.000527E-1,1.771924E-1,1.2344813E1,3.3351514E-1,6.8316007E-1,1.1290439E-1,-1.0126833E-1,-3.5069877E-1,1.671614E-1,2.4932243E-2,7.654018E-2,1.7565044E-2,1.0796016E-1,3.4349451E-3,-1.1909562E-2,-1.9634609E-1,-3.404768E-1,2.8225708E0,-6.045762E-2,3.1286836E-1,1.5091765E-1,-1.6760573E-2,-4.524064E-3,-1.1187147E-1,2.796403E-1,1.582992E-3,7.328689E-2,-1.7857492E-2,1.7756347E-2,-4.9128488E-2,-2.9101575E-2,-8.093708E-2,3.854958E-1,1.449509E-1,9.088302E-2,-1.8791897E-2,8.4439114E-2,-4.0395698E-3,-1.6275046E-2,-1.0085554E-1,6.1892726E-2,-6.601091E-3,3.4007136E-2,-1.15707085E-1,-1.1135517E-2,-8.488507E-2,-8.988943E-3,-1.18368156E-1,1.8668765E0,2.315808E-1,9.217583E-2,-8.339207E-2,1.6587612E-1,-8.520054E-3,-5.1258128E-2,-1.70887E-1,6.895847E-2,-4.3483738E-2,-2.7906343E-2,-5.9297934E-2,2.2618885E-1,-3.0408904E-2,-7.232867E-2,-2.2916119E-1],"split_indices":[0,1,6,0,0,5,5,5,5,5,5,1,5,4,3,2,5,4,0,2,4,4,4,0,0,4,0,0,4,0,4,4,5,4,5,0,0,4,4,2,2,5,5,0,2,5,0,5,5,4,1,0,5,4,4,5,0,0,0,5,5,5,1,0,0,0,0,0,0,0,0,0,0,0,0,0,0,0,0,0,0,0,0,0,0,0,0,0,0,0,0,0,0,0,0,0,0,0,0,0,0,0,0,0,0,0,0,0,0,0,0,0,0,0,0,0,0,0,0,0,0,0,0,0,0,0,0],"split_type":[1,1,1,1,1,1,1,1,1,1,1,1,1,1,1,0,1,1,1,0,1,1,1,1,1,1,1,1,1,1,1,1,1,1,1,1,1,1,1,0,0,1,1,1,0,1,1,1,1,1,1,1,1,1,1,1,1,1,1,1,1,1,1,0,0,0,0,0,0,0,0,0,0,0,0,0,0,0,0,0,0,0,0,0,0,0,0,0,0,0,0,0,0,0,0,0,0,0,0,0,0,0,0,0,0,0,0,0,0,0,0,0,0,0,0,0,0,0,0,0,0,0,0,0,0,0,0],"sum_hessian":[2.46677E5,1.02302E5,1.44375E5,3.9074E4,6.3228E4,8.0277E4,6.4098E4,2.976E3,3.6098E4,1.2159E4,5.1069E4,2.263E4,5.7647E4,2.4115E4,3.9983E4,1.117E3,1.859E3,2.3407E4,1.2691E4,3.764E3,8.395E3,1.4534E4,3.6535E4,7.908E3,1.4722E4,4.342E4,1.4227E4,3.561E3,2.0554E4,2.9341E4,1.0642E4,1.081E3,3.6E1,1.438E3,4.21E2,3.953E3,1.9454E4,6.453E3,6.238E3,1.73E2,3.591E3,3.851E3,4.544E3,1.779E3,1.2755E4,1.5635E4,2.09E4,2.975E3,4.933E3,7.333E3,7.389E3,4.0465E4,2.955E3,1.1085E4,3.142E3,9.11E2,2.65E3,1.7264E4,3.29E3,6.325E3,2.3016E4,6.309E3,4.333E3,2.91E2,7.9E2,4E0,3.2E1,3.4E1,1.404E3,3.14E2,1.07E2,2.882E3,1.071E3,6.654E3,1.28E4,1.536E3,4.917E3,4.889E3,1.349E3,1.1E2,6.3E1,1.976E3,1.615E3,1.536E3,2.315E3,2.78E3,1.764E3,8.73E2,9.06E2,3.56E3,9.195E3,1.0199E4,5.436E3,1.4701E4,6.199E3,6.01E2,2.374E3,2.404E3,2.529E3,3.329E3,4.004E3,5.44E3,1.949E3,5.101E3,3.5364E4,9.84E2,1.971E3,9.322E3,1.763E3,8.83E2,2.259E3,2.7E1,8.84E2,1.775E3,8.75E2,6.65E2,1.6599E4,2.699E3,5.91E2,3.737E3,2.588E3,1.1309E4,1.1707E4,1.94E2,6.115E3,2.557E3,1.776E3],"tree_param":{"num_deleted":"0","num_feature":"7","num_nodes":"127","size_leaf_vector":"1"}},{"base_weights":[1.3971093E-4,4.346978E-2,-2.1347435E-2,1.2076898E-1,8.832746E-3,1.2864038E-2,-5.5598922E-2,3.5382694E-1,3.4326836E-2,5.6922045E-2,-5.0927356E-2,8.9779064E-2,-4.626828E-2,-4.3988017E-5,-1.0897015E-1,4.452745E-1,-7.463866E-2,1.15264155E-1,-4.7177386E-2,-1.8846615E-1,9.742967E-2,-2.7665844E-2,-3.415568E-1,2.54701E-1,2.925251E-2,-7.304999E-2,4.038436E-2,-4.82041E-1,5.510365E-3,-1.0774584E-2,-1.450106E-1,8.358749E-1,3.130854E-1,3.8360736E0,-1.3382904E-1,7.280095E-1,8.293899E-2,1.853615E-2,-2.04921E-1,1.1563939E0,-2.1564794E-1,3.8157994E-1,6.986364E-2,6.3114315E-2,-6.342919E-2,7.961254E-2,-6.6965497E-1,7.365724E-1,1.6334374E-1,1.0116187E-1,-7.907119E-2,-1.1581038E-2,-1.609902E-1,3.7156534E-1,-6.8974234E-2,-8.678387E-2,-1.1749964E0,2.327816E0,-5.713442E-3,3.158847E-1,-6.489054E-2,-3.7036434E-2,-1.7264886E-1,3.78665E-1,1.0789811E-1,1.21489964E-1,1.1404512E-2,8.917001E-2,1.6742175E0,6.1377343E-2,-1.5334567E-1,3.2176226E-1,-4.962648E-2,5.1015947E-2,-2.6141474E-2,6.3941E-2,-1.4435326E-2,-1.8499926E-2,-1.2804998E-1,1.3270553E0,1.8966411E-1,-3.8311172E-2,-1.4263283E-1,3.1939155E-1,3.8862392E-2,3.0372627E-2,-8.730004E-2,6.7857064E-2,-5.749168E-3,-1.0488505E-3,-5.3802557E-2,6.245076E-1,-1.1067087E-2,-2.593694E-1,1.6839078E-1,3.1561175E-1,-6.726569E-2,1.04956105E-1,1.9438198E-2,5.954869E-2,-5.460198E-3,1.7692376E-2,-5.6018766E-2,2.5280839E-2,-4.194768E-2,-6.1017894E-3,-7.943999E-2,1.4357994E-1,-4.9256094E-2,1.3480511E0,-2.583292E-2,6.28691E-2,-1.689957E-1,-1.4992686E-1,-5.0444907E-1,2.918578E0,3.80186E-2,1.2818275E-2,-2.5553241E-2,1.886797E-1,-7.317307E-2,1.0202464E-2,-3.5417918E-2,1.02951296E-1,-2.4851872E-2,-4.194693E-2,-1.08671956E-1],"categories":[0,1,4,5,6,0,4,5,7,9,10,11,13,14,15,16,17,18,20,21,22,24,25,28,29,30,3,6,8,9,11,12,13,15,16,18,19,20,21,22,23,26,28,30,2,4,5,7,8,9,10,11,12,15,16,17,18,20,21,22,23,24,25,27,28,1,2,6,9,10,11,2,3,4,7,8,11,12,15,16,17,18,19,20,23,24,26,28,0,1,6,7,9,11,12,13,14,17,19,23,25,26,27,28,29,0,1,2,3,4,11,0,4,0,27,0,2,4,6,8,9,10,11,0,1,2,4,7,9,10,11,0,1,2,3,4,5,6,7,8,9,10,11,12,13,15,16,17,18,20,21,22,23,24,25,26,27,28,29,0,1,2,3,4,5,6,7,8,9,11,12,13,14,15,17,18,19,20,21,22,23,24,25,26,27,28,29,2,7,10,11,1,2,3,4,5,7,9,10,11,12,13,14,15,16,17,18,19,20,21,22,23,24,25,26,27,28,29,0,7,9,10,11,13,15,18,20,21,24,25,28,1,0,1,2,3,4,5,6,8,9,10,11,12,13,14,15,16,17,18,19,20,21,22,23,24,25,26,27,28,30,7,10,14,17,25,27,2,3,4,0,1,2,3,4,5,7,8,9,10,11,12,13,14,15,16,17,18,19,20,21,22,23,24,25,26,27,28,29,0,4,5,7,8,9,10,11,12,13,14,15,16,17,18,19,20,21,22,23,24,25,27,28,29,30,3,6,19,26,27,0,4,5,6,7,9,10,11,12,13,14,15,16,17,18,19,20,21,22,23,24,25,26,27,28,29,30,2,8,9,6,8,12,19,4,10,21,22,27,0,1,2,3,4,5,6,7,8,9,10,11,12,13,14,15,16,17,18,19,20,23,24,25,26,27,29,30,4,9,11,14,20,25,29,30,1,2,3,4,5,6,7,8,9,10,11,12,15,16,18,19,20,21,22,23,24,25,27,28,29,17,24,25,0,2,3,5,7,9,10,11,12,14,15,16,17,18,19,20,21,22,23,24,25,26,27,28,29,2,0,1,2,3,0,1,2,3,4,5,6,7,8,9,11,12,13,15,16,17,18,19,20,22,23,24,25,26,28,29,0,1,2,2,3,4,7,8,10,11,12,15,16,17,18,19,20,21,22,23,24,25,26,27,28,29,0,5,5,7,10,14,27,29,1,3,5,7,10,11,7,18,0,1,2,3,4,5,6,7,8,9,10,11,12,13,14,15,17,18,19,20,21,22,23,24,25,26,27,28,29,6,8,12,13,18,20,23,26,6,8,16,18,0,1,2,3,4,5,7,8,9,10,11,12,13,14,15,16,17,18,19,20,21,22,23,24,25,26,27,28,29,30,3,6,8,11,13,21,22,0,1,2,4,5,7,9,10,12,14,17,18,21,22,23,24,25,27,28,29,30,6,9,11,13,15,16,18,19,20,21,23,26,0,1,2,4,5,7,9,10,14,15,16,17,18,19,20,21,22,23,24,25,27,28,29,30,1,13,14,17],"categories_nodes":[0,1,2,3,4,5,6,7,8,10,11,14,15,17,18,19,21,22,23,24,26,27,29,31,32,34,35,36,37,38,39,40,41,42,43,44,45,47,48,49,50,51,52,53,54,55,56,57,58,59,60,61,62],"categories_segments":[0,5,26,44,65,71,88,105,111,113,115,123,131,159,187,191,218,231,232,261,267,270,271,299,325,326,330,357,360,364,369,397,405,430,433,458,459,463,489,492,515,517,523,529,531,560,568,572,602,609,630,642,666],"categories_sizes":[5,21,18,21,6,17,17,6,2,2,8,8,28,28,4,27,13,1,29,6,3,1,28,26,1,4,27,3,4,5,28,8,25,3,25,1,4,26,3,23,2,6,6,2,29,8,4,30,7,21,12,24,4],"default_left":[1,1,1,1,1,1,1,1,1,0,1,1,0,0,1,1,0,1,1,1,0,1,1,1,1,0,1,1,0,1,0,1,1,0,1,1,1,1,1,1,1,1,1,1,1,1,0,1,1,1,1,1,1,1,1,1,1,1,1,1,1,1,1,0,0,0,0,0,0,0,0,0,0,0,0,0,0,0,0,0,0,0,0,0,0,0,0,0,0,0,0,0,0,0,0,0,0,0,0,0,0,0,0,0,0,0,0,0,0,0,0,0,0,0,0,0,0,0,0,0,0,0,0,0,0,0,0],"id":9,"left_children":[1,3,5,7,9,11,13,15,17,19,21,23,25,27,29,31,33,35,37,39,41,43,45,47,49,51,53,55,57,59,61,63,65,67,69,71,73,75,77,79,81,83,85,87,89,91,93,95,97,99,101,103,105,107,109,111,113,115,117,119,121,123,125,-1,-1,-1,-1,-1,-1,-1,-1,-1,-1,-1,-1,-1,-1,-1,-1,-1,-1,-1,-1,-1,-1,-1,-1,-1,-1,-1,-1,-1,-1,-1,-1,-1,-1,-1,-1,-1,-1,-1,-1,-1,-1,-1,-1,-1,-1,-1,-1,-1,-1,-1,-1,-1,-1,-1,-1,-1,-1,-1,-1,-1,-1,-1,-1],"loss_changes":[2.2966788E2,2.1894452E2,1.9323419E2,5.0976297E2,1.6229335E2,3.752322E2,2.4433073E2,2.6827417E2,1.21774536E2,3.1106375E2,1.7022623E2,3.5794263E2,1.08247635E2,1.0809922E2,1.4873611E2,2.9105237E2,2.7944266E2,1.8339291E2,9.534927E1,1.6233733E2,2.1035706E2,7.57018E1,2.5790628E2,4.2368365E2,2.0434961E2,1.9260477E2,3.988888E2,1.2589E2,1.0404805E3,1.9951088E2,9.174042E1,2.8906702E2,1.0656412E2,1.09474E2,1.518048E2,1.4300365E2,1.30382E2,8.4243164E1,8.59655E1,1.4790881E2,9.925696E1,4.087353E2,2.7728156E2,8.842626E1,1.1620178E2,1.9087358E2,2.5216724E2,4.651878E2,1.4874916E2,1.8318468E2,1.5556879E2,2.578183E2,2.1402972E2,1.568569E2,6.477199E2,4.163673E1,5.6275253E1,3.1264004E3,1.5292552E2,2.8124237E2,5.0915504E1,1.091663E2,1.5228741E2,0E0,0E0,0E0,0E0,0E0,0E0,0E0,0E0,0E0,0E0,0E0,0E0,0E0,0E0,0E0,0E0,0E0,0E0,0E0,0E0,0E0,0E0,0E0,0E0,0E0,0E0,0E0,0E0,0E0,0E0,0E0,0E0,0E0,0E0,0E0,0E0,0E0,0E0,0E0,0E0,0E0,0E0,0E0,0E0,0E0,0E0,0E0,0E0,0E0,0E0,0E0,0E0,0E0,0E0,0E0,0E0,0E0,0E0,0E0,0E0,0E0,0E0,0E0,0E0],"parents":[2147483647,0,0,1,1,2,2,3,3,4,4,5,5,6,6,7,7,8,8,9,9,10,10,11,11,12,12,13,13,14,14,15,15,16,16,17,17,18,18,19,19,20,20,21,21,22,22,23,23,24,24,25,25,26,26,27,27,28,28,29,29,30,30,31,31,32,32,33,33,34,34,35,35,36,36,37,37,38,38,39,39,40,40,41,41,42,42,43,43,44,44,45,45,46,46,47,47,48,48,49,49,50,50,51,51,52,52,53,53,54,54,55,55,56,56,57,57,58,58,59,59,60,60,61,61,62,62],"right_children":[2,4,6,8,10,12,14,16,18,20,22,24,26,28,30,32,34,36,38,40,42,44,46,48,50,52,54,56,58,60,62,64,66,68,70,72,74,76,78,80,82,84,86,88,90,92,94,96,98,100,102,104,106,108,110,112,114,116,118,120,122,124,126,-1,-1,-1,-1,-1,-1,-1,-1,-1,-1,-1,-1,-1,-1,-1,-1,-1,-1,-1,-1,-1,-1,-1,-1,-1,-1,-1,-1,-1,-1,-1,-1,-1,-1,-1,-1,-1,-1,-1,-1,-1,-1,-1,-1,-1,-1,-1,-1,-1,-1,-1,-1,-1,-1,-1,-1,-1,-1,-1,-1,-1,-1,-1,-1],"split_conditions":[NaN,NaN,NaN,NaN,NaN,NaN,NaN,NaN,NaN,4.6E-1,NaN,NaN,4.771E0,1.91E-1,NaN,NaN,2.8E-1,NaN,NaN,NaN,7.7E-1,NaN,NaN,NaN,NaN,1.8E0,NaN,NaN,2.45E-1,NaN,8E-1,NaN,NaN,2.45E-1,NaN,NaN,NaN,NaN,NaN,NaN,NaN,NaN,NaN,NaN,NaN,NaN,1.231E0,NaN,NaN,NaN,NaN,NaN,NaN,NaN,NaN,NaN,NaN,NaN,NaN,NaN,NaN,NaN,NaN,3.78665E-1,1.0789811E-1,1.21489964E-1,1.1404512E-2,8.917001E-2,1.6742175E0,6.1377343E-2,-1.5334567E-1,3.2176226E-1,-4.962648E-2,5.1015947E-2,-2.6141474E-2,6.3941E-2,-1.4435326E-2,-1.8499926E-2,-1.2804998E-1,1.3270553E0,1.8966411E-1,-3.8311172E-2,-1.4263283E-1,3.1939155E-1,3.8862392E-2,3.0372627E-2,-8.730004E-2,6.7857064E-2,-5.749168E-3,-1.0488505E-3,-5.3802557E-2,6.245076E-1,-1.1067087E-2,-2.593694E-1,1.6839078E-1,3.1561175E-1,-6.726569E-2,1.04956105E-1,1.9438198E-2,5.954869E-2,-5.460198E-3,1.7692376E-2,-5.6018766E-2,2.5280839E-2,-4.194768E-2,-6.1017894E-3,-7.943999E-2,1.4357994E-1,-4.9256094E-2,1.3480511E0,-2.583292E-2,6.28691E-2,-1.689957E-1,-1.4992686E-1,-5.0444907E-1,2.918578E0,3.80186E-2,1.2818275E-2,-2.5553241E-2,1.886797E-1,-7.317307E-2,1.0202464E-2,-3.5417918E-2,1.02951296E-1,-2.4851872E-2,-4.194693E-2,-1.08671956E-1],"split_indices":[6,5,5,0,4,0,0,4,1,2,0,4,2,2,4,0,2,0,4,0,2,5,3,5,5,2,1,1,2,0,2,5,1,2,5,5,4,5,0,5,5,0,5,0,6,1,2,0,1,0,6,5,4,0,0,5,5,5,5,5,5,5,0,0,0,0,0,0,0,0,0,0,0,0,0,0,0,0,0,0,0,0,0,0,0,0,0,0,0,0,0,0,0,0,0,0,0,0,0,0,0,0,0,0,0,0,0,0,0,0,0,0,0,0,0,0,0,0,0,0,0,0,0,0,0,0,0],"split_type":[1,1,1,1,1,1,1,1,1,0,1,1,0,0,1,1,0,1,1,1,0,1,1,1,1,0,1,1,0,1,0,1,1,0,1,1,1,1,1,1,1,1,1,1,1,1,0,1,1,1,1,1,1,1,1,1,1,1,1,1,1,1,1,0,0,0,0,0,0,0,0,0,0,0,0,0,0,0,0,0,0,0,0,0,0,0,0,0,0,0,0,0,0,0,0,0,0,0,0,0,0,0,0,0,0,0,0,0,0,0,0,0,0,0,0,0,0,0,0,0,0,0,0,0,0,0,0],"sum_hessian":[2.46677E5,8.1774E4,1.64903E5,2.5303E4,5.6471E4,8.25E4,8.2403E4,6.845E3,1.8458E4,3.1291E4,2.518E4,3.5858E4,4.6642E4,4.0376E4,4.2027E4,5.641E3,1.204E3,9.261E3,9.197E3,4.433E3,2.6858E4,2.3315E4,1.865E3,9.626E3,2.6232E4,3.563E4,1.1012E4,4.59E2,3.9917E4,1.1284E4,3.0743E4,1.425E3,4.216E3,1.7E1,1.187E3,4.63E2,8.798E3,6.493E3,2.704E3,8.7E1,4.346E3,2.374E3,2.4484E4,6.589E3,1.6726E4,8.17E2,1.048E3,1.533E3,8.093E3,1.5766E4,1.0466E4,2.0972E4,1.4658E4,2.733E3,8.279E3,2.93E2,1.66E2,1.91E2,3.9726E4,1.603E3,9.681E3,6.266E3,2.4477E4,7.51E2,6.74E2,3.16E3,1.056E3,6E0,1.1E1,6.26E2,5.61E2,3.34E2,1.29E2,5.818E3,2.98E3,1.656E3,4.837E3,1.644E3,1.06E3,1.1E1,7.6E1,3.248E3,1.098E3,6.39E2,1.735E3,2.2526E4,1.958E3,2.209E3,4.38E3,1.1026E4,5.7E3,4.4E1,7.73E2,9.05E2,1.43E2,1.154E3,3.79E2,2.797E3,5.296E3,8.684E3,7.082E3,4.586E3,5.88E3,1.2002E4,8.97E3,6.225E3,8.433E3,2.278E3,4.55E2,3E1,8.249E3,1.81E2,1.12E2,7.2E1,9.4E1,4.3E1,1.48E2,2.4681E4,1.5045E4,1.028E3,5.75E2,3.385E3,6.296E3,6.73E2,5.593E3,2.0866E4,3.611E3],"tree_param":{"num_deleted":"0","num_feature":"7","num_nodes":"127","size_leaf_vector":"1"}},{"base_weights":[1.3250363E-4,2.191557E-2,-2.6613457E-2,-2.8169695E-2,6.512459E-2,-5.3240326E-3,-8.273143E-2,-1.0689398E-3,-3.056294E-1,2.528862E-1,2.0572638E-2,1.0915795E-1,-2.3322493E-2,9.03852E-3,-1.0390976E-1,4.3071665E-2,-1.5246262E-1,-1.0953967E-1,-5.0203025E-1,6.231042E-1,1.9265865E-1,1.11298084E-1,-3.8675185E-2,2.7454108E-1,-1.9340782E-1,3.5761118E-2,-6.5090425E-2,1.11494824E-1,-1.14292E-1,-8.005315E-2,-2.0459506E-1,9.795643E-2,-6.6308744E-2,2.9902276E-1,-2.7404737E-1,5.0239213E-2,-3.8877156E-1,-9.576321E-2,-8.573478E-1,1.3610089E0,2.8658217E-1,3.595606E-1,1.3030781E-1,3.2657948E-1,5.421712E-2,2.7022913E-2,-1.0101308E-1,7.1619725E-1,1.6197638E-1,-5.463908E-2,-3.879094E-1,1.7949513E0,3.0663082E-2,-3.0194798E-2,-1.2886092E-1,-2.8262615E-1,1.556989E-1,-7.616209E-2,-3.074421E-1,-5.4740805E-2,-1.7757407E-1,-1.729434E-1,-7.258007E-1,4.471551E-2,-2.3784693E-2,-4.9847867E-3,-1.2354975E-1,3.616247E-1,2.3958964E-2,-2.3743046E-2,-1.6567919E-1,1.7364699E-1,-1.4171595E-2,-2.7876683E-2,-1.4154138E-1,2.6372813E-2,-2.0018189E-1,-1.4282279E-1,-3.521833E-1,5.107484E-1,-3.0362599E-2,5.5629764E-2,2.4273342E-1,1.5913928E-1,-3.0428388E-3,1.0491075E-1,1.0127555E-2,1.4131278E-1,-1.3340661E-1,3.0844683E-2,-4.6947163E-2,2.8699128E-2,-1.2201512E-2,-4.672915E-3,-6.009927E-2,4.1227856E-1,1.1519899E-1,1.1912402E-1,-2.2610951E-2,4.1201323E-2,-8.861164E-2,-7.355227E-2,-1.8065593E-1,2.7631507E0,1.2356802E-1,6.2561E-2,-1.9161798E-4,3.2857224E-2,-1.588441E-2,-9.3401395E-2,-1.2873739E-2,1.9628065E-2,-2.1378075E-1,5.8123216E-2,-1.1074275E-1,9.646903E-2,-2.8127847E-2,-7.3386215E-2,-1.619866E-1,1.4118294E-2,-2.3241738E-2,1.3621047E-2,-7.006565E-2,-2.7133526E-2,-1.0392405E-1,-3.0482428E-2,-2.5588855E-1],"categories":[1,2,3,4,5,7,11,12,15,18,19,20,23,26,27,28,2,4,11,13,14,17,18,19,23,24,25,26,1,2,3,4,5,6,7,9,11,12,13,14,15,16,17,18,19,20,21,22,23,24,25,26,27,28,29,0,1,3,4,0,1,2,5,6,1,8,13,16,25,0,1,2,3,4,5,6,7,9,10,11,3,5,6,8,9,11,12,14,15,16,17,18,19,20,21,22,24,25,27,4,18,2,5,7,11,12,15,20,23,26,28,7,11,12,19,27,28,2,7,12,13,15,16,18,21,23,28,29,30,2,4,5,7,8,9,10,11,1,7,8,9,18,19,20,21,22,23,24,26,30,1,2,3,5,6,7,10,11,12,14,16,17,18,20,24,25,28,1,2,3,4,5,6,7,8,9,10,11,13,16,20,22,24,25,26,27,28,29,30,0,2,3,4,0,1,2,3,4,5,6,7,8,9,10,11,12,13,15,16,17,18,19,20,21,22,23,25,26,27,28,0,1,2,7,9,0,1,2,4,5,6,7,11,12,13,14,15,16,17,18,19,20,21,22,23,24,25,26,27,28,29,3,7,8,9,10,12,15,21,22,0,1,2,3,5,6,7,8,9,10,11,1,3,11,14,19,23,24,1,3,15,27,4,0,1,2,3,4,6,10,0,1,2,3,4,5,7,8,9,10,11,12,13,14,15,16,17,18,19,21,23,24,25,27,28,30,0,2,4,5,6,7,8,9,10,11,2,3,6,7,8,10,0,2,1,5,7,9,10,2,0,3,5,11,16,17,18,19,20,21,22,23,24,28,29,1,3,4,7,8,9,10,11,12,13,14,15,16,19,20,21,23,25,26,28,0,1,2,3,4,10,0,0,1,2,3,4,5,7,8,10,11,12,14,15,16,17,18,19,20,22,23,24,26,27,28,29,6,8,9,11,12,15,19,21,22,0,1,3,4,5,6,7,8,9,10,11,12,13,14,15,16,17,18,19,20,21,22,23,24,25,26,27,28,29,0,2,5,7,9,1,2,4,6,0,1,2,3,4,5,6,7,8,9,10,11,12,13,14,15,16,17,19,20,21,22,23,24,25,26,27,28,29,0,1,2,4,7,8,9,11,0,1,2,3,4,5,6,7,9,10,11,5,0,2,3,5,6,7,8,9,10,11,19,28,4,11,13,14,17,18,23,24,25,26,2,11,17,18,19,24,25,26,1,2,0,1,3],"categories_nodes":[0,2,4,5,6,7,8,9,10,11,12,13,14,15,16,17,18,19,20,21,22,23,24,25,26,28,29,30,31,33,34,35,36,37,38,39,41,42,43,44,45,46,47,49,50,51,52,53,55,57,58,59,60,61,62],"categories_segments":[0,16,28,55,59,64,65,69,80,99,101,111,117,119,129,137,150,167,189,193,220,225,251,260,271,273,278,282,283,290,316,317,326,332,334,339,340,355,375,381,382,407,416,445,450,454,483,491,502,503,513,515,525,533,535],"categories_sizes":[16,12,27,4,5,1,4,11,19,2,10,6,2,10,8,13,17,22,4,27,5,26,9,11,2,5,4,1,7,26,1,9,6,2,5,1,15,20,6,1,25,9,29,5,4,29,8,11,1,10,2,10,8,2,3],"default_left":[1,0,1,0,1,1,1,1,1,1,1,1,1,1,1,1,1,1,1,1,1,1,1,1,1,1,1,0,1,1,1,1,0,1,1,1,1,1,1,1,0,1,1,1,1,1,1,1,0,1,1,1,1,1,0,1,0,1,1,1,1,1,1,0,0,0,0,0,0,0,0,0,0,0,0,0,0,0,0,0,0,0,0,0,0,0,0,0,0,0,0,0,0,0,0,0,0,0,0,0,0,0,0,0,0,0,0,0,0,0,0,0,0,0,0,0,0,0,0,0,0,0,0,0,0,0,0],"id":10,"left_children":[1,3,5,7,9,11,13,15,17,19,21,23,25,27,29,31,33,35,37,39,41,43,45,47,49,51,53,55,57,59,61,63,65,67,69,71,73,75,77,79,81,83,85,87,89,91,93,95,97,99,101,103,105,107,109,111,113,115,117,119,121,123,125,-1,-1,-1,-1,-1,-1,-1,-1,-1,-1,-1,-1,-1,-1,-1,-1,-1,-1,-1,-1,-1,-1,-1,-1,-1,-1,-1,-1,-1,-1,-1,-1,-1,-1,-1,-1,-1,-1,-1,-1,-1,-1,-1,-1,-1,-1,-1,-1,-1,-1,-1,-1,-1,-1,-1,-1,-1,-1,-1,-1,-1,-1,-1,-1],"loss_changes":[1.437174E2,2.9422253E2,1.3228606E2,4.7347174E2,6.1054175E2,1.6540707E2,5.918741E1,3.833544E2,2.1572882E2,3.119756E2,3.1709778E2,5.457815E2,1.7119116E2,7.217687E1,5.9416534E1,2.666498E2,7.1095593E2,1.251656E2,4.0396417E2,4.858228E2,1.252471E2,2.8636508E2,1.4615816E2,3.504734E2,1.0402812E2,2.576075E2,9.043277E1,5.439987E1,1.9066135E1,4.937227E1,7.805391E1,2.6785382E2,2.5481369E2,5.457793E2,5.532189E2,9.199991E1,2.5037292E1,1.3725531E2,1.7966016E2,3.0625952E2,7.099097E1,2.0686865E2,1.8569432E2,5.4438367E2,1.8865869E2,8.0743484E1,1.5538129E2,3.12521E2,3.1368713E2,1.0407091E2,4.8941055E1,8.4746545E2,1.5950545E2,8.3513245E1,2.2540732E2,4.71878E1,5.61008E1,1.5189834E1,6.1050186E0,3.676117E1,5.1460846E1,6.3924484E1,2.1423416E1,0E0,0E0,0E0,0E0,0E0,0E0,0E0,0E0,0E0,0E0,0E0,0E0,0E0,0E0,0E0,0E0,0E0,0E0,0E0,0E0,0E0,0E0,0E0,0E0,0E0,0E0,0E0,0E0,0E0,0E0,0E0,0E0,0E0,0E0,0E0,0E0,0E0,0E0,0E0,0E0,0E0,0E0,0E0,0E0,0E0,0E0,0E0,0E0,0E0,0E0,0E0,0E0,0E0,0E0,0E0,0E0,0E0,0E0,0E0,0E0,0E0,0E0,0E0,0E0],"parents":[2147483647,0,0,1,1,2,2,3,3,4,4,5,5,6,6,7,7,8,8,9,9,10,10,11,11,12,12,13,13,14,14,15,15,16,16,17,17,18,18,19,19,20,20,21,21,22,22,23,23,24,24,25,25,26,26,27,27,28,28,29,29,30,30,31,31,32,32,33,33,34,34,35,35,36,36,37,37,38,38,39,39,40,40,41,41,42,42,43,43,44,44,45,45,46,46,47,47,48,48,49,49,50,50,51,51,52,52,53,53,54,54,55,55,56,56,57,57,58,58,59,59,60,60,61,61,62,62],"right_children":[2,4,6,8,10,12,14,16,18,20,22,24,26,28,30,32,34,36,38,40,42,44,46,48,50,52,54,56,58,60,62,64,66,68,70,72,74,76,78,80,82,84,86,88,90,92,94,96,98,100,102,104,106,108,110,112,114,116,118,120,122,124,126,-1,-1,-1,-1,-1,-1,-1,-1,-1,-1,-1,-1,-1,-1,-1,-1,-1,-1,-1,-1,-1,-1,-1,-1,-1,-1,-1,-1,-1,-1,-1,-1,-1,-1,-1,-1,-1,-1,-1,-1,-1,-1,-1,-1,-1,-1,-1,-1,-1,-1,-1,-1,-1,-1,-1,-1,-1,-1,-1,-1,-1,-1,-1,-1],"split_conditions":[NaN,2.392E0,NaN,2.2E0,NaN,NaN,NaN,NaN,NaN,NaN,NaN,NaN,NaN,NaN,NaN,NaN,NaN,NaN,NaN,NaN,NaN,NaN,NaN,NaN,NaN,NaN,NaN,3.84E-1,NaN,NaN,NaN,NaN,1.4E0,NaN,NaN,NaN,NaN,NaN,NaN,NaN,9.5E0,NaN,NaN,NaN,NaN,NaN,NaN,NaN,1.32E0,NaN,NaN,NaN,NaN,NaN,1E0,NaN,1.5196E1,NaN,NaN,NaN,NaN,NaN,NaN,4.471551E-2,-2.3784693E-2,-4.9847867E-3,-1.2354975E-1,3.616247E-1,2.3958964E-2,-2.3743046E-2,-1.6567919E-1,1.7364699E-1,-1.4171595E-2,-2.7876683E-2,-1.4154138E-1,2.6372813E-2,-2.0018189E-1,-1.4282279E-1,-3.521833E-1,5.107484E-1,-3.0362599E-2,5.5629764E-2,2.4273342E-1,1.5913928E-1,-3.0428388E-3,1.0491075E-1,1.0127555E-2,1.4131278E-1,-1.3340661E-1,3.0844683E-2,-4.6947163E-2,2.8699128E-2,-1.2201512E-2,-4.672915E-3,-6.009927E-2,4.1227856E-1,1.1519899E-1,1.1912402E-1,-2.2610951E-2,4.1201323E-2,-8.861164E-2,-7.355227E-2,-1.8065593E-1,2.7631507E0,1.2356802E-1,6.2561E-2,-1.9161798E-4,3.2857224E-2,-1.588441E-2,-9.3401395E-2,-1.2873739E-2,1.9628065E-2,-2.1378075E-1,5.8123216E-2,-1.1074275E-1,9.646903E-2,-2.8127847E-2,-7.3386215E-2,-1.619866E-1,1.4118294E-2,-2.3241738E-2,1.3621047E-2,-7.006565E-2,-2.7133526E-2,-1.0392405E-1,-3.0482428E-2,-2.5588855E-1],"split_indices":[0,2,5,2,0,1,6,3,0,4,5,0,0,0,4,5,4,5,5,5,1,0,4,5,5,4,1,2,5,0,0,4,2,5,0,4,4,1,4,1,2,5,5,4,1,0,5,0,2,4,6,0,4,4,2,0,2,4,0,5,5,1,1,0,0,0,0,0,0,0,0,0,0,0,0,0,0,0,0,0,0,0,0,0,0,0,0,0,0,0,0,0,0,0,0,0,0,0,0,0,0,0,0,0,0,0,0,0,0,0,0,0,0,0,0,0,0,0,0,0,0,0,0,0,0,0,0],"split_type":[1,0,1,0,1,1,1,1,1,1,1,1,1,1,1,1,1,1,1,1,1,1,1,1,1,1,1,0,1,1,1,1,0,1,1,1,1,1,1,1,0,1,1,1,1,1,1,1,0,1,1,1,1,1,0,1,0,1,1,1,1,1,1,0,0,0,0,0,0,0,0,0,0,0,0,0,0,0,0,0,0,0,0,0,0,0,0,0,0,0,0,0,0,0,0,0,0,0,0,0,0,0,0,0,0,0,0,0,0,0,0,0,0,0,0,0,0,0,0,0,0,0,0,0,0,0,0],"sum_hessian":[2.46677E5,1.35952E5,1.10725E5,6.2966E4,7.2986E4,8.0273E4,3.0452E4,5.7364E4,5.602E3,1.3996E4,5.899E4,1.0905E4,6.9368E4,5.71E3,2.4742E4,4.4415E4,1.2949E4,2.804E3,2.798E3,1.957E3,1.2039E4,2.3304E4,3.5686E4,7.051E3,3.854E3,2.8729E4,4.0639E4,3.119E3,2.591E3,2.0004E4,4.738E3,2.9575E4,1.484E4,2.747E3,1.0202E4,1.784E3,1.02E3,1.306E3,1.492E3,6.12E2,1.345E3,3.273E3,8.766E3,4.883E3,1.8421E4,1.7375E4,1.8311E4,1.431E3,5.62E3,2.25E3,1.604E3,8.2E1,2.8647E4,2.6267E4,1.4372E4,3.14E2,2.805E3,2.165E3,4.26E2,1.5883E4,4.121E3,4.468E3,2.7E2,2.2957E4,6.618E3,1.2975E4,1.865E3,5.34E2,2.213E3,6E3,4.202E3,2.77E2,1.507E3,2.24E2,7.96E2,9.89E2,3.17E2,6.78E2,8.14E2,4.96E2,1.16E2,1.128E3,2.17E2,2.238E3,1.035E3,2.678E3,6.088E3,4.113E3,7.7E2,1.4969E4,3.452E3,8.627E3,8.748E3,9.844E3,8.467E3,4.79E2,9.52E2,2.823E3,2.797E3,1.252E3,9.98E2,9.64E2,6.4E2,1.2E1,7E1,4.286E3,2.4361E4,3.678E3,2.2589E4,4.601E3,9.771E3,1.74E2,1.4E2,2.616E3,1.89E2,9.1E1,2.074E3,3.37E2,8.9E1,2.899E3,1.2984E4,8.27E2,3.294E3,3.029E3,1.439E3,4.6E1,2.24E2],"tree_param":{"num_deleted":"0","num_feature":"7","num_nodes":"127","size_leaf_vector":"1"}},{"base_weights":[1.03662715E-4,1.9225463E-2,-2.3994163E-2,6.419391E-2,-7.244842E-3,-1.4853135E-3,-8.22252E-2,1.7941463E-1,2.3048515E-2,1.4288056E-2,-5.8878724E-2,3.2436844E-2,-5.6317724E-2,-9.423724E-4,-1.575278E-1,2.695529E-1,-2.511527E-2,1.4245187E-1,1.8808343E-3,5.99571E-2,-2.2474524E-2,-2.3065412E-2,-1.4938048E-1,9.3266386E-1,2.3764148E-2,-8.989881E-3,-1.1175778E-1,4.8786604E-1,-4.397198E-2,-1.048835E-1,-3.9235213E-1,6.2499213E-1,2.16467E-1,-1.2695634E-1,3.7968716E-1,5.682879E-1,3.445123E-2,1.18107125E-2,-4.3624434E-1,1.6123156E-1,2.8778173E-3,7.233778E-2,-6.74394E-2,-1.7985015E-1,-7.58086E-3,-1.1494932E-1,-3.4949246E-1,3.7105076E0,3.4428364E-1,5.4324858E-2,-8.082682E-2,1.0992557E0,-2.5902748E-2,-7.7720284E-2,-2.2143003E-1,1.5651016E0,4.303721E-2,7.325989E-2,-1.22063026E-1,-1.249082E-1,2.143354E-1,-2.7902922E-1,-6.852958E-1,3.2522154E-1,6.934207E-2,9.8488554E-2,3.1942423E-2,-1.05698556E-1,1.0407631E-3,6.856216E-2,5.0275093E-1,2.4832371E-1,-1.5081082E-2,3.722823E-2,-5.5355918E-2,1.5272712E-2,-2.1509077E-2,4.7537857E-1,-2.8813648E-1,8.140824E-2,-2.9661248E-3,5.3058702E-2,-1.5433523E-2,4.5022923E-2,-5.9769634E-2,2.7697422E-2,-3.0571265E-2,4.9092835E-3,-1.0511495E-1,2.0772452E-2,-1.8089846E-2,5.8879084E-3,-4.8564866E-2,5.885617E-2,-1.4135721E-1,-4.4340573E-2,2.1890228E0,4.0376842E-1,-9.765026E-3,-7.7156406E-3,3.3348676E-2,3.1404886E-2,-5.6336198E-2,1.0966004E0,-5.097019E-2,3.96784E-2,-2.1415003E-2,1.04245925E-2,-3.44018E-2,-3.331226E-2,-9.694598E-2,5.7572746E-1,2.5945738E-1,8.977795E-2,-9.526792E-2,5.163187E-2,-6.272679E-2,6.975234E-2,-4.549254E-2,2.8447784E-3,-5.08971E-2,1.2611703E0,1.6925253E-2,1.1961281E-3,-9.9886425E-2,-1.8310785E-1,-3.7806982E-1],"categories":[0,5,6,1,2,4,5,7,10,11,12,15,18,20,22,23,24,26,27,28,29,7,8,9,12,16,19,21,22,27,30,1,3,4,5,8,10,11,12,13,14,15,16,17,18,19,20,22,23,24,25,28,29,30,6,14,17,18,20,21,22,23,24,25,26,28,29,2,3,4,7,8,12,13,15,17,19,27,28,1,3,4,7,9,10,0,1,2,4,10,11,1,2,5,6,8,10,1,5,10,18,23,27,1,3,7,8,0,1,2,3,5,6,7,8,9,10,11,12,14,15,16,17,18,19,20,21,22,23,24,25,26,27,28,29,1,4,8,13,14,0,1,2,3,4,5,6,7,8,9,10,11,12,13,15,16,17,18,19,20,21,22,23,24,25,26,27,28,29,0,0,2,3,5,6,7,8,9,11,12,13,14,15,16,18,19,20,21,25,26,27,28,29,30,17,1,2,3,4,6,9,10,14,15,16,17,18,20,21,22,23,24,25,26,27,28,29,30,0,3,4,6,20,21,0,1,2,3,4,5,7,8,9,10,11,12,13,15,16,17,18,19,20,21,22,23,24,25,26,27,28,29,30,0,2,6,10,0,1,2,3,4,5,6,7,8,9,10,11,12,13,14,15,16,18,19,20,21,22,23,24,25,26,27,28,29,30,0,11,13,14,17,23,28,29,0,1,2,3,4,5,6,7,8,9,10,11,12,13,14,15,17,18,19,20,21,22,23,24,25,26,27,28,29,30,0,1,9,11,16,18,19,21,25,26,27,9,12,16,0,1,2,3,4,5,8,9,10,11,1,2,3,4,5,7,9,10,11,12,15,16,18,19,20,21,22,23,24,26,27,28,29,0,2,4,10,11,17,23,24,29,1,4,0,2,3,4,5,6,7,8,9,10,11,12,13,14,15,16,17,18,19,20,21,23,24,25,26,28,29,18,22,27,0,2,5,7,8,9,10,11,12,13,11,15,26,29,14,17,18,20,21,22,23,24,25,26,1,2,4,1,2,3,4,0,1,2,4,1,3,5,6,11,14,15,17,18,20,23,24,25,28,0,1,2,3,4,5,7,8,9,10,11,1,2,3,4,5,6,7,8,9,10,12,16,17,18,19,20,21,22,23,24,25,27,28,29,30,3,4,12,13,15,17,19,27,28,2,4,8,15,19,3,4,5,16,19,21,7,8,9,16,21,22,27,30,0,2,5,6,9,10,11,12,16,18,22,25,26,27,28,29,0,1,2,3,4,5,6,7,8,9,10,11,12,13,14,15,17,18,19,20,21,22,23,24,25,26,27,28,29,7,19,22,27,30,0],"categories_nodes":[0,1,2,3,4,5,6,7,9,10,12,13,14,15,16,17,18,19,20,22,23,24,25,26,27,28,30,31,35,36,37,39,40,41,42,43,44,45,46,48,50,51,52,53,54,55,56,57,58,59,60,61,62],"categories_segments":[0,3,21,31,54,67,79,85,91,97,103,107,135,140,169,170,194,195,218,221,224,253,257,287,295,325,336,339,349,372,374,381,383,410,413,423,427,437,440,444,448,462,473,498,507,512,514,515,518,526,542,571,576],"categories_sizes":[3,18,10,23,13,12,6,6,6,6,4,28,5,29,1,24,1,23,3,3,29,4,30,8,30,11,3,10,23,2,7,2,27,3,10,4,10,3,4,4,14,11,25,9,5,2,1,3,8,16,29,5,1],"default_left":[1,1,1,1,1,1,1,1,0,1,1,0,1,1,1,1,1,1,1,1,1,0,1,1,1,1,1,1,1,0,1,1,0,0,0,1,1,1,0,1,1,1,1,1,1,1,1,0,1,0,1,1,1,1,1,1,1,1,1,1,1,1,1,0,0,0,0,0,0,0,0,0,0,0,0,0,0,0,0,0,0,0,0,0,0,0,0,0,0,0,0,0,0,0,0,0,0,0,0,0,0,0,0,0,0,0,0,0,0,0,0,0,0,0,0,0,0,0,0,0,0,0,0,0,0,0,0],"id":11,"left_children":[1,3,5,7,9,11,13,15,17,19,21,23,25,27,29,31,33,35,37,39,41,43,45,47,49,51,53,55,57,59,61,63,65,67,69,71,73,75,77,79,81,83,85,87,89,91,93,95,97,99,101,103,105,107,109,111,113,115,117,119,121,123,125,-1,-1,-1,-1,-1,-1,-1,-1,-1,-1,-1,-1,-1,-1,-1,-1,-1,-1,-1,-1,-1,-1,-1,-1,-1,-1,-1,-1,-1,-1,-1,-1,-1,-1,-1,-1,-1,-1,-1,-1,-1,-1,-1,-1,-1,-1,-1,-1,-1,-1,-1,-1,-1,-1,-1,-1,-1,-1,-1,-1,-1,-1,-1,-1],"loss_changes":[1.1366816E2,1.6371823E2,1.4304987E2,2.4160136E2,9.6260605E1,1.464125E2,1.8623157E2,2.4723306E2,9.491717E1,1.0258118E2,8.2581505E1,3.796515E2,7.893775E1,3.0780075E2,1.9520688E2,1.7549554E2,1.691965E2,2.6005707E2,1.3878703E2,1.5751709E2,1.4431924E2,4.4321915E1,4.973381E1,7.570972E2,1.5396416E2,3.0425598E2,5.1703064E1,5.672883E2,1.2314046E2,8.2506134E1,9.5815186E1,2.1834796E2,9.9596954E1,9.638509E1,1.6124161E2,1.8364185E2,8.8589775E1,1.0185233E2,7.5047906E2,1.850999E2,1.6472708E2,2.299338E2,1.264437E2,5.491529E1,6.730252E1,3.894203E1,7.04852E1,1.1218597E3,1.4498108E2,1.6958899E2,2.1614108E2,7.921725E2,1.15017456E2,4.3953636E1,3.680693E1,8.4106445E1,7.761282E1,1.5013159E2,8.470302E1,7.3021484E1,4.7984094E2,3.1852707E1,3.3956238E1,0E0,0E0,0E0,0E0,0E0,0E0,0E0,0E0,0E0,0E0,0E0,0E0,0E0,0E0,0E0,0E0,0E0,0E0,0E0,0E0,0E0,0E0,0E0,0E0,0E0,0E0,0E0,0E0,0E0,0E0,0E0,0E0,0E0,0E0,0E0,0E0,0E0,0E0,0E0,0E0,0E0,0E0,0E0,0E0,0E0,0E0,0E0,0E0,0E0,0E0,0E0,0E0,0E0,0E0,0E0,0E0,0E0,0E0,0E0,0E0,0E0,0E0,0E0,0E0],"parents":[2147483647,0,0,1,1,2,2,3,3,4,4,5,5,6,6,7,7,8,8,9,9,10,10,11,11,12,12,13,13,14,14,15,15,16,16,17,17,18,18,19,19,20,20,21,21,22,22,23,23,24,24,25,25,26,26,27,27,28,28,29,29,30,30,31,31,32,32,33,33,34,34,35,35,36,36,37,37,38,38,39,39,40,40,41,41,42,42,43,43,44,44,45,45,46,46,47,47,48,48,49,49,50,50,51,51,52,52,53,53,54,54,55,55,56,56,57,57,58,58,59,59,60,60,61,61,62,62],"right_children":[2,4,6,8,10,12,14,16,18,20,22,24,26,28,30,32,34,36,38,40,42,44,46,48,50,52,54,56,58,60,62,64,66,68,70,72,74,76,78,80,82,84,86,88,90,92,94,96,98,100,102,104,106,108,110,112,114,116,118,120,122,124,126,-1,-1,-1,-1,-1,-1,-1,-1,-1,-1,-1,-1,-1,-1,-1,-1,-1,-1,-1,-1,-1,-1,-1,-1,-1,-1,-1,-1,-1,-1,-1,-1,-1,-1,-1,-1,-1,-1,-1,-1,-1,-1,-1,-1,-1,-1,-1,-1,-1,-1,-1,-1,-1,-1,-1,-1,-1,-1,-1,-1,-1,-1,-1,-1],"split_conditions":[NaN,NaN,NaN,NaN,NaN,NaN,NaN,NaN,7.15E-1,NaN,NaN,2.45E-1,NaN,NaN,NaN,NaN,NaN,NaN,NaN,NaN,NaN,3.84E-1,NaN,NaN,NaN,NaN,NaN,