{"learner":{"attributes":{"scikit_learn":"{\"_estimator_type\": \"regressor\"}"},"feature_names":["Carrier","City","Weight","Year","Month","Day","DayOfWeek"],"feature_types":["c","c","float","c","c","c","c"],"gradient_booster":{"model":{"gbtree_model_param":{"num_parallel_tree":"1","num_trees":"100"},"iteration_indptr":[0,1,2,3,4,5,6,7,8,9,10,11,12,13,14,15,16,17,18,19,20,21,22,23,24,25,26,27,28,29,30,31,32,33,34,35,36,37,38,39,40,41,42,43,44,45,46,47,48,49,50,51,52,53,54,55,56,57,58,59,60,61,62,63,64,65,66,67,68,69,70,71,72,73,74,75,76,77,78,79,80,81,82,83,84,85,86,87,88,89,90,91,92,93,94,95,96,97,98,99,100],"tree_info":[0,0,0,0,0,0,0,0,0,0,0,0,0,0,0,0,0,0,0,0,0,0,0,0,0,0,0,0,0,0,0,0,0,0,0,0,0,0,0,0,0,0,0,0,0,0,0,0,0,0,0,0,0,0,0,0,0,0,0,0,0,0,0,0,0,0,0,0,0,0,0,0,0,0,0,0,0,0,0,0,0,0,0,0,0,0,0,0,0,0,0,0,0,0,0,0,0,0,0,0],"trees":[{"base_weights":[4.224381E-8,2.276468E-1,-1.093436E0,3.7745756E-1,-2.5953704E-1,-8.24992E-1,-1.5880231E0,8.531813E-1,2.33525E-1,5.6719415E-2,-7.927875E-1,-5.666079E-1,-1.0218852E0,-1.2593726E0,-1.7575516E0,1.2106E0,2.7817705E-1,5.648807E-1,7.152415E-2,1.0621446E0,-1.4310688E-1,-1.3329874E0,-6.265517E-1,-4.017813E-1,-8.336507E-1,-8.208808E-1,-1.3777206E0,-9.8163706E-1,-1.3119483E0,-1.5537134E0,-1.7791783E0,1.61334E0,9.03787E-1,6.314493E-1,-2.2881423E-1,9.3595636E-1,3.7111652E-1,2.6997632E-1,-1.12547435E-1,3.6397674E0,3.4843484E-1,1.6792855E-1,-3.6839545E-1,-9.266805E-1,-1.7506628E0,4.7151342E-1,-6.964197E-1,-1.653546E-1,-6.5264606E-1,-6.031692E-1,-9.469612E-1,6.831508E-1,-9.7763425E-1,-1.1459006E0,-5.358951E-1,-6.0323405E-1,-1.1974137E0,-1.3340404E0,-8.845991E-1,-2.3438004E-1,-1.6288438E0,-1.6217128E0,-5.36016E-1,6.044586E-1,3.3254096E-1,3.2448822E-1,1.3058408E-1,2.449968E-1,-8.545378E-3,4.3753418E-1,-1.3976562E-1,4.0190634E-1,2.3221794E-1,2.0957185E-1,7.754841E-2,4.7989085E-1,6.544641E-2,-4.120822E-3,-1.2087497E-1,2.5102848E-1,1.8903756E0,2.401315E-1,-1.7985281E-1,1.0166109E-1,-5.99269E-2,-8.497096E-3,-1.8313135E-1,2.2018789E-1,-3.0507603E-1,-1.836711E-2,-5.2787435E-1,3.680525E-1,-1.7595461E-1,-1.5077567E-1,-2.5175837E-1,-8.211639E-2,4.1100648E-1,-2.8692377E-1,-1.0820167E-1,-1.1929005E-1,-2.4113719E-1,-2.4886312E-1,-3.120413E-1,6.630769E-1,-2.3613472E-1,-2.437482E-1,-4.0612313E-1,-2.0913903E-1,-3.6430556E-1,2.4154333E-2,-2.187756E-1,-3.007276E-1,-4.0670365E-1,-3.464271E-1,-4.1613612E-1,7.700393E-2,-3.7720552E-1,-3.7823412E-1,-5.085409E-1,-4.415445E-1,-5.0568116E-1],"categories":[3,5,7,9,11,12,15,19,23,25,26,28,4,7,11,12,1,2,3,4,5,6,7,8,9,11,12,13,15,16,17,18,19,20,22,23,24,25,26,27,28,29,0,6,8,10,20,27,3,15,23,25,28,9,10,0,4,5,10,11,0,1,5,6,0,1,2,3,4,5,6,8,9,10,11,12,13,15,16,18,19,20,21,22,23,24,25,26,27,28,30,4,7,10,12,14,15,16,17,18,20,21,22,23,24,0,4,6,0,1,2,5,6,4,5,6,7,16,17,18,19,20,21,23,24,25,27,28,29,30,3,4,5,10,11,12,13,14,15,16,17,18,21,22,23,24,25,27,28,30,1,1,2,7,9,10,11,13,14,15,16,17,18,19,22,23,24,25,26,28,29,30,0,1,2,3,5,7,9,10,11,12,13,14,15,17,18,19,20,21,23,24,25,26,27,28,29,0,1,2,3,4,5,6,7,8,9,10,11,12,14,15,17,18,19,20,21,22,23,24,25,26,27,28,29,0,2,5,6,1,6,8,10,20,27,1,2,3,4,5,6,7,10,0,1,2,4,5,7,9,10,0,1,2,3,4,5,6,7,8,9,10,11,12,13,14,15,16,17,18,19,20,21,22,23,24,25,26,27,28,30,23,0,3,6,8,9,11,12,14,15,16,17,19,21,23,24,25,26,27,28,29,1,3,4,7,0,5,6,0,4,0,1,2,3,4,5,6,7,8,9,10,11,0,1,2,4,0,1,2,4,0,1,2,3,4,5,6,7,8,9,10,11,12,13,14,15,17,18,19,20,21,22,23,24,25,26,27,28,29,30,3,6,12,17,18,19,20,21,23,24,26,28,0,1,5,6,1,2,21,22,8,9,10,11,13,15,16,19,21,22,24,25,26,27,28,10,27,7,8,9,10,11,1,0,1,4,5,6,9,10,11,1,4,7,10,14,15,16,24,3,15,25,28,2,7,11,15,16,17,18,19,24,25,26,27,0,1,4,5,6,7,8,11,1,2,4,5,7,13,18,20,22,12,1,2,3,4,5,6,7,8,11,2,3,4,5,6,8,9,10,11,12,13,14,15,16,17,18,19,20,21,22,23,29,30,1,8,9,10,11,12,22,26,4,5,6,7,19,21,23,25,29,30],"categories_nodes":[0,1,2,3,4,5,6,7,8,9,11,12,13,14,15,16,17,18,19,20,21,22,23,24,25,26,27,29,30,31,32,33,34,35,36,37,38,40,41,42,43,44,45,46,48,49,51,52,53,55,56,57,58,60,61],"categories_segments":[0,12,13,16,42,48,53,55,60,64,91,105,108,113,130,150,151,172,197,225,229,230,235,243,251,281,282,302,305,306,309,311,312,323,327,331,361,373,377,381,396,398,403,404,412,413,420,424,436,444,453,454,463,486,494],"categories_sizes":[12,1,3,26,6,5,2,5,4,27,14,3,5,17,20,1,21,25,28,4,1,5,8,8,30,1,20,3,1,3,2,1,11,4,4,30,12,4,4,15,2,5,1,8,1,7,4,12,8,9,1,9,23,8,10],"default_left":[1,1,1,1,1,1,1,1,1,1,0,1,1,1,1,1,1,1,1,1,1,1,1,1,1,1,1,1,0,1,1,1,1,1,1,1,1,1,1,0,1,1,1,1,1,1,1,0,1,1,0,1,1,1,0,1,1,1,1,0,1,1,0,0,0,0,0,0,0,0,0,0,0,0,0,0,0,0,0,0,0,0,0,0,0,0,0,0,0,0,0,0,0,0,0,0,0,0,0,0,0,0,0,0,0,0,0,0,0,0,0,0,0,0,0,0,0,0,0,0,0],"id":0,"left_children":[1,3,5,7,9,11,13,15,17,19,21,23,25,27,29,31,33,35,37,39,41,43,45,47,49,51,53,55,57,59,61,63,65,67,69,71,73,75,77,79,81,83,85,87,89,91,93,95,97,99,101,103,105,107,-1,109,111,113,115,-1,117,119,-1,-1,-1,-1,-1,-1,-1,-1,-1,-1,-1,-1,-1,-1,-1,-1,-1,-1,-1,-1,-1,-1,-1,-1,-1,-1,-1,-1,-1,-1,-1,-1,-1,-1,-1,-1,-1,-1,-1,-1,-1,-1,-1,-1,-1,-1,-1,-1,-1,-1,-1,-1,-1,-1,-1,-1,-1,-1,-1],"loss_changes":[1.01314266E5,2.4587637E4,9.310703E3,1.7641922E4,1.3361699E4,2.3123633E3,1.3725156E3,1.2299254E4,1.0618277E4,9.992432E3,2.6479238E3,8.651909E2,1.8442695E3,1.2137109E2,6.898047E1,4.5588633E3,4.109193E3,4.6698496E3,4.8531816E3,1.5168688E4,2.9073794E3,1.176126E3,1.7308936E3,7.211748E2,1.9540332E2,3.8883857E3,8.799922E2,1.08770996E2,6.547363E1,8.97832E1,1.4566406E1,3.2325117E3,1.7450703E3,1.6526167E3,3.7694888E3,1.4553086E3,1.5735459E3,4.404827E3,1.977603E3,1.3333484E4,2.7679937E3,1.0955271E3,1.9805696E3,5.282373E2,5.1435547E1,1.0795842E3,5.8650195E2,1.042269E3,5.22937E2,1.01778015E2,5.415674E1,3.4975967E3,9.264629E2,1.817456E2,0E0,4.219319E1,2.4964478E1,6.2262695E1,1.4921786E2,0E0,3.272998E1,4.0603027E0,0E0,0E0,0E0,0E0,0E0,0E0,0E0,0E0,0E0,0E0,0E0,0E0,0E0,0E0,0E0,0E0,0E0,0E0,0E0,0E0,0E0,0E0,0E0,0E0,0E0,0E0,0E0,0E0,0E0,0E0,0E0,0E0,0E0,0E0,0E0,0E0,0E0,0E0,0E0,0E0,0E0,0E0,0E0,0E0,0E0,0E0,0E0,0E0,0E0,0E0,0E0,0E0,0E0,0E0,0E0,0E0,0E0,0E0,0E0],"parents":[2147483647,0,0,1,1,2,2,3,3,4,4,5,5,6,6,7,7,8,8,9,9,10,10,11,11,12,12,13,13,14,14,15,15,16,16,17,17,18,18,19,19,20,20,21,21,22,22,23,23,24,24,25,25,26,26,27,27,28,28,29,29,30,30,31,31,32,32,33,33,34,34,35,35,36,36,37,37,38,38,39,39,40,40,41,41,42,42,43,43,44,44,45,45,46,46,47,47,48,48,49,49,50,50,51,51,52,52,53,53,55,55,56,56,57,57,58,58,60,60,61,61],"right_children":[2,4,6,8,10,12,14,16,18,20,22,24,26,28,30,32,34,36,38,40,42,44,46,48,50,52,54,56,58,60,62,64,66,68,70,72,74,76,78,80,82,84,86,88,90,92,94,96,98,100,102,104,106,108,-1,110,112,114,116,-1,118,120,-1,-1,-1,-1,-1,-1,-1,-1,-1,-1,-1,-1,-1,-1,-1,-1,-1,-1,-1,-1,-1,-1,-1,-1,-1,-1,-1,-1,-1,-1,-1,-1,-1,-1,-1,-1,-1,-1,-1,-1,-1,-1,-1,-1,-1,-1,-1,-1,-1,-1,-1,-1,-1,-1,-1,-1,-1,-1,-1],"split_conditions":[NaN,NaN,NaN,NaN,NaN,NaN,NaN,NaN,NaN,NaN,1.525E0,NaN,NaN,NaN,NaN,NaN,NaN,NaN,NaN,NaN,NaN,NaN,NaN,NaN,NaN,NaN,NaN,NaN,1.8669E1,NaN,NaN,NaN,NaN,NaN,NaN,NaN,NaN,NaN,NaN,1E0,NaN,NaN,NaN,NaN,NaN,NaN,NaN,8.2E0,NaN,NaN,2.5E0,NaN,NaN,NaN,-5.358951E-1,NaN,NaN,NaN,NaN,-2.3438004E-1,NaN,NaN,-5.36016E-1,6.044586E-1,3.3254096E-1,3.2448822E-1,1.3058408E-1,2.449968E-1,-8.545378E-3,4.3753418E-1,-1.3976562E-1,4.0190634E-1,2.3221794E-1,2.0957185E-1,7.754841E-2,4.7989085E-1,6.544641E-2,-4.120822E-3,-1.2087497E-1,2.5102848E-1,1.8903756E0,2.401315E-1,-1.7985281E-1,1.0166109E-1,-5.99269E-2,-8.497096E-3,-1.8313135E-1,2.2018789E-1,-3.0507603E-1,-1.836711E-2,-5.2787435E-1,3.680525E-1,-1.7595461E-1,-1.5077567E-1,-2.5175837E-1,-8.211639E-2,4.1100648E-1,-2.8692377E-1,-1.0820167E-1,-1.1929005E-1,-2.4113719E-1,-2.4886312E-1,-3.120413E-1,6.630769E-1,-2.3613472E-1,-2.437482E-1,-4.0612313E-1,-2.0913903E-1,-3.6430556E-1,2.4154333E-2,-2.187756E-1,-3.007276E-1,-4.0670365E-1,-3.464271E-1,-4.1613612E-1,7.700393E-2,-3.7720552E-1,-3.7823412E-1,-5.085409E-1,-4.415445E-1,-5.0568116E-1],"split_indices":[0,1,0,0,0,0,4,4,6,5,2,5,6,6,5,5,3,5,0,0,6,3,0,4,4,5,0,5,2,1,0,6,1,1,4,1,1,5,5,2,6,0,5,0,4,3,4,2,3,5,2,0,5,4,0,5,0,4,5,0,5,5,0,0,0,0,0,0,0,0,0,0,0,0,0,0,0,0,0,0,0,0,0,0,0,0,0,0,0,0,0,0,0,0,0,0,0,0,0,0,0,0,0,0,0,0,0,0,0,0,0,0,0,0,0,0,0,0,0,0,0],"split_type":[1,1,1,1,1,1,1,1,1,1,0,1,1,1,1,1,1,1,1,1,1,1,1,1,1,1,1,1,0,1,1,1,1,1,1,1,1,1,1,0,1,1,1,1,1,1,1,0,1,1,0,1,1,1,0,1,1,1,1,0,1,1,0,0,0,0,0,0,0,0,0,0,0,0,0,0,0,0,0,0,0,0,0,0,0,0,0,0,0,0,0,0,0,0,0,0,0,0,0,0,0,0,0,0,0,0,0,0,0,0,0,0,0,0,0,0,0,0,0,0,0],"sum_hessian":[4.07018E5,3.36882E5,7.0136E4,2.57653E5,7.9229E4,4.5463E4,2.4673E4,5.9846E4,1.97807E5,4.9734E4,2.9495E4,1.9663E4,2.58E4,8.399E3,1.6274E4,3.6905E4,2.2941E4,6.4952E4,1.32855E5,8.245E3,4.1489E4,6.939E3,2.2556E4,1.216E4,7.503E3,1.6489E4,9.311E3,1.34E3,7.059E3,1.568E3,1.4706E4,1.5956E4,2.0949E4,1.352E4,9.421E3,2.228E4,4.2672E4,6.393E4,6.8925E4,1.787E3,6.458E3,1.7428E4,2.4061E4,3.519E3,3.42E3,1.349E3,2.1207E4,6.261E3,5.899E3,2.475E3,5.028E3,1.556E3,1.4933E4,5.943E3,3.368E3,4.88E2,8.52E2,6.71E3,3.49E2,1.4E2,1.428E3,6.82E2,1.4024E4,8.886E3,7.07E3,1.5184E4,5.765E3,1.0557E4,2.963E3,1.16E3,8.261E3,6.375E3,1.5905E4,1.0919E4,3.1753E4,2.397E3,6.1533E4,5.1426E4,1.7499E4,8.71E2,9.16E2,4.373E3,2.085E3,1.1897E4,5.531E3,1.0005E4,1.4056E4,1.81E2,3.338E3,1.8E1,3.402E3,7.87E2,5.62E2,8.997E3,1.221E4,5.849E3,4.12E2,2.89E3,3.009E3,1.224E3,1.251E3,2.229E3,2.799E3,7.63E2,7.93E2,1.0379E4,4.554E3,7.88E2,5.155E3,7.6E1,4.12E2,3.85E2,4.67E2,1.538E3,5.172E3,8.6E1,2.63E2,2.21E2,1.207E3,2.11E2,4.71E2],"tree_param":{"num_deleted":"0","num_feature":"7","num_nodes":"121","size_leaf_vector":"1"}},{"base_weights":[-5.8981896E-6,1.5936604E-1,-7.6550335E-1,3.3610097E-1,-6.36072E-2,-5.4516524E-1,-1.0679253E0,5.9136003E-1,1.6804716E-1,3.7794948E-1,-1.7318833E-1,-3.4993273E-1,-6.556208E-1,-6.783349E-1,-1.2109407E0,1.0197864E0,4.3023688E-1,3.9955074E-1,3.1719215E-2,8.768227E-1,1.317264E-1,9.7236805E-2,-2.95851E-1,-1.6199765E-1,-5.1069033E-1,-4.9546126E-1,-7.9615533E-1,1.2929441E0,-9.176544E-1,-1.022245E0,-1.2464128E0,1.3113989E0,5.8544683E-1,1.5572093E0,3.456987E-1,1.567994E0,3.2875898E-1,5.667828E-1,-3.6049582E-2,1.2308275E0,3.10765E-1,4.0191504E-1,-3.61583E-2,4.852633E-1,-2.0095065E-1,-2.2419369E-1,-6.412441E-1,-1.9174136E-1,2.1767142E0,-9.2083967E-1,-4.2875725E-1,-3.998377E-1,-7.471634E-1,-4.1959605E-1,-8.6522466E-1,4.6441415E-1,-7.296501E-1,-8.52499E-1,-1.4608383E0,-8.708153E-1,-1.0893217E0,-1.1503265E0,-3.7523484E-1,5.060965E-1,2.4470147E-1,-4.4528008E-1,2.0448029E-1,6.8051744E-1,1.287407E-1,1.6494292E-1,-1.462264E-2,1.5692192E0,1.8825547E-1,1.4353757E-1,1.03342235E-2,2.4725339E-1,1.21028505E-1,4.3987796E-2,-5.3390164E-2,1.8591647E-1,5.1099885E-1,-2.5696626E-1,1.0531942E-1,2.3932938E-1,6.457594E-2,4.9475607E-2,-1.125981E-1,1.23644896E-1,7.995226E-1,4.6327915E-2,-1.40976E-1,-2.6023785E-2,-1.1673632E-1,-2.9275587E-1,-1.06964156E-1,4.9046524E-2,-9.216704E-2,1.4814577E0,-1.9061558E-1,2.7930108E-1,-2.9032594E-1,4.0505925E-1,-1.6346078E-1,-5.6863893E-2,-1.8553144E-1,-2.0582518E-1,-3.1592622E-1,1.4733207E-1,-1.4906703E-1,-2.2220159E-1,-2.8752342E-1,-1.4392579E-1,-3.2669732E-1,-2.2785665E-1,-2.8821835E-1,-4.6172103E-1,-4.1311267E-1,-2.2548148E-1,-3.0078432E-1,-9.133138E-2,-3.295715E-1,-1.645647E-1,-3.8291436E-1],"categories":[3,5,7,9,11,12,15,19,23,25,26,28,0,4,7,11,12,23,1,2,3,4,5,6,7,9,11,12,13,15,16,17,18,19,20,23,24,25,26,27,28,29,0,1,2,5,6,3,15,25,26,28,2,5,6,7,9,10,0,1,2,4,5,6,9,10,11,0,5,10,11,12,14,15,18,19,20,21,22,23,24,25,26,27,28,29,30,0,1,3,4,5,6,7,8,9,10,11,12,15,17,18,19,20,21,22,23,25,26,27,28,29,0,1,4,6,8,10,18,20,21,22,24,27,29,4,6,9,10,12,13,14,15,16,17,18,20,21,22,23,24,28,0,1,2,3,7,11,12,13,14,15,16,17,18,19,20,21,22,24,25,0,1,2,3,4,5,6,7,8,9,10,11,12,13,14,15,16,17,18,19,20,21,22,23,24,25,26,27,28,30,7,23,1,0,1,2,3,4,5,6,7,8,9,11,12,13,14,15,16,17,18,19,20,21,22,23,24,25,26,27,28,29,0,1,2,3,4,5,7,8,9,10,11,0,1,2,5,6,4,5,9,10,11,12,16,17,18,19,21,23,24,25,28,29,30,4,3,5,8,9,10,11,12,13,15,18,19,22,23,24,25,26,27,28,0,20,0,1,3,4,5,6,10,11,0,1,2,4,5,6,7,8,10,11,11,12,23,0,3,4,5,6,7,8,9,11,12,15,16,19,20,21,22,25,27,28,29,5,6,14,16,17,18,20,21,23,24,25,27,28,29,30,1,2,3,4,5,6,7,8,9,10,11,12,13,15,16,17,18,19,20,22,23,24,25,26,27,28,29,3,10,11,12,15,16,17,18,19,20,21,22,23,24,25,27,28,29,1,0,1,2,3,4,5,6,7,8,9,10,11,12,13,14,15,17,18,19,20,21,22,23,24,25,26,27,28,29,30,0,1,4,1,2,3,4,6,7,8,9,11,13,15,16,17,18,21,23,24,25,28,30,2,5,6,7,9,11,0,1,2,3,4,5,7,8,9,11,12,13,14,15,16,17,19,20,21,22,23,24,25,26,27,28,29,0,5,6,7,10,12,13,14,16,17,21,22,24,25,28,29,4,4,9,19,0,1,2,3,4,5,6,7,8,9,10,0,6,7,8,9,10,15,28,26,0,1,2,7,11,12,13,14,15,16,17,18,19,20,22,24,25,2,3,11,12,13,15,16,18,19,24,25,4,8,2,3,6,8,10,11,12,13,14,15,17,20,21,23,24,6,9,10,0,1,2,3,5,6,1,3],"categories_nodes":[0,1,2,3,4,5,6,7,8,9,10,11,12,13,14,15,16,17,18,19,20,21,22,25,26,27,28,29,30,31,33,34,35,36,37,38,41,42,44,45,47,48,49,51,52,53,54,56,57,59,60,61],"categories_segments":[0,12,14,18,42,47,52,58,67,87,112,125,142,161,191,193,194,223,234,239,256,257,275,277,285,295,297,298,318,333,360,378,379,409,412,432,438,465,481,482,483,485,496,502,504,505,522,533,535,550,553,559],"categories_sizes":[12,2,4,24,5,5,6,9,20,25,13,17,19,30,2,1,29,11,5,17,1,18,2,8,10,2,1,20,15,27,18,1,30,3,20,6,27,16,1,1,2,11,6,2,1,17,11,2,15,3,6,2],"default_left":[1,1,1,1,1,1,1,1,1,1,1,1,1,1,1,1,1,1,1,1,1,1,1,0,0,1,1,1,1,1,1,1,0,1,1,1,1,1,1,0,0,1,1,0,1,1,0,1,1,1,0,1,1,1,1,0,1,1,0,1,1,1,0,0,0,0,0,0,0,0,0,0,0,0,0,0,0,0,0,0,0,0,0,0,0,0,0,0,0,0,0,0,0,0,0,0,0,0,0,0,0,0,0,0,0,0,0,0,0,0,0,0,0,0,0,0,0,0,0,0,0,0,0],"id":1,"left_children":[1,3,5,7,9,11,13,15,17,19,21,23,25,27,29,31,33,35,37,39,41,43,45,47,49,51,53,55,57,59,61,63,65,67,69,71,73,75,77,79,81,83,85,87,89,91,93,95,97,99,101,103,105,107,109,-1,111,113,115,117,119,121,-1,-1,-1,-1,-1,-1,-1,-1,-1,-1,-1,-1,-1,-1,-1,-1,-1,-1,-1,-1,-1,-1,-1,-1,-1,-1,-1,-1,-1,-1,-1,-1,-1,-1,-1,-1,-1,-1,-1,-1,-1,-1,-1,-1,-1,-1,-1,-1,-1,-1,-1,-1,-1,-1,-1,-1,-1,-1,-1,-1,-1],"loss_changes":[4.9655957E4,1.3275626E4,4.673E3,8.061451E3,7.2075405E3,8.7479297E2,1.6462422E3,5.1495723E3,3.5764753E3,3.6378623E3,3.958698E3,4.4294604E2,5.8287695E2,3.7470051E3,1.4345312E2,2.5816777E3,5.1649277E3,3.473564E3,2.5862363E3,1.9608062E3,8.9955945E2,4.3090537E3,2.0318511E3,4.7079544E2,2.6518384E2,2.9126904E2,3.58583E2,4.4486365E2,2.4936084E2,3.3861084E1,6.203125E0,2.2697695E3,1.6313132E3,3.033998E3,4.0606133E3,8.260588E3,1.7447808E3,3.3679736E2,1.6412267E3,1.737501E3,1.775102E2,5.613926E2,8.3427216E2,2.5780508E3,2.0130078E3,1.5413601E3,1.3434194E3,2.739997E2,6.632096E2,1.1514331E2,1.3617463E3,4.0354346E2,6.157556E1,1.5095316E2,1.3463477E2,0E0,8.188E0,6.2916992E1,2.8432617E0,1.5853882E1,1.6878906E1,6.028882E1,0E0,0E0,0E0,0E0,0E0,0E0,0E0,0E0,0E0,0E0,0E0,0E0,0E0,0E0,0E0,0E0,0E0,0E0,0E0,0E0,0E0,0E0,0E0,0E0,0E0,0E0,0E0,0E0,0E0,0E0,0E0,0E0,0E0,0E0,0E0,0E0,0E0,0E0,0E0,0E0,0E0,0E0,0E0,0E0,0E0,0E0,0E0,0E0,0E0,0E0,0E0,0E0,0E0,0E0,0E0,0E0,0E0,0E0,0E0,0E0,0E0],"parents":[2147483647,0,0,1,1,2,2,3,3,4,4,5,5,6,6,7,7,8,8,9,9,10,10,11,11,12,12,13,13,14,14,15,15,16,16,17,17,18,18,19,19,20,20,21,21,22,22,23,23,24,24,25,25,26,26,27,27,28,28,29,29,30,30,31,31,32,32,33,33,34,34,35,35,36,36,37,37,38,38,39,39,40,40,41,41,42,42,43,43,44,44,45,45,46,46,47,47,48,48,49,49,50,50,51,51,52,52,53,53,54,54,56,56,57,57,58,58,59,59,60,60,61,61],"right_children":[2,4,6,8,10,12,14,16,18,20,22,24,26,28,30,32,34,36,38,40,42,44,46,48,50,52,54,56,58,60,62,64,66,68,70,72,74,76,78,80,82,84,86,88,90,92,94,96,98,100,102,104,106,108,110,-1,112,114,116,118,120,122,-1,-1,-1,-1,-1,-1,-1,-1,-1,-1,-1,-1,-1,-1,-1,-1,-1,-1,-1,-1,-1,-1,-1,-1,-1,-1,-1,-1,-1,-1,-1,-1,-1,-1,-1,-1,-1,-1,-1,-1,-1,-1,-1,-1,-1,-1,-1,-1,-1,-1,-1,-1,-1,-1,-1,-1,-1,-1,-1,-1,-1],"split_conditions":[NaN,NaN,NaN,NaN,NaN,NaN,NaN,NaN,NaN,NaN,NaN,NaN,NaN,NaN,NaN,NaN,NaN,NaN,NaN,NaN,NaN,NaN,NaN,2.2E1,4.3E-1,NaN,NaN,NaN,NaN,NaN,NaN,NaN,1.153E0,NaN,NaN,NaN,NaN,NaN,NaN,1.32E0,2.45E-1,NaN,NaN,1.8669E1,NaN,NaN,4.05E0,NaN,NaN,NaN,6.3E-1,NaN,NaN,NaN,NaN,4.6441415E-1,NaN,NaN,2.95E-1,NaN,NaN,NaN,-3.7523484E-1,5.060965E-1,2.4470147E-1,-4.4528008E-1,2.0448029E-1,6.8051744E-1,1.287407E-1,1.6494292E-1,-1.462264E-2,1.5692192E0,1.8825547E-1,1.4353757E-1,1.03342235E-2,2.4725339E-1,1.21028505E-1,4.3987796E-2,-5.3390164E-2,1.8591647E-1,5.1099885E-1,-2.5696626E-1,1.0531942E-1,2.3932938E-1,6.457594E-2,4.9475607E-2,-1.125981E-1,1.23644896E-1,7.995226E-1,4.6327915E-2,-1.40976E-1,-2.6023785E-2,-1.1673632E-1,-2.9275587E-1,-1.06964156E-1,4.9046524E-2,-9.216704E-2,1.4814577E0,-1.9061558E-1,2.7930108E-1,-2.9032594E-1,4.0505925E-1,-1.6346078E-1,-5.6863893E-2,-1.8553144E-1,-2.0582518E-1,-3.1592622E-1,1.4733207E-1,-1.4906703E-1,-2.2220159E-1,-2.8752342E-1,-1.4392579E-1,-3.2669732E-1,-2.2785665E-1,-2.8821835E-1,-4.6172103E-1,-4.1311267E-1,-2.2548148E-1,-3.0078432E-1,-9.133138E-2,-3.295715E-1,-1.645647E-1,-3.8291436E-1],"split_indices":[0,1,0,0,6,0,4,4,5,0,0,5,5,5,0,3,0,4,6,5,1,5,0,2,2,4,4,0,0,5,5,0,2,5,3,5,1,5,4,2,2,0,5,2,1,1,2,0,4,4,2,0,0,5,5,0,4,5,2,4,6,1,0,0,0,0,0,0,0,0,0,0,0,0,0,0,0,0,0,0,0,0,0,0,0,0,0,0,0,0,0,0,0,0,0,0,0,0,0,0,0,0,0,0,0,0,0,0,0,0,0,0,0,0,0,0,0,0,0,0,0,0,0],"split_type":[1,1,1,1,1,1,1,1,1,1,1,1,1,1,1,1,1,1,1,1,1,1,1,0,0,1,1,1,1,1,1,1,0,1,1,1,1,1,1,0,0,1,1,0,1,1,0,1,1,1,0,1,1,1,1,0,1,1,0,1,1,1,0,0,0,0,0,0,0,0,0,0,0,0,0,0,0,0,0,0,0,0,0,0,0,0,0,0,0,0,0,0,0,0,0,0,0,0,0,0,0,0,0,0,0,0,0,0,0,0,0,0,0,0,0,0,0,0,0,0,0,0,0],"sum_hessian":[4.07018E5,3.36882E5,7.0136E4,1.87926E5,1.48956E5,4.0576E4,2.956E4,7.4605E4,1.13321E5,2.9616E4,1.1934E5,1.4663E4,2.5913E4,7.939E3,2.1621E4,2.0388E4,5.4217E4,4.1999E4,7.1322E4,9.786E3,1.983E4,3.724E4,8.21E4,6.761E3,7.902E3,1.2113E4,1.38E4,8.59E2,7.08E3,3.426E3,1.8195E4,1.2197E4,8.191E3,3.782E3,5.0435E4,2.398E3,3.9601E4,8.017E3,6.3305E4,6.02E3,3.766E3,7.599E3,1.2231E4,1.6182E4,2.1058E4,6.7995E4,1.4105E4,6.677E3,8.4E1,1.314E3,6.588E3,8.78E3,3.333E3,2.14E3,1.166E4,7.63E2,9.6E1,6.324E3,7.56E2,1.056E3,2.37E3,8.03E2,1.7392E4,6.938E3,5.259E3,3.63E2,7.828E3,2.319E3,1.463E3,3.3236E4,1.7199E4,4.89E2,1.909E3,2.6249E4,1.3352E4,3.111E3,4.906E3,2.7678E4,3.5627E4,2.626E3,3.394E3,1.25E2,3.641E3,2.434E3,5.165E3,7.679E3,4.552E3,1.5658E4,5.24E2,9.072E3,1.1986E4,3.7088E4,3.0907E4,6.483E3,7.622E3,1.638E3,5.039E3,4.2E1,4.2E1,3.2E1,1.282E3,4.03E2,6.185E3,4.476E3,4.304E3,2.781E3,5.52E2,1.67E2,1.973E3,4.994E3,6.666E3,5.8E1,3.8E1,3.406E3,2.918E3,3.82E2,3.74E2,5.58E2,4.98E2,2.8E1,2.342E3,1.4E2,6.63E2],"tree_param":{"num_deleted":"0","num_feature":"7","num_nodes":"123","size_leaf_vector":"1"}},{"base_weights":[1.5660396E-7,1.115705E-1,-5.3589606E-1,3.1871518E-1,2.7524699E-3,-3.816107E-1,-7.476582E-1,5.596593E-1,2.1977748E-1,8.288054E-2,-2.8454146E-1,-8.700499E-2,-4.3781283E-1,-4.5061556E-1,-8.4004325E-1,1.1182097E0,4.32906E-1,4.2735735E-1,1.1324731E-1,2.5302017E-1,-5.428188E-2,2.137487E-2,-4.4297618E-1,2.2915831E-1,-4.5093527E-1,-3.4849027E-1,-5.5408424E-1,9.050537E-1,-6.3993084E-1,-7.0398086E-1,-8.7253964E-1,6.490409E-1,1.5460951E0,7.113388E-1,2.7955773E-1,6.2693286E-1,1.4905229E-1,2.7806127E-1,-2.6482552E-2,4.6545014E-1,1.3406645E-1,7.2478294E-2,-2.0973575E-1,-4.9135283E-2,1.3078711E0,-3.1160286E-1,-6.453974E-1,3.0689517E-1,-1.0142323E0,-2.8894696E-1,-6.645431E-1,-2.027115E-1,-4.3319035E-1,-5.13279E-1,-8.8038784E-1,3.252723E-1,-5.156068E-1,-5.8600765E-1,-1.0237424E0,-5.055235E-1,-7.4744636E-1,-8.059094E-1,-2.6267084E-1,3.3689275E-1,7.85633E-2,1.5800537E0,3.516363E-1,1.7187369E0,2.0843664E-1,1.328618E-1,-1.4905707E-3,5.9767985E-1,1.7301174E-1,2.3624782E-1,1.4401193E-2,2.1005647E-1,5.466886E-2,4.853602E-3,-1.6152167E-1,2.17984E-1,9.5231466E-2,1.6794695E-1,1.893919E-2,2.719983E-1,1.3924045E-3,8.1158334E-1,-6.5779254E-2,1.1394465E-2,-2.6735142E-1,1.3343393E0,3.2588936E-2,-4.7741786E-2,-1.1289358E-1,-5.7674523E-2,-2.1046184E-1,1.7015383E-1,-1.8898977E-2,6.759552E-2,-4.55007E-1,-3.3036694E-2,-1.3303033E-1,1.3857268E-1,-2.1721786E-1,-3.067233E-2,-1.1875779E-1,-1.12541206E-1,-1.8837656E-1,-1.5729962E-1,1.5776984E-1,-2.0973495E-1,-3.140546E-1,-1.7672786E-1,8.051351E-2,-1.2823369E-1,-1.9423427E-1,-3.2356638E-1,-2.8950936E-1,-7.928956E-2,-2.3687066E-1,-1.7108296E-1,-2.3363547E-1,-1.1554543E-1,-2.6821303E-1],"categories":[3,5,7,9,11,12,15,19,23,25,26,28,0,1,5,6,7,11,12,23,4,6,9,10,11,12,13,14,15,16,17,18,19,20,21,22,23,24,25,28,29,4,0,1,2,5,6,1,2,5,6,7,9,10,0,2,3,4,5,7,8,9,10,11,12,15,17,18,19,20,21,22,23,24,25,26,27,28,29,0,1,4,1,2,3,4,5,6,7,9,11,12,13,15,17,18,19,20,23,24,25,26,27,28,29,0,3,4,5,6,7,8,9,10,11,13,14,15,17,18,19,20,21,22,25,26,27,28,0,1,4,5,7,8,9,10,12,14,15,16,17,18,19,21,24,26,3,7,10,11,12,13,15,16,18,20,21,22,24,25,27,0,1,2,3,4,5,6,7,8,9,10,11,12,13,14,15,16,17,18,19,20,21,22,23,24,25,26,27,28,30,7,23,1,2,5,6,8,9,10,11,1,3,4,5,6,7,9,10,11,12,13,14,15,17,18,19,20,23,24,25,26,28,29,0,1,2,3,5,7,9,11,12,15,16,18,19,20,22,23,24,25,26,27,28,29,3,8,9,10,11,12,13,14,16,17,18,19,20,21,22,23,24,25,26,28,30,3,5,6,9,12,13,14,15,18,19,20,21,22,23,25,26,27,28,30,0,6,8,10,13,17,21,0,1,4,8,16,17,19,24,3,15,25,26,28,28,11,12,23,0,1,2,5,6,5,6,14,16,17,18,20,21,23,24,25,27,28,29,30,0,1,2,3,4,5,10,11,0,1,2,3,4,5,6,7,8,9,10,11,12,13,14,15,16,17,18,19,20,21,22,23,24,25,26,28,29,30,1,3,4,5,6,7,9,11,12,13,14,15,16,17,18,19,20,22,23,25,26,27,28,29,0,1,2,4,5,6,7,8,9,10,11,0,1,2,3,4,5,7,9,10,11,0,1,2,3,4,5,7,8,10,11,12,13,15,17,18,19,20,21,22,23,24,25,26,27,28,29,30,2,5,11,1,2,3,4,5,6,7,8,9,11,12,13,15,16,17,18,19,20,21,22,23,24,25,26,27,28,29,0,1,2,3,4,5,6,7,9,10,11,0,1,2,3,5,7,8,9,10,11,0,1,2,3,5,6,7,8,9,10,11,0,1,3,10,11,0,1,2,3,4,5,6,7,8,9,10,11,12,13,14,15,16,17,18,19,20,21,22,23,24,25,26,27,28,30,1,16,20,27,0,1,5,6,7,8,9,10,11,0,1,2,4,6,7,8,9,10,11,12,13,14,15,16,17,18,20,21,22,23,24,25,27,28,29,5,15,28,0,1,4,5,6,9,11,0,1,2,3,4,6,7,8,10,11,0,1,4,5,6,11,7,10,13,16,18,20,21,22,25,27,2,3,6,8,9,10,11,12,13,14,15,16,17,18,19,20,21,23,24,28,30,1,4,5,6,9,11,12,14,17,19,22,23,24,25,26,28,0,3,4,5,6,7,8,9,10,11,12,13,15,16,19,20,21,22,25,26,27,28,29,30,1,3],"categories_nodes":[0,1,2,3,4,5,6,7,8,9,10,11,12,13,14,16,17,18,19,20,22,24,25,26,27,28,29,30,31,33,34,35,36,37,38,39,40,41,42,43,44,45,46,47,48,49,50,52,54,57,59,60,61],"categories_segments":[0,12,16,20,41,42,47,54,79,82,105,128,146,161,191,193,201,224,246,267,286,293,301,306,307,309,310,315,330,338,368,392,403,413,440,443,470,481,491,502,507,537,541,550,576,579,586,596,602,612,633,649,673],"categories_sizes":[12,4,4,21,1,5,7,25,3,23,23,18,15,30,2,8,23,22,21,19,7,8,5,1,2,1,5,15,8,30,24,11,10,27,3,27,11,10,11,5,30,4,9,26,3,7,10,6,10,21,16,24,2],"default_left":[1,1,1,1,1,1,1,1,1,1,1,1,1,1,1,0,1,1,1,1,1,0,1,0,1,1,1,1,1,1,1,1,0,1,1,1,1,1,1,1,1,1,1,1,1,1,1,1,1,1,1,0,1,0,1,0,0,1,0,1,1,1,0,0,0,0,0,0,0,0,0,0,0,0,0,0,0,0,0,0,0,0,0,0,0,0,0,0,0,0,0,0,0,0,0,0,0,0,0,0,0,0,0,0,0,0,0,0,0,0,0,0,0,0,0,0,0,0,0,0,0,0,0],"id":2,"left_children":[1,3,5,7,9,11,13,15,17,19,21,23,25,27,29,31,33,35,37,39,41,43,45,47,49,51,53,55,57,59,61,63,65,67,69,71,73,75,77,79,81,83,85,87,89,91,93,95,97,99,101,103,105,107,109,-1,111,113,115,117,119,121,-1,-1,-1,-1,-1,-1,-1,-1,-1,-1,-1,-1,-1,-1,-1,-1,-1,-1,-1,-1,-1,-1,-1,-1,-1,-1,-1,-1,-1,-1,-1,-1,-1,-1,-1,-1,-1,-1,-1,-1,-1,-1,-1,-1,-1,-1,-1,-1,-1,-1,-1,-1,-1,-1,-1,-1,-1,-1,-1,-1,-1],"loss_changes":[2.4335775E4,7.593704E3,2.2912168E3,2.7656855E3,5.084312E3,6.7181445E2,8.1084375E2,2.39058E3,1.8188105E3,4.0301794E3,2.3345078E3,7.4823254E2,3.5370898E2,1.8009712E3,9.9078125E1,1.2528838E3,1.1751694E3,1.5492749E3,1.2518181E3,1.947748E3,1.8841433E3,1.4909003E3,8.4364014E2,3.366786E2,1.0440979E2,2.3789746E2,1.9664844E2,2.1948419E2,1.2680713E2,3.716284E1,2.9677734E0,5.4669006E2,4.53835E3,8.0786426E2,8.249375E2,1.1128804E3,7.5160693E2,1.0087743E3,6.424762E2,1.0693223E3,1.4923367E3,2.9804502E3,1.1934651E3,1.1430596E3,3.2152788E3,1.8980713E2,3.1756836E2,3.1543915E2,1.2802017E2,4.749579E1,8.769061E1,1.3744843E2,1.3756909E2,1.5143262E2,4.8875122E1,0E0,5.746462E0,5.23302E1,1.3952026E0,5.3578598E1,1.9366333E1,2.9470459E1,0E0,0E0,0E0,0E0,0E0,0E0,0E0,0E0,0E0,0E0,0E0,0E0,0E0,0E0,0E0,0E0,0E0,0E0,0E0,0E0,0E0,0E0,0E0,0E0,0E0,0E0,0E0,0E0,0E0,0E0,0E0,0E0,0E0,0E0,0E0,0E0,0E0,0E0,0E0,0E0,0E0,0E0,0E0,0E0,0E0,0E0,0E0,0E0,0E0,0E0,0E0,0E0,0E0,0E0,0E0,0E0,0E0,0E0,0E0,0E0,0E0],"parents":[2147483647,0,0,1,1,2,2,3,3,4,4,5,5,6,6,7,7,8,8,9,9,10,10,11,11,12,12,13,13,14,14,15,15,16,16,17,17,18,18,19,19,20,20,21,21,22,22,23,23,24,24,25,25,26,26,27,27,28,28,29,29,30,30,31,31,32,32,33,33,34,34,35,35,36,36,37,37,38,38,39,39,40,40,41,41,42,42,43,43,44,44,45,45,46,46,47,47,48,48,49,49,50,50,51,51,52,52,53,53,54,54,56,56,57,57,58,58,59,59,60,60,61,61],"right_children":[2,4,6,8,10,12,14,16,18,20,22,24,26,28,30,32,34,36,38,40,42,44,46,48,50,52,54,56,58,60,62,64,66,68,70,72,74,76,78,80,82,84,86,88,90,92,94,96,98,100,102,104,106,108,110,-1,112,114,116,118,120,122,-1,-1,-1,-1,-1,-1,-1,-1,-1,-1,-1,-1,-1,-1,-1,-1,-1,-1,-1,-1,-1,-1,-1,-1,-1,-1,-1,-1,-1,-1,-1,-1,-1,-1,-1,-1,-1,-1,-1,-1,-1,-1,-1,-1,-1,-1,-1,-1,-1,-1,-1,-1,-1,-1,-1,-1,-1,-1,-1,-1,-1],"split_conditions":[NaN,NaN,NaN,NaN,NaN,NaN,NaN,NaN,NaN,NaN,NaN,NaN,NaN,NaN,NaN,1.94E0,NaN,NaN,NaN,NaN,NaN,1.8669E1,NaN,1.28E1,NaN,NaN,NaN,NaN,NaN,NaN,NaN,NaN,2E0,NaN,NaN,NaN,NaN,NaN,NaN,NaN,NaN,NaN,NaN,NaN,NaN,NaN,NaN,NaN,NaN,NaN,NaN,4.05E0,NaN,2E1,NaN,3.252723E-1,1.0351E1,NaN,2.95E-1,NaN,NaN,NaN,-2.6267084E-1,3.3689275E-1,7.85633E-2,1.5800537E0,3.516363E-1,1.7187369E0,2.0843664E-1,1.328618E-1,-1.4905707E-3,5.9767985E-1,1.7301174E-1,2.3624782E-1,1.4401193E-2,2.1005647E-1,5.466886E-2,4.853602E-3,-1.6152167E-1,2.17984E-1,9.5231466E-2,1.6794695E-1,1.893919E-2,2.719983E-1,1.3924045E-3,8.1158334E-1,-6.5779254E-2,1.1394465E-2,-2.6735142E-1,1.3343393E0,3.2588936E-2,-4.7741786E-2,-1.1289358E-1,-5.7674523E-2,-2.1046184E-1,1.7015383E-1,-1.8898977E-2,6.759552E-2,-4.55007E-1,-3.3036694E-2,-1.3303033E-1,1.3857268E-1,-2.1721786E-1,-3.067233E-2,-1.1875779E-1,-1.12541206E-1,-1.8837656E-1,-1.5729962E-1,1.5776984E-1,-2.0973495E-1,-3.140546E-1,-1.7672786E-1,8.051351E-2,-1.2823369E-1,-1.9423427E-1,-3.2356638E-1,-2.8950936E-1,-7.928956E-2,-2.3687066E-1,-1.7108296E-1,-2.3363547E-1,-1.1554543E-1,-2.6821303E-1],"split_indices":[0,6,0,5,1,6,4,0,1,0,5,5,5,5,0,2,4,0,0,5,5,2,0,2,5,0,0,0,0,6,5,4,2,5,0,4,4,5,4,0,4,4,4,4,5,0,4,0,0,4,4,2,4,2,5,0,2,5,2,5,5,1,0,0,0,0,0,0,0,0,0,0,0,0,0,0,0,0,0,0,0,0,0,0,0,0,0,0,0,0,0,0,0,0,0,0,0,0,0,0,0,0,0,0,0,0,0,0,0,0,0,0,0,0,0,0,0,0,0,0,0,0,0],"split_type":[1,1,1,1,1,1,1,1,1,1,1,1,1,1,1,0,1,1,1,1,1,0,1,0,1,1,1,1,1,1,1,1,0,1,1,1,1,1,1,1,1,1,1,1,1,1,1,1,1,1,1,0,1,0,1,0,0,1,0,1,1,1,0,0,0,0,0,0,0,0,0,0,0,0,0,0,0,0,0,0,0,0,0,0,0,0,0,0,0,0,0,0,0,0,0,0,0,0,0,0,0,0,0,0,0,0,0,0,0,0,0,0,0,0,0,0,0,0,0,0,0,0,0],"sum_hessian":[4.07018E5,3.36882E5,7.0136E4,1.16022E5,2.2086E5,4.0576E4,2.956E4,3.3772E4,8.225E4,1.72695E5,4.8165E4,6.501E3,3.4075E4,7.014E3,2.2546E4,6.245E3,2.7527E4,2.7894E4,5.4356E4,7.7081E4,9.5614E4,1.6434E4,3.1731E4,3.479E3,3.022E3,1.9273E4,1.4802E4,8.59E2,6.155E3,4.351E3,1.8195E4,2.98E3,3.265E3,9.775E3,1.7752E4,1.6244E4,1.165E4,2.4939E4,2.9417E4,2.7668E4,4.9413E4,5.2668E4,4.2946E4,1.5581E4,8.53E2,1.9244E4,1.2487E4,3.275E3,2.04E2,1.72E3,1.302E3,7.084E3,1.2189E4,1.3159E4,1.643E3,7.63E2,9.6E1,5.399E3,7.56E2,7.84E2,3.567E3,8.03E2,1.7392E4,1.339E3,1.641E3,2.97E2,2.968E3,3.1E1,9.744E3,1.1278E4,6.474E3,5.75E2,1.5669E4,1.591E3,1.0059E4,4.613E3,2.0326E4,2.7155E4,2.262E3,1.0007E4,1.7661E4,7.056E3,4.2357E4,3.96E3,4.8708E4,1.39E2,4.2807E4,1.4121E4,1.46E3,2.35E2,6.18E2,5.735E3,1.3509E4,1.377E3,1.111E4,1.922E3,1.353E3,5.9E1,1.45E2,7.98E2,9.22E2,6.5E1,1.237E3,4.661E3,2.423E3,9.392E3,2.797E3,1.3021E4,1.38E2,7.89E2,8.54E2,8.8E1,8E0,1.51E3,3.889E3,3.82E2,3.74E2,4.25E2,3.59E2,5.39E2,3.028E3,1.4E2,6.63E2],"tree_param":{"num_deleted":"0","num_feature":"7","num_nodes":"123","size_leaf_vector":"1"}},{"base_weights":[1.0441559E-5,7.496783E-2,-3.9256245E-1,1.8074818E-1,-5.4252893E-2,-2.8417513E-1,-5.234309E-1,5.9157825E-1,1.3172741E-1,1.7686747E-1,-1.3528374E-1,-7.1195446E-2,-3.23333E-1,-2.8091657E-1,-5.7951224E-1,1.0560514E0,3.3817387E-1,2.2797482E-1,-2.6088309E-2,4.658956E-1,-3.9392613E-2,6.0547207E-2,-1.8278201E-1,2.2052892E-1,-2.8128004E-1,-2.4707678E-1,-4.1775465E-1,6.467852E-1,-4.465953E-1,-4.814333E-1,-6.108132E-1,1.3484215E0,1.6495606E-1,5.2847874E-1,1.416097E-1,6.9797885E-1,1.7102377E-1,8.295077E-2,-3.823326E-1,3.792783E-1,2.5243266E0,1.0355111E0,-1.0828395E-1,1.6061218E-1,-1.573963E-1,-3.475405E-2,-2.4034604E-1,3.1254175E-1,-8.37815E-1,-1.3782257E-1,-4.107677E-1,-1.5082005E-1,-3.3886316E-1,-1.2831585E-1,-4.482151E-1,2.278183E-1,-4.5043138E-1,-2.8495228E-1,-5.4557467E-1,-4.0082416E-1,-5.403711E-1,-5.646139E-1,-1.838741E-1,3.8380727E-1,9.7799754E-1,1.24939695E-1,-6.722415E-2,1.4902246E-1,4.9464354E-1,1.1033017E-1,5.246378E-3,8.185985E-1,1.851545E-1,1.1026017E-1,1.7490596E-2,7.359043E-2,-2.4479467E-2,-4.889248E-2,-1.5664539E-1,1.4037047E-1,-1.034789E-1,9.8290527E-1,6.2028503E-1,1.0976375E0,-3.8618147E-2,4.4314686E-2,-7.719311E-2,1.3936661E-1,1.8135136E-2,-5.224324E-4,-1.7935911E-1,1.18200645E-1,-3.4507945E-2,-3.7660066E-2,-1.0335442E-1,4.9265915E-1,4.6096455E-2,1.042169E-1,-3.072032E-1,-9.618377E-2,5.944576E-3,-9.005998E-3,-1.3956402E-1,-4.831587E-2,5.779914E-1,-6.8158366E-2,-1.1548476E-1,-5.865558E-2,7.0443696E-1,-1.1150273E-1,-1.5975598E-1,-5.329815E-2,-2.176923E-1,-7.3741175E-2,-2.3631813E-1,-1.4557827E-1,-2.1522889E-1,-1.314408E-1,2.3064137E-2,-1.4985895E-1,-1.7640263E-1,-8.112765E-2,-1.878703E-1],"categories":[3,5,7,9,11,12,15,23,25,26,28,0,4,7,11,12,23,0,1,2,3,4,5,6,7,8,9,11,12,13,14,15,16,17,18,19,20,22,23,24,25,26,27,28,29,0,1,2,4,6,8,10,18,19,20,21,22,27,29,0,1,2,5,6,1,2,3,5,6,7,9,10,11,0,4,5,6,8,9,10,11,1,2,5,9,11,3,6,8,9,10,11,13,15,18,19,21,22,23,24,25,27,28,30,0,1,2,5,6,0,1,2,3,4,5,7,8,9,10,12,14,16,17,18,19,20,21,24,25,26,28,2,3,7,9,11,12,13,14,15,16,17,18,21,22,23,24,25,0,1,2,3,4,5,6,7,8,9,10,11,12,13,14,15,16,17,18,19,20,21,22,23,24,25,26,27,28,30,7,23,12,17,18,19,20,21,22,23,24,25,27,29,30,2,3,4,5,7,8,9,14,18,19,22,23,26,28,29,1,2,3,4,5,7,8,9,10,11,12,13,14,15,16,17,18,19,20,21,22,23,24,25,26,27,28,29,7,9,13,14,15,16,17,19,20,21,22,23,24,0,1,7,8,10,13,14,15,17,19,21,22,23,24,25,28,0,1,2,4,6,7,9,10,11,0,1,4,5,8,10,16,17,18,19,24,26,1,3,4,5,6,7,10,0,1,2,4,5,6,7,8,9,10,11,12,2,3,6,7,11,13,14,15,17,19,20,21,23,24,25,27,28,0,4,5,6,7,8,9,11,12,13,14,16,17,18,21,22,24,28,5,6,14,16,17,18,20,21,23,24,25,27,28,29,30,0,1,2,3,4,5,6,7,8,9,10,11,13,14,15,16,20,21,22,23,25,26,27,28,0,1,2,3,5,7,8,9,0,1,2,4,5,6,7,8,9,10,11,0,1,2,4,1,0,4,6,14,27,0,1,2,4,10,11,0,1,2,3,4,5,6,7,8,9,10,11,12,13,14,15,17,18,19,20,21,22,23,24,25,26,27,28,30,0,1,2,3,4,5,7,8,10,11,12,13,14,15,16,17,18,19,20,21,22,23,24,25,26,27,28,29,30,0,1,5,6,1,3,5,7,9,10,1,2,4,11,1,3,4,5,7,8,9,10,11,12,13,14,15,16,17,19,20,21,22,23,24,25,26,27,28,29,0,5,6,9,10,13,14,17,18,19,20,21,22,23,24,25,26,0,1,2,3,4,6,7,8,9,10,11,12,13,14,15,16,17,18,19,20,21,22,23,24,25,26,27,28,29,5,9,15,25,28,5,15,25,26,28,1,4,10,19,20,26,27,28,29,30,3,25,28,0,3,2,23,3,7,10,11,1,3],"categories_nodes":[0,1,2,3,4,5,6,7,8,9,10,11,12,13,14,15,16,17,18,21,22,24,25,26,27,28,29,30,32,34,35,36,37,38,39,40,41,42,43,44,45,46,47,48,50,52,54,56,57,58,60,61],"categories_segments":[0,11,13,17,45,59,64,73,81,86,104,109,131,148,178,180,193,208,236,249,265,274,286,293,303,305,322,340,355,379,387,398,402,403,408,414,443,472,476,482,486,512,529,558,563,568,578,581,583,584,585,589],"categories_sizes":[11,2,4,28,14,5,9,8,5,18,5,22,17,30,2,13,15,28,13,16,9,12,7,10,2,17,18,15,24,8,11,4,1,5,6,29,29,4,6,4,26,17,29,5,5,10,3,2,1,1,4,2],"default_left":[1,1,1,1,1,1,1,1,1,1,1,1,1,1,1,1,1,1,1,0,0,1,1,0,1,1,1,1,1,1,1,0,1,0,1,1,1,1,1,1,1,1,1,1,1,1,1,1,1,0,1,0,1,0,1,0,1,1,1,0,1,1,0,0,0,0,0,0,0,0,0,0,0,0,0,0,0,0,0,0,0,0,0,0,0,0,0,0,0,0,0,0,0,0,0,0,0,0,0,0,0,0,0,0,0,0,0,0,0,0,0,0,0,0,0,0,0,0,0,0,0,0,0],"id":3,"left_children":[1,3,5,7,9,11,13,15,17,19,21,23,25,27,29,31,33,35,37,39,41,43,45,47,49,51,53,55,57,59,61,63,65,67,69,71,73,75,77,79,81,83,85,87,89,91,93,95,97,99,101,103,105,107,109,-1,111,113,115,117,119,121,-1,-1,-1,-1,-1,-1,-1,-1,-1,-1,-1,-1,-1,-1,-1,-1,-1,-1,-1,-1,-1,-1,-1,-1,-1,-1,-1,-1,-1,-1,-1,-1,-1,-1,-1,-1,-1,-1,-1,-1,-1,-1,-1,-1,-1,-1,-1,-1,-1,-1,-1,-1,-1,-1,-1,-1,-1,-1,-1,-1,-1],"loss_changes":[1.1977067E4,4.6715864E3,9.2547363E2,3.784622E3,2.8810833E3,2.9767554E2,4.0188184E2,2.3575176E3,2.5502222E3,2.4961653E3,1.0595039E3,3.398973E2,2.1699829E2,8.539414E2,7.341016E1,1.8419819E3,4.8483374E2,2.791461E3,2.4707393E3,3.0464727E3,1.6917457E3,4.8493762E2,7.811196E2,2.2638104E2,5.983229E1,1.4734418E2,1.18700195E2,1.0437665E2,7.524927E1,2.740039E1,1.4194336E0,6.9870703E2,1.7112888E2,2.3335437E2,1.7903087E2,1.8475874E3,2.060484E3,1.3010228E3,4.5708643E2,1.0529333E3,2.3021094E2,4.2029453E3,8.190952E2,4.6389996E2,4.7971948E2,8.834687E2,7.8934375E2,4.5122052E2,4.1402206E1,4.412153E1,3.5102783E1,1.7345932E2,4.38573E1,2.141468E2,7.8440186E1,0E0,5.801546E0,3.5077988E1,2.9939148E1,4.3862976E1,6.2337646E0,1.4405548E1,0E0,0E0,0E0,0E0,0E0,0E0,0E0,0E0,0E0,0E0,0E0,0E0,0E0,0E0,0E0,0E0,0E0,0E0,0E0,0E0,0E0,0E0,0E0,0E0,0E0,0E0,0E0,0E0,0E0,0E0,0E0,0E0,0E0,0E0,0E0,0E0,0E0,0E0,0E0,0E0,0E0,0E0,0E0,0E0,0E0,0E0,0E0,0E0,0E0,0E0,0E0,0E0,0E0,0E0,0E0,0E0,0E0,0E0,0E0,0E0,0E0],"parents":[2147483647,0,0,1,1,2,2,3,3,4,4,5,5,6,6,7,7,8,8,9,9,10,10,11,11,12,12,13,13,14,14,15,15,16,16,17,17,18,18,19,19,20,20,21,21,22,22,23,23,24,24,25,25,26,26,27,27,28,28,29,29,30,30,31,31,32,32,33,33,34,34,35,35,36,36,37,37,38,38,39,39,40,40,41,41,42,42,43,43,44,44,45,45,46,46,47,47,48,48,49,49,50,50,51,51,52,52,53,53,54,54,56,56,57,57,58,58,59,59,60,60,61,61],"right_children":[2,4,6,8,10,12,14,16,18,20,22,24,26,28,30,32,34,36,38,40,42,44,46,48,50,52,54,56,58,60,62,64,66,68,70,72,74,76,78,80,82,84,86,88,90,92,94,96,98,100,102,104,106,108,110,-1,112,114,116,118,120,122,-1,-1,-1,-1,-1,-1,-1,-1,-1,-1,-1,-1,-1,-1,-1,-1,-1,-1,-1,-1,-1,-1,-1,-1,-1,-1,-1,-1,-1,-1,-1,-1,-1,-1,-1,-1,-1,-1,-1,-1,-1,-1,-1,-1,-1,-1,-1,-1,-1,-1,-1,-1,-1,-1,-1,-1,-1,-1,-1,-1,-1],"split_conditions":[NaN,NaN,NaN,NaN,NaN,NaN,NaN,NaN,NaN,NaN,NaN,NaN,NaN,NaN,NaN,NaN,NaN,NaN,NaN,1.8669E1,6.2E-1,NaN,NaN,1.28E1,NaN,NaN,NaN,NaN,NaN,NaN,NaN,9.5E0,NaN,1.28E1,NaN,NaN,NaN,NaN,NaN,NaN,NaN,NaN,NaN,NaN,NaN,NaN,NaN,NaN,NaN,2.835E0,NaN,2E1,NaN,2.2E1,NaN,2.278183E-1,NaN,NaN,NaN,8.42E0,NaN,NaN,-1.838741E-1,3.8380727E-1,9.7799754E-1,1.24939695E-1,-6.722415E-2,1.4902246E-1,4.9464354E-1,1.1033017E-1,5.246378E-3,8.185985E-1,1.851545E-1,1.1026017E-1,1.7490596E-2,7.359043E-2,-2.4479467E-2,-4.889248E-2,-1.5664539E-1,1.4037047E-1,-1.034789E-1,9.8290527E-1,6.2028503E-1,1.0976375E0,-3.8618147E-2,4.4314686E-2,-7.719311E-2,1.3936661E-1,1.8135136E-2,-5.224324E-4,-1.7935911E-1,1.18200645E-1,-3.4507945E-2,-3.7660066E-2,-1.0335442E-1,4.9265915E-1,4.6096455E-2,1.042169E-1,-3.072032E-1,-9.618377E-2,5.944576E-3,-9.005998E-3,-1.3956402E-1,-4.831587E-2,5.779914E-1,-6.8158366E-2,-1.1548476E-1,-5.865558E-2,7.0443696E-1,-1.1150273E-1,-1.5975598E-1,-5.329815E-2,-2.176923E-1,-7.3741175E-2,-2.3631813E-1,-1.4557827E-1,-2.1522889E-1,-1.314408E-1,2.3064137E-2,-1.4985895E-1,-1.7640263E-1,-8.112765E-2,-1.878703E-1],"split_indices":[0,1,0,0,0,6,4,4,4,5,6,5,5,5,0,5,5,0,5,2,2,5,4,2,5,4,4,0,5,5,5,2,5,2,4,4,1,3,0,4,5,5,6,4,4,0,5,0,0,2,0,2,5,2,0,0,6,3,0,2,4,1,0,0,0,0,0,0,0,0,0,0,0,0,0,0,0,0,0,0,0,0,0,0,0,0,0,0,0,0,0,0,0,0,0,0,0,0,0,0,0,0,0,0,0,0,0,0,0,0,0,0,0,0,0,0,0,0,0,0,0,0,0],"split_type":[1,1,1,1,1,1,1,1,1,1,1,1,1,1,1,1,1,1,1,0,0,1,1,0,1,1,1,1,1,1,1,0,1,0,1,1,1,1,1,1,1,1,1,1,1,1,1,1,1,0,1,0,1,0,1,0,1,1,1,0,1,1,0,0,0,0,0,0,0,0,0,0,0,0,0,0,0,0,0,0,0,0,0,0,0,0,0,0,0,0,0,0,0,0,0,0,0,0,0,0,0,0,0,0,0,0,0,0,0,0,0,0,0,0,0,0,0,0,0,0,0,0,0],"sum_hessian":[4.07018E5,3.41763E5,6.5255E4,1.87926E5,1.53837E5,3.5695E4,2.956E4,2.0032E4,1.67894E5,3.9934E4,1.13903E5,5.544E3,3.0151E4,5.553E3,2.4007E4,7.07E3,1.2962E4,1.0429E5,6.3604E4,1.7091E4,2.2843E4,2.2234E4,9.1669E4,2.321E3,3.223E3,1.6682E4,1.3469E4,8.41E2,4.712E3,5.812E3,1.8195E4,5.323E3,1.747E3,6.585E3,6.377E3,1.127E4,9.302E4,4.8699E4,1.4905E4,1.6402E4,6.89E2,1.375E3,2.1468E4,1.5238E4,6.996E3,2.5667E4,6.6002E4,2.136E3,1.85E2,1.53E3,1.693E3,8.144E3,8.538E3,1.283E3,1.2186E4,7.63E2,7.8E1,1.791E3,2.921E3,2.458E3,3.354E3,8.03E2,1.7392E4,5.139E3,1.84E2,1.061E3,6.86E2,6.405E3,1.8E2,2.259E3,4.118E3,4.3E2,1.084E4,3.3907E4,5.9113E4,2.4513E4,2.4186E4,5.803E3,9.102E3,1.4614E4,1.788E3,2.58E2,4.31E2,4.22E2,9.53E2,7.899E3,1.3569E4,3.776E3,1.1462E4,5.17E3,1.826E3,4.047E3,2.162E4,3.1398E4,3.4604E4,2.27E2,1.909E3,2.5E1,1.6E2,7.08E2,8.22E2,2.12E2,1.481E3,8.105E3,3.9E1,2.496E3,6.042E3,1.25E3,3.3E1,6.39E3,5.796E3,4E1,3.8E1,1.663E3,1.28E2,2.165E3,7.56E2,2.28E3,1.78E2,1.812E3,1.542E3,1.4E2,6.63E2],"tree_param":{"num_deleted":"0","num_feature":"7","num_nodes":"123","size_leaf_vector":"1"}},{"base_weights":[1.9492203E-5,5.0362717E-2,-2.8912333E-1,2.4836493E-1,7.0551233E-3,-2.4413818E-1,-4.272357E-1,5.654755E-1,1.868901E-1,5.982463E-2,-1.6036373E-1,-1.0666413E-1,-2.759513E-1,-3.955643E-1,-1.2870626E-1,1.8932563E0,3.7278315E-1,2.9053015E-1,-3.0046029E-2,1.3670708E-1,-5.1124845E-2,-6.0541175E-2,-2.962802E-1,7.0289426E-2,-3.466816E-1,-2.1924993E-1,-3.2683858E-1,-5.696197E-2,-1.3159409E-1,3.5698092E0,1.1491363E0,7.802193E-1,1.8045458E-1,4.2200714E-1,1.052444E-1,4.8131403E-2,-2.0258418E-1,2.499875E-1,-4.2290837E-2,1.3074825E0,-7.4556865E-2,2.1726052E-1,-1.355754E-1,-5.7291996E-1,-1.9115907E-1,2.3369192E-1,-3.6594903E-1,-1.8703851E-1,-4.2208987E-1,-1.6473053E-1,-3.0191532E-1,-2.8650755E-1,-5.103671E-1,2.0175571E0,6.6235065E-1,4.3891352E-1,1.0399647E-1,1.2773085E-1,3.8717338E-1,8.114241E-2,-2.815743E-2,2.0409353E-1,7.9971135E-2,4.4367827E-2,-1.7551851E-1,-1.3313964E-2,4.4024635E-2,-2.4382167E-2,-1.7906252E-1,2.0068093E-1,5.653487E-2,-4.6863053E-2,7.344561E-2,1.256288E0,-1.5325078E-1,1.5073096E-2,-5.605683E-2,2.620816E-1,1.6016139E-2,-1.2177696E-2,-7.816245E-2,-7.5436085E-2,-1.9433603E-1,2.9065967E-1,-7.175856E-2,1.252224E-1,-2.768701E-2,-2.7079642E-2,-1.3801454E-1,2.0055948E-1,-6.076193E-2,-3.4678698E-2,-1.2921989E-1,-2.0129684E-2,-8.307556E-2,-6.34133E-2,-1.0440106E-1,-1.705939E-1,-8.158474E-2,-1.1738624E-1,-1.9615215E-1],"categories":[3,5,7,11,12,15,23,25,26,28,0,1,2,5,6,7,0,1,2,3,4,5,6,7,8,9,10,11,12,15,17,18,19,20,21,22,23,24,25,26,27,28,29,4,0,1,2,3,4,5,6,7,8,9,10,12,13,14,15,16,17,18,19,20,21,22,24,25,26,27,28,16,17,18,20,21,23,24,25,27,28,29,30,0,1,3,4,5,7,8,9,10,11,12,13,15,16,17,18,19,20,21,22,24,25,27,28,29,30,4,1,2,3,4,5,7,9,11,12,13,15,17,18,19,20,23,24,25,26,28,29,0,6,8,10,13,20,27,0,1,2,3,4,5,6,10,11,0,5,6,1,3,0,2,4,0,1,2,3,4,6,7,10,5,7,14,15,16,17,18,21,23,24,25,28,30,0,1,2,5,6,8,10,12,13,14,16,19,21,24,25,28,29,10,13,14,16,17,18,19,20,21,22,23,24,27,0,1,2,3,4,5,6,7,8,9,10,11,12,13,14,15,17,18,19,20,21,22,23,24,25,26,27,28,29,30,4,5,6,7,8,9,10,11,12,13,14,15,16,18,19,20,21,22,24,25,26,27,28,29,30,11,12,15,28,11,23,26,0,1,4,7,9,14,15,16,17,20,24,6,12,18,19,21,22,25,0,1,2,3,4,5,6,8,9,10,11,0,1,2,3,4,5,7,8,9,11,2,5,6,8,9,10,14,16,17,20,21,23,24,25,26,27,28,29,1,3,4,5,7,9,11,12,13,14,15,16,17,18,19,20,21,22,23,24,25,26,27,28,29,0,0,6,10,0,0,1,2,6,0,3,0,1,2,3,7,9,10,1,2,3,4,5,6,7,8,10,11,12,16,17,18,19,20,21,22,24,25,26,27,28,1,2,4,5,6,7,8,9,10,11,0,2,6,0,1,3,5,6,0,1,2,3,5,6,0,1,2,4,5,6,5,11,12,15,23,0,3,4,5,6,7,8,11,3,5,25,28],"categories_nodes":[0,1,2,3,4,5,6,7,8,9,10,11,12,13,15,16,17,18,19,20,21,23,24,25,26,29,30,32,33,34,36,38,39,40,42,43,44,45,46,47,48,49,50,52],"categories_segments":[0,10,15,16,43,44,71,83,109,110,131,138,147,150,152,155,163,176,193,206,236,261,265,268,279,286,297,307,325,350,351,354,355,359,361,368,391,401,404,409,415,421,426,434],"categories_sizes":[10,5,1,27,1,27,12,26,1,21,7,9,3,2,3,8,13,17,13,30,25,4,3,11,7,11,10,18,25,1,3,1,4,2,7,23,10,3,5,6,6,5,8,4],"default_left":[1,1,1,1,1,1,1,1,1,1,1,1,1,1,0,1,1,1,1,1,1,1,0,1,1,1,1,0,0,1,1,0,1,1,1,0,1,0,1,1,1,0,1,1,1,1,1,1,1,1,1,0,1,0,0,0,0,0,0,0,0,0,0,0,0,0,0,0,0,0,0,0,0,0,0,0,0,0,0,0,0,0,0,0,0,0,0,0,0,0,0,0,0,0,0,0,0,0,0,0,0],"id":4,"left_children":[1,3,5,7,9,11,13,15,17,19,21,23,25,27,-1,29,31,33,35,37,39,41,43,45,47,49,51,-1,-1,53,55,57,59,61,63,65,67,69,71,73,75,77,79,81,83,85,87,89,91,93,95,97,99,-1,-1,-1,-1,-1,-1,-1,-1,-1,-1,-1,-1,-1,-1,-1,-1,-1,-1,-1,-1,-1,-1,-1,-1,-1,-1,-1,-1,-1,-1,-1,-1,-1,-1,-1,-1,-1,-1,-1,-1,-1,-1,-1,-1,-1,-1,-1,-1],"loss_changes":[5.9247393E3,2.9726248E3,3.749004E2,1.2127336E3,2.5129968E3,1.9909961E2,6.6845703E-1,2.583924E3,1.1717018E3,1.8448816E3,9.2488074E2,3.634993E2,1.06612305E2,7.041542E0,0E0,1.59277E3,6.912438E2,8.5906396E2,2.2727899E2,2.5904526E3,2.818347E3,8.1932776E2,8.393335E2,3.512942E2,4.364453E1,7.877997E1,1.4407227E2,0E0,0E0,1.6740879E3,2.2318518E2,5.1120667E2,1.480639E2,8.2803296E2,4.3106485E2,1.0579938E2,2.512584E2,2.0169731E3,1.6195415E3,7.862905E3,1.2196929E3,8.9902625E2,3.673199E2,1.9112256E2,1.1659026E3,2.1473743E2,3.479811E1,1.5612633E1,6.482727E0,1.1544891E2,2.8926819E1,6.54668E1,5.969452E1,0E0,0E0,0E0,0E0,0E0,0E0,0E0,0E0,0E0,0E0,0E0,0E0,0E0,0E0,0E0,0E0,0E0,0E0,0E0,0E0,0E0,0E0,0E0,0E0,0E0,0E0,0E0,0E0,0E0,0E0,0E0,0E0,0E0,0E0,0E0,0E0,0E0,0E0,0E0,0E0,0E0,0E0,0E0,0E0,0E0,0E0,0E0,0E0],"parents":[2147483647,0,0,1,1,2,2,3,3,4,4,5,5,6,6,7,7,8,8,9,9,10,10,11,11,12,12,13,13,15,15,16,16,17,17,18,18,19,19,20,20,21,21,22,22,23,23,24,24,25,25,26,26,29,29,30,30,31,31,32,32,33,33,34,34,35,35,36,36,37,37,38,38,39,39,40,40,41,41,42,42,43,43,44,44,45,45,46,46,47,47,48,48,49,49,50,50,51,51,52,52],"right_children":[2,4,6,8,10,12,14,16,18,20,22,24,26,28,-1,30,32,34,36,38,40,42,44,46,48,50,52,-1,-1,54,56,58,60,62,64,66,68,70,72,74,76,78,80,82,84,86,88,90,92,94,96,98,100,-1,-1,-1,-1,-1,-1,-1,-1,-1,-1,-1,-1,-1,-1,-1,-1,-1,-1,-1,-1,-1,-1,-1,-1,-1,-1,-1,-1,-1,-1,-1,-1,-1,-1,-1,-1,-1,-1,-1,-1,-1,-1,-1,-1,-1,-1,-1,-1],"split_conditions":[NaN,NaN,NaN,NaN,NaN,NaN,NaN,NaN,NaN,NaN,NaN,NaN,NaN,NaN,-1.2870626E-1,NaN,NaN,NaN,NaN,NaN,NaN,NaN,2.272E0,NaN,NaN,NaN,NaN,-5.696197E-2,-1.3159409E-1,NaN,NaN,1.94E0,NaN,NaN,NaN,1.28E1,NaN,6.3E-1,NaN,NaN,NaN,7.28E-1,NaN,NaN,NaN,NaN,NaN,NaN,NaN,NaN,NaN,2.95E-1,NaN,2.0175571E0,6.6235065E-1,4.3891352E-1,1.0399647E-1,1.2773085E-1,3.8717338E-1,8.114241E-2,-2.815743E-2,2.0409353E-1,7.9971135E-2,4.4367827E-2,-1.7551851E-1,-1.3313964E-2,4.4024635E-2,-2.4382167E-2,-1.7906252E-1,2.0068093E-1,5.653487E-2,-4.6863053E-2,7.344561E-2,1.256288E0,-1.5325078E-1,1.5073096E-2,-5.605683E-2,2.620816E-1,1.6016139E-2,-1.2177696E-2,-7.816245E-2,-7.5436085E-2,-1.9433603E-1,2.9065967E-1,-7.175856E-2,1.252224E-1,-2.768701E-2,-2.7079642E-2,-1.3801454E-1,2.0055948E-1,-6.076193E-2,-3.4678698E-2,-1.2921989E-1,-2.0129684E-2,-8.307556E-2,-6.34133E-2,-1.0440106E-1,-1.705939E-1,-8.158474E-2,-1.1738624E-1,-1.9615215E-1],"split_indices":[0,6,0,0,1,5,5,5,1,0,0,4,6,1,0,1,4,5,5,5,5,5,2,0,0,5,5,0,0,4,4,2,5,0,0,2,0,2,3,6,1,2,4,5,4,6,6,6,6,0,4,2,0,0,0,0,0,0,0,0,0,0,0,0,0,0,0,0,0,0,0,0,0,0,0,0,0,0,0,0,0,0,0,0,0,0,0,0,0,0,0,0,0,0,0,0,0,0,0,0,0],"split_type":[1,1,1,1,1,1,1,1,1,1,1,1,1,1,0,1,1,1,1,1,1,1,0,1,1,1,1,0,0,1,1,0,1,1,1,0,1,0,1,1,1,0,1,1,1,1,1,1,1,1,1,0,1,0,0,0,0,0,0,0,0,0,0,0,0,0,0,0,0,0,0,0,0,0,0,0,0,0,0,0,0,0,0,0,0,0,0,0,0,0,0,0,0,0,0,0,0,0,0,0,0],"sum_hessian":[4.07018E5,3.46661E5,6.0357E4,6.2214E4,2.84447E5,4.553E4,1.4827E4,1.0101E4,5.2113E4,2.16278E5,6.8169E4,8.557E3,3.6973E4,8.03E2,1.4024E4,1.279E3,8.822E3,3.5265E4,1.6848E4,1.27752E5,8.8526E4,3.9304E4,2.8865E4,4.926E3,3.631E3,1.749E4,1.9483E4,1.4E2,6.63E2,3.92E2,8.87E2,2.828E3,5.994E3,2.0627E4,1.4638E4,1.1595E4,5.253E3,7.8238E4,4.9514E4,1.5E3,8.7026E4,8.358E3,3.0946E4,7.947E3,2.0918E4,3.584E3,1.342E3,1.166E3,2.465E3,1.0541E4,6.949E3,1.5975E4,3.508E3,1.17E2,2.75E2,6.37E2,2.5E2,1.67E3,1.158E3,4.513E3,1.481E3,7.748E3,1.2879E4,1.3787E4,8.51E2,5.983E3,5.612E3,4.018E3,1.235E3,1.0019E4,6.8219E4,3.5449E4,1.4065E4,5.8E2,9.2E2,4.1219E4,4.5807E4,1.669E3,6.689E3,1.7583E4,1.3363E4,1.502E3,6.445E3,8.31E2,2.0087E4,2.292E3,1.292E3,3.42E2,1E3,2E1,1.146E3,6.8E1,2.397E3,5.637E3,4.904E3,2.346E3,4.603E3,7.82E2,1.5193E4,1.919E3,1.589E3],"tree_param":{"num_deleted":"0","num_feature":"7","num_nodes":"101","size_leaf_vector":"1"}},{"base_weights":[2.3510269E-5,3.380163E-2,-2.1403286E-1,1.2764102E-1,-1.5490038E-2,-1.492031E-1,-2.6400286E-1,2.1558253E-1,2.5128657E-2,5.292418E-2,-8.328949E-2,-2.4521396E-2,-1.9869356E-1,-1.5942338E-1,-2.8341177E-1,3.5992086E-1,9.474587E-2,1.0212496E-1,-8.266196E-2,2.3738462E-1,-3.3572145E-2,2.8868387E-2,-1.7758653E-1,1.6022047E-1,-1.22761816E-1,-1.2577195E-1,-2.917543E-1,-3.0719781E-2,-2.2529271E-1,2.07627E-2,-2.8702384E-1,4.220649E-1,-1.7027394E-1,3.3456406E-1,-3.0477382E-2,2.1139547E-1,2.94138E-3,-2.1883722E-3,-3.8420376E-1,3.7892887E-1,8.3037734E-2,1.9131409E-1,-1.137879E-1,-8.329175E-2,1.3850638E-1,-2.807886E-2,-2.5749058E-1,2.6371494E-1,-2.391181E-1,-7.2553116E-3,-2.3366712E-1,9.881836E-2,-1.644558E-1,-1.6791096E-1,-4.229417E-1,1.11807056E-1,-1.9677551E-1,-1.9961894E-1,-6.856527E-1,2.1574631E-1,-5.002025E-1,-2.3608403E-1,-3.0147162E-1,1.8424903E-1,6.913631E-2,-1.04897276E-1,2.6964006E-1,1.3745588E-1,-5.0083734E-2,6.9896124E-2,-2.9205542E-2,1.0047711E-1,1.2715826E-2,1.9320866E-1,-7.720843E-3,1.7250784E-1,-2.092665E-2,-8.468704E-3,-2.0509984E-1,3.1993368E-1,7.956221E-2,3.388424E-1,1.623763E-2,3.240919E-1,-2.0744648E-2,-3.767533E-1,-2.8202273E-2,1.6885182E-2,-6.2820874E-2,7.1328014E-2,-1.4555349E-2,2.0554551E-1,-4.7379173E-2,-6.0366537E-2,-1.3857749E-1,1.22044705E-1,5.0019074E-2,-2.2479448E-2,-1.04663834E-1,1.5828352E-2,-7.594588E-2,-2.9713823E-2,-1.13011114E-1,7.706784E-2,-6.1001305E-2,-1.170875E-2,-7.153797E-2,5.830925E-3,-7.059632E-2,-1.0201743E-1,-1.6714941E-1,6.684649E-2,-9.754173E-3,2.906873E-3,-9.457769E-2,-3.8703166E-2,-9.4152525E-2,-1.659123E-1,-2.396575E-1,1.3072667E-1,-6.6674706E-3,-2.7281935E-3,-1.7662458E-1,-7.596205E-2,3.499345E-2,-8.668633E-2,-1.2535125E-1],"categories":[3,7,11,12,15,23,25,26,28,0,1,5,6,0,4,5,6,9,10,11,9,10,13,14,15,16,17,18,21,22,23,24,25,29,3,5,9,10,11,12,13,15,18,19,20,21,22,23,25,26,27,28,0,1,2,3,4,6,7,8,9,10,11,12,13,15,16,17,18,19,24,25,26,27,28,4,5,7,8,12,14,15,16,17,18,19,20,21,22,23,24,25,26,27,28,29,30,3,4,7,8,9,10,11,12,13,15,17,18,20,22,23,24,25,26,27,28,2,4,0,2,3,6,7,8,9,11,12,15,18,19,20,22,23,24,25,26,27,28,29,0,1,4,5,6,13,14,17,18,19,27,29,0,1,2,4,6,3,12,15,23,0,4,6,10,11,1,2,11,0,2,4,0,4,0,1,4,5,10,13,18,2,3,5,6,7,8,9,10,11,12,13,14,15,18,19,20,21,22,23,24,25,26,27,28,0,2,7,9,10,11,11,15,28,12,15,23,26,28,0,1,4,6,7,8,9,10,11,12,13,15,16,17,18,19,24,25,26,27,0,2,3,12,13,15,16,17,24,25,28,11,12,15,26,4,12,20,21,22,23,24,25,26,2,3,4,5,9,10,11,12,13,14,15,16,17,18,20,21,22,23,24,25,29,30,0,7,9,10,11,13,14,15,16,17,18,19,20,21,22,23,24,25,26,29,1,2,5,6,8,9,10,11,0,1,2,3,5,7,8,9,11,12,13,15,17,19,20,22,23,24,25,26,28,29,0,1,2,4,5,7,8,9,10,11,0,1,2,3,4,6,7,9,11,9,13,14,15,18,24,25,29,0,1,2,3,4,5,7,8,9,11,0,1,3,4,3,5,10,12,13,18,19,21,23,25,26,0,1,4,6,7,10,1,2,3,4,5,7,8,9,10,11,12,13,14,15,16,17,18,19,20,21,22,23,24,25,26,27,28,29,1,0,1,2,3,4,5,6,7,8,9,10,11,12,13,14,15,16,17,18,19,20,21,22,24,25,26,27,28,29,23,29,30,29,14,20,21,22,30,11,26,0,1,5,6,12,15,23,0,6,5,1,6,9,10,11,0,1,0,1,5,1,2,3,6,0,4,6],"categories_nodes":[0,1,2,3,4,5,6,7,8,9,10,11,12,13,15,16,17,18,19,22,23,24,25,26,27,28,29,30,31,32,33,34,35,36,37,38,39,41,43,44,45,46,47,48,49,50,51,52,53,54,55,56,57,59,60,62],"categories_segments":[0,9,13,20,34,52,75,97,117,119,140,152,157,161,166,169,172,174,181,205,211,214,219,239,250,253,254,263,264,285,286,305,313,335,345,354,362,372,376,387,393,421,422,451,454,455,460,462,466,469,471,472,477,479,482,486],"categories_sizes":[9,4,7,14,18,23,22,20,2,21,12,5,4,5,3,3,2,7,24,6,3,5,20,11,3,1,9,1,21,1,19,8,22,10,9,8,10,4,11,6,28,1,29,3,1,5,2,4,3,2,1,5,2,3,4,3],"default_left":[1,1,1,1,1,1,1,1,1,1,1,1,1,1,0,1,1,1,1,1,0,0,1,1,1,1,1,1,1,1,1,1,1,1,1,1,1,1,1,1,0,1,0,1,1,1,1,1,1,1,1,1,1,1,1,1,1,1,0,1,1,0,1,0,0,0,0,0,0,0,0,0,0,0,0,0,0,0,0,0,0,0,0,0,0,0,0,0,0,0,0,0,0,0,0,0,0,0,0,0,0,0,0,0,0,0,0,0,0,0,0,0,0,0,0,0,0,0,0,0,0,0,0,0,0,0,0],"id":5,"left_children":[1,3,5,7,9,11,13,15,17,19,21,23,25,27,29,31,33,35,37,39,41,43,45,47,49,51,53,55,57,59,61,63,65,67,69,71,73,75,77,79,81,83,85,87,89,91,93,95,97,99,101,103,105,107,109,111,113,115,117,119,121,123,125,-1,-1,-1,-1,-1,-1,-1,-1,-1,-1,-1,-1,-1,-1,-1,-1,-1,-1,-1,-1,-1,-1,-1,-1,-1,-1,-1,-1,-1,-1,-1,-1,-1,-1,-1,-1,-1,-1,-1,-1,-1,-1,-1,-1,-1,-1,-1,-1,-1,-1,-1,-1,-1,-1,-1,-1,-1,-1,-1,-1,-1,-1,-1,-1],"loss_changes":[2.9429263E3,1.6260781E3,1.796709E2,1.0914156E3,1.0690782E3,1.4900781E2,6.353955E1,1.1365149E3,4.6397418E2,1.8303986E3,1.2243114E3,1.24577065E2,1.1727527E2,4.1584282E1,2.9034668E1,9.7844336E2,1.0652332E3,3.5342136E2,5.652549E2,8.000464E2,1.4089004E3,6.5020374E2,7.512699E2,9.855084E1,5.7401184E1,8.4237885E1,1.23306335E2,3.9357212E1,3.8216354E1,3.1699196E1,1.9145508E1,9.7818115E2,5.978833E2,7.5446484E2,4.106166E2,3.2391998E2,3.1430475E2,7.1718555E2,5.23072E2,1.4932935E3,5.3000476E2,4.754712E3,1.3003347E3,4.6007657E2,4.963446E2,2.0288226E3,4.7135718E2,2.620433E1,8.822338E0,3.2421726E1,4.39813E1,6.81147E1,7.6753525E1,4.9359116E1,4.0828003E1,1.4346691E1,1.8790403E1,2.4759644E1,2.1253204E0,1.18944645E1,3.6909332E0,3.49028E1,2.9503174E1,0E0,0E0,0E0,0E0,0E0,0E0,0E0,0E0,0E0,0E0,0E0,0E0,0E0,0E0,0E0,0E0,0E0,0E0,0E0,0E0,0E0,0E0,0E0,0E0,0E0,0E0,0E0,0E0,0E0,0E0,0E0,0E0,0E0,0E0,0E0,0E0,0E0,0E0,0E0,0E0,0E0,0E0,0E0,0E0,0E0,0E0,0E0,0E0,0E0,0E0,0E0,0E0,0E0,0E0,0E0,0E0,0E0,0E0,0E0,0E0,0E0,0E0,0E0,0E0],"parents":[2147483647,0,0,1,1,2,2,3,3,4,4,5,5,6,6,7,7,8,8,9,9,10,10,11,11,12,12,13,13,14,14,15,15,16,16,17,17,18,18,19,19,20,20,21,21,22,22,23,23,24,24,25,25,26,26,27,27,28,28,29,29,30,30,31,31,32,32,33,33,34,34,35,35,36,36,37,37,38,38,39,39,40,40,41,41,42,42,43,43,44,44,45,45,46,46,47,47,48,48,49,49,50,50,51,51,52,52,53,53,54,54,55,55,56,56,57,57,58,58,59,59,60,60,61,61,62,62],"right_children":[2,4,6,8,10,12,14,16,18,20,22,24,26,28,30,32,34,36,38,40,42,44,46,48,50,52,54,56,58,60,62,64,66,68,70,72,74,76,78,80,82,84,86,88,90,92,94,96,98,100,102,104,106,108,110,112,114,116,118,120,122,124,126,-1,-1,-1,-1,-1,-1,-1,-1,-1,-1,-1,-1,-1,-1,-1,-1,-1,-1,-1,-1,-1,-1,-1,-1,-1,-1,-1,-1,-1,-1,-1,-1,-1,-1,-1,-1,-1,-1,-1,-1,-1,-1,-1,-1,-1,-1,-1,-1,-1,-1,-1,-1,-1,-1,-1,-1,-1,-1,-1,-1,-1,-1,-1,-1],"split_conditions":[NaN,NaN,NaN,NaN,NaN,NaN,NaN,NaN,NaN,NaN,NaN,NaN,NaN,NaN,3.27E-1,NaN,NaN,NaN,NaN,NaN,1.12E0,2.392E0,NaN,NaN,NaN,NaN,NaN,NaN,NaN,NaN,NaN,NaN,NaN,NaN,NaN,NaN,NaN,NaN,NaN,NaN,2.45E-1,NaN,1.153E0,NaN,NaN,NaN,NaN,NaN,NaN,NaN,NaN,NaN,NaN,NaN,NaN,NaN,NaN,NaN,2.99E0,NaN,NaN,1.6535E1,NaN,1.8424903E-1,6.913631E-2,-1.04897276E-1,2.6964006E-1,1.3745588E-1,-5.0083734E-2,6.9896124E-2,-2.9205542E-2,1.0047711E-1,1.2715826E-2,1.9320866E-1,-7.720843E-3,1.7250784E-1,-2.092665E-2,-8.468704E-3,-2.0509984E-1,3.1993368E-1,7.956221E-2,3.388424E-1,1.623763E-2,3.240919E-1,-2.0744648E-2,-3.767533E-1,-2.8202273E-2,1.6885182E-2,-6.2820874E-2,7.1328014E-2,-1.4555349E-2,2.0554551E-1,-4.7379173E-2,-6.0366537E-2,-1.3857749E-1,1.22044705E-1,5.0019074E-2,-2.2479448E-2,-1.04663834E-1,1.5828352E-2,-7.594588E-2,-2.9713823E-2,-1.13011114E-1,7.706784E-2,-6.1001305E-2,-1.170875E-2,-7.153797E-2,5.830925E-3,-7.059632E-2,-1.0201743E-1,-1.6714941E-1,6.684649E-2,-9.754173E-3,2.906873E-3,-9.457769E-2,-3.8703166E-2,-9.4152525E-2,-1.659123E-1,-2.396575E-1,1.3072667E-1,-6.6674706E-3,-2.7281935E-3,-1.7662458E-1,-7.596205E-2,3.499345E-2,-8.668633E-2,-1.2535125E-1],"split_indices":[0,6,4,5,5,5,5,0,6,0,0,6,0,4,2,4,1,1,0,5,2,2,4,0,0,5,5,0,0,5,3,5,3,5,4,0,4,4,5,4,2,1,2,5,4,0,3,0,5,5,5,0,6,0,6,4,5,6,2,6,6,2,4,0,0,0,0,0,0,0,0,0,0,0,0,0,0,0,0,0,0,0,0,0,0,0,0,0,0,0,0,0,0,0,0,0,0,0,0,0,0,0,0,0,0,0,0,0,0,0,0,0,0,0,0,0,0,0,0,0,0,0,0,0,0,0,0],"split_type":[1,1,1,1,1,1,1,1,1,1,1,1,1,1,0,1,1,1,1,1,0,0,1,1,1,1,1,1,1,1,1,1,1,1,1,1,1,1,1,1,0,1,0,1,1,1,1,1,1,1,1,1,1,1,1,1,1,1,0,1,1,0,1,0,0,0,0,0,0,0,0,0,0,0,0,0,0,0,0,0,0,0,0,0,0,0,0,0,0,0,0,0,0,0,0,0,0,0,0,0,0,0,0,0,0,0,0,0,0,0,0,0,0,0,0,0,0,0,0,0,0,0,0,0,0,0,0],"sum_hessian":[4.07018E5,3.51545E5,5.5473E4,1.21065E5,2.3048E5,2.4148E4,3.1325E4,6.5163E4,5.5902E4,1.1472E5,1.1576E5,6.862E3,1.7286E4,4.905E3,2.642E4,2.9693E4,3.547E4,3.2609E4,2.3293E4,3.6621E4,7.8099E4,5.2873E4,6.2887E4,2.382E3,4.48E3,9.693E3,7.593E3,1.661E3,3.244E3,3.1E2,2.611E4,2.6578E4,3.115E3,1.2167E4,2.3303E4,1.5515E4,1.7094E4,1.8387E4,4.906E3,1.9102E4,1.7519E4,2.0533E4,5.7566E4,2.6136E4,2.6737E4,2.1904E4,4.0983E4,1.892E3,4.9E2,2.195E3,2.285E3,1.424E3,8.269E3,3.907E3,3.686E3,8.94E2,7.67E2,3.074E3,1.7E2,2.26E2,8.4E1,5.773E3,2.0337E4,1.3271E4,1.3307E4,2.668E3,4.47E2,9.761E3,2.406E3,4.717E3,1.8586E4,8.963E3,6.552E3,7.31E2,1.6363E4,1.926E3,1.6461E4,2.242E3,2.664E3,2.71E3,1.6392E4,4.7E2,1.7049E4,4.652E3,1.5881E4,9.79E2,5.6587E4,1.2406E4,1.373E4,1.7467E4,9.27E3,3.373E3,1.8531E4,3.2139E4,8.844E3,7.63E2,1.129E3,1.97E2,2.93E2,1.765E3,4.3E2,1.178E3,1.107E3,9.35E2,4.89E2,3.069E3,5.2E3,1.034E3,2.873E3,2.281E3,1.405E3,5.05E2,3.89E2,2.8E2,4.87E2,1.901E3,1.173E3,8.1E1,8.9E1,1.17E2,1.09E2,1.3E1,7.1E1,5.506E3,2.67E2,1.8365E4,1.972E3],"tree_param":{"num_deleted":"0","num_feature":"7","num_nodes":"127","size_leaf_vector":"1"}},{"base_weights":[1.6372473E-5,4.6495363E-2,-8.4612936E-2,2.129302E-1,7.6829786E-3,2.3163859E-2,-1.4543094E-1,2.865179E-1,-4.432766E-1,1.0986154E-1,-4.7385357E-2,3.0344602E-1,-1.0806046E-1,-1.3709566E-1,-6.781869E-1,6.1683863E-1,1.9573845E-1,-1.1368028E-1,-5.9213984E-1,5.0661886E-1,4.9521018E-2,-1.2448818E-1,7.54385E-2,1.5514694E0,5.237451E-2,3.24066E0,-1.1904955E-1,-1.0601376E-1,-4.4005278E-1,1.0730714E0,3.5640565E-1,3.0034694E-1,1.3902674E-2,-4.716774E-2,-7.6242566E-1,-4.7470215E-1,-7.219855E-1,1.2079308E0,5.594997E-2,1.4616431E-1,-1.18283845E-1,-7.797772E-2,-5.372359E-1,2.5336668E-1,-1.02099694E-1,1.8984661E0,1.0674803E-2,4.6613893E-1,-1.3292773E-1,5.2670517E0,-2.9671E-1,-8.380902E-3,-2.4457556E-1,-4.5393035E-3,-1.6608106E-1,-2.475673E-2,-6.4479536E-1,3.2789074E-2,4.996286E-1,1.5982494E-1,3.47527E-2,1.8143453E-1,5.466938E-2,5.1180806E-2,-7.245433E-2,2.0631153E-2,-1.2136077E-1,-1.9796546E-1,-3.6191007E-1,-1.06242195E-1,-2.2783682E-1,-1.7446247E-1,-2.6656094E-1,6.7981726E-1,2.8364748E-1,8.762439E-2,-6.429248E-2,7.888308E-2,-1.3281325E-2,2.3001427E-2,-7.890401E-2,4.2421855E-2,-4.2446755E-2,-2.4687403E-1,-2.4996327E-2,3.633269E-1,6.3610286E-2,8.414322E-3,-7.558033E-2,5.568836E-1,6.6041374E-1,2.2581045E-1,-2.967302E-2,2.6298635E0,1.3572596E-1,-1.474252E-1,8.1717834E-2,2.3910768E-1,-1.446263E-1,9.164797E-3,-2.1130295E-1,-3.873419E-2,-1.2273964E-1,7.921398E-2,-1.2697992E-2,-3.9316595E-2,-1.09838195E-1,1.2789947E-1,-3.554213E-2,-6.175635E-2,-2.124561E-1],"categories":[3,5,7,9,11,12,15,17,18,19,20,23,25,26,28,29,0,1,2,4,2,0,1,3,4,5,6,7,8,9,11,12,13,15,16,17,18,19,20,22,23,25,26,27,28,29,1,2,3,4,5,6,7,9,10,11,12,15,16,18,19,21,22,23,24,25,26,27,28,29,30,17,1,3,4,5,9,10,11,12,13,14,16,17,18,19,20,21,22,23,24,25,26,27,28,29,30,2,3,4,5,6,8,9,10,11,12,13,14,16,17,18,19,21,23,24,27,28,29,30,0,1,3,4,0,0,1,3,4,0,1,2,3,5,6,7,8,9,10,11,2,0,1,2,3,5,6,8,9,10,11,2,4,5,9,11,6,3,4,5,10,11,12,13,17,27,29,30,0,1,4,5,6,7,10,11,0,4,6,9,10,10,11,3,5,7,8,10,11,13,14,15,18,20,23,25,30,0,1,2,3,4,5,6,7,8,9,10,11,12,13,14,15,16,17,18,19,21,22,23,24,25,26,27,28,29,0,1,2,3,4,6,7,8,9,10,11,12,13,14,15,16,19,20,21,22,23,24,25,26,27,28,0,1,2,3,4,5,6,7,8,9,10,11,12,13,14,15,16,17,19,20,21,22,23,24,25,26,27,28,29,1,4,11,12,15,19,21,22,24,26,27,28,30,0,4,6,7,12,14,15,16,17,18,20,21,22,23,24,25,26,28,30,0,2,3,4,6,7,8,10,12,13,14,15,17,18,19,21,22,27,2,1,2,3,4,5,7,9,10,11,12,13,14,15,17,18,19,20,21,23,24,25,26,27,28,29,1,2,3,4,5,7,8,9,10,11,12,13,14,15,16,17,18,19,20,21,23,24,25,26,27,28,29,4,9,14,16,17,19,20,21,22,23,24,26,7,25,6,8,2,3,0,1,2,4,5,6,7,9,11,12,13,14,15,16,17,18,20,21,23,24,25,26,27,28,29,1,2,4,5,7,10,11,12,14,16,19,21,26,27,3,6,16,18,19,20,21,22,23,24,27,1,5,7,8,9,10,11,12,13,14,15,17,19,20,23,24,27,29,4,5,6,8,9,10,11,12,13,14,15,16,17,18,19,20,21,22,24,25,26,27,28,30,0,1,2,3,4,5,6,7,8,9,10,11,12,13,14,15,17,18,19,20,21,22,23,24,25,26,27,28,29,30,4,16,1,2,3,5,6,7,9,10,12,16,19,22,23,24,26,27,17,23,28,29,0,1,2,3,4,6,7,8,9,10,11,12,13,14,15,16,17,18,19,20,21,22,23,24,25,26,27,28,3,0,1,2,3,4,6,7,8,9,10,11,12,13,14,15,16,17,18,19,20,21,22,23,24,26,27,28,29,30,0,1,2,5],"categories_nodes":[0,1,3,4,5,6,7,8,9,10,11,12,13,15,16,17,18,19,20,21,22,23,24,25,26,27,28,29,30,31,32,34,35,36,37,38,39,40,41,43,44,50,52,53,54,55,56],"categories_segments":[0,16,20,21,46,71,72,97,120,124,125,129,140,141,151,156,157,168,176,181,183,197,226,252,281,294,313,331,332,357,384,396,398,400,402,427,441,452,470,494,524,526,542,546,574,575,604],"categories_sizes":[16,4,1,25,25,1,25,23,4,1,4,11,1,10,5,1,11,8,5,2,14,29,26,29,13,19,18,1,25,27,12,2,2,2,25,14,11,18,24,30,2,16,4,28,1,29,4],"default_left":[1,1,0,1,1,1,1,1,1,1,1,1,1,1,0,1,1,1,1,1,1,1,1,1,1,1,1,1,1,1,1,1,1,0,1,1,1,1,1,1,1,1,0,1,1,0,0,0,0,0,1,0,1,1,1,1,1,0,0,0,0,0,0,0,0,0,0,0,0,0,0,0,0,0,0,0,0,0,0,0,0,0,0,0,0,0,0,0,0,0,0,0,0,0,0,0,0,0,0,0,0,0,0,0,0,0,0,0,0,0,0],"id":6,"left_children":[1,3,5,7,9,11,13,15,17,19,21,23,25,27,-1,29,31,33,35,37,39,41,43,45,47,49,51,53,55,57,59,61,63,65,67,69,71,73,75,77,79,81,83,85,87,89,91,93,95,-1,97,99,101,103,105,107,109,-1,-1,-1,-1,-1,-1,-1,-1,-1,-1,-1,-1,-1,-1,-1,-1,-1,-1,-1,-1,-1,-1,-1,-1,-1,-1,-1,-1,-1,-1,-1,-1,-1,-1,-1,-1,-1,-1,-1,-1,-1,-1,-1,-1,-1,-1,-1,-1,-1,-1,-1,-1,-1,-1],"loss_changes":[1.601007E3,1.697151E3,9.458042E2,2.3992087E3,1.1987787E3,1.9144968E3,1.6259637E3,1.3394587E3,2.4574725E2,1.7861787E3,1.3110266E3,5.2011016E3,1.3050715E3,8.651399E2,0E0,1.1438357E3,6.665874E2,6.727757E1,5.228064E1,3.1128022E3,1.0502766E3,1.6326514E3,1.6865652E3,1.4863081E3,1.0596616E3,5.8796377E3,4.9091998E2,5.0793262E2,7.268949E2,1.9973931E3,2.6006946E2,7.9982336E2,5.1230664E2,5.8696434E1,5.8046417E0,6.204065E1,3.7774475E1,1.0678125E3,3.827697E2,9.139196E2,6.6783124E2,1.0650468E3,1.1168071E3,1.0553169E3,5.2116077E2,2.4909668E1,4.1707672E1,4.8282452E2,1.3871981E3,0E0,1.9443123E1,5.0890036E2,3.1454865E2,3.1450272E2,3.6672827E2,1.1943413E2,1.5918115E2,0E0,0E0,0E0,0E0,0E0,0E0,0E0,0E0,0E0,0E0,0E0,0E0,0E0,0E0,0E0,0E0,0E0,0E0,0E0,0E0,0E0,0E0,0E0,0E0,0E0,0E0,0E0,0E0,0E0,0E0,0E0,0E0,0E0,0E0,0E0,0E0,0E0,0E0,0E0,0E0,0E0,0E0,0E0,0E0,0E0,0E0,0E0,0E0,0E0,0E0,0E0,0E0,0E0,0E0],"parents":[2147483647,0,0,1,1,2,2,3,3,4,4,5,5,6,6,7,7,8,8,9,9,10,10,11,11,12,12,13,13,15,15,16,16,17,17,18,18,19,19,20,20,21,21,22,22,23,23,24,24,25,25,26,26,27,27,28,28,29,29,30,30,31,31,32,32,33,33,34,34,35,35,36,36,37,37,38,38,39,39,40,40,41,41,42,42,43,43,44,44,45,45,46,46,47,47,48,48,50,50,51,51,52,52,53,53,54,54,55,55,56,56],"right_children":[2,4,6,8,10,12,14,16,18,20,22,24,26,28,-1,30,32,34,36,38,40,42,44,46,48,50,52,54,56,58,60,62,64,66,68,70,72,74,76,78,80,82,84,86,88,90,92,94,96,-1,98,100,102,104,106,108,110,-1,-1,-1,-1,-1,-1,-1,-1,-1,-1,-1,-1,-1,-1,-1,-1,-1,-1,-1,-1,-1,-1,-1,-1,-1,-1,-1,-1,-1,-1,-1,-1,-1,-1,-1,-1,-1,-1,-1,-1,-1,-1,-1,-1,-1,-1,-1,-1,-1,-1,-1,-1,-1,-1],"split_conditions":[NaN,NaN,1.6E0,NaN,NaN,NaN,NaN,NaN,NaN,NaN,NaN,NaN,NaN,NaN,-6.781869E-1,NaN,NaN,NaN,NaN,NaN,NaN,NaN,NaN,NaN,NaN,NaN,NaN,NaN,NaN,NaN,NaN,NaN,NaN,3.472E0,NaN,NaN,NaN,NaN,NaN,NaN,NaN,NaN,2.71E0,NaN,NaN,1.1E0,2.95E-1,1.45E-1,1E0,5.2670517E0,NaN,1.4E0,NaN,NaN,NaN,NaN,NaN,3.2789074E-2,4.996286E-1,1.5982494E-1,3.47527E-2,1.8143453E-1,5.466938E-2,5.1180806E-2,-7.245433E-2,2.0631153E-2,-1.2136077E-1,-1.9796546E-1,-3.6191007E-1,-1.06242195E-1,-2.2783682E-1,-1.7446247E-1,-2.6656094E-1,6.7981726E-1,2.8364748E-1,8.762439E-2,-6.429248E-2,7.888308E-2,-1.3281325E-2,2.3001427E-2,-7.890401E-2,4.2421855E-2,-4.2446755E-2,-2.4687403E-1,-2.4996327E-2,3.633269E-1,6.3610286E-2,8.414322E-3,-7.558033E-2,5.568836E-1,6.6041374E-1,2.2581045E-1,-2.967302E-2,2.6298635E0,1.3572596E-1,-1.474252E-1,8.1717834E-2,2.3910768E-1,-1.446263E-1,9.164797E-3,-2.1130295E-1,-3.873419E-2,-1.2273964E-1,7.921398E-2,-1.2697992E-2,-3.9316595E-2,-1.09838195E-1,1.2789947E-1,-3.554213E-2,-6.175635E-2,-2.124561E-1],"split_indices":[0,1,2,0,0,5,0,5,5,1,3,1,4,1,0,4,4,4,5,4,4,4,5,0,0,0,5,5,5,3,0,0,5,2,5,4,6,5,5,5,5,5,2,5,0,2,2,2,2,0,5,2,0,0,1,5,6,0,0,0,0,0,0,0,0,0,0,0,0,0,0,0,0,0,0,0,0,0,0,0,0,0,0,0,0,0,0,0,0,0,0,0,0,0,0,0,0,0,0,0,0,0,0,0,0,0,0,0,0,0,0],"split_type":[1,1,0,1,1,1,1,1,1,1,1,1,1,1,0,1,1,1,1,1,1,1,1,1,1,1,1,1,1,1,1,1,1,0,1,1,1,1,1,1,1,1,0,1,1,0,0,0,0,0,1,0,1,1,1,1,1,0,0,0,0,0,0,0,0,0,0,0,0,0,0,0,0,0,0,0,0,0,0,0,0,0,0,0,0,0,0,0,0,0,0,0,0,0,0,0,0,0,0,0,0,0,0,0,0,0,0,0,0,0,0],"sum_hessian":[4.07018E5,2.62727E5,1.44291E5,4.9681E4,2.13046E5,5.2051E4,9.224E4,4.4672E4,5.009E3,7.4609E4,1.38437E5,1.6598E4,3.5453E4,9.1879E4,3.61E2,9.629E3,3.5043E4,1.559E3,3.45E3,9.848E3,6.4761E4,8.5048E4,5.3389E4,2.779E3,1.3819E4,1.15E2,3.5338E4,8.3331E4,8.548E3,3.498E3,6.131E3,2.2245E4,1.2798E4,1.415E3,1.44E2,1.814E3,1.636E3,3.852E3,5.996E3,4.1094E4,2.3667E4,7.6436E4,8.612E3,2.6665E4,2.6724E4,2.268E3,5.11E2,4.274E3,9.545E3,2.2E1,9.3E1,1.8781E4,1.6557E4,3.0986E4,5.2345E4,2.823E3,5.725E3,1.332E3,2.166E3,3.537E3,2.594E3,6.217E3,1.6028E4,7.932E3,4.866E3,1.069E3,3.46E2,1.19E2,2.5E1,1.276E3,5.38E2,8.9E2,7.46E2,7.64E2,3.088E3,3.2E3,2.796E3,2.5473E4,1.5621E4,1.0084E4,1.3583E4,1.716E4,5.9276E4,5.285E3,3.327E3,1.102E3,2.5563E4,1.4302E4,1.2422E4,1.997E3,2.71E2,6.5E1,4.46E2,6E0,4.268E3,5.065E3,4.48E3,1.3E1,8E1,1.7787E4,9.94E2,9.731E3,6.826E3,3.821E3,2.7165E4,4.4547E4,7.798E3,4.85E2,2.338E3,7.23E2,5.002E3],"tree_param":{"num_deleted":"0","num_feature":"7","num_nodes":"111","size_leaf_vector":"1"}},{"base_weights":[3.297866E-5,6.2780194E-2,-4.2041007E-2,2.6861188E-1,2.7888522E-2,9.061709E-3,-8.731E-2,4.4335985E-1,8.628688E-2,1.1292202E-1,-8.843717E-2,1.0351286E-1,-6.299522E-2,-6.054501E-2,-1.666E-1,7.1997714E-1,-8.689686E-2,1.791628E-1,-1.2565348E-1,2.4953525E-1,3.4102336E-2,1.0379428E-1,-1.5979527E-1,4.2125783E0,9.794484E-2,8.88824E-2,-1.2692605E-1,2.9718852E-2,-9.8677E-2,-1.2596181E-1,-3.1531188E-1,8.987608E-1,1.692855E-2,4.9835595E-1,-4.806503E-1,4.404137E-1,6.762889E-2,-1.4242552E-2,-4.1948366E-1,3.8718033E-1,5.0185394E-2,8.95967E-2,-1.6234377E-1,3.8428667E-1,-1.3328823E-1,-2.2582664E-1,2.9480618E-1,3.7556374E0,-1.2643217E-1,2.980396E-1,-1.0081943E-3,3.6532858E-1,-9.521941E-3,-2.9457638E-1,-3.785738E-2,1.170402E-1,-5.1512036E-2,-2.2707282E-2,-1.3798375E-1,4.5747586E-2,-1.6260833E-1,-2.382938E-1,-5.9932417E-1,4.7650096E-1,2.1271522E-1,2.1649858E-1,-7.9273805E-2,3.1184193E-1,9.3223505E-2,-2.9616365E-1,-2.43351E-2,2.9963762E-1,4.8347726E-3,4.3185912E-2,-3.7019983E-1,4.0465258E-2,-5.5806182E-2,-7.654002E-2,-2.2732456E-1,-2.8031135E-1,1.2267666E-1,1.5665017E-1,-1.5121782E-2,8.149927E-2,6.793067E-3,6.4566694E-2,-9.219188E-2,2.6736355E-1,7.5224966E-2,-6.0811583E-2,2.873023E-1,-1.5506113E-1,-4.1800737E-2,1.418017E-1,-2.886407E-2,2.3714435E-1,-7.824251E-2,2.8610078E-1,1.918871E-2,7.795021E-2,-2.2394856E-2,3.6000615E-1,5.8535863E-2,5.4705907E-2,-3.5473954E-2,-3.2737188E-2,-1.540279E-1,9.957074E-2,-2.5668714E-2,9.633099E-2,-6.6005834E-3,1.8497003E-2,-4.8402973E-2,4.267447E-2,-6.175966E-2,-1.9816415E-2,-7.615003E-2,1.5153085E-1,-1.7716939E-2,-3.9786782E-2,-9.8644085E-2,-3.396769E-2,-8.661965E-2,-4.3199085E-2,-2.0980683E-1],"categories":[2,3,4,5,7,8,9,11,12,13,15,18,19,20,23,25,26,27,28,29,4,6,7,8,9,10,11,12,13,14,15,16,17,18,19,20,21,22,23,24,25,26,27,28,29,30,1,2,3,4,5,6,10,11,13,14,17,18,19,22,23,24,25,26,28,30,2,3,4,5,7,8,9,10,11,12,13,15,16,17,18,19,20,21,22,23,24,25,26,27,28,29,1,2,4,9,10,11,3,7,11,12,23,27,1,5,6,8,9,10,1,2,4,0,1,6,14,22,0,1,2,3,5,6,7,8,9,10,11,1,3,4,5,7,9,10,1,2,5,6,1,2,0,1,2,3,4,5,6,5,7,9,10,11,0,0,1,2,3,5,8,11,13,15,17,18,19,21,22,23,25,1,16,0,4,0,0,1,2,3,4,5,6,7,8,9,10,11,12,13,14,15,16,17,19,20,21,22,23,24,25,26,27,28,29,0,1,2,3,4,5,6,7,8,9,10,11,12,13,14,15,16,17,18,21,22,23,24,26,28,29,0,1,2,3,4,5,6,7,8,9,10,11,12,13,14,15,16,17,18,19,20,22,23,24,25,26,28,30,0,1,3,4,5,6,7,8,9,10,11,12,14,15,16,17,19,20,21,22,23,24,25,26,27,28,0,1,2,4,5,7,9,10,11,0,1,2,3,5,6,8,9,10,11,1,4,5,6,11,19,0,1,2,3,4,5,6,7,8,9,10,11,12,13,15,16,17,18,19,20,21,22,23,24,25,26,27,28,29,14,1,3,4,5,6,0,2,3,16,0,1,2,5,1,2,1,2,3,4,5,7,8,9,11,12,13,14,15,16,17,18,19,20,21,22,23,24,25,26,27,28,29,0,1,2,3,4,5,6,7,8,9,12,14,15,16,18,21,23,24,25,27,29,30,6,8,9,10,12,13,14,15,16,17,19,20,21,22,23,25,26,0,1,2,3,4,5,10,11,12,13,14,15,16,17,18,19,20,21,22,23,24,25,27,28,29,30,0,1,2,3,5,10,12,15,16,17,19,20,21,0,1,2,3,4,5,6,7,8,9,10,11,12,13,14,15,16,17,18,19,20,21,22,23,24,25,26,27,28,30,0,1,3,4,0,2,5,7,9,10,0,1,2,3,4,5,6,7,9,10,11,12,14,15,16,17,18,19,20,21,22,23,24,25,26,27,28,29,3,4,20,27,28,0,2,3,4,0,2,3,4,7,8,9,11,12,15,16,17,19,20,21,22,23,24,26,27,28,29,30,1,2,4,5,10,14,17,22,23,25,1,3,10,11,13,14,18,23,25,30,3,4,6,13,17,18,19,22,23,24,26,0,4,2,3,19,25,0,1,2,4,6,0,1,2,3,5],"categories_nodes":[0,1,2,3,4,6,7,8,9,10,11,12,13,14,15,16,18,19,20,21,22,23,24,25,27,28,29,30,31,32,33,35,36,37,38,40,41,42,43,46,48,49,50,51,52,53,54,55,56,57,58,59,60,61,62],"categories_segments":[0,20,46,66,92,98,104,105,110,113,118,129,136,140,142,149,154,155,171,173,175,176,205,231,259,285,294,304,310,339,340,345,348,349,353,355,382,404,421,447,460,490,494,500,528,530,533,537,560,570,580,591,593,597,602],"categories_sizes":[20,26,20,26,6,6,1,5,3,5,11,7,4,2,7,5,1,16,2,2,1,29,26,28,26,9,10,6,29,1,5,3,1,4,2,27,22,17,26,13,30,4,6,28,2,3,4,23,10,10,11,2,4,5,5],"default_left":[1,1,1,1,1,0,1,1,1,1,1,1,1,1,1,1,1,0,1,1,1,1,1,1,1,1,0,1,1,1,1,1,1,1,0,1,1,1,1,0,1,1,1,1,0,0,1,0,1,1,1,1,1,1,1,1,1,1,1,1,1,1,1,0,0,0,0,0,0,0,0,0,0,0,0,0,0,0,0,0,0,0,0,0,0,0,0,0,0,0,0,0,0,0,0,0,0,0,0,0,0,0,0,0,0,0,0,0,0,0,0,0,0,0,0,0,0,0,0,0,0,0,0,0,0],"id":7,"left_children":[1,3,5,7,9,11,13,15,17,19,21,23,25,27,29,31,33,35,37,39,41,43,45,47,49,51,53,55,57,59,61,63,65,67,69,71,73,75,77,79,81,83,85,87,89,91,93,-1,95,97,99,101,103,105,107,109,111,113,115,117,119,121,123,-1,-1,-1,-1,-1,-1,-1,-1,-1,-1,-1,-1,-1,-1,-1,-1,-1,-1,-1,-1,-1,-1,-1,-1,-1,-1,-1,-1,-1,-1,-1,-1,-1,-1,-1,-1,-1,-1,-1,-1,-1,-1,-1,-1,-1,-1,-1,-1,-1,-1,-1,-1,-1,-1,-1,-1,-1,-1,-1,-1,-1,-1],"loss_changes":[1.0745431E3,1.1733064E3,5.636461E2,7.5442834E2,1.3818044E3,7.789372E2,2.7417352E2,1.7735483E3,2.281619E2,8.6897546E2,8.092396E2,1.1327788E3,6.3038196E2,3.3247372E2,1.9700476E2,9.987456E2,9.5566583E2,2.3479605E2,1.1561719E2,8.1016016E2,5.5792847E2,1.0621202E3,1.2915289E3,2.4163125E3,9.793668E2,5.2320844E2,6.822497E2,2.0349548E2,2.0277557E2,1.6115338E2,1.5291022E2,8.2761523E2,3.1961346E2,1.690115E2,5.0164056E2,5.711949E2,5.6138135E2,6.565508E1,5.3788376E1,5.0223193E2,5.726497E2,4.8643558E2,6.170702E2,4.9501953E2,6.557249E2,9.455879E2,3.795753E2,0E0,5.7506733E0,2.511749E3,6.357719E2,7.170878E2,2.959423E2,6.433174E2,5.263702E2,3.922974E2,1.8474893E2,6.996406E2,3.7289966E2,2.1691083E2,1.0513916E2,3.470044E1,6.7855774E1,0E0,0E0,0E0,0E0,0E0,0E0,0E0,0E0,0E0,0E0,0E0,0E0,0E0,0E0,0E0,0E0,0E0,0E0,0E0,0E0,0E0,0E0,0E0,0E0,0E0,0E0,0E0,0E0,0E0,0E0,0E0,0E0,0E0,0E0,0E0,0E0,0E0,0E0,0E0,0E0,0E0,0E0,0E0,0E0,0E0,0E0,0E0,0E0,0E0,0E0,0E0,0E0,0E0,0E0,0E0,0E0,0E0,0E0,0E0,0E0,0E0,0E0],"parents":[2147483647,0,0,1,1,2,2,3,3,4,4,5,5,6,6,7,7,8,8,9,9,10,10,11,11,12,12,13,13,14,14,15,15,16,16,17,17,18,18,19,19,20,20,21,21,22,22,23,23,24,24,25,25,26,26,27,27,28,28,29,29,30,30,31,31,32,32,33,33,34,34,35,35,36,36,37,37,38,38,39,39,40,40,41,41,42,42,43,43,44,44,45,45,46,46,48,48,49,49,50,50,51,51,52,52,53,53,54,54,55,55,56,56,57,57,58,58,59,59,60,60,61,61,62,62],"right_children":[2,4,6,8,10,12,14,16,18,20,22,24,26,28,30,32,34,36,38,40,42,44,46,48,50,52,54,56,58,60,62,64,66,68,70,72,74,76,78,80,82,84,86,88,90,92,94,-1,96,98,100,102,104,106,108,110,112,114,116,118,120,122,124,-1,-1,-1,-1,-1,-1,-1,-1,-1,-1,-1,-1,-1,-1,-1,-1,-1,-1,-1,-1,-1,-1,-1,-1,-1,-1,-1,-1,-1,-1,-1,-1,-1,-1,-1,-1,-1,-1,-1,-1,-1,-1,-1,-1,-1,-1,-1,-1,-1,-1,-1,-1,-1,-1,-1,-1,-1,-1,-1,-1,-1,-1],"split_conditions":[NaN,NaN,NaN,NaN,NaN,1.6E0,NaN,NaN,NaN,NaN,NaN,NaN,NaN,NaN,NaN,NaN,NaN,2.3E0,NaN,NaN,NaN,NaN,NaN,NaN,NaN,NaN,4.27E0,NaN,NaN,NaN,NaN,NaN,NaN,NaN,1.231E0,NaN,NaN,NaN,NaN,1.91E-1,NaN,NaN,NaN,NaN,1.8669E1,1.4E0,NaN,3.7556374E0,NaN,NaN,NaN,NaN,NaN,NaN,NaN,NaN,NaN,NaN,NaN,NaN,NaN,NaN,NaN,4.7650096E-1,2.1271522E-1,2.1649858E-1,-7.9273805E-2,3.1184193E-1,9.3223505E-2,-2.9616365E-1,-2.43351E-2,2.9963762E-1,4.8347726E-3,4.3185912E-2,-3.7019983E-1,4.0465258E-2,-5.5806182E-2,-7.654002E-2,-2.2732456E-1,-2.8031135E-1,1.2267666E-1,1.5665017E-1,-1.5121782E-2,8.149927E-2,6.793067E-3,6.4566694E-2,-9.219188E-2,2.6736355E-1,7.5224966E-2,-6.0811583E-2,2.873023E-1,-1.5506113E-1,-4.1800737E-2,1.418017E-1,-2.886407E-2,2.3714435E-1,-7.824251E-2,2.8610078E-1,1.918871E-2,7.795021E-2,-2.2394856E-2,3.6000615E-1,5.8535863E-2,5.4705907E-2,-3.5473954E-2,-3.2737188E-2,-1.540279E-1,9.957074E-2,-2.5668714E-2,9.633099E-2,-6.6005834E-3,1.8497003E-2,-4.8402973E-2,4.267447E-2,-6.175966E-2,-1.9816415E-2,-7.615003E-2,1.5153085E-1,-1.7716939E-2,-3.9786782E-2,-9.8644085E-2,-3.396769E-2,-8.661965E-2,-4.3199085E-2,-2.0980683E-1],"split_indices":[0,5,5,0,4,2,0,3,4,1,0,4,4,6,1,4,4,2,3,5,0,1,3,0,0,5,2,0,4,4,5,0,0,6,2,1,0,6,5,2,0,5,5,5,2,2,5,0,5,1,4,0,1,0,1,5,5,5,5,1,5,6,6,0,0,0,0,0,0,0,0,0,0,0,0,0,0,0,0,0,0,0,0,0,0,0,0,0,0,0,0,0,0,0,0,0,0,0,0,0,0,0,0,0,0,0,0,0,0,0,0,0,0,0,0,0,0,0,0,0,0,0,0,0,0],"split_type":[1,1,1,1,1,0,1,1,1,1,1,1,1,1,1,1,1,0,1,1,1,1,1,1,1,1,0,1,1,1,1,1,1,1,0,1,1,1,1,0,1,1,1,1,0,0,1,0,1,1,1,1,1,1,1,1,1,1,1,1,1,1,1,0,0,0,0,0,0,0,0,0,0,0,0,0,0,0,0,0,0,0,0,0,0,0,0,0,0,0,0,0,0,0,0,0,0,0,0,0,0,0,0,0,0,0,0,0,0,0,0,0,0,0,0,0,0,0,0,0,0,0,0,0,0],"sum_hessian":[4.07018E5,1.63372E5,2.43646E5,2.3679E4,1.39693E5,1.14449E5,1.29197E5,1.209E4,1.1589E4,8.0701E4,5.8992E4,4.9528E4,6.4921E4,9.6593E4,3.2604E4,7.945E3,4.145E3,8.058E3,3.531E3,2.9525E4,5.1176E4,1.597E4,4.3022E4,6.6E1,4.9462E4,1.9232E4,4.5689E4,2.8687E4,6.7906E4,2.5608E4,6.996E3,6.334E3,1.611E3,1.667E3,2.478E3,2.41E3,5.648E3,2.561E3,9.7E2,1.7465E4,1.206E4,3.9904E4,1.1272E4,7.315E3,8.655E3,3.7566E4,5.456E3,2.2E1,4.4E1,1.6366E4,3.3096E4,5.048E3,1.4184E4,1.5851E4,2.9838E4,1.3825E4,1.4862E4,2.3155E4,4.4751E4,4.504E3,2.1104E4,5.505E3,1.491E3,1.365E3,4.969E3,4.59E2,1.152E3,4.28E2,1.239E3,1.092E3,1.386E3,1.04E3,1.37E3,5.336E3,3.12E2,1.371E3,1.19E3,6.54E2,3.16E2,2.82E2,1.7183E4,2.118E3,9.942E3,1.0728E4,2.9176E4,3.127E3,8.145E3,1.524E3,5.791E3,8.138E3,5.17E2,8.605E3,2.8961E4,3.75E3,1.706E3,5E0,3.9E1,4.305E3,1.2061E4,7.286E3,2.581E4,8.54E2,4.194E3,5.13E3,9.054E3,8.581E3,7.27E3,3.409E3,2.6429E4,5.602E3,8.223E3,7.32E3,7.542E3,1.2183E4,1.0972E4,2.761E4,1.7141E4,8.36E2,3.668E3,1.788E4,3.224E3,1.583E3,3.922E3,2.69E2,1.222E3],"tree_param":{"num_deleted":"0","num_feature":"7","num_nodes":"125","size_leaf_vector":"1"}},{"base_weights":[3.603431E-5,8.720858E-2,-1.764E-2,3.267546E-1,6.0163144E-2,9.16252E-3,-7.157772E-2,1.0650047E0,1.5332966E-1,1.1594114E-1,-4.688022E-2,3.4312014E-2,-9.057826E-2,4.331749E-2,-1.1603103E-1,1.4409213E0,2.3813939E-1,2.5194514E-1,-3.3605278E-1,3.1803614E-1,8.587673E-2,-8.5378274E-2,5.720831E-1,1.9661482E-1,1.1000109E-2,-3.5724656E-3,-2.0721506E-1,6.3808686E-1,-6.8551986E-3,-1.2588589E-2,-1.6634728E-1,2.1942701E0,9.8132175E-1,1.2651138E0,-5.0146196E-2,3.2351896E-1,-1.3705568E-1,-8.951363E-2,-6.6945523E-1,1.0953233E0,2.1254681E-1,1.4939041E-1,1.6415792E-2,3.1013448E-2,-1.8406862E-1,7.716988E-1,-8.538168E-2,9.737566E-1,9.023791E-2,1.4600533E-2,-9.8966354E-1,1.547717E-1,-7.672521E-2,-3.2839645E-2,-2.709113E-1,1.790602E0,-3.0919072E-1,4.956391E-2,-2.3304869E-1,6.7273214E-2,-2.0005399E-1,-1.2805131E-1,-3.198608E-1,7.9115397E-1,3.397031E-1,3.267907E-1,-4.860047E-1,2.8010803E-1,1.1568751E0,-4.521732E-2,1.600242E-1,7.167454E-1,8.198261E-2,4.580386E-2,-1.0906886E-1,2.156992E-1,-4.9645975E-2,-1.4438555E-1,-2.8272253E-1,3.0580115E-1,2.3039725E0,9.906069E-2,-1.4318772E-1,1.593639E-1,3.278435E-2,7.234327E-2,-6.3984417E-3,-9.591874E-2,1.6640913E-2,-3.9493285E-2,-1.3624442E-1,8.5100085E-1,2.24006E-1,2.4644023E-1,-4.7851782E-2,4.343636E-1,-1.7134938E-2,1.1120694E-1,2.9797403E-3,-8.168157E-2,7.928511E-3,-7.5836515E-1,-2.1490423E-1,6.974682E-2,-1.0386465E-1,4.6058178E-2,-4.798663E-2,1.4532545E-1,-3.7485912E-2,-6.846028E-2,-1.7016993E-1,8.4368783E-1,5.2114908E-2,-2.0340974E-2,-1.2975973E-1,4.6291675E-2,-2.6922444E-2,-5.646766E-2,-2.3470314E-1,8.2381785E-2,-8.623632E-3,9.913533E-2,-8.334912E-2,-2.3928603E-2,-5.892767E-2,-5.597454E-2,-1.6392359E-1],"categories":[0,1,2,4,5,6,0,1,2,4,5,6,7,8,9,11,12,13,15,16,17,18,19,20,21,22,23,24,25,26,27,28,29,2,3,4,5,7,9,11,12,13,15,18,23,26,28,0,1,5,6,7,8,9,10,11,12,14,15,16,17,18,19,20,21,22,23,24,25,27,29,30,2,5,8,14,17,18,21,22,23,24,25,26,28,30,12,15,16,18,20,21,22,2,3,4,5,6,7,9,10,11,13,14,18,20,22,23,24,25,26,27,28,29,30,2,4,0,1,8,14,21,27,29,2,3,4,7,8,9,10,11,12,13,14,15,16,17,18,19,20,21,23,24,25,26,27,28,29,1,6,10,14,22,25,29,0,1,2,3,5,7,8,9,10,11,2,4,5,6,7,9,10,1,2,3,4,5,6,8,10,11,0,1,2,4,5,6,7,8,9,11,0,3,9,11,0,0,1,2,4,7,8,9,10,11,0,1,2,7,8,21,22,23,26,27,28,0,1,2,3,4,6,7,9,10,11,12,13,15,16,19,20,21,23,24,25,26,27,28,29,0,1,2,3,4,5,6,8,10,11,12,13,14,15,16,18,19,20,21,22,23,24,25,26,27,28,29,30,17,1,2,4,0,2,3,4,5,7,9,11,1,2,3,4,5,6,7,8,9,10,11,12,13,14,18,19,20,21,22,23,24,25,26,27,28,29,30,16,17,3,4,11,12,7,9,25,26,27,0,1,3,4,5,6,7,8,9,10,11,12,13,14,15,16,17,18,19,20,21,22,23,24,25,27,28,29,30,3,1,0,1,2,3,4,5,7,8,9,10,11,12,13,14,15,16,17,18,19,20,21,22,23,24,25,26,27,28,29,30,6,7,20,0,1,8,14,21,27,1,14,29,0,7,9,19,0,1,2,3,4,5,6,7,8,9,10,11,12,14,15,16,17,19,20,22,23,24,25,26,27,28,29,0,1,3,4,5,6,7,9,10,11,12,13,14,15,16,17,18,19,20,21,22,23,24,25,26,27,29,0,1,4,5,6,8,9,10,1,2,9,11,12,13,18,21,22,28,0,1,2,3,4,5,6,7,8,9,10,11,12,13,14,15,18,20,22,23,24,25,26,28,29,2,3,4,5,7,8,9,10,11,12,13,15,16,17,18,19,20,21,23,24,26,27,28,29,0,6,11,0,1,6,7,8,11,1,10,14,22,25,14,0,1,2,3,5,6,7,8,9,10,11,12,14,15,16,17,18,19,20,21,22,23,24,25,26,27,28,29,0,1,5,6,5,7,11,12,15,18,28,4,0,1,3,4,5,6,7,8,11,12,13,14,15,16,17,18,19,21,23,24,25,27,28,30,2,3,4,5,6,7,9,10,11,13,14,18,20,22,23,25,26,27,29,30,2,9,12,13,18,23,4,13,18],"categories_nodes":[0,1,2,3,4,5,6,7,8,9,12,13,14,15,16,17,18,19,21,22,23,24,25,26,27,28,29,30,31,32,34,35,36,37,38,40,41,42,45,46,47,48,51,52,53,54,55,56,57,58,59,60,61,62],"categories_segments":[0,6,33,47,72,86,93,115,117,124,149,156,166,173,182,192,196,197,206,217,241,269,270,273,281,308,310,314,319,348,349,350,380,383,389,392,396,423,450,458,468,493,517,520,526,531,532,560,564,571,572,596,616,622],"categories_sizes":[6,27,14,25,14,7,22,2,7,25,7,10,7,9,10,4,1,9,11,24,28,1,3,8,27,2,4,5,29,1,1,30,3,6,3,4,27,27,8,10,25,24,3,6,5,1,28,4,7,1,24,20,6,3],"default_left":[1,1,1,1,1,1,1,1,1,1,0,0,1,1,1,1,1,1,1,1,0,1,1,1,1,1,1,1,1,1,1,1,1,0,1,1,1,1,1,0,1,1,1,0,0,1,1,1,1,0,0,1,1,1,1,1,1,1,1,1,1,1,1,0,0,0,0,0,0,0,0,0,0,0,0,0,0,0,0,0,0,0,0,0,0,0,0,0,0,0,0,0,0,0,0,0,0,0,0,0,0,0,0,0,0,0,0,0,0,0,0,0,0,0,0,0,0,0,0,0,0,0,0,0,0,0,0],"id":8,"left_children":[1,3,5,7,9,11,13,15,17,19,21,23,25,27,29,31,33,35,37,39,41,43,45,47,49,51,53,55,57,59,61,63,65,67,69,71,73,75,77,79,81,83,85,87,89,91,93,95,97,99,101,103,105,107,109,111,113,115,117,119,121,123,125,-1,-1,-1,-1,-1,-1,-1,-1,-1,-1,-1,-1,-1,-1,-1,-1,-1,-1,-1,-1,-1,-1,-1,-1,-1,-1,-1,-1,-1,-1,-1,-1,-1,-1,-1,-1,-1,-1,-1,-1,-1,-1,-1,-1,-1,-1,-1,-1,-1,-1,-1,-1,-1,-1,-1,-1,-1,-1,-1,-1,-1,-1,-1,-1],"loss_changes":[6.271628E2,4.4453064E2,4.8921716E2,8.910604E2,3.6814462E2,5.670764E2,5.737581E2,4.1119897E2,2.721784E2,2.4626398E2,5.0338638E2,6.8310187E2,4.6198032E2,9.35197E2,4.2157922E2,3.1292407E2,1.2292915E2,1.3070813E2,7.769822E1,4.301615E2,1.5567834E2,2.2844249E2,1.6241006E2,1.8744531E3,5.687905E2,3.0204666E2,2.1602344E2,2.6622441E3,3.6884836E2,3.9685837E2,3.2031445E2,1.5880994E2,1.6103162E2,7.45462E1,1.9155764E1,4.1074997E2,4.7963295E1,3.3595585E1,2.0193771E1,3.0588324E2,3.7537576E2,2.822363E2,1.4298E2,7.829921E1,1.5231653E2,4.6897034E1,1.9557467E1,1.3343965E3,4.4921637E2,5.337556E2,2.3614716E2,3.209096E2,3.4183298E2,2.4805984E2,1.8016809E2,1.8166646E3,3.98369E1,3.3754926E2,1.4191675E2,3.7007413E2,3.2683594E2,1.439867E2,3.2838416E2,0E0,0E0,0E0,0E0,0E0,0E0,0E0,0E0,0E0,0E0,0E0,0E0,0E0,0E0,0E0,0E0,0E0,0E0,0E0,0E0,0E0,0E0,0E0,0E0,0E0,0E0,0E0,0E0,0E0,0E0,0E0,0E0,0E0,0E0,0E0,0E0,0E0,0E0,0E0,0E0,0E0,0E0,0E0,0E0,0E0,0E0,0E0,0E0,0E0,0E0,0E0,0E0,0E0,0E0,0E0,0E0,0E0,0E0,0E0,0E0,0E0,0E0,0E0,0E0],"parents":[2147483647,0,0,1,1,2,2,3,3,4,4,5,5,6,6,7,7,8,8,9,9,10,10,11,11,12,12,13,13,14,14,15,15,16,16,17,17,18,18,19,19,20,20,21,21,22,22,23,23,24,24,25,25,26,26,27,27,28,28,29,29,30,30,31,31,32,32,33,33,34,34,35,35,36,36,37,37,38,38,39,39,40,40,41,41,42,42,43,43,44,44,45,45,46,46,47,47,48,48,49,49,50,50,51,51,52,52,53,53,54,54,55,55,56,56,57,57,58,58,59,59,60,60,61,61,62,62],"right_children":[2,4,6,8,10,12,14,16,18,20,22,24,26,28,30,32,34,36,38,40,42,44,46,48,50,52,54,56,58,60,62,64,66,68,70,72,74,76,78,80,82,84,86,88,90,92,94,96,98,100,102,104,106,108,110,112,114,116,118,120,122,124,126,-1,-1,-1,-1,-1,-1,-1,-1,-1,-1,-1,-1,-1,-1,-1,-1,-1,-1,-1,-1,-1,-1,-1,-1,-1,-1,-1,-1,-1,-1,-1,-1,-1,-1,-1,-1,-1,-1,-1,-1,-1,-1,-1,-1,-1,-1,-1,-1,-1,-1,-1,-1,-1,-1,-1,-1,-1,-1,-1,-1,-1,-1,-1,-1],"split_conditions":[NaN,NaN,NaN,NaN,NaN,NaN,NaN,NaN,NaN,NaN,2E1,7.28E-1,NaN,NaN,NaN,NaN,NaN,NaN,NaN,NaN,2.71E0,NaN,NaN,NaN,NaN,NaN,NaN,NaN,NaN,NaN,NaN,NaN,NaN,6.6E0,NaN,NaN,NaN,NaN,NaN,3.752E1,NaN,NaN,NaN,3.95E-1,8.42E0,NaN,NaN,NaN,NaN,8.35E-1,1.12E0,NaN,NaN,NaN,NaN,NaN,NaN,NaN,NaN,NaN,NaN,NaN,NaN,7.9115397E-1,3.397031E-1,3.267907E-1,-4.860047E-1,2.8010803E-1,1.1568751E0,-4.521732E-2,1.600242E-1,7.167454E-1,8.198261E-2,4.580386E-2,-1.0906886E-1,2.156992E-1,-4.9645975E-2,-1.4438555E-1,-2.8272253E-1,3.0580115E-1,2.3039725E0,9.906069E-2,-1.4318772E-1,1.593639E-1,3.278435E-2,7.234327E-2,-6.3984417E-3,-9.591874E-2,1.6640913E-2,-3.9493285E-2,-1.3624442E-1,8.5100085E-1,2.24006E-1,2.4644023E-1,-4.7851782E-2,4.343636E-1,-1.7134938E-2,1.1120694E-1,2.9797403E-3,-8.168157E-2,7.928511E-3,-7.5836515E-1,-2.1490423E-1,6.974682E-2,-1.0386465E-1,4.6058178E-2,-4.798663E-2,1.4532545E-1,-3.7485912E-2,-6.846028E-2,-1.7016993E-1,8.4368783E-1,5.2114908E-2,-2.0340974E-2,-1.2975973E-1,4.6291675E-2,-2.6922444E-2,-5.646766E-2,-2.3470314E-1,8.2381785E-2,-8.623632E-3,9.913533E-2,-8.334912E-2,-2.3928603E-2,-5.892767E-2,-5.597454E-2,-1.6392359E-1],"split_indices":[6,0,0,5,5,5,5,1,5,0,2,2,0,4,4,4,4,4,3,4,2,0,5,5,0,1,4,5,5,0,5,5,4,2,3,5,5,5,5,2,5,0,0,2,2,4,0,0,0,2,2,4,4,0,0,0,6,0,0,5,5,0,0,0,0,0,0,0,0,0,0,0,0,0,0,0,0,0,0,0,0,0,0,0,0,0,0,0,0,0,0,0,0,0,0,0,0,0,0,0,0,0,0,0,0,0,0,0,0,0,0,0,0,0,0,0,0,0,0,0,0,0,0,0,0,0,0],"split_type":[1,1,1,1,1,1,1,1,1,1,0,0,1,1,1,1,1,1,1,1,0,1,1,1,1,1,1,1,1,1,1,1,1,0,1,1,1,1,1,0,1,1,1,0,0,1,1,1,1,0,0,1,1,1,1,1,1,1,1,1,1,1,1,0,0,0,0,0,0,0,0,0,0,0,0,0,0,0,0,0,0,0,0,0,0,0,0,0,0,0,0,0,0,0,0,0,0,0,0,0,0,0,0,0,0,0,0,0,0,0,0,0,0,0,0,0,0,0,0,0,0,0,0,0,0,0,0],"sum_hessian":[4.07018E5,6.8617E4,3.38401E5,6.96E3,6.1657E4,2.26066E5,1.12335E5,1.323E3,5.637E3,4.0535E4,2.1122E4,1.80543E5,4.5523E4,3.1338E4,8.0997E4,9.09E2,4.14E2,4.692E3,9.45E2,5.248E3,3.5287E4,1.9886E4,1.236E3,2.2674E4,1.57869E5,2.6074E4,1.9449E4,2.437E3,2.8901E4,2.6506E4,5.4491E4,3.43E2,5.66E2,9E1,3.24E2,3.963E3,7.29E2,5.44E2,4.01E2,6.26E2,4.622E3,1.8432E4,1.6855E4,9.125E3,1.0761E4,9.48E2,2.88E2,2.729E3,1.9945E4,1.57304E5,5.65E2,8.239E3,1.7835E4,5.204E3,1.4245E4,1.099E3,1.338E3,2.3132E4,5.769E3,1.8588E4,7.918E3,4.3613E4,1.0878E4,2.41E2,1.02E2,5.44E2,2.2E1,8.1E1,9E0,2.77E2,4.7E1,9.3E1,3.87E3,3.2E2,4.09E2,4.6E1,4.98E2,2.39E2,1.62E2,6.2E2,6E0,3.949E3,6.73E2,1.751E3,1.6681E4,2.423E3,1.4432E4,5.94E2,8.531E3,9.013E3,1.748E3,1E1,9.38E2,2.1E1,2.67E2,1.869E3,8.6E2,4.439E3,1.5506E4,6.228E3,1.51076E5,8.4E1,4.81E2,7.133E3,1.106E3,4.735E3,1.31E4,7.86E2,4.418E3,1.2452E4,1.793E3,6.73E2,4.26E2,4.53E2,8.85E2,1.3204E4,9.928E3,5.335E3,4.34E2,5.883E3,1.2705E4,1.012E3,6.906E3,2.5562E4,1.8051E4,6.85E3,4.028E3],"tree_param":{"num_deleted":"0","num_feature":"7","num_nodes":"127","size_leaf_vector":"1"}},{"base_weights":[4.0978866E-5,2.9592311E-2,-3.546742E-2,8.635059E-2,-1.5161372E-2,-1.3840291E-2,-1.3541423E-1,2.3350772E-1,5.301026E-2,6.874134E-2,-3.8315587E-2,3.9236978E-2,-6.3657045E-2,-6.009833E-2,-2.585384E-1,3.5154176E-1,-5.0867755E-2,2.2567376E-1,1.682636E-2,1.2264027E-1,-2.1808057E-1,-1.7045662E-1,-2.547562E-2,1.6691105E-1,-1.2115605E-2,-2.0874707E-2,-1.765457E-1,3.8394418E-2,-9.817168E-2,4.076797E-2,-2.897915E-1,4.8868415E-1,8.329423E-2,-7.3318E-2,3.1487565E0,4.6823797E-1,-1.5790036E-1,2.523667E-1,9.243247E-4,1.9203112E-1,-7.689728E-2,-1.1178443E-1,-6.412649E-1,2.987768E-1,-2.2008431E-1,4.480862E-2,-5.8296666E-2,1.6525761E0,1.4250915E-1,2.7966762E-2,-8.4378384E-2,1.07509635E-1,-8.0258034E-2,-5.5597883E-2,-2.8800732E-1,7.1200415E-2,-7.371862E-1,-1.111908E-1,5.885411E-1,4.02198E-1,-3.6485955E-1,-2.2646496E-1,-4.365942E-1,3.8546816E-1,1.2693843E-1,3.702553E-2,-3.2485098E-1,8.23047E-3,-1.5141763E-1,1.8307903E0,5.9440345E-1,2.3626378E-1,5.9340756E-2,3.8114038E-1,-5.8767196E-2,1.2751515E-1,-2.2459883E-2,1.8574454E-2,-2.4580887E-2,1.2665403E-1,4.6054658E-2,-4.1975316E-2,1.5834804E-1,-7.79831E-2,2.7321085E-2,-6.008115E-2,-2.8521168E-1,2.5913876E-1,3.3895418E-2,-4.773839E-2,-1.3550644E-1,1.2902744E-1,-1.286085E-2,1.2494305E-1,-2.2839706E-2,-1.6414945E-1,1.6519607E0,1.1294104E-1,5.814097E-3,4.161496E-2,-1.0412855E-2,-1.0253362E-2,-1.478698E-1,1.4810932E-1,1.3916458E-2,4.8125274E-2,-3.1942036E-2,2.9746104E-2,-4.9356595E-2,-1.285011E-1,-4.6453573E-2,6.491059E-2,-2.6989777E-3,-2.9947674E-2,-2.4113975E-1,-1.6753491E-2,-9.505072E-2,1.3640963E0,-3.226439E-2,2.7863652E-1,5.3603936E-2,2.1591485E-1,-1.2838975E-1,-8.3290525E-2,4.4994564E-3,-7.576742E-2,-1.5036732E-1],"categories":[0,4,5,6,0,4,6,13,14,15,16,17,18,20,23,24,25,26,28,29,7,9,11,21,22,27,2,3,4,6,7,8,9,10,11,12,13,15,17,18,20,21,22,23,24,25,26,27,28,29,0,1,3,4,5,6,7,9,10,11,12,13,15,16,18,19,20,22,23,24,25,26,27,28,29,0,2,3,7,8,11,12,13,15,17,19,21,23,25,26,27,28,0,1,4,5,6,9,10,11,13,14,18,26,1,2,3,4,6,11,0,1,2,4,0,1,2,3,4,1,2,3,5,7,8,9,10,11,12,13,14,15,18,19,20,21,22,23,24,25,26,27,1,7,10,11,7,8,12,15,16,19,21,25,28,0,2,3,4,6,7,9,10,11,0,4,6,8,10,11,13,14,15,16,17,18,20,23,24,25,26,28,29,30,0,1,2,3,4,5,7,9,10,11,12,13,14,15,16,17,19,20,23,24,25,26,28,29,0,1,2,4,5,6,7,8,9,10,1,2,3,4,5,7,8,9,10,11,12,14,18,19,21,22,24,27,29,30,0,6,13,24,25,1,5,7,10,11,12,13,15,16,18,20,23,26,27,28,29,4,5,14,16,1,2,3,4,6,7,9,10,11,13,14,16,17,18,20,21,22,27,28,29,30,0,2,8,17,19,28,1,2,0,4,9,11,18,26,4,5,13,14,1,0,1,2,4,5,6,7,8,9,10,11,0,1,2,5,6,8,9,10,11,0,2,3,4,5,6,7,8,9,10,11,12,13,14,15,16,17,18,19,20,21,22,23,24,25,26,27,28,29,30,0,1,2,4,6,8,9,12,13,14,15,16,17,18,19,20,21,22,23,24,25,26,28,29,30,7,8,9,11,13,15,21,22,23,27,28,0,1,2,3,4,5,6,7,8,9,10,11,12,13,15,16,17,18,19,20,21,22,23,24,25,26,27,28,29,1,2,3,0,1,2,3,5,7,8,9,10,11,12,13,14,15,16,17,18,19,20,21,22,25,26,27,29,30,0,4,6,14,17,25,29,0,1,3,4,1,2,3,4,5,6,7,8,9,10,11,12,13,14,15,17,18,19,20,21,22,23,24,25,26,27,28,29,0,1,2,3,5,6,7,8,9,11,12,13,15,16,17,18,19,20,21,22,23,24,25,26,27,28,29,0,2,4,0,1,2,3,4,11,0,1,3,4,2,3,7,8,11,12,15,19,21,23,25,26,27,28,0,2,4,6,8,12,13,14,15,19,20,23,25,29,0,1,2,3,4,6,7,9,1,7,8,0,1,2,3,4,5,6,7,8,9,10,11,12,13,14,15,17,18,19,20,21,22,23,24,25,26,27,28,29,1,2,3,4,5,6,0,1,2,4,0,0,1,2,3],"categories_nodes":[0,1,2,3,4,5,6,7,8,9,11,12,13,14,15,17,18,19,20,21,24,25,26,27,29,30,33,34,35,36,37,38,39,41,42,43,44,45,46,48,49,50,51,52,53,54,55,57,58,59,60,61,62],"categories_segments":[0,4,20,26,50,75,92,104,110,114,119,142,146,155,164,184,208,218,238,243,259,263,284,290,292,298,302,303,314,323,353,378,389,418,419,421,447,454,458,486,513,516,522,526,540,554,555,562,565,594,600,604,605],"categories_sizes":[4,16,6,24,25,17,12,6,4,5,23,4,9,9,20,24,10,20,5,16,4,21,6,2,6,4,1,11,9,30,25,11,29,1,2,26,7,4,28,27,3,6,4,14,14,1,7,3,29,6,4,1,4],"default_left":[1,1,1,1,1,1,1,1,1,1,0,1,1,1,1,1,0,1,1,1,1,1,0,0,1,1,1,1,0,1,1,0,0,1,1,1,1,1,1,1,0,1,1,1,1,1,1,0,1,1,1,1,1,1,1,1,0,1,1,1,1,1,1,0,0,0,0,0,0,0,0,0,0,0,0,0,0,0,0,0,0,0,0,0,0,0,0,0,0,0,0,0,0,0,0,0,0,0,0,0,0,0,0,0,0,0,0,0,0,0,0,0,0,0,0,0,0,0,0,0,0,0,0,0,0,0,0],"id":9,"left_children":[1,3,5,7,9,11,13,15,17,19,21,23,25,27,29,31,33,35,37,39,41,43,45,47,49,51,53,55,57,59,61,63,65,67,69,71,73,75,77,79,81,83,85,87,89,91,93,95,97,99,101,103,105,107,109,111,113,115,117,119,121,123,125,-1,-1,-1,-1,-1,-1,-1,-1,-1,-1,-1,-1,-1,-1,-1,-1,-1,-1,-1,-1,-1,-1,-1,-1,-1,-1,-1,-1,-1,-1,-1,-1,-1,-1,-1,-1,-1,-1,-1,-1,-1,-1,-1,-1,-1,-1,-1,-1,-1,-1,-1,-1,-1,-1,-1,-1,-1,-1,-1,-1,-1,-1,-1,-1],"loss_changes":[4.2709445E2,5.6427856E2,3.996192E2,4.8049286E2,2.4130168E2,4.0188226E2,3.0496167E2,6.0722656E2,4.9885773E2,4.1532788E2,1.6515962E2,4.8246735E2,3.786547E2,7.652898E1,1.16771484E2,4.7025842E2,3.8144507E2,1.287208E3,2.4726361E2,3.131439E2,1.9110545E2,2.0082272E2,2.0467361E2,7.649939E2,1.5200876E2,4.334801E2,2.9045996E2,1.4482712E2,1.3165016E2,1.7328838E2,1.04970215E2,4.4098535E2,2.0254747E2,2.2912073E2,1.15499054E2,7.316792E2,2.9110455E2,2.3595206E2,3.1253165E2,1.4867859E2,2.2248366E2,1.0214986E2,1.16211334E2,8.650766E1,1.1000403E2,9.5412555E2,5.121879E2,2.8939128E3,5.9826355E2,2.3432509E2,3.8397418E2,4.2443097E2,2.4530173E2,1.7422485E2,2.0946643E2,6.356758E1,9.727211E0,1.6438937E2,7.554773E2,7.3398125E1,3.8431038E1,9.758948E1,4.0373474E1,0E0,0E0,0E0,0E0,0E0,0E0,0E0,0E0,0E0,0E0,0E0,0E0,0E0,0E0,0E0,0E0,0E0,0E0,0E0,0E0,0E0,0E0,0E0,0E0,0E0,0E0,0E0,0E0,0E0,0E0,0E0,0E0,0E0,0E0,0E0,0E0,0E0,0E0,0E0,0E0,0E0,0E0,0E0,0E0,0E0,0E0,0E0,0E0,0E0,0E0,0E0,0E0,0E0,0E0,0E0,0E0,0E0,0E0,0E0,0E0,0E0,0E0,0E0,0E0],"parents":[2147483647,0,0,1,1,2,2,3,3,4,4,5,5,6,6,7,7,8,8,9,9,10,10,11,11,12,12,13,13,14,14,15,15,16,16,17,17,18,18,19,19,20,20,21,21,22,22,23,23,24,24,25,25,26,26,27,27,28,28,29,29,30,30,31,31,32,32,33,33,34,34,35,35,36,36,37,37,38,38,39,39,40,40,41,41,42,42,43,43,44,44,45,45,46,46,47,47,48,48,49,49,50,50,51,51,52,52,53,53,54,54,55,55,56,56,57,57,58,58,59,59,60,60,61,61,62,62],"right_children":[2,4,6,8,10,12,14,16,18,20,22,24,26,28,30,32,34,36,38,40,42,44,46,48,50,52,54,56,58,60,62,64,66,68,70,72,74,76,78,80,82,84,86,88,90,92,94,96,98,100,102,104,106,108,110,112,114,116,118,120,122,124,126,-1,-1,-1,-1,-1,-1,-1,-1,-1,-1,-1,-1,-1,-1,-1,-1,-1,-1,-1,-1,-1,-1,-1,-1,-1,-1,-1,-1,-1,-1,-1,-1,-1,-1,-1,-1,-1,-1,-1,-1,-1,-1,-1,-1,-1,-1,-1,-1,-1,-1,-1,-1,-1,-1,-1,-1,-1,-1,-1,-1,-1,-1,-1,-1],"split_conditions":[NaN,NaN,NaN,NaN,NaN,NaN,NaN,NaN,NaN,NaN,3.95E-1,NaN,NaN,NaN,NaN,NaN,3.752E1,NaN,NaN,NaN,NaN,NaN,1.78E0,2.45E-1,NaN,NaN,NaN,NaN,1E1,NaN,NaN,6E-1,1.5196E1,NaN,NaN,NaN,NaN,NaN,NaN,NaN,1.5196E1,NaN,NaN,NaN,NaN,NaN,NaN,1.91E-1,NaN,NaN,NaN,NaN,NaN,NaN,NaN,NaN,1.4E0,NaN,NaN,NaN,NaN,NaN,NaN,3.8546816E-1,1.2693843E-1,3.702553E-2,-3.2485098E-1,8.23047E-3,-1.5141763E-1,1.8307903E0,5.9440345E-1,2.3626378E-1,5.9340756E-2,3.8114038E-1,-5.8767196E-2,1.2751515E-1,-2.2459883E-2,1.8574454E-2,-2.4580887E-2,1.2665403E-1,4.6054658E-2,-4.1975316E-2,1.5834804E-1,-7.79831E-2,2.7321085E-2,-6.008115E-2,-2.8521168E-1,2.5913876E-1,3.3895418E-2,-4.773839E-2,-1.3550644E-1,1.2902744E-1,-1.286085E-2,1.2494305E-1,-2.2839706E-2,-1.6414945E-1,1.6519607E0,1.1294104E-1,5.814097E-3,4.161496E-2,-1.0412855E-2,-1.0253362E-2,-1.478698E-1,1.4810932E-1,1.3916458E-2,4.8125274E-2,-3.1942036E-2,2.9746104E-2,-4.9356595E-2,-1.285011E-1,-4.6453573E-2,6.491059E-2,-2.6989777E-3,-2.9947674E-2,-2.4113975E-1,-1.6753491E-2,-9.505072E-2,1.3640963E0,-3.226439E-2,2.7863652E-1,5.3603936E-2,2.1591485E-1,-1.2838975E-1,-8.3290525E-2,4.4994564E-3,-7.576742E-2,-1.5036732E-1],"split_indices":[6,5,5,0,0,0,0,4,1,4,2,5,4,0,4,5,2,0,4,5,5,0,2,2,0,5,0,4,2,0,0,2,2,1,4,4,5,5,0,0,2,3,4,5,5,1,0,2,0,1,4,1,0,5,3,4,2,4,0,6,1,3,1,0,0,0,0,0,0,0,0,0,0,0,0,0,0,0,0,0,0,0,0,0,0,0,0,0,0,0,0,0,0,0,0,0,0,0,0,0,0,0,0,0,0,0,0,0,0,0,0,0,0,0,0,0,0,0,0,0,0,0,0,0,0,0,0],"split_type":[1,1,1,1,1,1,1,1,1,1,0,1,1,1,1,1,0,1,1,1,1,1,0,0,1,1,1,1,0,1,1,0,0,1,1,1,1,1,1,1,0,1,1,1,1,1,1,0,1,1,1,1,1,1,1,1,0,1,1,1,1,1,1,0,0,0,0,0,0,0,0,0,0,0,0,0,0,0,0,0,0,0,0,0,0,0,0,0,0,0,0,0,0,0,0,0,0,0,0,0,0,0,0,0,0,0,0,0,0,0,0,0,0,0,0,0,0,0,0,0,0,0,0,0,0,0,0],"sum_hessian":[4.07018E5,2.22143E5,1.84875E5,9.7936E4,1.24207E5,1.51988E5,3.2887E4,1.8089E4,7.9847E4,2.6863E4,9.7344E4,7.3586E4,7.8402E4,2.0406E4,1.2481E4,1.2783E4,5.306E3,1.3833E4,6.6014E4,2.2614E4,4.249E3,8.62E3,8.8724E4,2.1107E4,5.2479E4,5.6856E4,2.1546E4,5.689E3,1.4717E4,1.18E3,1.1301E4,8.458E3,4.325E3,5.27E3,3.6E1,8.474E3,5.359E3,4.174E3,6.184E4,1.6779E4,5.835E3,3.397E3,8.52E2,8.24E2,7.796E3,2.8243E4,6.0481E4,3.4E2,2.0767E4,3.3756E4,1.8723E4,1.7981E4,3.8875E4,1.0334E4,1.1212E4,5.459E3,2.3E2,1.4444E4,2.73E2,6.24E2,5.56E2,7.897E3,3.404E3,6.42E2,7.816E3,4.182E3,1.43E2,4.273E3,9.97E2,9E0,2.7E1,3.885E3,4.589E3,1.38E2,5.221E3,2.732E3,1.442E3,3.5621E4,2.6219E4,2.404E3,1.4375E4,5.285E3,5.5E2,1.963E3,1.434E3,3.52E2,5E2,2.03E2,6.21E2,6.173E3,1.623E3,5.235E3,2.3008E4,2.189E3,5.8292E4,2.17E2,1.23E2,7.16E3,1.3607E4,1.2199E4,2.1557E4,1.6675E4,2.048E3,2.456E3,1.5525E4,3.818E3,3.5057E4,4.269E3,6.065E3,5.458E3,5.754E3,1.942E3,3.517E3,2.2E1,2.08E2,1.1382E4,3.062E3,4E1,2.33E2,1.85E2,4.39E2,3E1,5.26E2,6.516E3,1.381E3,8.86E2,2.518E3],"tree_param":{"num_deleted":"0","num_feature":"7","num_nodes":"127","size_leaf_vector":"1"}},{"base_weights":[4.350992E-5,2.774302E-2,-2.0480834E-2,1.24966286E-1,3.3968259E-3,2.2449873E-2,-4.6289157E-2,3.447964E-1,2.3659049E-2,6.606354E-2,-3.4996316E-2,8.407511E-2,-9.2087455E-2,-4.258655E-2,-4.6077573E-1,1.5616049E0,2.867591E-1,2.812802E-1,-1.6545244E-2,1.4148329E-1,5.074449E-3,6.959179E-2,-6.6086516E-2,7.371417E-2,1.1109874E0,1.3733686E-2,-1.692007E-1,-1.7476305E-1,-1.7848961E-2,2.476538E0,5.3773874E-1,3.5895803E0,2.7276346E-1,4.1526288E-1,-3.8840777E-1,-9.745323E-2,2.118065E-1,3.7237084E-1,3.1641036E-2,1.15122765E-1,-5.9331488E-2,-1.3896196E-1,1.3858338E-1,-7.4360766E-2,3.7373385E-1,2.4972959E0,7.031963E-2,2.1567492E0,1.2516204E-2,8.875681E-2,-4.3427122E-1,-4.9431596E-2,-2.3252904E-1,5.371929E-2,-3.158542E-1,1.3044563E-1,-4.2079896E-2,3.649838E-1,-5.468779E-2,2.0450945E0,1.039298E-1,1.227393E-1,1.5112029E-3,1.5615092E-1,6.097449E-2,2.0884635E-2,-2.0607096E-1,6.34278E-3,-7.8869715E-2,2.0769815E-1,1.833894E-2,9.165777E-2,4.427757E-1,6.093435E-2,-3.608636E-2,1.4220245E-1,8.301799E-3,1.611759E-2,-3.484117E-2,6.119266E-2,-1.1061288E-1,5.7387346E-1,2.7766332E-2,1.3365066E-1,-2.4384158E-2,3.5345995E-1,6.6833355E-2,2.6510365E0,-3.1367127E-2,3.6735255E-2,-5.596397E-3,6.651976E-1,1.6756058E-1,3.4751E-1,-4.0615782E-2,5.6479987E-2,3.2919082E-3,-4.0823884E-2,-2.757344E-1,-5.0522606E-3,-5.462771E-1,1.9325346E-2,-8.439079E-2,3.9217556E-1,-7.546611E-3,-5.280413E-2,-1.364065E-1,2.3808621E-1,2.0990795E-2,6.605743E-3,-2.1920683E-2],"categories":[1,2,3,4,5,7,8,9,11,12,13,15,17,18,20,23,24,25,26,27,28,0,1,2,4,1,3,8,9,11,12,15,16,17,18,19,20,21,22,23,24,25,26,27,28,29,0,3,4,6,7,10,11,12,13,14,15,16,18,20,21,22,27,28,29,2,3,6,9,10,11,14,22,23,24,25,26,27,29,17,0,1,2,3,4,5,6,7,8,9,10,11,12,13,14,15,16,17,18,19,20,21,22,23,24,25,26,27,28,0,1,2,3,4,5,6,7,8,9,10,11,12,13,14,15,16,17,18,19,20,21,23,24,25,26,27,28,29,0,3,4,5,6,9,10,11,0,1,2,4,6,7,9,10,11,2,4,5,7,11,13,15,0,1,2,3,4,5,6,7,8,9,10,11,12,14,15,16,17,18,19,20,21,22,23,24,25,26,27,28,29,30,2,5,0,1,2,3,4,5,7,8,9,11,12,13,15,16,17,18,19,20,21,22,23,24,25,26,27,28,29,8,9,17,19,23,24,26,30,0,1,2,3,5,6,7,8,9,10,11,1,2,3,4,5,6,7,8,9,10,11,12,13,14,17,18,19,20,21,22,23,24,25,26,27,28,29,30,2,2,3,9,10,14,22,23,25,26,29,4,8,15,18,20,27,0,1,2,3,5,6,7,9,10,11,12,13,14,16,17,18,19,20,21,22,23,24,25,26,27,28,29,0,1,2,3,4,5,6,7,8,9,10,11,12,13,15,16,17,18,19,20,21,22,23,24,25,26,27,28,29,30,0,1,2,3,4,6,7,8,9,10,11,12,14,15,16,17,18,19,20,21,22,23,24,25,26,27,28,29,30,2,3,5,10,11,0,2,4,5,6,7,10,13,14,15,16,18,20,21,22,25,30,1,3,8,11,15,17,18,19,21,22,25,26,27,1,3,11,18,19,20,21,23,24,25,26,0,1,2,3,4,5,6,7,10,11,0,3,6,0,1,3,4,0,6,14,21,4,7,10,11,14,16,18,29,0,1,2,3,4,5,6,7,8,9,10,11,12,13,14,15,17,18,19,20,21,22,23,24,25,26,27,28,29,0,3,4,5,6,0,1,2,3,4,5,6,7,8,9,10,11,12,13,14,15,16,17,19,20,21,22,23,24,25,26,27,28,29,0,2,3,6,7,9,10,11,12,14,15,16,18,19,21,22,23,24,26,28,29,0,1,2,3,5,6,7,8,10,11,12,13,14,15,16,17,18,19,21,22,23,24,25,26,27,28,29,0,1,2,4,0,1,2,4,5,6,7,10,3,6,10,14,22,24,5,0,1,3,4,0,1,3,4,0,1,3,5,7,11,12,14,19,22,24,25,30,0,1,2,3,4,5,7,8,9,10,11,12,13,14,15,17,18,19,20,23,24,25,26,28,29,30,0,1,2,5,6,7,10,12,13,15,16,17,18,19,20,21,22,23,24,27,28],"categories_nodes":[0,1,3,4,5,6,7,8,9,10,12,15,17,18,19,20,23,24,25,26,27,28,30,31,32,33,34,35,36,38,39,40,41,42,44,45,46,47,48,49,50,51,52,53,54,55,56],"categories_segments":[0,21,25,46,65,79,80,109,138,146,155,162,192,194,195,221,229,240,268,269,279,285,312,342,371,376,393,406,417,427,430,434,438,446,475,480,509,530,557,561,569,575,576,580,584,597,623],"categories_sizes":[21,4,21,19,14,1,29,29,8,9,7,30,2,1,26,8,11,28,1,10,6,27,30,29,5,17,13,11,10,3,4,4,8,29,5,29,21,27,4,8,6,1,4,4,13,26,21],"default_left":[1,1,0,1,1,1,1,1,1,1,1,0,1,0,0,1,0,1,1,1,1,0,0,1,1,1,1,1,1,0,1,1,1,1,1,1,1,0,1,1,1,1,1,0,1,1,1,1,1,1,1,1,1,1,1,1,1,0,0,0,0,0,0,0,0,0,0,0,0,0,0,0,0,0,0,0,0,0,0,0,0,0,0,0,0,0,0,0,0,0,0,0,0,0,0,0,0,0,0,0,0,0,0,0,0,0,0,0,0,0,0],"id":10,"left_children":[1,3,5,7,9,11,13,15,17,19,21,23,25,27,-1,29,31,33,35,37,39,41,43,45,47,49,51,53,55,-1,57,59,61,63,65,67,69,71,73,75,77,79,81,83,85,87,89,91,93,95,97,99,101,103,105,107,109,-1,-1,-1,-1,-1,-1,-1,-1,-1,-1,-1,-1,-1,-1,-1,-1,-1,-1,-1,-1,-1,-1,-1,-1,-1,-1,-1,-1,-1,-1,-1,-1,-1,-1,-1,-1,-1,-1,-1,-1,-1,-1,-1,-1,-1,-1,-1,-1,-1,-1,-1,-1,-1,-1],"loss_changes":[2.3139667E2,4.1003784E2,2.5903326E2,7.725958E2,3.3332327E2,6.195791E2,8.0527167E2,7.7242017E2,2.4598431E2,2.4209502E2,2.7934863E2,6.0715137E2,2.5057794E2,4.7623935E2,0E0,3.4084893E3,4.8193542E2,2.8782474E2,3.795809E2,5.9678815E2,2.0626787E2,2.8327032E2,2.4102536E2,4.646709E2,6.5475446E2,4.3512936E2,1.3471695E2,7.402392E2,4.4087314E2,0E0,2.1187671E2,4.581836E2,3.798391E2,5.951306E1,7.3191864E1,2.976589E2,3.8912518E2,5.5914246E2,4.1547208E2,3.3718268E2,1.1790636E2,3.856689E2,1.2079736E3,2.33866E2,1.482574E2,1.3039836E3,2.617205E2,2.7031006E1,4.744E1,8.582956E1,2.68353E2,3.5474612E2,1.6829797E2,8.668432E2,2.7553003E2,6.910576E2,2.0948395E2,0E0,0E0,0E0,0E0,0E0,0E0,0E0,0E0,0E0,0E0,0E0,0E0,0E0,0E0,0E0,0E0,0E0,0E0,0E0,0E0,0E0,0E0,0E0,0E0,0E0,0E0,0E0,0E0,0E0,0E0,0E0,0E0,0E0,0E0,0E0,0E0,0E0,0E0,0E0,0E0,0E0,0E0,0E0,0E0,0E0,0E0,0E0,0E0,0E0,0E0,0E0,0E0,0E0,0E0],"parents":[2147483647,0,0,1,1,2,2,3,3,4,4,5,5,6,6,7,7,8,8,9,9,10,10,11,11,12,12,13,13,15,15,16,16,17,17,18,18,19,19,20,20,21,21,22,22,23,23,24,24,25,25,26,26,27,27,28,28,30,30,31,31,32,32,33,33,34,34,35,35,36,36,37,37,38,38,39,39,40,40,41,41,42,42,43,43,44,44,45,45,46,46,47,47,48,48,49,49,50,50,51,51,52,52,53,53,54,54,55,55,56,56],"right_children":[2,4,6,8,10,12,14,16,18,20,22,24,26,28,-1,30,32,34,36,38,40,42,44,46,48,50,52,54,56,-1,58,60,62,64,66,68,70,72,74,76,78,80,82,84,86,88,90,92,94,96,98,100,102,104,106,108,110,-1,-1,-1,-1,-1,-1,-1,-1,-1,-1,-1,-1,-1,-1,-1,-1,-1,-1,-1,-1,-1,-1,-1,-1,-1,-1,-1,-1,-1,-1,-1,-1,-1,-1,-1,-1,-1,-1,-1,-1,-1,-1,-1,-1,-1,-1,-1,-1,-1,-1,-1,-1,-1,-1],"split_conditions":[NaN,NaN,1.6E0,NaN,NaN,NaN,NaN,NaN,NaN,NaN,NaN,1.525E0,NaN,2.392E0,-4.6077573E-1,NaN,1.91E-1,NaN,NaN,NaN,NaN,1.218E0,2E1,NaN,NaN,NaN,NaN,NaN,NaN,2.476538E0,NaN,NaN,NaN,NaN,NaN,NaN,NaN,9.5E0,NaN,NaN,NaN,NaN,NaN,2.45E-1,NaN,NaN,NaN,NaN,NaN,NaN,NaN,NaN,NaN,NaN,NaN,NaN,NaN,3.649838E-1,-5.468779E-2,2.0450945E0,1.039298E-1,1.227393E-1,1.5112029E-3,1.5615092E-1,6.097449E-2,2.0884635E-2,-2.0607096E-1,6.34278E-3,-7.8869715E-2,2.0769815E-1,1.833894E-2,9.165777E-2,4.427757E-1,6.093435E-2,-3.608636E-2,1.4220245E-1,8.301799E-3,1.611759E-2,-3.484117E-2,6.119266E-2,-1.1061288E-1,5.7387346E-1,2.7766332E-2,1.3365066E-1,-2.4384158E-2,3.5345995E-1,6.6833355E-2,2.6510365E0,-3.1367127E-2,3.6735255E-2,-5.596397E-3,6.651976E-1,1.6756058E-1,3.4751E-1,-4.0615782E-2,5.6479987E-2,3.2919082E-3,-4.0823884E-2,-2.757344E-1,-5.0522606E-3,-5.462771E-1,1.9325346E-2,-8.439079E-2,3.9217556E-1,-7.546611E-3,-5.280413E-2,-1.364065E-1,2.3808621E-1,2.0990795E-2,6.605743E-3,-2.1920683E-2],"split_indices":[0,1,2,5,5,5,0,0,0,4,4,2,0,2,0,5,2,4,3,0,5,2,2,4,5,1,5,0,0,0,5,5,4,5,5,5,4,2,6,1,0,5,0,2,6,0,0,0,1,4,5,0,1,1,5,5,5,0,0,0,0,0,0,0,0,0,0,0,0,0,0,0,0,0,0,0,0,0,0,0,0,0,0,0,0,0,0,0,0,0,0,0,0,0,0,0,0,0,0,0,0,0,0,0,0,0,0,0,0,0,0],"split_type":[1,1,0,1,1,1,1,1,1,1,1,0,1,0,0,1,0,1,1,1,1,0,0,1,1,1,1,1,1,0,1,1,1,1,1,1,1,0,1,1,1,1,1,0,1,1,1,1,1,1,1,1,1,1,1,1,1,0,0,0,0,0,0,0,0,0,0,0,0,0,0,0,0,0,0,0,0,0,0,0,0,0,0,0,0,0,0,0,0,0,0,0,0,0,0,0,0,0,0,0,0,0,0,0,0,0,0,0,0,0,0],"sum_hessian":[4.07018E5,1.73229E5,2.33789E5,3.4691E4,1.38538E5,8.7777E4,1.46012E5,1.0943E4,2.3748E4,5.2631E4,8.5907E4,5.7071E4,3.0706E4,1.45651E5,3.61E2,4.97E2,1.0446E4,3.205E3,2.0543E4,2.3531E4,2.91E4,1.9685E4,6.6222E4,5.6502E4,5.69E2,1.2944E4,1.7762E4,2.2961E4,1.2269E5,6.5E1,4.32E2,4.3E1,1.0403E4,2.671E3,5.34E2,1.5169E4,5.374E3,7.585E3,1.5946E4,1.0743E4,1.8357E4,4.893E3,1.4792E4,6.5E4,1.222E3,7.8E1,5.6424E4,2.91E2,2.78E2,1.1088E4,1.856E3,6.144E3,1.1618E4,8.766E3,1.4195E4,1.7231E4,1.05459E5,2.22E2,2.1E2,2.1E1,2.2E1,6.892E3,3.511E3,1.784E3,8.87E2,2.11E2,3.23E2,8.836E3,6.333E3,1.282E3,4.092E3,7.153E3,4.32E2,7.491E3,8.455E3,2.104E3,8.639E3,6.139E3,1.2218E4,1.963E3,2.93E3,3.73E2,1.4419E4,8.53E2,6.4147E4,1.92E2,1.03E3,2.2E1,5.6E1,3.5578E4,2.0846E4,2.8E2,1.1E1,3.1E1,2.47E2,4.864E3,6.224E3,1.15E3,7.06E2,6.034E3,1.1E2,1.639E3,9.979E3,5.18E2,8.248E3,7.073E3,7.122E3,1.439E3,1.5792E4,3.4369E4,7.109E4],"tree_param":{"num_deleted":"0","num_feature":"7","num_nodes":"111","size_leaf_vector":"1"}},{"base_weights":[5.4818403E-5,5.1799394E-2,-1.0437464E-2,9.147996E-2,-1.6691515E-2,6.438961E-3,-3.7784193E-2,2.62738E-1,4.5383587E-2,6.978361E-2,-1.10715695E-1,6.701253E-2,-1.8354531E-2,2.9347692E-2,-7.422943E-2,3.8954386E-1,7.107555E-2,-8.106862E-2,6.2310506E-2,-1.608589E-1,1.2345921E-1,-4.5238726E-2,-2.736469E-1,1.3696933E-1,-2.1205626E-2,-4.0448073E-2,7.179053E-2,1.8164827E-1,-5.3443693E-2,-1.8478217E-2,-1.5723568E-1,5.4950386E-1,2.2932792E-1,2.716447E-1,-1.0831423E-1,4.7976095E-3,-3.7828857E-1,1.9130087E-1,2.901765E-2,6.2315546E-2,-2.8179544E-1,8.110281E-1,7.789833E-2,7.5734746E-1,-5.9182324E-2,-8.8685594E-2,-3.9948896E-1,3.2444897E-1,5.7250228E-2,4.80027E-1,-4.180075E-2,8.688874E-2,-6.464264E-2,6.580374E-1,3.689302E-3,1.7464994E-1,2.2887871E0,1.2456565E-2,-1.6452302E-1,4.03617E-2,-8.998128E-2,-1.3776498E-2,-1.967105E-1,-1.6808066E-1,1.8261066E-1,1.2899388E-1,-4.441311E-2,1.0227152E-1,-1.1267324E-1,9.9700786E-2,-6.2922135E-2,1.3329828E-1,-8.599859E-3,-2.9200971E-2,-2.0838773E-1,5.143859E-1,4.650532E-2,4.646535E-2,-4.835893E-3,3.323095E-1,-1.3007206E-2,1.4061625E-1,-1.0613638E-1,8.006645E-1,-1.0872713E-1,1.4613587E-1,1.2200265E-2,1.0959262E0,8.96914E-2,-2.7861979E-2,5.9936024E-2,-1.28695145E-2,-1.6550043E-1,-1.14955E-2,-1.403203E-1,2.061328E-1,4.166092E-2,4.843108E-2,-2.2160701E-2,6.571914E-1,8.031874E-2,-2.7094886E-3,-1.222183E-1,1.1500154E-1,-4.801835E-2,-5.9434697E-3,-5.2973893E-2,6.2882113E-1,3.9777763E-2,1.0243111E-1,-1.545355E-2,8.159467E-2,-3.5937518E-2,5.130471E-2,-2.616823E-2,1.397229E-2,-8.298701E-2,2.6986998E-2,-1.9191304E-2,-1.3140575E-2,-9.492129E-2,1.17613204E-1,-3.6136135E-2,-5.6042485E-2,-2.5834057E-1],"categories":[0,1,2,4,5,6,1,5,7,8,14,15,17,18,21,23,24,25,28,3,4,9,11,13,15,16,18,20,21,22,23,26,27,1,2,3,4,6,7,9,11,12,13,15,16,17,18,19,20,21,23,24,25,26,27,28,29,0,1,2,7,8,10,12,15,21,22,23,27,28,0,1,2,3,4,7,8,9,11,12,13,15,16,18,20,23,24,25,26,27,29,1,2,4,0,1,5,7,8,9,10,12,14,15,16,17,18,21,23,24,25,28,29,5,7,8,14,2,4,0,1,2,3,5,6,7,9,10,11,12,13,14,15,17,18,19,20,21,22,23,24,25,26,28,1,4,5,6,7,13,14,16,19,27,29,1,2,3,4,6,7,8,9,10,11,12,13,15,16,17,18,19,20,21,22,23,24,25,26,27,28,29,0,2,4,4,6,9,26,30,5,9,14,16,19,26,29,0,1,2,3,4,5,6,7,8,9,10,11,12,13,14,15,17,18,19,20,21,22,23,24,25,26,27,28,29,0,2,8,10,22,0,2,3,4,5,6,9,10,0,1,2,4,5,6,7,8,9,10,11,0,1,3,4,0,2,3,4,0,2,3,6,10,11,1,4,6,7,11,0,2,3,4,7,8,9,1,5,6,9,10,0,1,2,6,8,10,11,0,2,3,4,5,7,8,9,10,0,3,0,1,2,3,4,5,6,7,8,9,10,11,12,13,14,15,16,17,18,19,20,22,23,24,25,26,27,28,29,0,1,2,3,4,5,7,8,9,12,13,14,15,16,17,18,19,21,22,23,24,25,26,27,28,29,0,1,2,3,4,5,6,8,9,10,11,12,13,14,15,16,17,18,19,20,21,22,24,25,26,27,28,29,30,0,1,2,4,0,1,2,3,0,1,2,3,4,5,6,7,8,9,10,11,12,13,15,16,17,18,19,20,21,22,23,24,25,26,27,28,29,30,0,2,3,4,5,6,7,8,9,10,11,12,13,14,15,16,17,18,19,20,21,22,23,24,25,26,27,28,29,30,0,2,3,6,8,9,11,0,1,2,3,4,5,6,7,8,9,11,12,13,15,16,17,18,19,20,21,22,23,24,25,26,27,28,29,1,3,4,6,7,8,9,11,13,14,15,16,17,18,19,20,21,22,23,24,26,27,0,1,2,3,4,5,6,7,8,9,10,11,12,13,14,15,16,17,18,19,20,22,23,24,25,26,27,28,29,10,0,1,3,4,5,6,7,8,9,10,11,12,13,14,15,16,17,18,19,21,22,23,24,25,26,28,29,2,16,20,0,1,2,3,4,5,6,7,8,9,10,11,12,13,14,15,16,17,18,19,21,22,23,24,25,26,27,28,1,3,4,5,6,7,8,10,12,13,14,15,17,18,19,20,21,22,23,24,25,26,27,28,0,1,2,3,5,6,7,8,10,12,14,17,18,19,22,23,24,25,26,28,29,30,0,1,2,5,6,7,8,9,10,12,13,14,16,17,18,19,20,21,23,24,25,26,28,29,30,0,2,10,14,18,21,4,16,20,21,22,2,3,4,9,11,13,15,18,20,27],"categories_nodes":[0,1,2,3,4,5,6,7,10,11,13,14,15,16,17,19,20,22,23,24,25,26,28,29,30,32,33,34,35,36,37,38,39,40,41,42,43,45,46,47,48,49,50,51,52,53,54,55,57,58,59,60,61],"categories_segments":[0,6,19,33,57,70,91,94,113,117,119,144,155,182,185,190,197,226,231,239,250,254,258,264,269,276,281,282,288,297,299,328,354,383,387,391,421,451,452,458,486,508,537,538,565,568,596,620,642,667,673,678,679],"categories_sizes":[6,13,14,24,13,21,3,19,4,2,25,11,27,3,5,7,29,5,8,11,4,4,6,5,7,5,1,6,9,2,29,26,29,4,4,30,30,1,6,28,22,29,1,27,3,28,24,22,25,6,5,1,9],"default_left":[1,1,1,1,1,1,1,1,0,0,1,1,